tree
version=v3
num_class=1
num_tree_per_iteration=1
label_index=0
max_feature_idx=15
objective=regression
feature_names=Column_0 Column_1 Column_2 Column_3 Column_4 Column_5 Column_6 Column_7 Column_8 Column_9 Column_10 Column_11 Column_12 Column_13 Column_14 Column_15
feature_infos=[1:49] [0:74] [1:49] [0:69] [0:8] [0:8] [0:9] [0:229] [0:205] [0:234] [0:8] [0:8] [0:10] [0:222] [0:247] [0:283]
tree_sizes=2885 2875 2892 2892 2908 2894 2888 2885 2875 2894 2897 2875 2866 2882 2895 2886 2886 2901 2879 2856 2869 2889 2882 2856 2881 2842 2872 2882 2866 2854 2877 2856 2861 2867 2866 2871 2835 2866 2871 2883 2864 2828 2770

Tree=0
num_leaves=31
num_cat=0
split_feature=2 0 1 0 2 1 0 2 12 2 2 12 12 0 0 0 4 2 0 4 15 3 2 0 15 7 4 6 7 9
split_gain=272.859 285.074 94.298 81.1136 56.1095 55.704 45.7704 44.407 31.5143 29.3254 25.8274 25.7591 23.9084 22.2038 20.1673 19.1785 19.1155 18.781 17.6934 16.5978 16.2038 15.9851 15.1371 15.0463 14.6271 13.9588 13.7898 12.6972 12.2779 12.1501
threshold=32.500000000000007 34.500000000000007 6.5000000000000009 37.500000000000007 24.500000000000004 9.5000000000000018 24.500000000000004 41.500000000000007 1.0000000180025095e-35 24.500000000000004 39.500000000000007 1.0000000180025095e-35 2.5000000000000004 21.500000000000004 23.500000000000004 43.500000000000007 1.0000000180025095e-35 28.500000000000004 19.500000000000004 1.0000000180025095e-35 8.5000000000000018 8.5000000000000018 22.500000000000004 25.500000000000004 2.5000000000000004 46.500000000000007 1.0000000180025095e-35 1.5000000000000002 4.5000000000000009 2.5000000000000004
decision_type=2 2 2 2 2 2 2 2 2 2 2 2 2 2 2 2 2 2 2 2 2 2 2 2 2 2 2 2 2 2
left_child=1 2 4 7 12 20 9 8 -2 24 -5 -8 14 -10 -1 17 -6 27 28 -13 -3 26 -21 -18 -4 -11 -15 -7 -14 -24
right_child=3 5 6 10 16 15 11 -9 13 25 -12 19 18 21 -16 -17 23 -19 -20 22 -22 -23 29 -25 -26 -27 -28 -29 -30 -31
leaf_value=-0.086993657198077584 -0.067542944448960349 -0.055920082937073345 -0.056644485052124452 -0.066622409477120587 -0.12785225927803534 -0.077911607768754609 -0.035106730863002221 -0.12509664591378972 -0.12059852255189984 -0.10080121755925446 -0.095968932131163198 -0.10131160716376747 -0.12276597551979203 -0.12172739611112698 -0.070718800773190565 -0.017142378634830757 -0.10833315263728564 -0.06815257190065567 -0.088633629145367862 -0.058320353545517359 -0.078539880022924113 -0.11121641973265578 -0.1123560513007329 -0.089662759531188116 -0.080719568965071126 -0.035558667714253797 -0.089418049490172236 -0.033521966591298781 -0.098319437570709226 -0.072127771511755367
leaf_weight=3181 217 708 292 574 337 70 246 1524 856 924 628 150 309 152 1001 351 1281 249 1385 1052 573 935 81 651 1859 34 1009 811 613 1027
leaf_count=3181 217 708 292 574 337 70 246 1524 856 924 628 150 309 152 1001 351 1281 249 1385 1052 573 935 81 651 1859 34 1009 811 613 1027
internal_value=-0.0865685 -0.0802002 -0.0858364 -0.105133 -0.0923396 -0.0507682 -0.0757827 -0.11107 -0.104324 -0.0839328 -0.0819549 -0.0658694 -0.0876065 -0.107027 -0.0830981 -0.0375605 -0.105875 -0.0439028 -0.095779 -0.0691454 -0.0660381 -0.101485 -0.0669116 -0.102042 -0.0774514 -0.0984857 -0.093648 -0.037049 -0.106512 -0.0750686
internal_weight=0 17185 14423 5895 8758 2762 5665 4693 3169 3109 1202 2556 6489 2952 4182 1481 2269 1130 2307 2310 1281 2096 2160 1932 2151 958 1161 881 922 1108
internal_count=23080 17185 14423 5895 8758 2762 5665 4693 3169 3109 1202 2556 6489 2952 4182 1481 2269 1130 2307 2310 1281 2096 2160 1932 2151 958 1161 881 922 1108
shrinkage=1


Tree=1
num_leaves=31
num_cat=0
split_feature=2 0 1 0 2 1 2 0 0 9 2 3 7 12 12 0 7 3 2 4 11 2 11 4 8 2 12 15 2 10
split_gain=221.016 230.91 76.3814 68.2634 45.4487 45.1203 41.2753 37.074 28.5234 25.7931 24.0046 21.2971 21.0564 20.8649 20.0292 19.6801 16.9366 18.886 16.423 15.4836 14.5864 14.064 14.0587 14.0312 14.1765 13.7572 13.6987 13.5122 15.1702 12.891
threshold=32.500000000000007 34.500000000000007 6.5000000000000009 40.500000000000007 24.500000000000004 9.5000000000000018 41.500000000000007 24.500000000000004 21.500000000000004 4.5000000000000009 18.500000000000004 5.5000000000000009 1.5000000000000002 1.0000000180025095e-35 1.0000000180025095e-35 26.500000000000004 3.5000000000000004 8.5000000000000018 25.500000000000004 1.0000000180025095e-35 1.5000000000000002 47.500000000000007 1.5000000000000002 1.0000000180025095e-35 3.5000000000000004 39.500000000000007 1.5000000000000002 8.5000000000000018 10.500000000000002 1.0000000180025095e-35
decision_type=2 2 2 2 2 2 2 2 2 2 2 2 2 2 2 2 2 2 2 2 2 2 2 2 2 2 2 2 2 2
left_child=1 2 4 6 12 26 8 10 -2 -10 -4 -12 -1 -9 -11 -14 -16 -18 -7 -6 -17 29 -15 -24 -25 -5 -3 -22 -29 -8
right_child=3 5 7 25 19 18 21 13 9 14 11 -13 15 22 16 20 17 -19 -20 -21 27 -23 23 24 -26 -27 -28 28 -30 -31
leaf_value=-0.020887944483196322 -0.029761824351070183 0.041764439149843575 0.014364830495765635 0.026462243054594315 -0.037155426698197956 0.052532132152274071 0.0045457131522042412 0.046315548773400668 -0.030864554433614619 0.028177042469123888 0.0056364016223712813 -0.014916396005303449 -0.0018106188528970294 0.041518185694986678 -0.02558315846301782 0.05844615776749218 0.0079613092780849073 -0.014200960440673139 0.030944964873594813 -0.01392623104972622 0.019806231951988336 -0.05290513792053702 -0.01786883889525025 -0.010007650749332409 0.018259590636698807 -0.0013423300579766544 0.013885215153900263 0.047604346534480223 -0.01429897788912058 -0.031866155750766012
leaf_weight=489 896 211 1086 350 337 903 105 246 447 173 1068 955 5038 193 403 68 810 732 578 1932 564 303 135 197 1785 362 1070 46 284 1314
leaf_count=489 896 211 1086 350 337 903 105 246 447 173 1068 955 5038 193 403 68 810 732 578 1932 564 303 135 197 1785 362 1070 46 284 1314
internal_value=0 0.0057314 0.000658803 -0.0167081 -0.005194 0.0322202 -0.0206965 0.00970714 -0.0144019 -0.00903637 0.00237206 -0.00406598 -0.000934221 0.0186292 -0.00442957 0.000692008 -0.0073298 -0.0025593 0.0441072 -0.0173763 0.0137983 -0.0333479 0.0156808 0.0133253 0.01545 0.0123256 0.0184773 0.0104022 -0.00567003 -0.0291718
internal_weight=0 17185 14423 5895 8758 2762 5183 5665 3461 2565 3109 2023 6489 2556 2118 6000 1945 1542 1481 2269 962 1722 2310 2117 1982 712 1281 894 330 1419
internal_count=23080 17185 14423 5895 8758 2762 5183 5665 3461 2565 3109 2023 6489 2556 2118 6000 1945 1542 1481 2269 962 1722 2310 2117 1982 712 1281 894 330 1419
shrinkage=0.1


Tree=2
num_leaves=31
num_cat=0
split_feature=2 0 12 2 0 0 12 1 2 6 2 0 4 0 6 2 2 11 13 11 5 6 3 1 7 7 12 2 13 5
split_gain=179.604 195.13 71.5797 59.4708 52.5025 41.2591 32.7739 32.6421 26.1106 25.2475 23.1186 21.2288 21.1039 17.3335 17.1155 16.3204 15.0433 14.2661 13.9547 13.9294 13.9277 20.4431 13.9161 13.1836 12.5259 12.3967 12.2828 13.3892 11.3566 11.1523
threshold=33.500000000000007 27.500000000000004 1.5000000000000002 24.500000000000004 37.500000000000007 41.500000000000007 1.0000000180025095e-35 14.500000000000002 45.500000000000007 1.5000000000000002 22.500000000000004 21.500000000000004 1.0000000180025095e-35 22.500000000000004 1.5000000000000002 19.500000000000004 39.500000000000007 2.5000000000000004 4.5000000000000009 1.5000000000000002 2.5000000000000004 1.0000000180025095e-35 4.5000000000000009 2.5000000000000004 1.5000000000000002 1.5000000000000002 2.5000000000000004 18.500000000000004 7.5000000000000009 1.5000000000000002
decision_type=2 2 2 2 2 2 2 2 2 2 2 2 2 2 2 2 2 2 2 2 2 2 2 2 2 2 2 2 2 2
left_child=1 3 20 6 8 7 -1 10 11 -8 25 -2 18 22 -5 -9 -6 -13 -11 -16 21 -3 23 -14 -12 -4 27 -24 -19 -21
right_child=4 2 5 14 16 -7 9 15 -10 12 24 17 13 -15 19 -17 -18 28 -20 29 -22 -23 26 -25 -26 -27 -28 -29 -30 -31
leaf_value=0.030247517737738417 -0.030529508455590351 -0.050423798710107805 -0.0091149126291275029 -0.031837671704294787 0.016091082975927973 0.037348411454995338 -0.017840010876773945 0.041732314694932243 -0.040582013860295058 0.0056519224828119434 -0.028100869059562685 -0.00088872429130716169 -0.0024417098811162371 0.012479322724932925 0.023345361851357126 0.016285873202267973 -0.0071946412324905397 -0.0063308587522546119 -0.028386402409523726 -0.038320329396621042 0.047820585310357072 0.031949794409000906 0.013855965504619761 0.013530526231489252 -0.00044438135819578427 0.017777930946090103 -0.013884967731104959 -0.0045626290496362928 -0.022848839821039829 -0.011162484270593187
leaf_weight=381 986 32 200 479 497 629 705 359 598 181 184 683 896 1635 111 846 628 605 360 161 803 515 539 1221 1489 1199 864 1474 1334 2486
leaf_count=381 986 32 200 479 497 629 705 359 598 181 184 683 896 1635 111 846 628 605 360 161 803 515 539 1221 1489 1199 864 1474 1334 2486
internal_value=0 0.00483456 0.0190462 -0.00290127 -0.0160962 0.0134351 0.00160297 0.00991823 -0.0212286 0.00021712 0.00444678 -0.018021 0.00199261 0.00354248 -0.0143894 0.023867 0.00309247 -0.0133171 -0.0169983 -0.011359 0.0394374 0.0271309 0.000616628 0.00677043 -0.0034861 0.0139334 -0.00391156 0.000369126 -0.017695 -0.0128143
internal_weight=0 17749 6256 11493 5331 4906 8256 4277 4206 7875 3072 3608 7170 6629 3237 1205 1125 2622 541 2758 1350 547 4994 2117 1673 1399 2877 2013 1939 2647
internal_count=23080 17749 6256 11493 5331 4906 8256 4277 4206 7875 3072 3608 7170 6629 3237 1205 1125 2622 541 2758 1350 547 4994 2117 1673 1399 2877 2013 1939 2647
shrinkage=0.1


Tree=3
num_leaves=31
num_cat=0
split_feature=2 0 0 2 4 12 0 0 4 2 0 1 6 3 12 3 11 1 12 11 3 11 4 9 5 8 2 5 2 2
split_gain=147.63 121.311 89.622 48.9934 46.0454 45.6173 38.8081 33.462 28.2454 27.5511 20.2054 19.1882 18.8243 17.1809 16.4542 16.368 16.2374 16.1752 15.0453 14.0742 15.1648 13.5178 12.9137 12.5957 14.6694 12.5391 12.4972 12.028 11.4178 11.2429
threshold=24.500000000000004 34.500000000000007 37.500000000000007 41.500000000000007 1.0000000180025095e-35 1.0000000180025095e-35 25.500000000000004 21.500000000000004 2.5000000000000004 39.500000000000007 46.500000000000007 8.5000000000000018 1.5000000000000002 8.5000000000000018 1.0000000180025095e-35 15.500000000000002 1.5000000000000002 19.500000000000004 1.5000000000000002 1.5000000000000002 9.5000000000000018 1.5000000000000002 1.5000000000000002 4.5000000000000009 1.5000000000000002 5.5000000000000009 19.500000000000004 1.5000000000000002 8.5000000000000018 35.500000000000007
decision_type=2 2 2 2 2 2 2 2 2 2 2 2 2 2 2 2 2 2 2 2 2 2 2 2 2 2 2 2 2 2
left_child=1 5 3 4 -2 -1 15 12 21 10 17 -3 -7 22 -8 16 -6 18 -4 -16 25 -9 -14 -18 -25 -21 -24 -23 -29 -27
right_child=2 11 9 -5 6 7 14 8 -10 -11 -12 -13 13 -15 19 -17 23 -19 -20 20 -22 27 26 24 -26 29 -28 28 -30 -31
leaf_value=0.032776430542705674 -0.030512521592542766 0.021224095424309187 0.032921271025138428 -0.028639040496249213 0.027495611951036277 -0.022215884799758594 0.024937555138915227 0.027353269945491445 0.022425860097526989 -0.0064751774072647102 0.05137246389075846 0.04409369834824417 -0.0092036199175742437 -0.012572406358241098 0.038917856450438847 -0.030839916634410311 -0.024778558167871265 0.033795805002506882 0.001143590411956525 -0.011442704972583578 -0.011069645836817479 -0.028258473594342512 0.012192339630573324 -0.040044424808780912 -0.0068677896127936041 0.012968933624970549 -0.00055859498014407499 0.032985598653081864 0.0021615102735159488 -0.0068823268443035587
leaf_weight=522 886 636 187 1524 106 456 271 231 1155 628 167 867 817 1018 87 479 638 317 733 434 1130 124 1346 142 2169 1110 1792 126 2598 384
leaf_count=522 886 636 187 1524 106 456 271 231 1155 628 167 867 817 1018 87 479 638 317 733 434 1130 124 1346 142 2169 1110 1792 126 2598 384
internal_value=0 0.00789585 -0.00810101 -0.0122337 -0.00904305 0.00398222 -0.00630608 0.00242674 0.00909027 0.0109353 0.0187229 0.0344163 -0.00277005 -0.000986966 0.00129444 -0.0136528 -0.010958 0.0143151 0.00760275 -0.000742855 -0.0018712 0.0040878 0.00199508 -0.0123402 -0.00890634 0.00352 0.00491074 0.00220075 0.00358729 0.0078666
internal_weight=0 11688 11392 9360 7836 10185 6950 9663 4234 2032 1404 1503 5429 4973 3416 3534 3055 1237 920 3145 3058 3079 3955 2949 2311 1928 3138 2848 2724 1494
internal_count=23080 11688 11392 9360 7836 10185 6950 9663 4234 2032 1404 1503 5429 4973 3416 3534 3055 1237 920 3145 3058 3079 3955 2949 2311 1928 3138 2848 2724 1494
shrinkage=0.1


Tree=4
num_leaves=31
num_cat=0
split_feature=2 0 1 0 4 2 3 0 0 9 9 1 2 12 12 13 2 0 0 2 10 14 15 12 15 0 13 6 5 11
split_gain=122.307 123.481 54.9459 46.9589 35.5936 27.6488 25.0935 25.0753 24.5451 18.7678 18.4185 17.3778 16.1865 18.399 15.9547 15.5156 14.9409 14.5207 14.3238 13.9094 13.7912 13.7758 13.6929 12.7762 10.6442 11.8004 10.4658 10.4017 10.3772 14.1174
threshold=31.500000000000004 34.500000000000007 12.500000000000002 37.500000000000007 1.0000000180025095e-35 16.500000000000004 9.5000000000000018 43.500000000000007 21.500000000000004 7.5000000000000009 4.5000000000000009 8.5000000000000018 41.500000000000007 1.0000000180025095e-35 1.0000000180025095e-35 4.5000000000000009 39.500000000000007 9.5000000000000018 18.500000000000004 28.500000000000004 1.0000000180025095e-35 7.5000000000000009 8.5000000000000018 2.5000000000000004 6.5000000000000009 23.500000000000004 9.5000000000000018 1.0000000180025095e-35 1.5000000000000002 2.5000000000000004
decision_type=2 2 2 2 2 2 2 2 2 2 2 2 2 2 2 2 2 2 2 2 2 2 2 2 2 2 2 2 2 2
left_child=1 2 4 8 14 17 9 11 -2 21 -10 22 13 -12 -1 -16 -5 -6 -4 -13 -14 -7 -3 -8 25 -11 -26 -19 -20 -30
right_child=3 7 18 16 5 6 23 -9 10 24 12 19 20 -15 15 -17 -18 27 28 -21 -22 -23 -24 -25 26 -27 -28 -29 29 -31
leaf_value=0.048310029681991135 -0.026994580067642521 0.020200279816906298 -0.00019128056759005983 0.015564641495070914 -0.022189555971911461 -0.00048061824082454524 -0.0066373475293106613 0.04393536564753972 -0.026982014968277315 0.0054107869245151787 0.027873176475714523 0.032800048479356435 0.027178050975004833 -0.0063255112421142737 -0.0038528802565165931 -0.029346066928616216 -0.0058276576885751864 -0.016402694731950759 -0.0019739967948607814 0.0039090410368240415 -0.022342422043067824 -0.013672319107693462 -0.0044670626909545817 -0.024586636762865419 0.0060055049496728023 0.024820716780335535 -0.011848352770440003 0.01400706272717555 0.029850856098103881 0.012624123258255422
leaf_weight=34 1442 508 639 680 132 2183 938 532 647 935 171 952 60 1966 350 751 628 120 262 202 897 1242 404 687 925 471 509 1795 768 1250
leaf_count=34 1442 508 639 680 132 2183 938 532 647 935 171 952 60 1966 350 751 628 120 262 202 897 1242 404 687 925 471 509 1795 768 1250
internal_value=0 0.00455359 0.000835789 -0.0116376 -0.00238192 -0.000465714 -0.00315249 0.024575 -0.0159104 -0.000280333 -0.0116379 0.0195897 -0.00842925 -0.00358898 -0.0191585 -0.021242 0.00529372 0.00989025 0.0130408 0.0277429 -0.0192377 -0.00526429 0.00927308 -0.0142258 0.00573025 0.011913 -0.000331743 0.0121015 0.0167493 0.0191802
internal_weight=0 16589 13991 6491 11072 9937 7890 2598 5183 6265 3741 2066 3094 2137 1135 1101 1308 2047 2919 1154 957 3425 912 1625 2840 1406 1434 1915 2280 2018
internal_count=23080 16589 13991 6491 11072 9937 7890 2598 5183 6265 3741 2066 3094 2137 1135 1101 1308 2047 2919 1154 957 3425 912 1625 2840 1406 1434 1915 2280 2018
shrinkage=0.1


Tree=5
num_leaves=31
num_cat=0
split_feature=2 0 0 2 12 0 1 4 0 1 7 15 12 6 5 11 2 11 12 13 5 9 3 9 2 1 4 13 5 9
split_gain=104.128 86.6329 63.5393 41.576 29.2399 27.9012 26.6598 20.4199 20.1053 19.6562 18.9867 17.0919 14.7803 14.4733 13.8307 14.3162 14.3566 12.7558 12.7403 12.3423 12.0128 11.9057 11.4552 11.335 11.3127 11.4557 10.1394 9.46798 9.46111 9.16446
threshold=24.500000000000004 26.500000000000004 25.500000000000004 38.500000000000007 1.5000000000000002 45.500000000000007 18.500000000000004 1.5000000000000002 41.500000000000007 5.5000000000000009 1.5000000000000002 3.5000000000000004 1.0000000180025095e-35 1.0000000180025095e-35 1.5000000000000002 1.5000000000000002 46.500000000000007 2.5000000000000004 3.5000000000000004 8.5000000000000018 1.5000000000000002 1.5000000000000002 9.5000000000000018 4.5000000000000009 10.500000000000002 17.500000000000004 2.5000000000000004 7.5000000000000009 1.5000000000000002 7.5000000000000009
decision_type=2 2 2 2 2 2 2 2 2 2 2 2 2 2 2 2 2 2 2 2 2 2 2 2 2 2 2 2 2 2
left_child=1 9 7 5 -3 6 12 27 10 18 -6 -11 -4 -12 -9 -16 21 -5 28 -19 -14 -17 -23 -8 -15 -26 -22 -2 -1 -30
right_child=2 4 3 17 8 -7 23 14 -10 11 13 -13 20 24 15 16 -18 19 -20 -21 26 22 -24 -25 25 -27 -28 -29 29 -31
leaf_value=-0.024559215234987664 -0.017053245203342379 0.035870272955782941 0.022442145436846962 0.0017646226204103895 -0.013265134442936291 0.038602856889205138 -0.0063571804997611184 -0.033483301148789141 0.038109178103889543 0.02348356773399813 -0.01890052246853588 0.0036140185719883986 -0.036560466956524623 0.036472448591713703 0.031230438039416358 -0.044278749427262773 -0.04826713478078648 -0.0040802982800147115 -0.015681041062222741 -0.022477945604548535 -0.0055252241676240661 -0.0037054812881330995 -0.018067151405281822 0.021377293543297461 0.0099398438286399816 0.028629499411993272 0.0078036186213395441 -0.033431748874212436 -0.0040874032887527785 0.0054138034169886919
leaf_weight=165 656 815 240 504 275 230 177 261 321 531 123 2344 105 248 84 94 98 544 692 1106 2256 1832 797 880 1578 414 764 764 2447 1735
leaf_count=165 656 815 240 504 275 230 177 261 321 531 123 2344 105 248 84 94 98 544 692 1106 2256 1832 797 880 1578 414 764 764 2447 1735
internal_value=0 0.00663125 -0.00680355 -0.000673103 0.0190984 0.00464527 0.00287904 -0.0159016 0.014479 0.000685943 0.0116036 0.00728384 -0.00147271 0.0144977 -0.0114328 -0.00945163 -0.010663 -0.0121592 -0.00307848 -0.0164123 -0.00330937 -0.00930965 -0.00805932 0.016733 0.0163316 0.0138241 -0.00215329 -0.0258653 -0.00107228 -0.000145607
internal_weight=0 11688 11392 6806 3774 4652 4422 4586 2959 7914 2638 2875 3365 2363 3166 2905 2821 2154 5039 1650 3125 2723 2629 1057 2240 1992 3020 1420 4347 4182
internal_count=23080 11688 11392 6806 3774 4652 4422 4586 2959 7914 2638 2875 3365 2363 3166 2905 2821 2154 5039 1650 3125 2723 2629 1057 2240 1992 3020 1420 4347 4182
shrinkage=0.1


Tree=6
num_leaves=31
num_cat=0
split_feature=2 0 0 1 2 4 0 9 1 10 5 0 7 2 2 6 13 11 3 15 11 9 8 6 5 15 2 3 12 9
split_gain=84.6336 88.579 45.5869 39.1944 26.0579 24.6741 19.3195 20.1385 18.6337 16.6672 16.47 18.0492 16.0285 17.1401 14.8781 14.5598 14.393 13.3493 12.783 12.5686 12.1551 11.6523 11.5934 10.1223 9.83928 9.51348 9.35959 9.3352 9.33075 9.17919
threshold=28.500000000000004 34.500000000000007 40.500000000000007 6.5000000000000009 45.500000000000007 1.0000000180025095e-35 21.500000000000004 4.5000000000000009 9.5000000000000018 1.0000000180025095e-35 2.5000000000000004 17.500000000000004 3.5000000000000004 11.500000000000002 18.500000000000004 1.0000000180025095e-35 2.5000000000000004 1.5000000000000002 9.5000000000000018 6.5000000000000009 3.5000000000000004 7.5000000000000009 1.5000000000000002 1.5000000000000002 1.5000000000000002 1.5000000000000002 19.500000000000004 11.500000000000002 1.5000000000000002 3.5000000000000004
decision_type=2 2 2 2 2 2 2 2 2 2 2 2 2 2 2 2 2 2 2 2 2 2 2 2 2 2 2 2 2 2
left_child=1 3 4 12 5 -2 23 17 -3 -9 15 -12 16 -14 -13 -5 -1 -8 22 21 -16 26 -17 -7 -4 -26 -15 -23 -20 -24
right_child=2 8 24 10 -6 6 7 9 -10 -11 11 14 13 19 20 18 -18 -19 28 -21 -22 27 29 -25 25 -27 -28 -29 -30 -31
leaf_value=0.0040926541046923904 -0.025376577957205632 0.013223095930406704 -0.041931455209851268 -0.031428150036211674 -0.029281841366179829 -0.035091867508987587 0.063125511109828947 0.028005780657262204 0.031935154499101989 -0.0016401323379950955 -0.0035001187245427717 0.031978589590595241 0.017893144884400379 0.0060273932788542746 0.019516814417200878 -0.061469385416611379 -0.017551879140147695 -0.019616417104143719 0.017840329030664955 -0.0077370225423452309 -0.0034249354210144807 0.012286976994625455 -0.0058628014267468062 -0.012735506996753682 0.047200147044143562 0.011305340351732057 -0.0084982960011821974 -0.0083418015875337728 -0.012647212741575837 0.013142142615469267
leaf_weight=415 793 984 32 116 686 240 20 201 1159 3356 422 619 459 687 764 23 1183 778 123 2391 331 1189 305 1297 81 835 1252 269 546 1524
leaf_count=415 793 984 32 116 686 240 20 201 1159 3356 422 619 459 687 764 23 1183 778 123 2391 331 1189 305 1297 81 835 1252 269 546 1524
internal_value=0 0.00454602 -0.00806633 0.00135358 -0.0107211 -0.00881643 -0.00658761 -0.00318581 0.0233432 3.51076e-05 0.00849882 0.0150257 -0.00299369 -0.000707547 0.0195869 0.00321198 -0.0119308 -0.0175427 0.00480589 -0.00218262 0.0125819 0.00172688 0.00908568 -0.0162264 0.0125753 0.0144794 -0.00335175 0.00848098 -0.00704188 0.00997292
internal_weight=0 14761 8319 12618 7371 6685 5892 4355 2143 3557 4773 2136 7845 6247 1714 2637 1598 798 2521 5788 1095 3397 1852 1537 948 916 1939 1458 669 1829
internal_count=23080 14761 8319 12618 7371 6685 5892 4355 2143 3557 4773 2136 7845 6247 1714 2637 1598 798 2521 5788 1095 3397 1852 1537 948 916 1939 1458 669 1829
shrinkage=0.1


Tree=7
num_leaves=31
num_cat=0
split_feature=2 0 0 7 3 12 12 11 12 6 9 0 7 9 11 8 2 2 0 6 13 5 2 14 13 3 5 3 1 4
split_gain=71.6995 60.8749 47.2581 23.8988 24.6081 21.9562 21.733 19.3394 17.7725 18.4899 15.3259 14.339 14.4741 13.497 12.7524 12.5164 12.0177 11.7378 11.1319 11.1219 10.2574 10.112 10.2486 10.2362 9.75905 9.62388 9.59334 11.3889 9.27849 9.14225
threshold=24.500000000000004 26.500000000000004 33.500000000000007 3.5000000000000004 9.5000000000000018 1.5000000000000002 1.5000000000000002 1.5000000000000002 2.5000000000000004 2.5000000000000004 6.5000000000000009 41.500000000000007 1.5000000000000002 1.5000000000000002 1.5000000000000002 30.500000000000004 46.500000000000007 35.500000000000007 42.500000000000007 1.0000000180025095e-35 1.5000000000000002 2.5000000000000004 17.500000000000004 5.5000000000000009 1.5000000000000002 7.5000000000000009 2.5000000000000004 28.500000000000004 24.500000000000004 1.5000000000000002
decision_type=2 2 2 2 2 2 2 2 2 2 2 2 2 2 2 2 2 2 2 2 2 2 2 2 2 2 2 2 2 2
left_child=1 8 3 -2 7 16 -3 -5 9 15 17 12 -8 -10 -7 21 -4 -9 20 -14 -16 22 -1 -24 -12 29 28 -28 -20 -15
right_child=2 6 5 4 -6 14 11 10 13 -11 24 -13 19 25 18 -17 -18 -19 26 -21 -22 -23 23 -25 -26 -27 27 -29 -30 -31
leaf_value=0.0084492044022756573 -0.020515753889709124 0.030412821193779905 0.022426631959655191 0.036866757002743805 -0.015714496406975038 0.036410478599693465 -0.012170760241421788 -0.0062809169162119094 -0.055498901230317581 0.01446799100751843 0.021382222136604453 0.031926677492084533 -0.017207823827014707 -0.011530190251090311 0.020765628997750325 -0.039354601773348728 -0.025275616164793048 -0.026324864995538023 -0.019067768366645567 0.013677016366881227 -0.0068286977058671042 0.0099076328202642953 0.0026388339967612761 -0.011486707005513011 -0.00093057229524127832 -0.013525232287982676 0.023920728414125004 -0.051816711539313914 0.048263925810654959 0.0039505882387659156
leaf_weight=733 1673 815 719 121 2155 92 275 1029 54 1266 214 321 123 550 145 77 57 408 139 2240 1898 1018 913 1171 2333 887 364 21 24 1245
leaf_count=733 1673 815 719 121 2155 92 275 1029 54 1266 214 321 123 550 145 77 57 408 139 2240 1898 1018 913 1171 2333 887 364 21 24 1245
internal_value=0 0.00550263 -0.0056456 -0.0098986 -0.00706113 0.00410837 0.0159533 -0.00251838 0.000518927 0.00396364 -0.00371457 0.0119708 0.00954245 -0.00600035 -0.000176362 0.000564227 0.0189227 -0.0119719 -0.00147547 0.0120694 -0.00487022 0.00136573 -0.00172113 -0.00529831 0.000944158 -0.00500373 0.0111805 0.0197896 -0.0091539 -0.000792826
internal_weight=0 11688 11392 7933 6260 3459 3774 4105 7914 5178 3984 2959 2638 2736 2683 3912 776 1437 2591 2363 2043 3835 2817 2084 2547 2682 548 385 163 1795
internal_count=23080 11688 11392 7933 6260 3459 3774 4105 7914 5178 3984 2959 2638 2736 2683 3912 776 1437 2591 2363 2043 3835 2817 2084 2547 2682 548 385 163 1795
shrinkage=0.1


Tree=8
num_leaves=31
num_cat=0
split_feature=2 0 1 2 15 0 12 5 4 5 3 0 8 7 6 2 7 11 3 9 11 2 14 7 5 2 1 10 0 1
split_gain=62.2196 72.5701 29.689 24.2488 23.8075 17.8694 16.1947 13.8946 13.8113 13.3968 12.2664 11.8676 13.3465 11.6842 11.5963 11.4249 13.0406 11.2564 10.715 10.5653 10.4432 10.1491 9.56619 9.44451 9.21013 8.78723 11.5983 9.24442 11.9536 9.09887
threshold=35.500000000000007 27.500000000000004 9.5000000000000018 24.500000000000004 6.5000000000000009 33.500000000000007 1.0000000180025095e-35 2.5000000000000004 1.5000000000000002 2.5000000000000004 9.5000000000000018 17.500000000000004 35.500000000000007 7.5000000000000009 1.5000000000000002 46.500000000000007 1.5000000000000002 2.5000000000000004 11.500000000000002 20.500000000000004 1.5000000000000002 10.500000000000002 64.500000000000014 18.500000000000004 1.5000000000000002 41.500000000000007 4.5000000000000009 1.0000000180025095e-35 41.500000000000007 6.5000000000000009
decision_type=2 2 2 2 2 2 2 2 2 2 2 2 2 2 2 2 2 2 2 2 2 2 2 2 2 2 2 2 2 2
left_child=1 3 4 6 13 14 -1 19 -8 10 -10 12 23 -3 -2 16 -16 -18 20 -4 -5 -6 -23 -11 -7 26 -26 -27 29 -29
right_child=5 2 7 18 21 24 8 -9 9 11 -12 -13 -14 -15 15 -17 17 -19 -20 -21 -22 22 -24 -25 25 27 -28 28 -30 -31
leaf_value=0.020952384598220741 -0.030426504766003473 0.0063259444070752529 0.0053047101937799051 0.025842344038414233 0.023960394876462128 -0.044604032516479493 -0.00751497416076075 0.023009932387487234 0.0012605173306207982 0.00039374368886152907 -0.014021353519115693 0.014497779274433395 -0.038788371436736163 0.023660002373944736 -0.034758843375103814 -0.032088890891673383 0.0056354977174809112 -0.012230687632536348 -0.019078214164149718 0.02676902130194956 -0.0072128043748155429 -0.0066550996137382055 0.040064205461078223 0.053189988765451647 -0.013114748434586959 0.037519276723629091 0.013916232933600746 0.0011275617004949836 0.01029921328579938 -0.02750484986535346
leaf_weight=381 445 991 1082 99 126 50 1927 1933 3319 576 624 1308 85 640 196 271 475 1369 813 291 2765 1682 45 36 220 41 570 158 189 373
leaf_count=381 445 991 1082 99 126 50 1927 1933 3319 576 624 1308 85 640 196 271 475 1369 813 291 2765 1682 45 36 220 41 570 158 189 373
internal_value=0 0.00250468 0.010758 -0.00219157 0.00431671 -0.0107632 0.000816807 0.0175462 -0.000157372 0.0022263 -0.00115792 0.00888166 -0.00165764 0.0131278 -0.0156443 -0.0127978 -0.0102351 -0.0076285 -0.00894631 0.00985396 -0.00607019 -0.00343874 -0.00543775 0.00349941 -0.00236072 -0.000998907 0.00638862 -0.00866795 -0.0112981 -0.0189852
internal_weight=0 18723 6790 11933 3484 4357 8256 3306 7875 5948 3943 2005 697 1631 2756 2311 2040 1844 3677 1373 2864 1853 1727 612 1601 1551 790 761 720 531
internal_count=23080 18723 6790 11933 3484 4357 8256 3306 7875 5948 3943 2005 697 1631 2756 2311 2040 1844 3677 1373 2864 1853 1727 612 1601 1551 790 761 720 531
shrinkage=0.1


Tree=9
num_leaves=31
num_cat=0
split_feature=2 0 0 11 6 3 12 13 0 7 12 5 2 1 5 8 4 13 6 8 15 8 0 7 3 12 3 7 0 1
split_gain=51.6366 48.0421 34.8922 30.3247 26.6578 23.7334 14.5119 14.3614 14.1926 14.0057 13.97 14.4925 13.1777 13.8039 11.4763 12.0388 11.4254 11.4421 10.7186 10.6902 10.2332 12.9951 9.77616 9.72952 9.70653 8.95953 9.72768 8.95622 8.75365 8.42788
threshold=22.500000000000004 30.500000000000004 41.500000000000007 1.5000000000000002 1.5000000000000002 3.5000000000000004 1.0000000180025095e-35 3.5000000000000004 21.500000000000004 4.5000000000000009 1.0000000180025095e-35 1.5000000000000002 46.500000000000007 20.500000000000004 2.5000000000000004 22.500000000000004 2.5000000000000004 7.5000000000000009 1.5000000000000002 17.500000000000004 11.500000000000002 19.500000000000004 42.500000000000007 4.5000000000000009 11.500000000000002 2.5000000000000004 8.5000000000000018 14.500000000000002 25.500000000000004 11.500000000000002
decision_type=2 2 2 2 2 2 2 2 2 2 2 2 2 2 2 2 2 2 2 2 2 2 2 2 2 2 2 2 2 2
left_child=1 8 3 -2 6 7 -5 28 18 22 -10 -12 13 16 -9 29 17 24 23 -8 21 -18 -3 -1 -7 -20 -27 -15 -6 -16
right_child=2 9 -4 4 5 12 19 14 10 -11 11 -13 -14 27 15 -17 20 -19 25 -21 -22 -23 -24 -25 -26 26 -28 -29 -30 -31
leaf_value=-0.037485896582370039 0.02028743375762267 0.001311187298288421 0.013097863129892008 0.0092789645828952674 0.004638643026745359 -0.0012682892212376755 -0.015451012450710747 -0.007917126999170852 0.034213843262130089 0.024751179961759944 -0.020044495399091759 0.0076167716626415532 -0.028336153405327955 0.013566675862199382 0.0049026817731235338 -0.0063256248744970158 0.010693904062919824 -0.017783747658850674 0.0032978735033565272 -0.033242573770156422 -0.012120967722548464 -0.016900509213273591 0.040703715384006502 -0.0061552529918151013 -0.017216667184002801 -0.0014395026336858218 -0.020029433783251879 -0.0057324923345440475 0.029210548545066401 0.02434541273457913
leaf_weight=143 434 504 1080 173 303 1163 1032 1274 182 1405 204 2648 310 475 644 601 738 1870 3005 502 626 222 72 323 568 1094 379 487 278 341
leaf_count=143 434 504 1080 173 303 1163 1032 1274 182 1405 204 2648 310 475 644 601 738 1870 3005 502 626 222 72 323 568 1094 379 487 278 341
internal_value=0 0.00542921 -0.00412084 -0.00566524 -0.00663564 -0.00464565 -0.0181769 0.00206249 0.00196823 0.0193674 0.00735236 0.0056382 -0.00821938 -0.0072052 -0.000849303 0.00482813 -0.00924566 -0.0123604 -0.00133586 -0.0212733 -0.00217373 0.0043127 0.00623525 -0.0157696 -0.00650149 0.000166177 -0.00622266 0.00379672 0.0163959 0.0116336
internal_weight=0 9959 13121 12041 11607 9900 1707 3441 7978 1981 3034 2852 6459 6149 2860 1586 5187 3601 4944 1534 1586 960 576 466 1731 4478 1473 962 581 985
internal_count=23080 9959 13121 12041 11607 9900 1707 3441 7978 1981 3034 2852 6459 6149 2860 1586 5187 3601 4944 1534 1586 960 576 466 1731 4478 1473 962 581 985
shrinkage=0.1


Tree=10
num_leaves=31
num_cat=0
split_feature=12 6 0 3 4 11 5 2 2 1 2 0 15 13 0 9 11 4 10 12 4 0 2 13 0 1 2 2 5 1
split_gain=46.769 46.7706 32.7745 32.7642 21.7152 20.9842 19.6824 17.6101 15.7399 15.0529 13.4432 13.3983 13.227 11.7087 17.4998 17.1485 11.548 10.8612 10.7078 10.3893 10.0424 9.55416 9.49357 9.34225 9.33124 9.04914 8.95622 8.76342 8.61089 8.12634
threshold=1.0000000180025095e-35 1.5000000000000002 35.500000000000007 9.5000000000000018 1.0000000180025095e-35 1.5000000000000002 1.5000000000000002 38.500000000000007 18.500000000000004 3.5000000000000004 15.500000000000002 20.500000000000004 5.5000000000000009 11.500000000000002 24.500000000000004 7.5000000000000009 1.5000000000000002 1.0000000180025095e-35 1.0000000180025095e-35 2.5000000000000004 1.5000000000000002 45.500000000000007 39.500000000000007 4.5000000000000009 46.500000000000007 18.500000000000004 21.500000000000004 40.500000000000007 1.5000000000000002 31.500000000000004
decision_type=2 2 2 2 2 2 2 2 2 2 2 2 2 2 2 2 2 2 2 2 2 2 2 2 2 2 2 2 2 2
left_child=12 11 3 4 23 -6 -7 9 19 -4 -5 -2 -1 14 -10 -15 -12 -18 -14 -8 -17 22 -13 -3 26 -20 -11 -27 -28 -30
right_child=1 2 7 10 5 6 8 -9 13 24 16 21 18 15 -16 20 17 -19 25 -21 -22 -23 -24 -25 -26 27 28 -29 29 -31
leaf_value=0.022821681530160065 -0.024401639226060479 0.0011506434425961373 0.00031766734459112836 0.0067687018134773153 0.024393266041410913 -0.018896201116542249 0.01570189016984189 -0.0043714346441291489 -0.00076623849139314452 0.027328100489325314 0.012814525177236647 -0.0066293006933829642 0.056203523628851948 -0.01832295490371252 0.011716416678556687 -0.016887577374776207 -0.029324613157605147 -0.010522418560941785 -0.012659291033343081 0.0020289079926687956 0.0044352493959262697 0.032901583640080577 -0.025087195600288506 -0.018584117279522524 0.040583324103161345 0.033100139241195418 -0.024963660393991779 -0.027544119473426571 0.010847938532311573 0.043040167794508095
leaf_weight=1088 805 358 614 479 431 437 1343 676 3592 498 192 1449 34 712 1634 270 341 3102 273 948 1214 53 345 727 172 103 62 31 1012 85
leaf_count=1088 805 358 614 479 431 437 1343 676 3592 498 192 1449 34 712 1634 270 341 3102 273 948 1214 53 345 727 172 103 62 31 1012 85
internal_value=0 -0.00119903 0.000546066 -0.00130535 0.00140059 0.00278216 0.00186448 0.00991294 0.00279853 0.0138656 -0.00897852 -0.0136352 0.0169002 0.000561991 0.00313668 -0.00556521 -0.0110536 -0.0123846 0.00229111 0.0100441 0.000555759 -0.00894269 -0.0101789 -0.0120726 0.0184136 -0.00221263 0.0161124 0.0190705 0.0112932 0.0133423
internal_weight=0 21551 18899 15780 11666 10581 10150 3119 9713 2443 4114 2652 1529 7422 5226 2196 3635 3443 441 2291 1484 1847 1794 1085 1829 407 1657 134 1159 1097
internal_count=23080 21551 18899 15780 11666 10581 10150 3119 9713 2443 4114 2652 1529 7422 5226 2196 3635 3443 441 2291 1484 1847 1794 1085 1829 407 1657 134 1159 1097
shrinkage=0.1


Tree=11
num_leaves=31
num_cat=0
split_feature=2 1 0 15 0 0 7 11 10 9 4 2 14 9 5 2 8 2 13 7 11 9 15 3 1 13 8 8 0 2
split_gain=40.3043 49.4325 22.9821 19.6168 17.3812 15.1253 13.4269 13.2065 13.1462 13.1298 12.1298 11.1347 11.1155 10.654 11.0749 10.0343 10.0202 9.61847 9.1671 9.1662 9.02697 11.4008 9.4208 10.9509 8.41765 9.62187 9.4491 8.19696 7.7019 7.62832
threshold=33.500000000000007 6.5000000000000009 29.500000000000004 8.5000000000000018 26.500000000000004 11.500000000000002 9.5000000000000018 1.5000000000000002 1.0000000180025095e-35 4.5000000000000009 2.5000000000000004 48.500000000000007 66.500000000000014 8.5000000000000018 2.5000000000000004 13.500000000000002 1.5000000000000002 17.500000000000004 2.5000000000000004 8.5000000000000018 1.5000000000000002 1.5000000000000002 3.5000000000000004 6.5000000000000009 3.5000000000000004 7.5000000000000009 10.500000000000002 19.500000000000004 9.5000000000000018 29.500000000000004
decision_type=2 2 2 2 2 2 2 2 2 2 2 2 2 2 2 2 2 2 2 2 2 2 2 2 2 2 2 2 2 2
left_child=1 3 8 4 17 18 12 -7 -3 -9 19 24 15 14 -4 -5 -10 28 -2 -6 -18 -22 23 -23 -11 26 -26 -28 -1 -15
right_child=5 2 13 6 10 7 -8 9 16 11 -12 -13 -14 29 -16 -17 20 -19 -20 -21 21 22 -24 -25 25 -27 27 -29 -30 -31
leaf_value=-0.021939872744235589 0.012492991716433796 0.02605260311388502 -0.0044874605690610816 0.0018477657922921472 0.00043479220148478972 0.025383624070742003 0.00073831479624297423 -0.018627653054937104 -0.05304648131132126 -0.011965607639735308 0.026197474160615138 -0.032064076727383754 0.031744479570748677 0.022738873868900257 0.016108431955378259 -0.017598410700279548 0.019080262376767836 -0.004663049197502012 -0.040400415499035912 0.019092722469940784 -0.028397642975011152 0.024380469341308643 0.0006240542762041305 -0.0020537595485002938 -0.0051847111164909053 -0.0052336419319819862 0.026264174082240122 0.0024561091498895124 0.0078739294452787739 0.0070991785868125814
leaf_weight=94 39 255 464 313 1045 127 971 845 32 984 340 146 53 1541 597 1743 328 3986 205 352 121 390 3363 262 388 2017 305 275 1108 391
leaf_count=94 39 255 464 313 1045 127 971 845 32 984 340 146 53 1541 597 1743 328 3986 205 352 121 390 3363 262 388 2017 305 275 1108 391
internal_value=0 0.00229021 0.00828875 -0.00235274 0.000600316 -0.00762501 -0.00899231 -0.00645844 0.00396488 -0.00727375 0.00925857 -0.00494227 -0.0134724 0.0151523 0.00710137 -0.014638 0.00271213 -0.00229856 -0.0319461 0.005136 0.00311183 0.00184547 0.00275691 0.0137581 -0.00394459 -0.00130048 0.00689497 0.0149759 0.0055424 0.0195737
internal_weight=0 17749 7744 10005 6925 5331 3080 5087 4751 4960 1737 4115 2109 2993 1061 2056 4496 5188 244 1397 4464 4136 4015 652 3969 2985 968 580 1202 1932
internal_count=23080 17749 7744 10005 6925 5331 3080 5087 4751 4960 1737 4115 2109 2993 1061 2056 4496 5188 244 1397 4464 4136 4015 652 3969 2985 968 580 1202 1932
shrinkage=0.1


Tree=12
num_leaves=31
num_cat=0
split_feature=12 6 5 8 5 9 0 2 0 2 2 3 12 1 3 1 13 4 13 0 1 15 14 8 1 1 0 8 0 8
split_gain=35.5334 32.4309 24.8333 24.2392 20.221 19.7229 19.3642 18.679 16.1637 15.9368 14.6451 14.3195 11.5881 11.4331 11.0891 12.0389 10.6346 10.5142 11.58 9.54846 9.323 8.90325 8.12978 8.10712 7.90846 7.81384 7.63778 7.69415 9.35585 8.5687
threshold=1.5000000000000002 1.5000000000000002 1.5000000000000002 24.500000000000004 2.5000000000000004 3.5000000000000004 20.500000000000004 38.500000000000007 17.500000000000004 46.500000000000007 18.500000000000004 9.5000000000000018 1.0000000180025095e-35 13.500000000000002 3.5000000000000004 6.5000000000000009 2.5000000000000004 2.5000000000000004 12.500000000000002 45.500000000000007 36.500000000000007 3.5000000000000004 6.5000000000000009 9.5000000000000018 7.5000000000000009 5.5000000000000009 15.500000000000002 19.500000000000004 41.500000000000007 4.5000000000000009
decision_type=2 2 2 2 2 2 2 2 2 2 2 2 2 2 2 2 2 2 2 2 2 2 2 2 2 2 2 2 2 2
left_child=5 19 13 4 11 12 25 -8 -5 16 24 17 23 -3 15 -12 -10 18 -4 -2 22 -9 -18 -1 -6 -7 -16 28 -28 -30
right_child=1 2 3 8 10 6 7 21 9 -11 14 -13 -14 -15 26 -17 20 -19 -20 -21 -22 -23 -24 -25 -26 -27 27 -29 29 -31
leaf_value=-0.010820784833696154 -0.014563050424720848 -0.025913176099157154 0.00097948860281249061 -0.021826995715544497 0.0097732313987425254 -0.016627692863171204 0.020440654889362527 0.015068021192716037 0.017817291796925556 -0.039162951282092504 0.0024267801999516745 -0.0094086159085625277 -0.017367375597357751 -0.0035445613805020213 -0.015414975255405 0.019784683845003474 0.0055207917076699874 0.0087517996979227589 -0.0128603745251894 0.034184774392988629 0.027443161778066352 -0.014230327095304217 -0.01077648995672327 0.031374113662884784 0.025224549004833285 0.005763372711159967 0.0017723859167274307 -0.012667557949960419 -0.026562045328319073 0.02874210798740387
leaf_weight=81 2012 526 3771 654 922 257 1992 173 249 119 845 1663 400 404 277 758 425 1376 720 41 87 259 1094 104 517 396 2380 321 32 225
leaf_count=81 2012 526 3771 654 922 257 1992 173 249 119 845 1663 400 404 277 758 425 1376 720 41 87 259 1094 104 517 396 2380 321 32 225
internal_value=0 -0.00170395 -0.000298766 0.000600807 0.00227628 0.00903532 0.0122353 0.0163527 -0.0082018 -0.00368768 0.00646781 -0.00121778 -0.00779577 -0.0161961 0.0038335 0.0106347 -0.0014119 0.00110391 -0.00123933 -0.0135895 -0.00439327 -0.00249742 -0.00621668 0.0128996 0.0153245 -0.00304904 0.00046338 0.0019503 0.00372972 0.021856
internal_weight=0 19418 17365 16435 13807 3662 3077 2424 2628 1974 6277 7530 585 930 4838 1603 1855 5867 4491 2053 1606 432 1519 185 1439 653 3235 2958 2637 257
internal_count=23080 19418 17365 16435 13807 3662 3077 2424 2628 1974 6277 7530 585 930 4838 1603 1855 5867 4491 2053 1606 432 1519 185 1439 653 3235 2958 2637 257
shrinkage=0.1


Tree=13
num_leaves=31
num_cat=0
split_feature=2 0 0 11 9 12 14 3 7 4 2 6 1 1 15 10 12 12 8 1 13 10 5 0 3 2 7 13 3 14
split_gain=30.8967 26.7479 21.4248 18.0362 16.4008 13.973 13.4274 12.8474 12.5737 11.8178 11.0119 10.9611 10.2314 10.1148 10.1133 9.15521 9.06955 8.49377 8.2898 8.67349 8.14631 9.54155 7.87729 8.62844 7.82361 7.76802 12.2558 7.58772 7.27147 7.25332
threshold=22.500000000000004 27.500000000000004 25.500000000000004 1.5000000000000002 4.5000000000000009 1.5000000000000002 3.5000000000000004 1.5000000000000002 2.5000000000000004 1.0000000180025095e-35 33.500000000000007 2.5000000000000004 13.500000000000002 17.500000000000004 1.5000000000000002 1.0000000180025095e-35 2.5000000000000004 2.5000000000000004 20.500000000000004 11.500000000000002 12.500000000000002 3.5000000000000004 2.5000000000000004 15.500000000000002 3.5000000000000004 40.500000000000007 38.500000000000007 1.0000000180025095e-35 5.5000000000000009 7.5000000000000009
decision_type=2 2 2 2 2 2 2 2 2 2 2 2 2 2 2 2 2 2 2 2 2 2 2 2 2 2 2 2 2 2
left_child=1 9 6 24 -5 10 14 8 -7 12 -6 18 27 -9 -2 -8 -13 -3 22 -20 28 -22 -11 -24 -4 26 -17 -1 -18 -23
right_child=2 17 3 4 5 7 15 13 -10 11 -12 16 -14 -15 -16 25 20 -19 19 -21 21 29 23 -25 -26 -27 -28 -29 -30 -31
leaf_value=0.020535373066862428 0.029727077125399199 0.017337971487047566 0.05602753534913063 -0.011234951761902357 0.020671978883506841 -0.015335109814887719 0.0056359605911450511 -0.0065608421374569867 0.01400407156034246 -0.0021082457478820054 0.0011857123279699947 0.014866504253009819 0.033023560453544966 0.0051852374665039046 -0.0020478367395456248 -0.011480645646274892 0.016822736183597985 0.0062918793693184857 -0.026486268996173502 0.0071514256167830087 -0.022924473512489187 0.04641309264229565 -0.0080492846667766568 0.012278037719652307 0.016134214970581939 -0.023771599145880735 0.024601024020578444 -0.021276994059417423 -0.0034934937028411011 -0.0076278498248448443
leaf_weight=48 108 1571 64 1220 605 176 312 2850 859 3014 557 1019 44 987 1381 3191 389 1250 234 114 226 41 272 899 212 502 97 453 322 63
leaf_count=48 108 1571 64 1220 605 176 312 2850 859 3014 557 1019 44 987 1381 3191 389 1250 234 114 226 41 272 899 212 502 97 453 322 63
internal_value=0 0.00419966 -0.00318759 0.000294357 -0.000660285 0.00147778 -0.00787711 -0.000872342 0.00901499 0.000941663 0.0113313 0.00211153 -0.0132105 -0.00353937 0.000256858 -0.0108297 0.00815998 0.0124434 -0.000637156 -0.015467 0.00159519 -0.0113895 0.000596009 0.00755641 0.0253848 -0.0121852 -0.0104162 -0.017271 0.00762186 0.0136768
internal_weight=0 9959 13121 7530 7254 6034 5591 4872 1035 7138 1162 6593 545 3837 1489 4102 2060 2821 4533 348 1041 330 4185 1171 276 3790 3288 501 711 104
internal_count=23080 9959 13121 7530 7254 6034 5591 4872 1035 7138 1162 6593 545 3837 1489 4102 2060 2821 4533 348 1041 330 4185 1171 276 3790 3288 501 711 104
shrinkage=0.1


Tree=14
num_leaves=31
num_cat=0
split_feature=0 2 1 4 0 10 11 13 5 3 7 0 4 8 2 5 6 9 2 8 10 1 14 14 13 5 8 9 12 1
split_gain=27.1646 27.1592 25.8166 14.7036 12.308 12.0678 11.9905 15.2184 10.9822 10.7819 9.92774 9.8897 9.55346 10.0856 9.65664 9.65559 9.08059 8.96166 8.89847 8.47958 8.01756 8.82879 7.9774 7.77739 8.68981 10.0929 7.59516 7.42652 7.30892 8.22686
threshold=42.500000000000007 28.500000000000004 6.5000000000000009 2.5000000000000004 24.500000000000004 1.5000000000000002 2.5000000000000004 6.5000000000000009 2.5000000000000004 28.500000000000004 7.5000000000000009 17.500000000000004 1.0000000180025095e-35 24.500000000000004 19.500000000000004 4.5000000000000009 1.0000000180025095e-35 1.5000000000000002 25.500000000000004 1.5000000000000002 1.0000000180025095e-35 6.5000000000000009 27.500000000000004 19.500000000000004 29.500000000000004 1.5000000000000002 15.500000000000002 8.5000000000000018 2.5000000000000004 19.500000000000004
decision_type=2 2 2 2 2 2 2 2 2 2 2 2 2 2 2 2 2 2 2 2 2 2 2 2 2 2 2 2 2 2
left_child=1 2 3 5 -5 18 10 17 16 23 28 -10 -7 14 -14 -16 -4 -8 -1 -18 21 -19 26 24 25 -2 -9 -28 29 -3
right_child=9 6 8 4 -6 12 7 22 11 -11 -12 -13 13 -15 15 -17 19 20 -20 -21 -22 -23 -24 -25 -26 -27 27 -29 -30 -31
leaf_value=0.0079242319684800274 -0.062282217684246244 -0.0021817306366452034 -0.023286567348986865 0.0010436970538409182 0.020398668259289501 -0.017387050456470914 -0.041400572891328855 -0.0094305459571440414 -0.0025695217305450081 -0.038349025475012288 0.0066707022439019496 0.014065546095498935 0.0026721435910913834 -0.024377732204288998 -0.0075278494139352989 0.037240524073036352 -0.04237541143710797 -0.0027141407573664632 -0.01369945948894045 0.0045734143889598587 -0.0022027884993906731 0.032060190454219123 -0.0020517888635268682 0.029229643575009512 0.031695072480091235 0.0082084501462598002 -0.029169103780388835 -0.013823360037189456 -0.01463128827566648 0.040319647848606116
leaf_weight=1205 21 511 128 1032 482 630 51 1684 422 37 1214 2334 1720 238 2867 49 39 135 226 2832 1293 159 697 338 164 620 500 854 548 50
leaf_count=1205 21 511 128 1032 482 630 51 1684 422 37 1214 2334 1720 238 2867 49 39 135 226 2832 1293 159 697 338 164 620 500 854 548 50
internal_value=0 -0.000796348 0.00179582 -0.00172273 0.00720558 -0.0036719 -0.00558055 -0.00817594 0.00696147 0.0147797 0.000422473 0.0115184 -0.00579891 -0.00430106 -0.00327038 -0.00677557 0.00277379 -0.000139483 0.00450917 0.00393566 0.00118649 0.0160924 -0.0117004 0.0164995 0.0111544 0.00589908 -0.013914 -0.0194902 -0.00641734 0.00160627
internal_weight=0 21900 14204 8449 1514 6935 7696 5373 5755 1180 2323 2756 5504 4874 4636 2916 2999 1638 1431 2871 1587 294 3735 1143 805 641 3038 1354 1109 561
internal_count=23080 21900 14204 8449 1514 6935 7696 5373 5755 1180 2323 2756 5504 4874 4636 2916 2999 1638 1431 2871 1587 294 3735 1143 805 641 3038 1354 1109 561
shrinkage=0.1


Tree=15
num_leaves=31
num_cat=0
split_feature=5 11 6 12 8 5 3 10 2 13 0 7 3 14 0 0 9 15 15 13 10 2 1 0 2 1 9 12 12 1
split_gain=26.2702 32.9562 23.1611 22.3995 21.8565 19.2571 12.9771 12.8343 13.9632 11.9285 11.3332 11.2632 12.5585 10.0135 9.14516 8.64641 8.40951 9.23945 8.58866 8.29163 7.55903 7.52748 7.29436 7.25022 7.1698 7.3259 7.01986 6.95944 6.82947 6.60162
threshold=1.5000000000000002 1.5000000000000002 1.0000000180025095e-35 1.5000000000000002 22.500000000000004 2.5000000000000004 9.5000000000000018 1.0000000180025095e-35 41.500000000000007 1.5000000000000002 41.500000000000007 2.5000000000000004 3.5000000000000004 30.500000000000004 21.500000000000004 33.500000000000007 7.5000000000000009 6.5000000000000009 7.5000000000000009 11.500000000000002 1.5000000000000002 14.500000000000002 14.500000000000002 25.500000000000004 46.500000000000007 2.5000000000000004 9.5000000000000018 1.0000000180025095e-35 2.5000000000000004 21.500000000000004
decision_type=2 2 2 2 2 2 2 2 2 2 2 2 2 2 2 2 2 2 2 2 2 2 2 2 2 2 2 2 2 2
left_child=22 14 -3 7 5 6 19 -4 15 26 11 29 -13 24 20 16 21 -18 -19 23 28 27 -1 -5 25 -11 -6 -9 -2 -7
right_child=1 2 3 4 9 10 -8 8 -10 13 -12 12 -14 -15 -16 -17 17 18 -20 -21 -22 -23 -24 -25 -26 -27 -28 -29 -30 -31
leaf_value=-0.01902212402645238 0.063930570748117241 -0.014203636389486905 0.032979574498648828 -0.00034176912284619032 -0.0087600833543066709 -0.0080458152786960346 -0.010076972196529484 0.060012416225491153 -0.013478170289206752 -0.020831499967235028 0.020150483520130529 0.013077514887717396 0.0022906797280746686 0.0023743063802299461 0.025414103597357823 0.018171115402132273 0.018956460258395404 -0.039566255016968803 0.0050862255502507033 -0.0070671898156222214 -0.0038069926539566292 -0.007921795442148492 -0.0047396138190455295 0.0088786223441729012 -0.035575037589646821 -0.0079076345570400202 0.023920551752079432 0.0012989111817800084 0.0042413992125813552 0.046268976771313218
leaf_weight=843 36 1084 208 3403 106 827 1657 33 291 617 473 1623 3222 517 666 800 582 52 251 1308 243 540 621 1138 133 1517 173 52 41 23
leaf_count=843 36 1084 208 3403 106 827 1657 33 291 617 473 1623 3222 517 666 800 582 52 251 1308 243 540 621 1138 133 1517 173 52 41 23
internal_value=0 0.000878005 2.43751e-05 0.000813445 -0.000573396 0.00113692 -0.00226493 0.00907673 0.00716524 -0.00820868 0.00527673 0.00404138 0.0059041 -0.0101842 0.0187384 0.00976577 0.00531261 0.011584 -0.00257691 -5.18127e-05 0.00484468 -0.00356771 -0.0129638 0.00196891 -0.0130483 -0.0116443 0.0115043 0.0240936 0.032148 -0.00657612
internal_weight=0 21616 20630 19546 16737 13674 7506 2809 2601 3063 6168 5695 4845 2784 986 2310 1510 885 303 5849 320 625 1464 4541 2267 2134 279 85 77 850
internal_count=23080 21616 20630 19546 16737 13674 7506 2809 2601 3063 6168 5695 4845 2784 986 2310 1510 885 303 5849 320 625 1464 4541 2267 2134 279 85 77 850
shrinkage=0.1


Tree=16
num_leaves=31
num_cat=0
split_feature=2 5 11 0 4 2 9 1 3 0 13 6 12 3 13 7 12 8 13 8 5 8 15 12 14 12 14 14 1 9
split_gain=22.6434 22.7046 20.0724 18.0915 17.6902 18.1273 16.8734 15.4961 11.4806 10.4736 8.27786 9.24376 9.52379 8.62962 8.19087 8.05347 7.40053 7.26112 6.93292 6.91117 6.74202 9.65975 8.07128 7.52419 6.68352 6.62395 6.59257 6.59182 6.31462 7.77051
threshold=15.500000000000002 1.5000000000000002 1.5000000000000002 42.500000000000007 1.5000000000000002 40.500000000000007 7.5000000000000009 17.500000000000004 5.5000000000000009 17.500000000000004 10.500000000000002 2.5000000000000004 5.5000000000000009 10.500000000000002 1.5000000000000002 1.0000000180025095e-35 2.5000000000000004 18.500000000000004 10.500000000000002 40.500000000000007 2.5000000000000004 22.500000000000004 5.5000000000000009 1.5000000000000002 2.5000000000000004 2.5000000000000004 30.500000000000004 19.500000000000004 16.500000000000004 4.5000000000000009
decision_type=2 2 2 2 2 2 2 2 2 2 2 2 2 2 2 2 2 2 2 2 2 2 2 2 2 2 2 2 2 2
left_child=9 -2 15 4 7 6 17 10 20 28 11 19 13 25 -11 -3 -10 -6 24 -4 22 23 -8 -22 -7 -13 -19 -5 29 -1
right_child=1 2 3 27 5 18 8 -9 16 14 -12 12 -14 -15 -16 -17 -18 26 -20 -21 21 -23 -24 -25 -26 -27 -28 -29 -30 -31
leaf_value=-0.01680024372206794 -0.014966363275197772 -0.019986271911433765 -0.0088910684346438888 0.0068278945503245821 -0.0012169186826678138 0.020388538285950636 0.014183710260536282 0.011262211267437254 0.0050633405103375027 0.026770087494593277 -0.014227723195819279 0.015047535551883928 0.070006484091281893 -0.015764224846062696 0.0090020404133735119 0.01958328900997499 -0.0044274500261623096 -0.014898568065972787 -0.016454098467916758 -0.039514224804364721 0.041600614999021804 0.0012923548207050418 -0.0017367851039881749 0.016186875453629433 -0.0072761199913526841 -0.0028779218616211311 0.016711452276739355 0.024902573534070632 -0.026535522549048715 0.0071100963772954169
leaf_weight=180 1138 56 1336 653 4132 107 526 420 1944 297 1718 379 20 254 2052 631 1423 686 822 78 133 410 807 939 475 452 73 292 92 555
leaf_count=180 1138 56 1336 653 4132 107 526 420 1944 297 1718 379 20 254 2052 631 1423 686 822 78 133 410 807 939 475 452 73 292 92 555
internal_value=0 -0.00125119 -0.000419481 -0.00105702 -0.00179993 0.00016314 0.0015204 -0.00705937 0.00499258 0.00784121 -0.00887552 -0.00522523 0.00162734 0.000366896 0.0112486 0.0163578 0.00105223 -0.00286829 -0.0105412 -0.0105803 0.0097056 0.014347 0.00454542 0.0193399 -0.00219001 0.00529747 -0.0118583 0.0124129 -0.00183701 0.0012545
internal_weight=0 19904 18766 18079 17134 12477 11073 4657 6182 3176 4237 2519 1105 1085 2349 687 3367 4891 1404 1414 2815 1482 1333 1072 582 831 759 945 827 735
internal_count=23080 19904 18766 18079 17134 12477 11073 4657 6182 3176 4237 2519 1105 1085 2349 687 3367 4891 1404 1414 2815 1482 1333 1072 582 831 759 945 827 735
shrinkage=0.1


Tree=17
num_leaves=31
num_cat=0
split_feature=12 6 10 4 8 3 9 2 13 15 0 2 5 8 1 2 0 1 2 12 5 7 0 11 8 1 10 11 13 15
split_gain=20.7656 20.4888 15.1353 15.3125 13.7874 13.4882 15.04 10.0537 9.64929 8.66832 8.57464 11.3626 7.83531 16.5943 9.26497 8.30005 7.50728 7.31623 9.27419 8.68285 7.90901 7.18972 7.49122 7.00089 6.95238 6.81896 6.65361 6.5987 6.57375 7.50102
threshold=1.0000000180025095e-35 1.5000000000000002 1.0000000180025095e-35 1.0000000180025095e-35 1.5000000000000002 9.5000000000000018 7.5000000000000009 45.500000000000007 1.5000000000000002 5.5000000000000009 25.500000000000004 19.500000000000004 2.5000000000000004 16.500000000000004 6.5000000000000009 19.500000000000004 16.500000000000004 12.500000000000002 23.500000000000004 3.5000000000000004 2.5000000000000004 2.5000000000000004 23.500000000000004 3.5000000000000004 24.500000000000004 37.500000000000007 1.0000000180025095e-35 2.5000000000000004 1.0000000180025095e-35 6.5000000000000009
decision_type=2 2 2 2 2 2 2 2 2 2 2 2 2 2 2 2 2 2 2 2 2 2 2 2 2 2 2 2 2 2
left_child=9 12 -3 -4 -5 6 7 16 21 -1 23 -12 -2 14 15 -14 24 18 -10 -20 -21 -8 28 -7 -6 -13 -11 -17 29 -23
right_child=1 2 3 4 5 10 8 -9 17 26 11 25 13 -15 -16 27 -18 -19 19 20 -22 22 -24 -25 -26 -27 -28 -29 -30 -31
leaf_value=0.016054877977106065 -0.015147520222215572 0.011723174259458362 -0.0094158296867727816 -0.037791648378936199 -0.0060933050300393792 -0.0057027714160118349 -0.016515872891732428 -0.043223795347046436 0.006912303131287695 0.041932510014842543 0.015819985194442176 -0.0036981873752400386 0.017450905596459662 -0.015849637184570085 0.019075753965548108 0.0049283957244544638 0.00059284274430356334 0.0098697667200881318 0.00082532881367611212 -0.035009621287421355 -0.0053591515386805823 0.034718708370042886 0.042612973982707053 -0.020357001279122558 -0.032690724983053691 0.032951747626066209 -0.0041155590691789069 -0.02248006065686544 0.029557959283335829 -0.035482463969124689
leaf_weight=1088 1170 1103 1686 93 588 1507 43 57 2211 34 384 2139 143 670 308 151 4271 1992 1532 139 255 23 156 416 118 52 407 210 89 45
leaf_count=1088 1170 1103 1686 93 588 1507 43 57 2211 34 384 2139 143 670 308 151 4271 1992 1532 139 255 23 156 416 118 52 407 210 89 45
internal_value=0 -0.00079896 0.000356066 -0.00034847 0.000600479 0.000823396 0.00263677 -0.00146446 0.00582037 0.0112612 -0.00382051 -4.7401e-05 -0.00903004 -0.00420045 0.00541156 -0.00293878 -0.000986204 0.00489071 0.00249325 -0.00257971 -0.0158196 0.0218256 0.027093 -0.0088729 -0.0105388 -0.00282836 -0.000565368 -0.0110156 0.0116718 -0.0117379
internal_weight=0 21551 18899 17796 16110 16017 11519 5034 6485 1529 4498 2575 2652 1482 812 504 4977 6129 4137 1926 394 356 313 1923 706 2191 441 361 157 68
internal_count=23080 21551 18899 17796 16110 16017 11519 5034 6485 1529 4498 2575 2652 1482 812 504 4977 6129 4137 1926 394 356 313 1923 706 2191 441 361 157 68
shrinkage=0.1


Tree=18
num_leaves=31
num_cat=0
split_feature=1 15 2 4 2 6 14 13 13 9 11 14 9 9 13 12 8 14 2 0 13 9 2 13 8 0 3 4 5 0
split_gain=18.4035 24.1469 16.611 13.4303 10.521 10.28 8.52579 8.88436 8.20524 9.30494 7.86071 8.61551 8.22934 7.45766 8.17284 7.33766 8.30396 7.0876 8.36299 8.17899 7.64213 6.8408 9.11867 6.77838 7.16085 6.67369 7.1139 6.62131 6.63596 10.768
threshold=12.500000000000002 8.5000000000000018 40.500000000000007 2.5000000000000004 11.500000000000002 2.5000000000000004 65.500000000000014 7.5000000000000009 1.5000000000000002 2.5000000000000004 2.5000000000000004 33.500000000000007 26.500000000000004 6.5000000000000009 11.500000000000002 2.5000000000000004 46.500000000000007 5.5000000000000009 17.500000000000004 27.500000000000004 3.5000000000000004 6.5000000000000009 23.500000000000004 12.500000000000002 10.500000000000002 38.500000000000007 13.500000000000002 4.5000000000000009 2.5000000000000004 7.5000000000000009
decision_type=2 2 2 2 2 2 2 2 2 2 2 2 2 2 2 2 2 2 2 2 2 2 2 2 2 2 2 2 2 2
left_child=1 3 8 5 -3 17 7 -6 -2 -10 23 13 -13 14 -12 -7 -17 20 -19 21 -1 -20 -23 24 -11 26 -15 28 -5 -30
right_child=2 4 -4 27 6 15 -8 -9 9 10 11 12 -14 25 -16 16 -18 18 19 -21 -22 22 -24 -25 -26 -27 -28 -29 29 -31
leaf_value=0.014616314185562954 0.018671703573287003 0.008274744605137543 -0.0065079587404014306 0.0044536426047405864 -0.0041205983188386018 0.0087744328999647698 0.018300286880353605 -0.011966370172392743 -0.0096244379567603285 -0.0041186923520606863 0.003295298534281114 0.025463067825622621 -0.0015001550232623256 0.005046572838726014 -0.019723790596535735 -0.00061941810022181094 -0.054933529783939498 0.0028324865544390736 -0.018891538381576541 0.00016266400550999066 -0.0014447225246232811 -0.00082136760518122267 -0.023087022056983365 0.018146388139150458 0.01447202617220425 0.016041850402336761 -0.010618403419218166 -0.013093388483936624 -0.048438775539398196 0.018127930162622412
leaf_weight=372 508 440 1176 1016 2706 1579 123 3093 384 399 306 314 177 1266 311 959 29 826 850 733 1455 712 248 876 431 388 376 133 25 869
leaf_count=372 508 440 1176 1016 2706 1579 123 3093 384 399 306 314 177 1266 311 959 29 826 850 733 1455 712 248 876 431 388 376 133 25 869
internal_value=0 -0.00184631 0.00431875 0.0012665 -0.00664422 -0.000632024 -0.00775268 -0.00830528 0.00653846 0.00535948 0.0065473 0.00357706 0.0157431 0.00132034 -0.00830752 0.00454528 -0.00221366 -0.00318979 -0.00590957 -0.0087491 0.0018255 -0.0123581 -0.00657333 0.0120107 0.00553504 0.00424664 0.00145946 0.00848051 0.00998278 0.0162664
internal_weight=0 16168 6912 9806 6362 7763 5922 5799 5736 5228 4844 3138 491 2647 617 2567 988 5196 3369 2543 1827 1810 960 1706 830 2030 1642 2043 1910 894
internal_count=23080 16168 6912 9806 6362 7763 5922 5799 5736 5228 4844 3138 491 2647 617 2567 988 5196 3369 2543 1827 1810 960 1706 830 2030 1642 2043 1910 894
shrinkage=0.1


Tree=19
num_leaves=31
num_cat=0
split_feature=11 5 0 4 2 13 2 0 12 14 6 9 1 2 9 7 12 6 0 15 13 0 3 1 4 8 11 2 3 0
split_gain=17.0388 17.2449 14.7923 14.3215 13.9215 9.8545 8.95068 8.9138 8.37147 8.02928 7.73844 8.47841 7.74611 7.66485 9.763 8.694 9.60183 7.47226 7.31977 6.20389 9.44565 7.38257 7.33128 6.29867 6.62981 6.28946 6.2109 6.44453 6.19491 6.63352
threshold=1.5000000000000002 1.5000000000000002 34.500000000000007 1.5000000000000002 19.500000000000004 7.5000000000000009 43.500000000000007 9.5000000000000018 1.0000000180025095e-35 40.500000000000007 2.5000000000000004 13.500000000000002 6.5000000000000009 28.500000000000004 83.500000000000014 3.5000000000000004 3.5000000000000004 3.5000000000000004 42.500000000000007 5.5000000000000009 3.5000000000000004 19.500000000000004 22.500000000000004 2.5000000000000004 3.5000000000000004 7.5000000000000009 3.5000000000000004 24.500000000000004 23.500000000000004 21.500000000000004
decision_type=2 2 2 2 2 2 2 2 2 2 2 2 2 2 2 2 2 2 2 2 2 2 2 2 2 2 2 2 2 2
left_child=28 -2 3 5 7 10 19 -5 -7 -9 -3 -12 -13 15 -15 18 -17 -18 -4 20 -6 23 25 24 -22 -23 -25 -28 29 -1
right_child=1 2 13 4 6 8 -8 9 -10 -11 11 12 -14 14 -16 16 17 -19 -20 -21 21 22 -24 26 -26 -27 27 -29 -30 -31
leaf_value=0.0029675075720096457 -0.012303841474155586 -0.0066780859136861678 -0.010323891608543646 -0.019464305713195212 0.013665314551756758 0.01840057410691914 -0.014329912629456838 0.0065047121311139385 -0.011912230658962873 0.038052644463906805 0.015297446375364785 -0.011801900644587656 0.014633708842742591 0.00071936460706212638 0.056344838719815021 0.017700545520224469 -0.012318072327465382 0.024228579433340777 0.02269646625879199 -0.0029236465897085999 -0.019223312454662106 -0.0014456204827441727 -0.031113837785640003 0.0098262514145869145 0.016769454345620913 0.010427908298781518 0.01420919873884746 -0.047160856358029628 -0.014384442122503258 0.018810995409321754
leaf_weight=406 1200 1191 306 129 629 95 514 2879 2223 83 455 351 162 2257 32 1175 212 76 86 5099 435 860 59 265 58 927 28 44 87 757
leaf_count=406 1200 1191 306 129 629 95 514 2879 2223 83 455 351 162 2257 32 1175 212 76 86 5099 435 860 59 265 58 927 28 44 87 757
internal_value=0 -0.000650173 2.76938e-05 -0.00131482 0.00048478 -0.00614204 -0.00151972 0.00626805 -0.0106699 0.00738874 -0.00128072 0.00536005 -0.00345381 0.00536861 0.001497 0.010146 0.0136897 -0.00267382 -0.00307963 -0.000736226 0.00263856 4.66909e-05 0.00356865 -0.00778648 -0.0149889 0.00471373 0.00274996 -0.0232947 0.0113546 0.0132801
internal_weight=0 21830 20630 16486 12009 4477 8918 3091 2318 2962 2159 968 513 4144 2289 1855 1463 288 392 8404 3305 2676 1846 830 493 1787 337 72 1250 1163
internal_count=23080 21830 20630 16486 12009 4477 8918 3091 2318 2962 2159 968 513 4144 2289 1855 1463 288 392 8404 3305 2676 1846 830 493 1787 337 72 1250 1163
shrinkage=0.1


Tree=20
num_leaves=31
num_cat=0
split_feature=0 2 15 1 9 3 2 14 9 3 2 8 5 11 8 10 6 7 0 1 0 9 12 5 1 3 15 15 1 7
split_gain=14.9022 14.6969 12.3482 14.7794 10.9269 10.6534 8.28452 8.14496 7.15598 7.12628 6.91229 6.65645 6.45243 6.72148 7.21071 7.59488 6.44696 6.4793 6.40834 6.36192 6.19392 6.00804 5.94537 5.93053 5.88501 10.2772 6.83802 6.87694 5.42202 5.36888
threshold=19.500000000000004 15.500000000000002 6.5000000000000009 16.500000000000004 10.500000000000002 15.500000000000002 24.500000000000004 7.5000000000000009 4.5000000000000009 34.500000000000007 45.500000000000007 16.500000000000004 1.5000000000000002 2.5000000000000004 3.5000000000000004 5.5000000000000009 1.5000000000000002 4.5000000000000009 44.500000000000007 45.500000000000007 24.500000000000004 85.500000000000014 1.0000000180025095e-35 1.5000000000000002 12.500000000000002 1.5000000000000002 19.500000000000004 10.500000000000002 11.500000000000002 7.5000000000000009
decision_type=2 2 2 2 2 2 2 2 2 2 2 2 2 2 2 2 2 2 2 2 2 2 2 2 2 2 2 2 2 2
left_child=5 21 4 12 7 16 11 10 -5 18 -3 -6 -4 14 -14 20 17 -1 19 -10 24 -2 -8 -9 26 -26 27 -16 -25 -19
right_child=1 2 3 8 6 -7 22 23 9 -11 -12 -13 13 -15 15 -17 -18 29 -20 -21 -22 -23 -24 28 25 -27 -28 -29 -30 -31
leaf_value=-0.02586886356012863 0.0098444023314969691 0.0060517543547346942 -0.019636917013800548 -0.0075545828656742517 0.01242295221074835 -0.017010044143689392 0.017709426576667547 -0.03493418610486828 0.0049362235677503754 -0.043477333017757969 -0.046913012623786929 0.033959247748166818 -0.016977783509276128 -0.0063412484968391166 -0.0087720859684421379 -0.050732650800987523 -0.0016013420565115376 0.0090336235801139527 0.026696645327006715 0.041775250248610979 0.0072914036236506859 -0.04522878840565682 0.0017695182486016073 -0.0065294187349512686 0.082535819780258909 0.0019149438478052617 -0.035943564124729321 0.011652991096878893 0.0060853328281666808 -0.014278667517861382
leaf_weight=228 2069 1713 267 421 693 604 287 61 2006 28 25 181 220 3935 602 27 4418 166 158 48 1251 20 1267 1298 21 64 69 227 462 244
leaf_count=228 2069 1713 267 421 693 604 287 61 2006 28 25 181 220 3935 602 27 4418 166 158 48 1251 20 1267 1298 21 64 69 227 462 244
internal_value=0 0.00144841 0.000376219 -0.0018955 0.00392173 -0.00445783 0.00909403 0.000393111 0.00440718 0.00665535 0.00528989 0.016883 -0.00440507 -0.0037712 0.000305033 0.00198669 -0.00295832 -0.012355 0.00728994 0.00579712 0.00262385 0.00931713 0.00471338 -0.00428048 -0.00331624 0.021833 -0.00569674 -0.00317921 -0.00321805 -0.00484003
internal_weight=0 17420 15331 9344 5987 5660 2428 3559 2661 2240 1738 874 6683 6416 2481 2261 5056 638 2212 2054 2234 2089 1554 1821 983 85 898 829 1760 410
internal_count=23080 17420 15331 9344 5987 5660 2428 3559 2661 2240 1738 874 6683 6416 2481 2261 5056 638 2212 2054 2234 2089 1554 1821 983 85 898 829 1760 410
shrinkage=0.1


Tree=21
num_leaves=31
num_cat=0
split_feature=12 2 6 1 5 8 6 6 10 8 7 4 9 2 13 15 0 9 12 12 14 1 0 11 6 0 9 8 2 9
split_gain=13.6106 15.1725 15.4119 11.2111 8.64069 9.96681 9.23738 9.15826 8.38972 11.5306 7.51746 7.24623 7.5505 7.69431 7.23713 7.23661 6.9514 7.62289 12.9411 6.90527 7.24802 6.66181 6.60745 6.48465 6.46449 7.95256 6.18073 5.91388 6.26691 6.03589
threshold=2.5000000000000004 41.500000000000007 2.5000000000000004 25.500000000000004 2.5000000000000004 22.500000000000004 4.5000000000000009 1.5000000000000002 1.5000000000000002 1.5000000000000002 2.5000000000000004 2.5000000000000004 8.5000000000000018 25.500000000000004 4.5000000000000009 43.500000000000007 21.500000000000004 4.5000000000000009 1.5000000000000002 3.5000000000000004 3.5000000000000004 2.5000000000000004 4.5000000000000009 2.5000000000000004 1.0000000180025095e-35 40.500000000000007 29.500000000000004 22.500000000000004 17.500000000000004 23.500000000000004
decision_type=2 2 2 2 2 2 2 2 2 2 2 2 2 2 2 2 2 2 2 2 2 2 2 2 2 2 2 2 2 2
left_child=1 2 16 4 6 23 7 -2 -4 -10 -11 22 -13 21 -5 -7 27 -18 -19 -15 -21 -14 -9 -6 -25 -26 -8 28 -1 -30
right_child=3 -3 8 14 5 15 26 11 9 10 -12 12 13 19 -16 -17 17 18 -20 20 -22 -23 -24 24 25 -27 -28 -29 29 -31
leaf_value=0.0064432376805213026 -0.019787836537041047 -0.010097579973548714 0.01565802706571499 0.031321380459345308 0.0074512417018642273 -0.010308740099174825 -0.0093315731647402745 0.046991465579379693 -0.054427242744714027 -0.0054984902511378813 0.0077501464423529055 -0.0085993025677348414 -0.0018547054471039191 0.011469576912729637 0.0044740727139731592 0.0069034143420709237 -0.0033501709473066168 0.017170556819220202 0.0019603546388902281 0.03618527412414551 -0.02949804734616053 0.032090903925044198 -0.0081058390861388063 -0.024593701207119487 -0.0025002269261445655 0.017444669099244397 -0.039421164249551714 -0.016772242782363757 -0.0042476771080048889 0.04956784219968887
leaf_weight=753 432 954 1010 117 1303 1444 129 22 32 499 3022 347 82 184 708 294 1247 763 2096 20 105 196 2044 115 1732 226 145 279 2759 21
leaf_count=753 432 954 1010 117 1303 1444 129 22 32 499 3022 347 82 184 708 294 1247 763 2096 20 105 196 2044 115 1732 226 145 279 2759 21
internal_value=0 0.00205756 0.00298665 -0.00286608 -0.00390879 -0.00124431 -0.00758557 -0.00617491 0.00761563 0.00532945 0.00587254 -0.00421465 0.00309485 0.0100077 0.00828151 -0.00739713 0.000319053 0.00317398 0.0060196 -0.000851739 -0.0189887 0.0220782 -0.00751913 0.00192322 -0.00155146 -0.000198109 -0.0252549 -0.00275606 -0.00164921 -0.00384116
internal_weight=0 13435 12481 9645 8820 5114 3706 3432 4563 3553 3521 3000 934 587 825 1738 7918 4106 2859 309 125 278 2066 3376 2073 1958 274 3812 3533 2780
internal_count=23080 13435 12481 9645 8820 5114 3706 3432 4563 3553 3521 3000 934 587 825 1738 7918 4106 2859 309 125 278 2066 3376 2073 1958 274 3812 3533 2780
shrinkage=0.1


Tree=22
num_leaves=31
num_cat=0
split_feature=11 5 6 2 4 1 2 14 15 8 9 15 12 8 13 5 6 0 4 13 13 15 3 9 0 9 7 3 5 8
split_gain=12.8631 12.2518 11.7751 11.8198 11.4266 11.7939 11.5849 10.0765 9.87178 8.33569 6.98255 8.67159 6.96377 6.88295 6.77564 6.47258 6.42319 5.86708 6.80748 5.85904 5.94762 5.71745 5.49157 6.42108 5.47564 5.21655 5.31851 5.25971 5.19599 6.6041
threshold=1.5000000000000002 1.5000000000000002 1.0000000180025095e-35 47.500000000000007 2.5000000000000004 6.5000000000000009 31.500000000000004 29.500000000000004 8.5000000000000018 18.500000000000004 9.5000000000000018 3.5000000000000004 5.5000000000000009 16.500000000000004 3.5000000000000004 3.5000000000000004 3.5000000000000004 11.500000000000002 1.5000000000000002 60.500000000000007 20.500000000000004 53.500000000000007 25.500000000000004 35.500000000000007 7.5000000000000009 34.500000000000007 60.500000000000007 6.5000000000000009 1.5000000000000002 41.500000000000007
decision_type=2 2 2 2 2 2 2 2 2 2 2 2 2 2 2 2 2 2 2 2 2 2 2 2 2 2 2 2 2 2
left_child=28 -2 -3 4 5 8 22 9 14 -7 11 -11 -10 19 -4 16 -16 -17 -19 20 -8 -12 24 -24 -6 -26 27 -27 -1 -30
right_child=1 2 3 -5 6 7 13 -9 12 10 21 -13 -14 -15 15 17 -18 18 -20 -21 -22 -23 23 -25 25 26 -28 -29 29 -31
leaf_value=-0.0025942445704431245 -0.010387657627463341 -0.010138427963775903 0.0059122988406709459 -0.01916066859677484 -0.022358339878379322 0.0041270099582485101 0.0065397281453484753 0.016209928422537052 -0.0090128070538483783 0.016556719193855922 0.0036843945739397119 -0.018099308918422301 0.020078624767415666 -0.0080248510340849549 -0.0058679785818423862 -0.022170858908055435 0.006497666821622651 -3.7157551405277663e-05 0.020294765704676969 0.041283420324325561 -0.010590852226466496 -0.04099219729502996 0.062530563427851751 0.00039686745610730402 0.0089386318275168752 0.012814561549083206 -0.053735715292748953 -0.015911146454394811 0.016072155974788383 -0.010132971819904116
leaf_weight=264 1200 1084 1218 299 61 3391 822 521 2575 84 634 514 85 900 3180 67 484 376 293 40 269 30 39 29 3359 129 21 126 878 108
leaf_count=264 1200 1084 1218 299 61 3391 822 521 2575 84 634 514 85 900 3180 67 484 376 293 40 269 30 39 29 3359 129 21 126 878 108
internal_value=0 -0.000564916 6.45069e-06 0.000569075 0.000875574 -0.00072365 0.00458787 0.00302163 -0.00306456 0.00154493 -0.00539314 -0.0132312 -0.00808319 -0.00149892 -0.000688354 -0.00251553 -0.00423453 0.00604205 0.00886756 0.00369412 0.00231596 0.00166587 0.00787222 0.0360324 0.00735412 0.00785273 -0.00536296 -0.00137932 0.00986569 0.0132018
internal_weight=0 21830 20630 19546 19247 13452 5795 5174 8278 4653 1262 598 2660 2031 5618 4400 3664 736 669 1131 1091 664 3764 68 3696 3635 276 255 1250 986
internal_count=23080 21830 20630 19546 19247 13452 5795 5174 8278 4653 1262 598 2660 2031 5618 4400 3664 736 669 1131 1091 664 3764 68 3696 3635 276 255 1250 986
shrinkage=0.1


Tree=23
num_leaves=31
num_cat=0
split_feature=10 4 11 2 13 5 8 0 6 3 9 2 8 4 8 14 9 12 9 0 5 1 8 2 3 15 12 14 14 2
split_gain=12.2084 10.8719 10.9877 9.84504 9.1796 8.22367 9.10889 7.96895 7.56518 7.38523 7.20057 5.63032 5.62216 5.86773 8.51061 6.95008 5.5904 5.56055 6.55539 5.43708 5.42237 5.65739 5.65833 5.60105 5.38873 5.36108 5.33965 5.26673 5.2589 5.23638
threshold=1.0000000180025095e-35 1.0000000180025095e-35 1.5000000000000002 22.500000000000004 11.500000000000002 2.5000000000000004 22.500000000000004 34.500000000000007 1.5000000000000002 1.5000000000000002 12.500000000000002 46.500000000000007 1.5000000000000002 2.5000000000000004 22.500000000000004 31.500000000000004 31.500000000000004 1.5000000000000002 89.500000000000014 8.5000000000000018 4.5000000000000009 23.500000000000004 27.500000000000004 32.500000000000007 18.500000000000004 30.500000000000004 3.5000000000000004 66.500000000000014 20.500000000000004 35.500000000000007
decision_type=2 2 2 2 2 2 2 2 2 2 2 2 2 2 2 2 2 2 2 2 2 2 2 2 2 2 2 2 2 2
left_child=4 27 20 7 17 -5 9 12 -8 10 -7 24 -4 14 -14 -16 29 -1 25 -15 21 -3 -23 -22 -10 -19 -9 -2 -18 -12
right_child=1 2 3 5 -6 6 8 26 11 -11 16 -13 13 19 15 -17 28 18 -20 -21 23 22 -24 -25 -26 -27 -28 -29 -30 -31
leaf_value=0.024426882234654685 -0.0084979526623859322 0.0089077317532389715 -0.038268862250778413 -0.0055255127698818777 -0.02075905197610458 0.0042611461037244556 -0.020546623295693012 0.0152781845350224 0.0012451309934756274 0.00060101258341053283 0.040812500854211356 -0.021761639231237875 0.00084810668728475954 -0.021019050266061511 -0.019507192231440346 0.016549349919198052 -0.020062138202289741 0.0061081233373150284 -0.048674148321151738 0.0074115578293947465 -0.035399632280071577 0.040925938731584795 -0.0022446343811546882 0.02652008022580828 -0.015316810633825222 0.026525605474876254 -0.0042825289794376923 0.016919121339040645 0.036499014973640442 0.0079469247572663895
leaf_weight=258 1994 752 36 4688 96 546 283 689 1347 3051 163 145 4927 70 353 63 48 867 20 1722 48 117 41 21 230 151 175 85 25 69
leaf_count=258 1994 752 36 4688 96 546 283 689 1347 3051 163 145 4927 70 353 63 48 867 20 1722 48 117 41 21 230 151 175 85 25 69
internal_value=0 -0.000582668 0.000146356 -0.000396283 0.00907823 -0.00239819 8.37542e-05 0.00224345 -0.00539442 0.00289865 0.0111361 -0.00290425 0.00115031 0.0013492 -0.000311587 -0.0140467 0.0234435 0.0112884 0.00802276 0.00630099 0.0104726 0.0125219 0.0297234 -0.0165545 -0.00117037 0.00913665 0.0113162 -0.00745877 -0.00069188 0.0310378
internal_weight=0 21688 19609 18630 1392 10595 5907 8035 2005 3902 851 1722 7171 7135 5343 416 305 1296 1038 1792 979 910 158 69 1577 1018 864 2079 73 232
internal_count=23080 21688 19609 18630 1392 10595 5907 8035 2005 3902 851 1722 7171 7135 5343 416 305 1296 1038 1792 979 910 158 69 1577 1018 864 2079 73 232
shrinkage=0.1


Tree=24
num_leaves=31
num_cat=0
split_feature=13 1 4 2 5 2 8 3 12 9 1 6 2 12 15 5 15 14 9 12 14 13 14 1 11 0 8 3 14 10
split_gain=10.999 11.8317 9.24571 9.00716 8.83951 9.95574 9.15313 8.20745 7.06213 6.78418 6.3485 6.28545 6.2451 6.21624 6.10692 5.92603 5.80049 5.51316 8.63474 6.71324 6.23043 6.14147 5.91912 5.41536 5.33098 9.6363 7.99147 6.10956 5.98714 5.9582
threshold=1.5000000000000002 3.5000000000000004 1.5000000000000002 43.500000000000007 2.5000000000000004 14.500000000000002 20.500000000000004 9.5000000000000018 2.5000000000000004 8.5000000000000018 20.500000000000004 1.0000000180025095e-35 8.5000000000000018 1.5000000000000002 8.5000000000000018 1.5000000000000002 77.500000000000014 4.5000000000000009 3.5000000000000004 3.5000000000000004 74.500000000000014 44.500000000000007 6.5000000000000009 5.5000000000000009 2.5000000000000004 20.500000000000004 12.500000000000002 2.5000000000000004 21.500000000000004 2.5000000000000004
decision_type=2 2 2 2 2 2 2 2 2 2 2 2 2 2 2 2 2 2 2 2 2 2 2 2 2 2 2 2 2 2
left_child=7 2 -2 4 5 8 24 9 -3 -1 -9 -7 -4 23 15 -14 -15 21 -19 20 -20 -13 -21 -8 26 -26 27 -6 -27 -28
right_child=1 3 12 -5 6 11 13 10 -10 -11 -12 17 14 16 -16 -17 -18 18 19 22 -22 -23 -24 -25 25 28 29 -29 -30 -31
leaf_value=0.0041553550958633428 -0.0084052757579367293 0.018508947178085832 0.02348207208779779 -0.0082088815008463847 0.020265296539143912 -0.01889707309390427 0.049049512417085717 -0.0058227673747032332 -0.0028358240151891904 0.017112633417506785 0.030290538353740043 0.0024647686398135546 -0.027015546474017594 -0.0045916277451806091 -0.0080350858838661287 0.0012503686544379361 0.031403759640196094 -0.016629465534383017 -0.00043383423666567243 -0.038348463932673139 0.054227326455570407 0.040384195744991302 -0.0079802260171161609 0.0060750276345168533 -0.0094799294016367046 0.0042895027657724781 0.034498880015479197 0.0021706669900944569 0.016902910103420699 0.012370912162762768
leaf_weight=835 2862 422 101 981 252 218 31 597 245 783 53 1459 76 1672 1116 3083 46 447 2971 75 21 44 445 542 411 1590 225 719 493 265
leaf_count=835 2862 422 101 981 252 218 31 597 245 783 53 1459 76 1672 1116 3083 46 447 2971 75 21 44 445 542 411 1590 225 719 493 265
internal_value=0 -0.000720648 -0.00398586 0.00102045 0.00173942 -0.000888832 0.00441016 0.00661293 0.0106687 0.0104258 -0.00287814 -0.00224602 -0.00109547 -0.000619567 -0.00167613 0.00057034 -0.00362784 -0.00158144 -0.00353899 -0.00187286 -5.0183e-05 0.00357485 -0.0123603 0.0084 0.00732372 0.00451371 0.0121205 0.0068667 0.00727482 0.0225317
internal_weight=0 20812 7238 13574 12593 6347 6246 2268 667 1618 650 5680 4376 2291 4275 3159 1718 5462 3959 3512 2992 1503 520 573 3955 2494 1461 971 2083 490
internal_count=23080 20812 7238 13574 12593 6347 6246 2268 667 1618 650 5680 4376 2291 4275 3159 1718 5462 3959 3512 2992 1503 520 573 3955 2494 1461 971 2083 490
shrinkage=0.1


Tree=25
num_leaves=31
num_cat=0
split_feature=0 15 11 14 3 4 10 7 9 2 1 13 14 2 9 14 8 0 13 0 3 11 7 3 1 9 3 0 0 8
split_gain=9.82909 9.22568 9.27872 7.69365 7.46358 7.23784 6.99478 7.1301 6.86653 6.27333 7.33148 6.22785 6.12904 6.57294 7.21297 6.89425 6.71392 6.4905 6.46794 6.25647 5.90141 5.87716 6.72199 5.67128 6.14894 6.42175 5.5701 5.98134 5.32614 5.24528
threshold=19.500000000000004 3.5000000000000004 1.5000000000000002 55.500000000000007 15.500000000000002 1.0000000180025095e-35 1.5000000000000002 3.5000000000000004 4.5000000000000009 10.500000000000002 19.500000000000004 3.5000000000000004 3.5000000000000004 19.500000000000004 4.5000000000000009 4.5000000000000009 3.5000000000000004 21.500000000000004 9.5000000000000018 29.500000000000004 22.500000000000004 2.5000000000000004 9.5000000000000018 10.500000000000002 24.500000000000004 11.500000000000002 2.5000000000000004 36.500000000000007 40.500000000000007 40.500000000000007
decision_type=2 2 2 2 2 2 2 2 2 2 2 2 2 2 2 2 2 2 2 2 2 2 2 2 2 2 2 2 2 2
left_child=4 6 20 5 -1 28 11 -8 -7 10 -10 -2 -9 15 16 -14 -15 -16 21 -18 -3 22 -17 -11 -25 -26 -21 -28 -4 -20
right_child=1 2 3 -5 -6 8 7 12 9 23 -12 -13 13 14 17 18 19 -19 29 26 -22 -23 -24 24 25 -27 27 -29 -30 -31
leaf_value=-0.0023652782044786065 0.02502798131452157 0.014301203255756543 -0.010959475913841743 0.014064967192324071 -0.014126695778887003 -0.005386526272824748 -0.0063655793666839607 0.018650029072394738 0.022683527435713668 0.0020320903406407004 -0.015794055187894451 0.0066346259451655872 0.05522879916760657 -0.057023381721228367 -0.01492178008148942 0.00025624168175523 -0.020544761199892667 0.0069718009472648605 0.023991754572642479 0.044123599196181584 -0.017142832550135528 0.015646428963459962 -0.046144237860720215 -0.0052713583947795236 0.031013824666539833 0.00053559646674013336 0.017380591936227752 -0.045477092638611799 0.010828647679752773 -0.029110317081213002
leaf_weight=5056 312 624 1024 348 604 2128 594 325 246 6464 62 449 36 32 158 93 163 947 266 34 66 109 47 2339 96 247 41 24 126 20
leaf_count=5056 312 624 1024 348 604 2128 594 325 246 6464 62 449 36 32 158 93 163 947 266 34 66 109 47 2339 96 247 41 24 126 20
internal_value=0 0.00117631 -8.51334e-06 -0.000604721 -0.00362038 -0.00100568 0.00564619 0.00339942 -0.000254383 0.00090081 0.014938 0.0141757 0.00592683 0.00382783 0.000137574 0.0128693 -0.013783 0.00384132 0.0100189 -0.00850168 0.0112935 -0.00176501 -0.0153211 0.000428094 -0.00343777 0.00906595 0.0113268 -0.0058284 -0.00857226 0.0202783
internal_weight=0 17420 13770 13080 5660 12732 3650 2889 11582 9454 308 761 2295 1970 1399 571 294 1105 535 262 690 249 140 9146 2682 343 99 65 1150 286
internal_count=23080 17420 13770 13080 5660 12732 3650 2889 11582 9454 308 761 2295 1970 1399 571 294 1105 535 262 690 249 140 9146 2682 343 99 65 1150 286
shrinkage=0.1


Tree=26
num_leaves=31
num_cat=0
split_feature=5 11 6 9 10 13 8 5 0 15 3 2 4 12 8 0 3 2 4 2 8 9 6 0 13 2 15 9 5 2
split_gain=9.751 9.75599 8.64241 9.15841 8.10517 7.87472 7.40933 12.2852 9.0974 7.62139 7.36918 7.27971 7.18517 8.70436 8.04613 7.09374 8.66159 8.48613 6.76536 7.32486 6.65298 6.6659 6.38316 6.24126 6.09963 6.58163 5.90022 5.87579 5.80559 5.94539
threshold=1.5000000000000002 1.5000000000000002 2.5000000000000004 27.500000000000004 2.5000000000000004 24.500000000000004 18.500000000000004 3.5000000000000004 40.500000000000007 17.500000000000004 25.500000000000004 31.500000000000004 2.5000000000000004 3.5000000000000004 4.5000000000000009 15.500000000000002 9.5000000000000018 19.500000000000004 1.0000000180025095e-35 13.500000000000002 10.500000000000002 2.5000000000000004 1.0000000180025095e-35 37.500000000000007 6.5000000000000009 23.500000000000004 59.500000000000007 10.500000000000002 2.5000000000000004 32.500000000000007
decision_type=2 2 2 2 2 2 2 2 2 2 2 2 2 2 2 2 2 2 2 2 2 2 2 2 2 2 2 2 2 2
left_child=20 -2 6 4 18 28 7 8 9 12 -11 26 13 -3 -15 16 -9 27 -4 -20 21 -1 -14 -5 -22 -26 -7 -17 -6 -30
right_child=1 2 3 23 5 11 -8 15 -10 10 -12 -13 22 14 -16 17 -18 -19 19 -21 24 -23 -24 -25 25 -27 -28 -29 29 -31
leaf_value=-0.035455351638106196 0.010252523698804345 -0.0020835638326406479 -0.0037974320706867038 -0.005948576994752432 -0.0094971273155773396 0.01367339151688772 -0.0068744190139766286 -0.020275590121746064 0.012553957912275832 -0.014656837833359655 0.045527513112340656 -0.0029953120522135516 -0.0174757913701118 -0.03991669328124435 -0.0093278199081172318 0.038792107814162445 0.037390973884612322 0.0074208847499271681 0.023250733539462092 0.0073461091188386646 0.026536359844055581 -0.0089298725380261134 0.0059468966563568848 0.0061944802121449549 0.019955103513267305 -0.017733024060726167 0.067824061711629233 0.00090029443855638852 0.006414839123445289 -0.0094044907801393157
leaf_weight=104 986 5000 483 1753 850 481 2253 140 417 652 21 341 126 108 422 169 32 757 320 3045 94 1064 1519 558 72 130 21 54 763 345
leaf_count=104 986 5000 483 1753 850 481 2253 140 417 652 21 341 126 108 422 169 32 757 320 3045 94 1064 1519 558 72 130 21 54 763 345
internal_value=0 0.000534921 7.04731e-05 0.00240635 0.0042912 0.000198936 -0.00172296 -0.000490489 -0.00183895 -0.00260372 -0.0127789 0.00827972 -0.00164931 -0.00337526 -0.015561 0.00918405 -0.00954693 0.0124715 0.00727 0.00885858 -0.00789812 -0.0112917 0.00415282 -0.00301659 0.00549288 -0.00429963 0.0159387 0.0296165 -0.00328018 0.00148915
internal_weight=0 21616 20630 8960 6649 2801 11670 9417 8265 7848 673 843 7175 5530 530 1152 172 980 3848 3365 1464 1168 1645 2311 296 202 502 223 1958 1108
internal_count=23080 21616 20630 8960 6649 2801 11670 9417 8265 7848 673 843 7175 5530 530 1152 172 980 3848 3365 1464 1168 1645 2311 296 202 502 223 1958 1108
shrinkage=0.1


Tree=27
num_leaves=31
num_cat=0
split_feature=13 1 11 14 15 12 15 14 8 5 3 2 14 5 5 9 6 0 6 9 13 9 3 14 8 1 15 9 13 7
split_gain=8.50866 9.16602 7.92893 11.753 7.22114 8.77063 6.75659 7.72671 6.62169 7.95179 6.11006 6.10615 6.42279 6.20063 5.55608 6.35641 5.84784 5.5487 6.48927 5.54446 5.52433 5.64894 5.44888 4.95864 4.94708 6.1908 5.38764 4.92977 11.0364 8.48256
threshold=1.5000000000000002 3.5000000000000004 2.5000000000000004 22.500000000000004 6.5000000000000009 4.5000000000000009 14.500000000000002 14.500000000000002 15.500000000000002 3.5000000000000004 9.5000000000000018 6.5000000000000009 16.500000000000004 1.5000000000000002 2.5000000000000004 86.500000000000014 1.5000000000000002 28.500000000000004 4.5000000000000009 8.5000000000000018 12.500000000000002 3.5000000000000004 20.500000000000004 7.5000000000000009 7.5000000000000009 18.500000000000004 20.500000000000004 7.5000000000000009 3.5000000000000004 3.5000000000000004
decision_type=2 2 2 2 2 2 2 2 2 2 2 2 2 2 2 2 2 2 2 2 2 2 2 2 2 2 2 2 2 2
left_child=10 4 6 8 11 -6 -3 24 9 -4 14 12 -2 -13 16 -16 -1 18 -12 20 23 -22 -5 -10 25 -8 -27 28 -15 -30
right_child=1 2 3 22 5 -7 7 -9 19 -11 17 13 -14 27 15 -17 -18 -19 -20 -21 21 -23 -24 -25 -26 26 -28 -29 29 -31
leaf_value=-0.019138936418117865 0.0040662465726628025 0.0058330279024813164 -0.0023593799412283708 0.0082295671466497654 -0.0093741088098693772 0.0063413434147544731 -0.021320346318265446 -0.020747410566831121 0.0061728268563747413 0.010816359891777948 -0.012245315290875171 -0.023304337719755791 0.072488275040750921 0.011401753312300061 0.016634459381177049 -0.039133482745715549 0.0065297787551020017 0.010239616285861852 0.040278530359268191 -0.0032310622257498457 -0.0044814688895923509 -0.028803629745398802 -0.0085879991068081429 -0.014196017244046786 0.0049191877452082608 0.041731118104037124 -0.0063589797632114314 0.0027119324312490575 -0.023690357555061898 -0.0044829025876380714
leaf_weight=101 34 4133 3592 1550 2612 411 186 196 200 525 398 124 23 363 764 21 732 227 25 1324 138 310 220 297 795 34 74 2125 281 1265
leaf_count=101 34 4133 3592 1550 2612 411 186 196 200 525 398 124 23 363 764 21 732 227 25 1324 138 310 220 297 795 34 74 2125 281 1265
internal_value=0 -0.000633837 0.000898622 -0.00107123 -0.00350778 -0.00723747 0.00386395 -0.00246928 -0.00306975 -0.000679209 0.00581632 -0.000832841 0.0316751 -0.00127848 0.00910611 0.0151426 0.00341749 -0.00237274 -0.00914107 -0.00740729 -0.0132584 -0.0213115 0.00613925 -0.0059993 0.000820444 -0.0102629 0.0087805 -0.00060143 -0.00428969 -0.00797404
internal_weight=0 20812 13574 8156 7238 3023 5418 1285 6386 4117 2268 4215 57 4158 1618 785 833 650 423 2269 945 448 1770 497 1089 294 108 4034 1909 1546
internal_count=23080 20812 13574 8156 7238 3023 5418 1285 6386 4117 2268 4215 57 4158 1618 785 833 650 423 2269 945 448 1770 497 1089 294 108 4034 1909 1546
shrinkage=0.1


Tree=28
num_leaves=31
num_cat=0
split_feature=10 13 0 1 15 12 2 9 2 8 0 3 8 4 3 5 9 0 4 14 14 5 0 1 15 7 13 9 9 6
split_gain=7.8384 11.7523 7.50681 6.98688 9.37936 6.3415 6.07682 5.96863 6.0871 5.80359 6.0678 8.04159 5.71037 5.54032 9.06521 6.89797 6.0898 7.93856 6.76248 5.56386 6.27389 5.31917 7.09848 7.04845 5.32456 5.318 5.31194 7.48761 5.12185 4.96572
threshold=1.5000000000000002 3.5000000000000004 19.500000000000004 12.500000000000002 9.5000000000000018 2.5000000000000004 15.500000000000002 56.500000000000007 22.500000000000004 49.500000000000007 34.500000000000007 1.0000000180025095e-35 33.500000000000007 2.5000000000000004 5.5000000000000009 2.5000000000000004 7.5000000000000009 34.500000000000007 1.5000000000000002 22.500000000000004 2.5000000000000004 2.5000000000000004 44.500000000000007 11.500000000000002 82.500000000000014 1.5000000000000002 7.5000000000000009 30.500000000000004 18.500000000000004 3.5000000000000004
decision_type=2 2 2 2 2 2 2 2 2 2 2 2 2 2 2 2 2 2 2 2 2 2 2 2 2 2 2 2 2 2
left_child=1 -1 12 4 13 7 -5 8 -3 10 -7 -12 -2 14 25 -16 17 -17 -19 20 -15 22 23 26 -23 -4 27 -6 -13 -27
right_child=2 5 3 6 21 9 -8 -9 -10 -11 11 28 -14 19 15 16 -18 18 -20 -21 -22 24 -24 -25 -26 29 -28 -29 -30 -31
leaf_value=0.0095870019941718034 -0.0033290432352752388 0.010427329083469427 -0.012934808779244474 0.013213876119026772 0.0027569535301206539 -0.0078892214067719478 0.0020013336013536566 0.050349372514971985 -0.0022212704288627656 -0.036608235486622516 0.038007395242301512 -0.012320383073705615 -0.015040916574588427 0.022261613768985472 -0.012070284640139255 -0.021810034858191621 0.0050576571765686244 0.047156726817289996 -0.014137095130152173 0.024644753636039844 0.0012780581151040837 -0.0032008827921332118 -0.060538517151560105 -0.035858542354483353 0.032828158375784934 0.0025940181228332618 -0.013312398178274171 -0.056885367767377341 0.02333207001973843 0.016959123079901311
leaf_weight=1946 3835 642 198 546 487 967 4213 27 934 58 71 132 467 166 954 217 682 36 36 151 1006 1755 28 95 42 2357 684 22 58 268
leaf_count=1946 3835 642 198 546 487 967 4213 27 934 58 71 132 467 166 954 217 682 36 36 151 1006 1755 28 95 42 2357 684 22 58 268
internal_value=0 0.00357989 -0.000948685 0.000178027 -0.00143338 -0.000466441 0.00328775 0.00372995 0.00293127 -0.00569725 -0.00423728 0.00929308 -0.00460042 0.00085501 -0.000739626 -0.00603107 -9.75784e-05 -0.0122632 0.0165098 0.00657786 0.00425013 -0.00589622 -0.0107266 -0.0096437 -0.0023588 0.0028686 -0.00755618 0.000179093 -0.001437 0.00406063
internal_weight=0 4835 18245 13943 9184 2889 4759 1603 1576 1286 1228 261 4302 6071 4748 1925 971 289 72 1323 1172 3113 1316 1288 1797 2823 1193 509 190 2625
internal_count=23080 4835 18245 13943 9184 2889 4759 1603 1576 1286 1228 261 4302 6071 4748 1925 971 289 72 1323 1172 3113 1316 1288 1797 2823 1193 509 190 2625
shrinkage=0.1


Tree=29
num_leaves=31
num_cat=0
split_feature=11 14 6 14 7 7 15 8 13 13 7 14 0 2 11 15 0 0 14 15 1 3 9 0 15 3 15 8 8 9
split_gain=7.39108 11.0302 8.28252 10.0632 10.5925 9.98524 8.79765 7.32692 6.9513 7.65312 6.62228 6.05539 5.83013 5.58761 5.7149 7.19423 5.58718 5.34356 7.28676 6.0622 7.07182 8.31666 6.26005 6.03114 9.28294 5.73759 6.2055 5.30019 6.4351 5.20168
threshold=2.5000000000000004 20.500000000000004 2.5000000000000004 1.0000000180025095e-35 4.5000000000000009 1.0000000180025095e-35 1.0000000180025095e-35 3.5000000000000004 10.500000000000002 51.500000000000007 34.500000000000007 141.00000000000003 35.500000000000007 20.500000000000004 3.5000000000000004 15.500000000000002 21.500000000000004 19.500000000000004 10.500000000000002 2.5000000000000004 21.500000000000004 6.5000000000000009 15.500000000000002 31.500000000000004 23.500000000000004 20.500000000000004 28.500000000000004 9.5000000000000018 21.500000000000004 11.500000000000002
decision_type=2 2 2 2 2 2 2 2 2 2 2 2 2 2 2 2 2 2 2 2 2 2 2 2 2 2 2 2 2 2
left_child=2 8 3 4 -1 -4 16 12 17 13 -11 -3 -5 14 -10 -16 -7 -2 19 -19 21 -21 25 24 -20 26 -23 -17 -29 -6
right_child=1 11 5 7 29 6 -8 -9 9 10 -12 -13 -14 -15 15 27 -18 18 23 20 -22 22 -24 -25 -26 -27 -28 28 -30 -31
leaf_value=-0.011181148926417033 -0.006307114398294982 0.0030785326453217545 -0.015174382105822812 -0.0078097348909522274 0.024763664949771971 0.044363916135325879 0.0058595526558575476 0.00024985539183613163 -0.006995805953520633 0.015414883817693846 -0.017328821495175364 0.056946500869733956 -0.03851945085184915 -0.0094828332153961067 0.016267057503091879 0.025892207175493245 0.012852766998668217 0.016262981320699949 -0.006207463463311488 0.0061048640242589072 0.023820470304976048 -0.0060399002870734865 -0.020688914613150734 0.0034286562615356967 -0.03932869558004623 0.036115781884444385 0.043882685613173711 -0.071827149152755745 -0.0036371146478960596 0.0677536927163601
leaf_weight=75 1357 3320 211 529 129 97 3119 5482 557 271 80 21 70 3094 290 20 134 356 848 1224 142 588 233 583 94 38 26 25 31 36
leaf_count=75 1357 3320 211 529 129 97 3119 5482 557 271 80 21 70 3094 290 20 134 356 848 1224 142 588 233 583 94 38 26 25 31 36
internal_value=0 -0.00154848 0.00206808 -0.00010488 0.0199794 0.00592522 0.00725418 -0.00089755 -0.00323155 -0.00620846 0.00795193 0.00341712 -0.0113985 -0.00744578 -0.000617337 0.00908979 0.0260847 -0.000862602 0.000925444 0.00413727 0.00221956 0.000765161 -0.00661992 -0.00456519 -0.00951255 -0.0015922 -0.00392591 -0.0182972 -0.0340791 0.0341433
internal_weight=0 13198 9882 6321 240 3561 3350 6081 9857 4368 351 3341 599 4017 923 366 231 5489 4132 2607 2251 2109 885 1525 942 652 614 76 56 165
internal_count=23080 13198 9882 6321 240 3561 3350 6081 9857 4368 351 3341 599 4017 923 366 231 5489 4132 2607 2251 2109 885 1525 942 652 614 76 56 165
shrinkage=0.1


Tree=30
num_leaves=31
num_cat=0
split_feature=5 11 2 6 1 15 2 1 8 9 15 2 11 2 9 5 0 3 9 13 7 14 13 15 8 13 2 6 3 9
split_gain=7.19769 6.88278 6.77237 6.80995 6.44139 5.6395 6.2803 7.16383 5.25864 5.20635 7.28822 5.40702 5.4736 8.44143 5.1353 5.01331 4.75492 6.36657 7.32114 5.08838 11.9073 5.02361 5.5581 4.71575 4.63367 4.58215 5.09188 4.79303 4.54669 4.53989
threshold=1.5000000000000002 1.5000000000000002 47.500000000000007 1.0000000180025095e-35 45.500000000000007 2.5000000000000004 10.500000000000002 3.5000000000000004 10.500000000000002 7.5000000000000009 6.5000000000000009 20.500000000000004 2.5000000000000004 12.500000000000002 2.5000000000000004 3.5000000000000004 38.500000000000007 9.5000000000000018 84.500000000000014 1.5000000000000002 5.5000000000000009 4.5000000000000009 3.5000000000000004 77.500000000000014 41.500000000000007 6.5000000000000009 23.500000000000004 2.5000000000000004 1.5000000000000002 16.500000000000004
decision_type=2 2 2 2 2 2 2 2 2 2 2 2 2 2 2 2 2 2 2 2 2 2 2 2 2 2 2 2 2 2
left_child=8 24 3 -3 5 -5 -7 9 14 -8 11 12 28 -14 -1 -15 17 19 -19 20 -9 29 -23 -21 -2 27 -27 -10 -11 -18
right_child=1 2 -4 4 -6 6 7 16 25 10 -12 -13 13 15 -16 -17 21 18 -20 23 -22 22 -24 -25 -26 26 -28 -29 -30 -31
leaf_value=-0.031011613071537936 0.01102604664573637 -0.0075123462917561354 -0.014251766832975242 0.0042118183051882028 0.030376599484110534 0.0092545115987637226 -0.0085162294928575136 -0.0094774441783808915 0.043652434647083287 -0.035680496463408838 -0.0053667652917337265 -0.00037490027835187709 -0.034481377601623536 0.024686557912826538 -0.0077297878752749672 0.066163725601999387 0.0089153762216921204 -0.0035077669756336176 -0.053186284502347317 0.0006961573879183991 0.021239136668142453 -0.012189883702897772 0.0068709045557768106 0.049337650984525687 -0.010924331153984425 0.017965994278589883 -0.015183480210029163 -0.0017670941494760059 0.0086739368450183141 0.036541590728658313
leaf_weight=104 878 1058 325 3552 73 672 1602 191 52 26 1834 736 20 125 1064 38 162 2655 30 5809 372 187 841 20 108 72 130 42 208 94
leaf_count=104 878 1058 325 3552 73 672 1602 191 52 26 1834 736 20 125 1064 38 162 2655 30 5809 372 187 841 20 108 72 130 42 208 94
internal_value=0 0.000459581 6.94742e-05 0.000298699 0.000728069 0.00061519 -0.000202582 -0.000627676 -0.00678572 -0.0039169 -0.00145018 0.00477968 0.0138775 0.0268329 -0.00980283 0.0343561 0.000829159 2.34426e-05 -0.00406283 0.00173991 0.0108184 0.00652502 0.00340362 0.000863052 0.00862175 0.00511962 -0.00336783 0.0233586 0.00374567 0.0190594
internal_weight=0 21616 20630 20305 19247 19174 15622 14950 1464 4589 2987 1153 417 183 1168 163 10361 9077 2685 6392 563 1284 1028 5829 986 296 202 94 234 256
internal_count=23080 21616 20630 20305 19247 19174 15622 14950 1464 4589 2987 1153 417 183 1168 163 10361 9077 2685 6392 563 1284 1028 5829 986 296 202 94 234 256
shrinkage=0.1


Tree=31
num_leaves=31
num_cat=0
split_feature=7 0 10 13 14 9 2 1 14 3 9 15 9 5 15 1 12 8 10 6 15 2 9 2 5 14 14 13 11 0
split_gain=6.7711 8.37054 7.35655 9.70142 6.62103 7.17801 6.54209 7.84186 6.93794 6.44521 6.05277 6.00662 5.66627 6.91101 5.43976 5.30405 5.29763 5.1485 5.12203 4.95702 5.72868 8.68486 6.59263 7.1756 5.66371 5.55635 4.97498 4.87517 4.85293 4.83566
threshold=4.5000000000000009 42.500000000000007 1.5000000000000002 12.500000000000002 6.5000000000000009 3.5000000000000004 25.500000000000004 6.5000000000000009 13.500000000000002 2.5000000000000004 106.50000000000001 2.5000000000000004 27.500000000000004 3.5000000000000004 19.500000000000004 20.500000000000004 1.0000000180025095e-35 13.500000000000002 1.0000000180025095e-35 2.5000000000000004 4.5000000000000009 14.500000000000002 8.5000000000000018 29.500000000000004 2.5000000000000004 16.500000000000004 9.5000000000000018 19.500000000000004 5.5000000000000009 21.500000000000004
decision_type=2 2 2 2 2 2 2 2 2 2 2 2 2 2 2 2 2 2 2 2 2 2 2 2 2 2 2 2 2 2
left_child=1 4 3 19 9 -6 7 -7 -8 -1 29 16 13 18 27 -13 -11 -17 -5 20 24 -22 -23 -24 25 -2 -21 -15 -10 -4
right_child=2 -3 10 12 5 6 8 -9 28 11 -12 15 -14 14 -16 17 -18 -19 -20 26 21 22 23 -25 -26 -27 -28 -29 -30 -31
leaf_value=0.0079031847648165631 0.011700465221597692 0.013829641812240957 -0.0025341858019252549 -0.049697342142462735 -0.017726346744645027 -0.0059054924729769085 -0.01726980922855955 0.0070469357006613864 -0.0051309664742458586 -0.025805795714259151 0.039894261015088937 -0.0080188913335288211 -0.034777194039145518 0.010085033889739746 -0.02437120515566606 0.049722874816507105 0.012884889363465947 -0.012304416558016902 -0.0072156036755003303 0.019869490961233777 0.028562535714077693 -0.0099158804357154448 0.020022394534869075 -0.010170072317123413 0.026165833159496912 -0.02239623031918965 0.0071220993139725136 0.056350922253396774 0.030207152410251337 0.001396527260080982
leaf_weight=807 198 291 4998 32 465 1162 647 782 745 40 38 1127 67 62 26 32 307 23 251 510 93 581 195 132 190 63 766 36 41 8373
leaf_count=807 198 291 4998 32 465 1162 647 782 745 40 38 1127 67 62 26 32 307 23 251 510 93 581 195 132 190 63 766 36 41 8373
internal_value=0 -0.00274468 0.00106889 0.00537541 -0.00352537 -0.00607805 -0.00447413 -0.000695205 -0.00960059 0.000673005 4.05134e-05 -0.00314305 -0.00782964 -0.00339356 0.0162924 -0.00653905 0.00842487 0.0237842 -0.0120192 0.00766984 0.00367379 -0.000542351 -0.00352336 0.00783461 0.0130316 0.00347023 0.0122171 0.0270807 -0.00328763 -7.27498e-05
internal_weight=0 6469 16611 3202 6178 3842 3377 1944 1433 2336 13409 1529 474 407 124 1182 347 55 283 2728 1452 1001 908 327 451 261 1276 98 786 13371
internal_count=23080 6469 16611 3202 6178 3842 3377 1944 1433 2336 13409 1529 474 407 124 1182 347 55 283 2728 1452 1001 908 327 451 261 1276 98 786 13371
shrinkage=0.1


Tree=32
num_leaves=31
num_cat=0
split_feature=5 0 8 2 1 11 14 7 8 5 7 9 3 1 11 0 14 12 0 9 14 14 9 15 11 14 2 15 3 13
split_gain=6.35645 12.7195 10.1937 5.59269 7.24187 7.97914 7.98848 5.58498 6.66263 7.11717 6.5389 5.33811 10.5351 9.79813 6.09365 7.48367 5.29223 5.21407 7.28417 6.26458 5.9073 5.64551 5.14325 4.98362 4.98039 5.41344 5.02803 4.86124 4.7637 4.92001
threshold=2.5000000000000004 5.5000000000000009 20.500000000000004 19.500000000000004 1.0000000180025095e-35 3.5000000000000004 2.5000000000000004 34.500000000000007 8.5000000000000018 3.5000000000000004 5.5000000000000009 15.500000000000002 8.5000000000000018 6.5000000000000009 2.5000000000000004 29.500000000000004 4.5000000000000009 2.5000000000000004 4.5000000000000009 59.500000000000007 77.500000000000014 40.500000000000007 28.500000000000004 26.500000000000004 2.5000000000000004 4.5000000000000009 6.5000000000000009 6.5000000000000009 16.500000000000004 5.5000000000000009
decision_type=2 2 2 2 2 2 2 2 2 2 2 2 2 2 2 2 2 2 2 2 2 2 2 2 2 2 2 2 2 2
left_child=17 -2 3 -3 5 6 -5 8 9 -6 -10 14 22 -14 -12 -16 -17 20 -19 21 24 -20 -13 -21 25 -1 -26 -18 29 -11
right_child=1 2 -4 4 7 -7 -8 -9 10 28 11 12 13 -15 15 16 27 18 19 23 -22 -23 -24 -25 26 -27 -28 -29 -30 -31
leaf_value=0.0085429945867694559 -0.03132889530268209 0.0087229689249249519 -0.0020252355281465124 0.02222396869083931 -0.0041885608590943989 -0.017525474947911721 -0.0030958481149802632 -0.012002461449694388 0.0017526545802286353 -0.0022246360447671677 0.018213388842421695 0.045888199735872492 0.037968255560367536 -0.0031613220837381148 -0.0068579474231228238 0.039799515879343432 0.029379950280058877 0.032246341739060748 -0.0051864115823375776 -0.046003361390187195 0.046593427547702085 0.015337594443087955 0.016831726611268763 0.003270526627699534 0.031375725070635484 -3.7152851098178309e-05 -0.0034366125329983624 -0.0010483655859442318 -0.016159628927707673 0.025865079550155129
leaf_weight=1002 116 1969 4159 145 1068 324 886 194 949 90 385 161 78 225 384 63 73 53 3743 65 27 139 98 30 42 2763 3409 187 50 203
leaf_count=1002 116 1969 4159 145 1068 324 886 194 949 90 385 161 78 225 384 63 73 53 3743 65 27 139 98 30 42 2763 3409 187 50 203
internal_value=0 0.00162158 0.00194852 0.00414274 0.00252159 -0.00383668 0.000465135 0.00456899 0.00536991 -0.000163693 0.00836948 0.012166 0.0200849 0.00742649 0.00809044 0.00257795 0.0137959 -0.0016984 -0.0045816 -0.0050724 -9.4185e-05 -0.00445152 0.0348939 -0.0304432 -0.000268875 0.00224633 -0.00301293 0.00749497 0.0123685 0.0172368
internal_weight=0 11807 11691 7532 5563 1355 1031 4208 4014 1411 2603 1654 562 303 1092 707 323 11273 4030 3977 7243 3882 259 95 7216 3765 3451 260 343 293
internal_count=23080 11807 11691 7532 5563 1355 1031 4208 4014 1411 2603 1654 562 303 1092 707 323 11273 4030 3977 7243 3882 259 95 7216 3765 3451 260 343 293
shrinkage=0.1


Tree=33
num_leaves=31
num_cat=0
split_feature=12 9 3 15 7 8 1 7 9 2 12 15 14 14 1 8 9 3 8 8 8 13 1 2 15 13 7 9 13 6
split_gain=6.15503 6.92222 6.21307 5.4026 5.22615 5.16118 5.14286 11.1551 6.80873 4.80633 4.76946 5.84012 5.56195 5.04822 4.73354 5.47144 4.73042 4.79291 4.8007 6.47858 5.88415 4.92981 4.66729 5.00665 4.55654 4.51497 4.40798 6.59773 6.24939 6.10708
threshold=1.0000000180025095e-35 4.5000000000000009 5.5000000000000009 102.50000000000001 1.5000000000000002 1.5000000000000002 21.500000000000004 12.500000000000002 7.5000000000000009 9.5000000000000018 4.5000000000000009 2.5000000000000004 3.5000000000000004 20.500000000000004 38.500000000000007 9.5000000000000018 99.500000000000014 17.500000000000004 19.500000000000004 13.500000000000002 25.500000000000004 35.500000000000007 29.500000000000004 41.500000000000007 5.5000000000000009 1.0000000180025095e-35 4.5000000000000009 16.500000000000004 11.500000000000002 5.5000000000000009
decision_type=2 2 2 2 2 2 2 2 2 2 2 2 2 2 2 2 2 2 2 2 2 2 2 2 2 2 2 2 2 2
left_child=24 4 3 5 -2 -3 9 22 -9 -4 11 25 -12 -13 -10 -16 17 -11 19 -19 -20 -21 23 -8 -1 -6 -7 28 -28 -29
right_child=1 2 6 -5 10 26 7 8 14 16 12 13 -14 -15 15 -17 -18 18 20 21 -22 -23 -24 -25 -26 -27 27 29 -30 -31
leaf_value=0.0096064502592472477 -0.017549094962623885 -0.035466132644149995 0.012348989622855406 0.047970844117494735 0.028030434702381948 -0.0012063975273459047 0.016269087220969373 0.022154132764914944 -0.011914407050815123 -0.0016345894758818969 0.046293275501277001 -0.0075643943492365211 0.0041201161866140845 0.0053430250328448088 0.054237007598082226 -0.0022578889628251395 0.033962492729936331 -0.0088227563454124983 -0.036097976461700772 0.0045835917217159705 -0.0099403508291566137 0.047784724136193599 0.033263040598758981 -0.013233429046583848 -0.0024435631474670101 0.00095837008630907214 0.0047851227095456628 0.01259593254380059 -0.0030410619566037756 -0.011394558923366743
leaf_weight=1088 265 36 218 26 66 2322 303 87 464 5976 37 2658 202 342 24 60 35 747 115 221 341 30 121 71 441 925 3075 1140 1527 117
leaf_count=1088 265 36 218 26 66 2322 303 87 464 5976 37 2658 202 342 24 60 35 747 115 221 341 30 121 71 441 925 3075 1140 1527 117
internal_value=0 -0.000434978 0.000485081 0.00245857 -0.00392608 0.00231456 -0.00136077 0.00493817 -0.00383411 -0.0022872 -0.00307263 -0.00389435 0.010649 -0.00609295 -0.00795998 0.0138835 -0.00271462 -0.00288739 -0.00803646 -0.00415239 -0.0165371 0.00974707 0.0161915 0.0106683 0.00613094 0.00276135 0.00248081 0.0039421 0.0021883 0.0103629
internal_weight=0 21551 17056 8243 4495 8217 8813 1130 635 7683 4230 3991 239 3000 548 84 7465 7430 1454 998 456 251 495 374 1529 991 8181 5859 4602 1257
internal_count=23080 21551 17056 8243 4495 8217 8813 1130 635 7683 4230 3991 239 3000 548 84 7465 7430 1454 998 456 251 495 374 1529 991 8181 5859 4602 1257
shrinkage=0.1


Tree=34
num_leaves=31
num_cat=0
split_feature=5 14 11 0 1 14 7 10 15 14 2 3 5 7 7 13 13 3 2 9 14 10 9 9 14 2 15 8 9 5
split_gain=5.49557 5.6548 5.47597 7.34109 6.41799 6.28998 6.78283 6.37153 6.25273 7.67932 6.25081 6.95619 6.6808 5.4569 5.44746 5.27682 6.00214 5.20356 5.58842 5.1896 5.11962 6.54988 6.37599 5.35266 5.09395 6.67006 4.86749 5.1991 4.82924 4.70858
threshold=1.5000000000000002 141.00000000000003 2.5000000000000004 6.5000000000000009 6.5000000000000009 20.500000000000004 34.500000000000007 2.5000000000000004 14.500000000000002 14.500000000000002 46.500000000000007 16.500000000000004 4.5000000000000009 2.5000000000000004 37.500000000000007 51.500000000000007 10.500000000000002 15.500000000000002 21.500000000000004 7.5000000000000009 8.5000000000000018 1.0000000180025095e-35 19.500000000000004 6.5000000000000009 6.5000000000000009 33.500000000000007 3.5000000000000004 3.5000000000000004 45.500000000000007 2.5000000000000004
decision_type=2 2 2 2 2 2 2 2 2 2 2 2 2 2 2 2 2 2 2 2 2 2 2 2 2 2 2 2 2 2
left_child=-1 2 4 -4 20 6 15 -8 10 17 11 13 24 -6 -9 16 -5 -10 -19 -20 -2 22 -22 -23 -13 -26 -25 -28 -7 -30
right_child=1 -3 3 5 8 28 7 14 9 -11 -12 12 -14 -15 -16 -17 -18 18 19 -21 21 23 -24 26 25 -27 27 -29 29 -31
