tree
version=v3
num_class=1
num_tree_per_iteration=1
label_index=0
max_feature_idx=15
objective=regression
feature_names=Column_0 Column_1 Column_2 Column_3 Column_4 Column_5 Column_6 Column_7 Column_8 Column_9 Column_10 Column_11 Column_12 Column_13 Column_14 Column_15
feature_infos=[1:49] [0:93] [1:49] [0:96] [0:9] [0:8] [0:9] [0:295] [7:194] [0:240] [0:8] [0:8] [0:9] [0:258] [0:236] [0:286]
tree_sizes=2836 2928 2948 2919 2943 2941 2941 2957 2937 2948 2957 2954 2958 2973 2966 2975 2987 2943 2966 2967 2965 2962 2965 2977 2979 2957 2962 2985 2974 2968 2955 2937 2937 2941 2946 2941 2954 2942 2978 2922 2949 2922 2911 2927 2913 2890 2920 2938 2911 2896 2932 2928 2876 2897 2908 2859 2887 2937 2912 2861 2798 2883 2819 2862 2881 2852

Tree=0
num_leaves=31
num_cat=0
split_feature=2 0 0 2 0 2 0 0 2 0 0 2 0 2 0 1 5 0 3 2 6 2 12 1 0 2 11 0 4 1
split_gain=1334.18 923.162 672.634 402.268 381.282 258.057 151.397 130.365 82.4074 79.5795 65.2847 63.2011 56.2966 53.7024 49.2569 48.1543 41.7736 41.7579 37.5806 32.652 32.6055 32.1071 27.686 27.1421 26.4578 25.0427 24.4804 24.1071 20.7658 20.3893
threshold=30.500000000000004 27.500000000000004 45.500000000000007 41.500000000000007 26.500000000000004 24.500000000000004 42.500000000000007 19.500000000000004 19.500000000000004 35.500000000000007 35.500000000000007 19.500000000000004 46.500000000000007 35.500000000000007 19.500000000000004 11.500000000000002 3.5000000000000004 46.500000000000007 14.500000000000002 24.500000000000004 2.5000000000000004 36.500000000000007 1.5000000000000002 1.0000000180025095e-35 19.500000000000004 46.500000000000007 1.5000000000000002 16.500000000000004 1.5000000000000002 4.5000000000000009
decision_type=2 2 2 2 2 2 2 2 2 2 2 2 2 2 2 2 2 2 2 2 2 2 2 2 2 2 2 2 2 2
left_child=1 5 3 4 13 7 15 11 29 25 21 16 -4 18 -7 19 26 -8 -2 22 -10 -6 -3 -12 -15 -5 -1 -28 -24 -9
right_child=2 6 12 9 10 14 17 8 20 -11 23 -13 -14 24 -16 -17 -18 -19 -20 -21 -22 -23 28 -25 -26 -27 27 -29 -30 -31
leaf_value=0.14260792725401411 0.095729432225069383 0.16241903800151308 0.14199667257901569 0.061959441506521454 0.11402118811583319 0.09470111286908181 0.16358958324152414 0.12804375196928086 0.12087630596116442 0.086091006159463121 0.10461018114087363 0.1072350875866744 0.19574225420464408 0.06319571513301378 0.10944793700801693 0.15197589325445085 0.104542256620619 0.19574225420464408 0.074627304931796742 0.12984997587302957 0.13262023315349369 0.096239494400480435 0.12914829622223675 0.13061021018796348 0.082100281900354177 0.0416649515345517 0.11672124143381385 0.12964789160299972 0.14450860512709679 0.13922151308953695
leaf_weight=603 3119 659 283 2514 2696 3986 1310 2607 17680 1319 477 7114 626 1504 5246 4049 1425 584 1157 2785 2729 1629 1192 2537 1458 802 3902 2289 3364 4363
leaf_count=603 3119 659 283 2514 2696 3986 1310 2607 17680 1319 477 7114 626 1504 5246 4049 1425 584 1157 2785 2729 1629 1192 2537 1458 802 3902 2289 3364 4363
internal_value=0.117491 0.124374 0.0949535 0.0909765 0.099136 0.118241 0.147221 0.121518 0.125653 0.0653151 0.115197 0.114136 0.17901 0.0828506 0.103081 0.14309 0.120109 0.173504 0.0900196 0.138592 0.122447 0.107324 0.143261 0.126495 0.0725012 0.0570511 0.123374 0.121501 0.14049 0.135041
internal_weight=0 65887 20121 19212 14577 51944 13943 42712 27379 4635 7339 15333 909 7238 9232 12049 8219 1894 4276 8000 20409 4325 5215 3014 2962 3316 6794 6191 4556 6970
internal_count=86008 65887 20121 19212 14577 51944 13943 42712 27379 4635 7339 15333 909 7238 9232 12049 8219 1894 4276 8000 20409 4325 5215 3014 2962 3316 6794 6191 4556 6970
shrinkage=1


Tree=1
num_leaves=31
num_cat=0
split_feature=2 0 0 2 0 2 0 0 1 2 2 0 0 2 0 1 0 0 3 1 0 13 12 7 0 3 0 3 8 8
split_gain=1089.15 788.963 487.893 333.498 246.338 182.021 152.67 118.109 76.121 75.8006 74.1702 57.1293 48.0866 41.7855 41.4764 36.4431 33.3443 31.2958 28.2716 28.2496 26.92 26.7447 26.5515 26.13 24.3423 24.1119 24.0304 23.3528 20.1649 19.9503
threshold=33.500000000000007 28.500000000000004 45.500000000000007 24.500000000000004 26.500000000000004 41.500000000000007 43.500000000000007 20.500000000000004 1.0000000180025095e-35 41.500000000000007 26.500000000000004 19.500000000000004 46.500000000000007 19.500000000000004 33.500000000000007 5.5000000000000009 46.500000000000007 17.500000000000004 14.500000000000002 1.0000000180025095e-35 12.500000000000002 2.5000000000000004 3.5000000000000004 3.5000000000000004 41.500000000000007 8.5000000000000018 19.500000000000004 15.500000000000002 27.500000000000004 19.500000000000004
decision_type=2 2 2 2 2 2 2 2 2 2 2 2 2 2 2 2 2 2 2 2 2 2 2 2 2 2 2 2 2 2
left_child=1 3 4 7 9 14 10 8 27 20 15 18 -4 17 -6 23 -8 -10 29 -12 -2 -22 -9 -3 -7 -13 -15 -1 -27 -5
right_child=2 6 12 11 5 24 16 22 13 -11 19 25 -14 26 -16 -17 -18 -19 -20 -21 21 -23 -24 -25 -26 28 -28 -29 -30 -31
leaf_value=-0.0060088511303112331 -0.0524999894494457 -0.0031014903604444878 0.016657475823042344 -0.014298296752288784 -0.015544503125419018 -0.042038747770376653 0.042277539220380161 0.015642817844802853 0.0041136674987159762 -0.06026887684872672 -0.0039193000501165027 -0.0041099156470549257 0.070425772666931161 -0.0061842006775788038 0.0028104825577680414 0.032918357647005868 0.070425772666931161 0.017661279589456635 -0.035959477226991776 0.015623736541699226 -0.012255722383748897 -0.036285568556787162 0.0025252724880728702 0.022903552552420089 -0.017234097967545194 -0.012730268953947833 0.0029681163220773368 -0.026535743405421575 -0.038395016342401507 -0.030040117261690577
leaf_weight=7266 840 442 245 3072 2258 2251 1074 8466 3705 1904 936 4483 518 3549 2707 5006 692 3159 1180 3526 547 3022 1887 3071 480 2718 14968 600 345 1091
leaf_count=7266 840 442 245 3072 2258 2251 1074 8466 3705 1904 936 4483 518 3549 2707 5006 692 3159 1180 3526 547 3022 1887 3071 480 2718 14968 600 345 1091
internal_value=0 0.00512441 -0.0247118 -0.000252696 -0.0289531 -0.016943 0.0257216 0.00392495 0.00102056 -0.0435943 0.0219687 -0.0143845 0.0531607 0.00368434 -0.00553706 0.0274393 0.0533073 0.0103486 -0.0222965 0.0115242 -0.0363935 -0.0326027 0.0132519 0.0196316 -0.0376791 -0.00878239 0.00121397 -0.00757459 -0.015621 -0.0184238
internal_weight=0 71236 14772 56489 14009 7696 14747 43600 33247 6313 12981 12889 763 25381 4965 8519 1766 6864 5343 4462 4409 3569 10353 3513 2731 7546 18517 7866 3063 4163
internal_count=86008 71236 14772 56489 14009 7696 14747 43600 33247 6313 12981 12889 763 25381 4965 8519 1766 6864 5343 4462 4409 3569 10353 3513 2731 7546 18517 7866 3063 4163
shrinkage=0.1


Tree=2
num_leaves=31
num_cat=0
split_feature=2 0 0 0 2 2 0 2 0 1 0 2 6 2 12 1 11 3 0 2 0 0 2 5 1 4 8 6 14 3
split_gain=889.366 625.405 444.501 228.896 212.979 171.685 137.544 104.156 99.8798 67.2527 62.9506 42.3738 39.4399 37.8322 35.9792 33.6613 33.6271 31.9654 29.3733 26.2271 26.4878 25.6592 23.9842 23.9631 23.0895 21.8313 21.0625 20.1201 19.9076 20.8607
threshold=30.500000000000004 24.500000000000004 35.500000000000007 46.500000000000007 38.500000000000007 23.500000000000004 33.500000000000007 41.500000000000007 24.500000000000004 1.0000000180025095e-35 46.500000000000007 45.500000000000007 3.5000000000000004 24.500000000000004 1.0000000180025095e-35 13.500000000000002 2.5000000000000004 14.500000000000002 19.500000000000004 19.500000000000004 17.500000000000004 16.500000000000004 14.500000000000002 3.5000000000000004 1.0000000180025095e-35 1.0000000180025095e-35 15.500000000000002 1.0000000180025095e-35 10.500000000000002 3.5000000000000004
decision_type=2 2 2 2 2 2 2 2 2 2 2 2 2 2 2 2 2 2 2 2 2 2 2 2 2 2 2 2 2 2
left_child=1 5 4 7 8 9 13 24 17 23 15 18 19 25 -7 22 -16 27 -6 21 -21 -11 -8 -1 -4 -3 -20 -2 -10 -30
right_child=2 6 3 -5 11 14 10 -9 28 12 -12 -13 -14 -15 16 -17 -18 -19 26 20 -22 -23 -24 -25 -26 -27 -28 -29 29 -31
leaf_value=-0.0030602361931538306 -0.054093256588849725 -0.0035861213277367989 -0.01087296389987771 0.063383197784423834 -0.050879896846628803 0.017024462561473212 0.039328430790520286 -0.023637046990126878 -0.00099710121918799612 0.0002397998210260397 0.063383197784423834 -0.059551262792868515 0.015374490545328821 0.006036229468542877 -0.0080253099217205432 0.039090916123643432 -0.020350756574233117 -0.040014505416971366 -0.025318373590886557 -0.010543577973793253 0.0027498313133155435 0.012860254437340053 0.020630797984046351 -0.018428981865837687 0.012579111058624682 0.019767660009318816 -0.042105065520261713 -0.020750397948721556 0.0054762294020833857 -0.020545357562335474
leaf_weight=7810 191 425 497 626 1288 391 845 1416 2484 2413 584 1190 3168 3734 4588 2269 4277 1460 1667 1642 17199 4847 3647 1166 2703 6882 1355 3449 395 1400
leaf_count=7810 191 425 497 626 1288 391 845 1416 2484 2413 584 1190 3168 3734 4588 2269 4277 1460 1667 1642 17199 4847 3647 1166 2703 6882 1355 3449 395 1400
internal_value=0 0.00561948 -0.0184012 0.0066397 -0.0272233 -0.000441926 0.0212794 -0.00105559 -0.0180614 0.00251567 0.0318837 -0.0428468 0.0048379 0.0142248 -0.0126625 0.0291629 -0.0139718 -0.0275139 -0.0382347 0.00355902 0.00159131 0.0086656 0.0241481 -0.00505667 0.00893671 0.0184093 -0.0328452 -0.0225 -0.00679532 -0.0148192
internal_weight=0 65887 20121 5242 14879 47501 18386 4616 9379 38245 7345 5500 29269 11041 9256 6761 8865 5100 4310 26101 18841 7260 4492 8976 3200 7307 3022 3640 4279 1795
internal_count=86008 65887 20121 5242 14879 47501 18386 4616 9379 38245 7345 5500 29269 11041 9256 6761 8865 5100 4310 26101 18841 7260 4492 8976 3200 7307 3022 3640 4279 1795
shrinkage=0.1


Tree=3
num_leaves=31
num_cat=0
split_feature=2 0 0 2 0 2 0 0 2 2 2 2 0 0 1 0 5 13 7 6 3 8 3 1 11 3 11 0 5 6
split_gain=726.521 521.746 344.527 197.438 179.279 135.499 101.124 74.4669 57.0064 49.2748 42.4752 40.0174 38.253 34.4871 30.5651 28.5195 26.5556 22.6654 22.2065 22.1421 21.4982 20.7459 20.1919 20.1129 19.2984 19.1881 19.1353 19.1149 19.0872 18.9382
threshold=32.500000000000007 27.500000000000004 45.500000000000007 24.500000000000004 24.500000000000004 41.500000000000007 43.500000000000007 19.500000000000004 41.500000000000007 19.500000000000004 26.500000000000004 18.500000000000004 35.500000000000007 19.500000000000004 5.5000000000000009 46.500000000000007 3.5000000000000004 3.5000000000000004 3.5000000000000004 2.5000000000000004 3.5000000000000004 23.500000000000004 17.500000000000004 11.500000000000002 1.5000000000000002 1.5000000000000002 1.5000000000000002 40.500000000000007 3.5000000000000004 3.5000000000000004
decision_type=2 2 2 2 2 2 2 2 2 2 2 2 2 2 2 2 2 2 2 2 2 2 2 2 2 2 2 2 2 2
left_child=1 3 4 7 8 12 10 11 17 -9 14 16 20 28 18 -4 26 -2 -3 -11 -6 -22 29 -12 -19 -7 -1 -27 -5 -13
right_child=2 6 15 13 5 25 -8 9 -10 19 23 22 -14 -15 -16 -17 -18 24 -20 -21 21 -23 -24 -25 -26 27 -28 -29 -30 -31
leaf_value=0.023323105873852751 -0.015637706529530181 -0.0048187167151364507 0.016903514417902384 -0.015352555948006039 0.0015956511575376056 -0.011072688311049083 0.043840324090436339 0.013321550102794871 -0.051750900285669768 0.002288928820342837 0.0044327719871989175 -0.0083028919068881806 0.0045384522370487436 -0.0070835222823150239 0.026327340166067525 0.057044875621795658 -0.010516578331291437 -0.002197613329329389 0.017682275194241065 0.011966740856265883 -0.011176727922255873 -0.031103133961446306 -0.026681649173677088 0.018728770627101834 -0.035110725727808829 -0.038713851129122838 0.0037206303437521734 -0.017730755578387866 -0.031807202669046165 0.0056125791740169566
leaf_weight=548 900 501 259 4062 972 412 1673 6970 1612 17680 2755 6413 2397 6435 5551 559 1249 188 3522 2729 2438 665 513 1531 3400 2061 5456 550 853 1154
leaf_count=548 900 501 259 4062 972 412 1673 6970 1612 17680 2755 6413 2397 6435 5551 559 1249 188 3522 2729 2438 665 513 1531 3400 2061 5456 550 853 1154
internal_value=0 0.00446333 -0.0189256 -0.000177777 -0.0222438 -0.0136499 0.0206165 0.00293747 -0.0356207 0.00606219 0.0178133 -0.00264212 -0.0054856 -0.011901 0.0215172 0.0443351 0.00274998 -0.029827 0.0148801 0.003583 -0.011382 -0.0154471 -0.00748233 0.00953944 -0.0333862 -0.031129 0.0055098 -0.0342938 -0.0182083 -0.00618072
internal_weight=0 69595 16413 54062 15595 9495 15533 42712 6100 27379 13860 15333 6472 11350 9574 818 7253 4488 4023 20409 4075 3103 8080 4286 3588 3023 6004 2611 4915 7567
internal_count=86008 69595 16413 54062 15595 9495 15533 42712 6100 27379 13860 15333 6472 11350 9574 818 7253 4488 4023 20409 4075 3103 8080 4286 3588 3023 6004 2611 4915 7567
shrinkage=0.1


Tree=4
num_leaves=31
num_cat=0
split_feature=2 0 2 0 0 0 2 0 1 2 3 0 0 0 1 2 2 12 11 4 1 11 0 6 15 9 3 0 0 3
split_gain=596.673 442.697 252.422 232.995 104.785 96.392 74.1464 73.2591 53.2238 48.9675 46.2732 35.7609 34.6479 30.7406 29.8897 28.3285 27.2579 24.9042 23.8537 22.086 21.9971 20.9737 20.8094 20.773 20.3916 17.779 17.7204 17.1929 16.4363 16.3605
threshold=36.500000000000007 28.500000000000004 25.500000000000004 44.500000000000007 46.500000000000007 30.500000000000004 29.500000000000004 20.500000000000004 3.5000000000000004 41.500000000000007 19.500000000000004 46.500000000000007 33.500000000000007 20.500000000000004 1.0000000180025095e-35 19.500000000000004 44.500000000000007 3.5000000000000004 2.5000000000000004 1.5000000000000002 13.500000000000002 2.5000000000000004 19.500000000000004 1.5000000000000002 12.500000000000002 3.5000000000000004 9.5000000000000018 10.500000000000002 19.500000000000004 3.5000000000000004
decision_type=2 2 2 2 2 2 2 2 2 2 2 2 2 2 2 2 2 2 2 2 2 2 2 2 2 2 2 2 2 2
left_child=1 2 7 5 6 16 12 8 18 -7 13 -5 -3 21 -8 19 22 -9 -1 -10 -14 -4 -2 -24 -16 -26 -17 -21 -28 -15
right_child=3 4 10 11 -6 9 14 17 15 -11 -12 -13 20 29 24 26 -18 -19 -20 27 -22 -23 23 -25 25 -27 28 -29 -30 -31
leaf_value=-0.002280048708167978 -0.040055653489668913 0.013744399625479631 -0.0097696116250217055 0.0085982498450156968 0.05239254827890432 -0.0039530717354108414 -0.011437159365448873 0.011777289395274761 -0.0058964933472118166 -0.025964037598532382 -0.029196076446198961 0.051340389251708987 0.020724652402482988 0.0026989092957480586 0.015828575969718265 0.0019498513650296166 -0.048276287932522491 -0.00045121961562977453 -0.012252520678668388 -0.0035305486765388919 0.033181386074044285 -0.021603543205936753 -0.044643687066650888 -0.021762382926428774 -0.029071891745605039 0.0043954019515892616 -0.016907716756713986 0.013617272281995199 0.0017207355687847245 -0.0092904994577350988
leaf_weight=7187 1711 4935 2856 390 817 2033 895 9110 870 2010 1612 393 4215 1662 1985 16187 1234 2038 3600 674 2136 3149 485 2181 177 1538 1019 4413 885 3611
leaf_count=7187 1711 4935 2856 390 817 2033 895 9110 870 2010 1612 393 4215 1662 1985 16187 1234 2038 3600 674 2136 3149 485 2181 177 1538 1019 4413 885 3611
internal_value=0 0.00309535 -0.000980801 -0.0224124 0.0174668 -0.0266675 0.0156701 0.00248604 0.000228042 -0.0148959 -0.0133482 0.0300512 0.02003 -0.011083 0.00496145 0.00284596 -0.0351495 0.00954176 -0.00560821 0.00882718 0.0249142 -0.0159753 -0.0314487 -0.025925 0.00892814 0.000941343 0.000876465 0.0113453 -0.00824901 -0.00551155
internal_weight=0 75571 58873 10437 16698 9654 15881 45983 34835 4043 12890 783 11286 11278 4595 24048 5611 11148 10787 5957 6351 6005 4377 2666 3700 1715 18091 5087 1904 5273
internal_count=86008 75571 58873 10437 16698 9654 15881 45983 34835 4043 12890 783 11286 11278 4595 24048 5611 11148 10787 5957 6351 6005 4377 2666 3700 1715 18091 5087 1904 5273
shrinkage=0.1


Tree=5
num_leaves=31
num_cat=0
split_feature=2 0 0 0 2 2 0 0 2 5 12 13 2 0 12 11 0 6 0 11 4 13 3 0 3 4 12 6 3 7
split_gain=485.824 348.909 253.649 119.459 119.001 93.8439 77.7129 57.8256 55.8439 43.618 36.5676 31.6537 30.5851 29.1889 29.0608 26.7676 26.2052 25.1652 24.5718 24.1383 22.0213 21.3038 20.6734 19.2401 17.5844 17.5804 17.3655 17.3223 16.3913 15.8809
threshold=30.500000000000004 24.500000000000004 35.500000000000007 46.500000000000007 38.500000000000007 23.500000000000004 36.500000000000007 22.500000000000004 41.500000000000007 3.5000000000000004 2.5000000000000004 10.500000000000002 19.500000000000004 46.500000000000007 1.0000000180025095e-35 2.5000000000000004 19.500000000000004 1.5000000000000002 16.500000000000004 2.5000000000000004 1.5000000000000002 7.5000000000000009 14.500000000000002 25.500000000000004 10.500000000000002 1.5000000000000002 1.5000000000000002 3.5000000000000004 3.5000000000000004 4.5000000000000009
decision_type=2 2 2 2 2 2 2 2 2 2 2 2 2 2 2 2 2 2 2 2 2 2 2 2 2 2 2 2 2 2
left_child=1 5 4 8 7 9 10 22 25 12 -3 -12 18 20 -7 21 -14 -9 -1 -16 -8 -6 27 -17 -21 -4 -11 -2 -25 -19
right_child=2 6 3 -5 15 14 13 17 -10 26 11 -13 16 -15 19 23 -18 29 -20 24 -22 -23 -24 28 -26 -27 -28 -29 -30 -31
leaf_value=0.001169823001669528 -0.021918545806375533 0.017120405218695008 -0.0085650802445574152 0.046308513457021014 -0.0065467272077175164 0.017271372058507425 0.010074229924006277 -0.02205204438456955 -0.016778152151885679 0.015755186066684496 0.012909913436697663 -0.00088300373490716598 -0.0052097080742741931 0.047421586513519291 -0.0055476725459547025 -0.04341930388293605 0.0026222348421955635 -0.017624766904971157 0.010706290185838879 -0.011879229877179126 0.027272095738021987 -0.029730366987191587 -0.033007673372784242 -0.011503661438530568 -0.025990981997471352 0.010586348372175463 -0.011665939531424021 -0.0044615052788462865 -0.034404227569785818 -0.00054924105356753724
leaf_weight=4370 2300 6610 587 626 604 391 943 840 1416 251 3661 3050 5596 584 4588 1999 18059 641 7078 3031 3538 1153 1219 408 1246 2613 2891 755 1336 3624
leaf_count=4370 2300 6610 587 626 604 391 943 840 1416 251 3661 3050 5596 584 4588 1999 18059 641 7078 3031 3538 1153 1219 408 1246 2613 2891 755 1336 3624
internal_value=0 0.00415331 -0.0136002 0.00531585 -0.0202645 -0.000374084 0.01585 -0.013416 -0.000243379 0.00181255 0.0118411 0.00664134 0.00282291 0.0263935 -0.00940907 -0.0319429 0.000769453 -0.00623147 0.00706597 -0.0105858 0.0236529 -0.0217606 -0.0219975 -0.0367226 -0.0159903 0.00707326 -0.00947539 -0.0176043 -0.0290468 -0.00311557
internal_weight=0 65887 20121 5242 14879 47501 18386 9379 4616 38245 13321 6711 35103 5065 9256 5500 23655 5105 11448 8865 4481 1757 4274 3743 4277 3200 3142 3055 1744 4265
internal_count=86008 65887 20121 5242 14879 47501 18386 9379 4616 38245 13321 6711 35103 5065 9256 5500 23655 5105 11448 8865 4481 1757 4274 3743 4277 3200 3142 3055 1744 4265
shrinkage=0.1


Tree=6
num_leaves=31
num_cat=0
split_feature=2 0 0 2 0 0 2 0 0 1 5 2 1 0 2 3 3 15 12 6 3 3 13 13 13 9 7 8 6 6
split_gain=398.75 292.53 186.684 111.627 86.1965 72.1533 66.1147 45.692 40.7798 36.0507 32.3237 28.1057 25.6497 25.2872 24.4303 23.6235 21.0476 20.7427 19.3808 19.2781 18.7005 18.4028 18.2719 18.1505 16.9875 16.0815 15.7536 15.6143 15.2756 15.0285
threshold=33.500000000000007 32.500000000000007 44.500000000000007 24.500000000000004 26.500000000000004 20.500000000000004 41.500000000000007 24.500000000000004 43.500000000000007 3.5000000000000004 3.5000000000000004 41.500000000000007 4.5000000000000009 46.500000000000007 23.500000000000004 6.5000000000000009 8.5000000000000018 6.5000000000000009 1.5000000000000002 3.5000000000000004 7.5000000000000009 10.500000000000002 2.5000000000000004 14.500000000000002 9.5000000000000018 6.5000000000000009 3.5000000000000004 27.500000000000004 1.0000000180025095e-35 1.5000000000000002
decision_type=2 2 2 2 2 2 2 2 2 2 2 2 2 2 2 2 2 2 2 2 2 2 2 2 2 2 2 2 2 2
left_child=1 3 4 5 11 9 15 10 14 20 21 22 23 -4 -3 29 -9 -14 -16 -11 -1 -5 -2 -7 -18 -17 -25 -24 -12 -6
right_child=2 8 13 7 6 12 -8 16 -10 19 28 -13 17 -15 18 25 24 -19 -20 -21 -22 -23 27 26 -26 -27 -28 -29 -30 -31
leaf_value=-0.0014637227641280514 -0.007082599461117391 0.021732950314567803 0.010363600828410108 -0.0053016351892700257 -0.020933158497015637 0.0070114032491549409 -0.023465053255408382 0.007361138276990105 0.03299871893390794 0.0017704092424412803 -0.057287143755092987 -0.036788454832618729 0.021301285504652989 0.041550107162201269 0.026260177389238821 -0.022527225810230755 0.0020701682758606545 0.0097445329436202655 0.0074822482699712506 0.011672658520269812 -0.010585743641982285 -0.015226650021199571 -0.021581068537716824 -0.039180526424337316 -0.015098342219009088 -0.0050492559099479754 -0.0028806143300385001 -0.03726967583329957 -0.021166987329038392 0.0097619412048087651
leaf_weight=6921 673 3969 522 6054 180 4178 2633 2544 1766 20827 128 1904 2136 518 660 664 1256 5691 3287 2171 3328 2702 2926 135 1065 2541 1045 810 1373 1401
leaf_count=6921 673 3969 522 6054 180 4178 2633 2544 1766 20827 128 1904 2136 518 660 664 1256 5691 3287 2171 3328 2702 2926 135 1065 2541 1045 810 1373 1401
internal_value=0 0.00310064 -0.0149524 0.000559138 -0.0180461 0.00298939 -0.0107377 -0.00690295 0.0192584 0.000506929 -0.0106887 -0.026635 0.00924912 0.0258969 0.016193 -0.00373584 0.00107855 0.0128984 0.0106222 0.00270518 -0.00442578 -0.00836438 -0.0222502 0.00391826 -0.00580767 -0.00867028 -0.00703357 -0.0249825 -0.0242472 0.00626724
internal_weight=0 71236 14772 61554 13732 46432 7419 15122 9682 33247 10257 6313 13185 1040 7916 4786 4865 7827 3947 22998 10249 8756 4409 5358 2321 3205 1180 3736 1501 1581
internal_count=86008 71236 14772 61554 13732 46432 7419 15122 9682 33247 10257 6313 13185 1040 7916 4786 4865 7827 3947 22998 10249 8756 4409 5358 2321 3205 1180 3736 1501 1581
shrinkage=0.1


Tree=7
num_leaves=31
num_cat=0
split_feature=2 0 2 0 0 0 0 2 2 1 8 3 11 8 5 0 2 13 5 13 2 15 4 1 3 4 7 12 6 14
split_gain=328.567 248.31 140.606 132.913 61.1101 57.8559 47.9444 46.2949 43.1595 32.5064 31.8587 30.6823 29.6121 25.2058 25.1039 25.5432 23.5822 21.4599 20.289 20.1179 20.0759 19.4821 18.8693 17.9183 17.5797 17.1031 16.4272 15.8956 17.1239 15.4229
threshold=36.500000000000007 28.500000000000004 25.500000000000004 35.500000000000007 46.500000000000007 46.500000000000007 16.500000000000004 19.500000000000004 23.500000000000004 1.0000000180025095e-35 13.500000000000002 19.500000000000004 1.5000000000000002 19.500000000000004 3.5000000000000004 23.500000000000004 44.500000000000007 4.5000000000000009 3.5000000000000004 7.5000000000000009 45.500000000000007 12.500000000000002 1.0000000180025095e-35 5.5000000000000009 1.5000000000000002 1.5000000000000002 3.5000000000000004 2.5000000000000004 1.0000000180025095e-35 6.5000000000000009
decision_type=2 2 2 2 2 2 2 2 2 2 2 2 2 2 2 2 2 2 2 2 2 2 2 2 2 2 2 2 2 2
left_child=1 2 6 10 16 8 17 22 23 -10 20 12 -4 24 15 -9 -5 -1 25 -12 29 -11 -8 -3 -14 -19 -26 -24 -29 -2
right_child=3 5 11 4 -6 -7 7 14 9 21 19 -13 13 -15 -16 -17 -18 18 -20 -21 -22 -23 27 -25 26 -27 -28 28 -30 -31
leaf_value=0.0031854132391423667 -0.0048832991262328304 0.011496336961869563 0.01634906326237491 0.0011248983650900134 0.037420487403869628 0.039012172931264931 -0.011186750903042086 0.00088945290853662527 -0.0051842534816353971 0.014841328751287117 -0.020239448389623195 -0.022890896407688599 0.0016823828676935642 -0.018327993080774759 -0.01356726342703413 0.011987301082464687 -0.019336139864945746 -0.017236818013878823 -0.018895414243822874 -0.035520039219280493 -0.03500056081999002 0.0042683550228743974 0.013258359282023863 0.021710468447345005 -0.02364648995159813 -0.0023750703757558374 -0.0074073850218190898 -0.026921497998030293 0.0064086638666812886 -0.019734961198180898
leaf_weight=2603 1161 2911 473 1969 393 817 436 22949 1744 3859 1306 1612 1946 2369 1096 2280 789 931 1269 2532 529 3178 6036 4189 698 4602 5792 161 3620 1758
leaf_count=2603 1161 2911 473 1969 393 817 436 22949 1744 3859 1306 1612 1946 2369 1096 2280 789 931 1269 2532 529 3178 6036 4189 698 4602 5792 161 3620 1758
internal_value=0 0.00229696 -0.000755809 -0.0166315 0.000528392 0.0130603 0.00183164 0.00346898 0.0117252 0.00703749 -0.0240527 -0.00998611 -0.00814159 -0.00921369 0.00124875 0.00189239 -0.00472853 -0.00453633 -0.0074913 -0.0303203 -0.0170762 0.0100664 0.00916951 0.0175227 -0.00665421 -0.00487575 -0.0091539 0.0100736 0.00498942 -0.0138279
internal_weight=0 75571 58873 10437 3151 16698 45983 36578 15881 8781 7286 12890 11278 10805 26325 25229 2758 9405 6802 3838 3448 7037 10253 7100 8436 5533 6490 9817 3781 2919
internal_count=86008 75571 58873 10437 3151 16698 45983 36578 15881 8781 7286 12890 11278 10805 26325 25229 2758 9405 6802 3838 3448 7037 10253 7100 8436 5533 6490 9817 3781 2919
shrinkage=0.1


Tree=8
num_leaves=31
num_cat=0
split_feature=2 0 0 2 0 5 0 2 0 12 5 13 0 12 3 10 3 0 7 11 11 0 6 13 0 4 6 11 6 3
split_gain=269.418 198.86 147.455 80.986 72.3975 52.6852 44.4086 37.6488 35.1175 26.972 26.7077 24.4581 22.5722 20.2602 20.0214 18.2913 18.0358 17.9471 17.8291 18.1743 17.6281 16.7368 16.5248 16.0619 16.0332 17.4472 15.8006 15.0768 14.3865 14.2062
threshold=30.500000000000004 24.500000000000004 43.500000000000007 41.500000000000007 26.500000000000004 3.5000000000000004 36.500000000000007 19.500000000000004 19.500000000000004 2.5000000000000004 3.5000000000000004 10.500000000000002 46.500000000000007 2.5000000000000004 6.5000000000000009 1.0000000180025095e-35 13.500000000000002 4.5000000000000009 3.5000000000000004 1.5000000000000002 1.5000000000000002 22.500000000000004 2.5000000000000004 3.5000000000000004 46.500000000000007 1.5000000000000002 3.5000000000000004 1.5000000000000002 1.5000000000000002 11.500000000000002
decision_type=2 2 2 2 2 2 2 2 2 2 2 2 2 2 2 2 2 2 2 2 2 2 2 2 2 2 2 2 2 2
left_child=1 5 3 4 10 7 9 13 16 -3 17 -11 -4 -1 -6 -7 22 -2 -19 -20 -16 -5 -9 -21 25 -8 -10 -13 -15 -23
right_child=2 6 12 21 14 15 24 8 26 11 -12 27 -14 28 20 -17 -18 18 19 23 -22 29 -24 -25 -26 -27 -28 -29 -30 -31
leaf_value=0.0090152808688927655 -0.046994247476259868 0.013426867336846336 0.0094917403784721289 -0.033760003536319659 0.0058304658999998966 0.018258173126673351 0.0057759610017562094 -0.0075821828289152383 0.00039929048184863636 0.0099373182970231705 -0.027956139728122827 0.01834883170668036 0.033868892400409467 -0.018777755879693561 0.019969571146066303 -0.012194164528588241 -0.016194426802555267 -0.028344318238016326 0.016217852279959446 4.5700369168267407e-05 -0.0070507017806130286 -0.01292892675766644 0.0018691133106553397 -0.014331430566421355 0.035478338599205017 0.02108385400407526 0.01063259373492738 -0.0045940633144079552 0.0020714295184992883 -0.02660098782757811
leaf_weight=6985 150 6610 966 1346 2376 207 943 5218 20455 3661 1470 320 626 360 256 4185 1493 593 251 977 4248 1394 2866 3797 584 3538 1629 2730 4103 1671
leaf_count=6985 150 6610 966 1346 2376 207 943 5218 20455 3661 1470 320 626 360 256 4185 1493 593 251 977 4248 1394 2866 3797 584 3538 1629 2730 4103 1671
internal_value=0 0.00309292 -0.0101279 -0.0126372 -0.00894177 -0.000325037 0.0119233 0.00073798 -0.00103905 0.00889287 -0.0159235 0.00442711 0.0190772 0.00565259 -0.0015968 -0.0107589 -0.0060964 -0.0128569 -0.0119454 -0.0100102 -0.00551491 -0.0244648 -0.00423144 -0.0113891 0.0198935 0.0178624 0.00115414 -0.00218694 0.000389667 -0.0203828
internal_weight=0 65887 20121 18529 14118 47501 18386 43109 31661 13321 7238 6711 1592 11448 6880 4392 9577 5768 5618 5025 4504 4411 8084 4774 5065 4481 22084 3050 4463 3065
internal_count=86008 65887 20121 18529 14118 47501 18386 43109 31661 13321 7238 6711 1592 11448 6880 4392 9577 5768 5618 5025 4504 4411 8084 4774 5065 4481 22084 3050 4463 3065
shrinkage=0.1


Tree=9
num_leaves=31
num_cat=0
split_feature=2 0 0 2 1 0 0 0 0 2 11 1 6 3 3 5 15 13 2 13 8 10 2 4 12 14 0 3 10 6
split_gain=223.026 175.281 93.2131 92.6615 42.7279 40.8228 39.4021 32.0858 29.1583 26.1493 24.7568 23.9834 23.2693 22.9955 19.9507 18.6017 18.2393 17.1982 17.0388 16.8193 16.5701 16.4137 15.9879 15.7259 15.3002 15.0901 14.9765 13.9784 13.434 13.2235
threshold=36.500000000000007 32.500000000000007 35.500000000000007 24.500000000000004 1.5000000000000002 21.500000000000004 46.500000000000007 19.500000000000004 45.500000000000007 14.500000000000002 2.5000000000000004 11.500000000000002 3.5000000000000004 8.5000000000000018 7.5000000000000009 3.5000000000000004 9.5000000000000018 6.5000000000000009 44.500000000000007 6.5000000000000009 24.500000000000004 1.0000000180025095e-35 45.500000000000007 2.5000000000000004 2.5000000000000004 4.5000000000000009 19.500000000000004 18.500000000000004 2.5000000000000004 1.5000000000000002
decision_type=2 2 2 2 2 2 2 2 2 2 2 2 2 2 2 2 2 2 2 2 2 2 2 2 2 2 2 2 2 2
left_child=1 3 10 4 14 12 18 21 9 -3 19 16 -6 23 17 -7 -11 -1 -4 -2 -15 -5 26 -9 -16 -23 -12 -14 -25 -28
right_child=2 8 6 7 5 15 -8 13 -10 11 22 -13 27 20 24 -17 -18 -19 -20 -21 -22 25 -24 28 -26 -27 29 -29 -30 -31
leaf_value=0.0068785212016848453 0.0002279307449882354 0.024399308886854293 0.0014223548960661514 0.008525531250302509 0.0012516092971817888 0.012961590732572756 0.030291548371315005 -0.0027879231559237083 0.028449493154590208 0.0112735562360151 -0.03057869755171342 0.016323732608152893 0.01330738733857809 -0.0055917577500402436 -0.0026779421520292685 0.00023767471271293517 -0.00057245203262997423 -0.0029552704374082414 -0.01596986329978561 -0.017479195816040401 -0.021138647899625856 -0.0053687983025127737 -0.036625242115776169 0.015225650510309559 -0.014433672080243791 -0.016340917146208025 -0.032250062157685049 -0.01318162822503648 6.6780136277278261e-05 -0.014143709176134667
leaf_weight=2632 796 1403 1969 372 23650 6149 393 4177 1169 2635 1237 3306 2431 4316 2403 1413 2565 5484 789 1645 815 1775 837 1140 2053 4266 490 217 1200 2281
leaf_count=2632 796 1403 1969 372 23650 6149 393 4177 1169 2635 1237 3306 2431 4316 2403 1413 2565 5484 789 1645 815 1775 837 1140 2053 4266 490 217 1200 2281
internal_value=0 0.00189242 -0.0137024 -0.000103594 0.00226045 0.00410889 0.000668033 -0.00618118 0.0135127 0.0117505 -0.0199173 0.00966421 0.00224695 -0.00305373 -0.00271793 0.0105841 0.00543028 0.000233805 -0.00355316 -0.011705 -0.0080612 -0.0118616 -0.0240548 0.000888787 -0.00809413 -0.013117 -0.0214297 0.0111366 0.00745187 -0.0173455
internal_weight=0 75571 10437 64493 46432 33860 3151 18061 11078 9909 7286 8506 26298 11648 12572 7562 5200 8116 2758 2441 5131 6413 4845 6517 4456 6041 4008 2648 2340 2771
internal_count=86008 75571 10437 64493 46432 33860 3151 18061 11078 9909 7286 8506 26298 11648 12572 7562 5200 8116 2758 2441 5131 6413 4845 6517 4456 6041 4008 2648 2340 2771
shrinkage=0.1


Tree=10
num_leaves=31
num_cat=0
split_feature=2 0 0 2 0 1 4 6 10 0 7 2 0 11 3 14 11 2 3 11 6 2 12 8 15 0 4 2 6 10
split_gain=183.927 140.392 105.618 48.056 47.7383 37.752 31.477 29.3246 27.5676 24.6806 24.0449 23.0728 21.0368 19.9409 21.552 19.7055 19.5276 19.5032 27.9832 18.7985 18.0998 15.9139 15.7619 15.6556 14.1984 14.1028 13.7397 15.7906 13.6201 13.6062
threshold=29.500000000000004 24.500000000000004 34.500000000000007 38.500000000000007 45.500000000000007 1.5000000000000002 1.5000000000000002 1.0000000180025095e-35 1.0000000180025095e-35 40.500000000000007 2.5000000000000004 44.500000000000007 22.500000000000004 1.5000000000000002 23.500000000000004 9.5000000000000018 2.5000000000000004 20.500000000000004 9.5000000000000018 1.5000000000000002 2.5000000000000004 46.500000000000007 2.5000000000000004 18.500000000000004 2.5000000000000004 3.5000000000000004 2.5000000000000004 23.500000000000004 2.5000000000000004 1.5000000000000002
decision_type=2 2 2 2 2 2 2 2 2 2 2 2 2 2 2 2 2 2 2 2 2 2 2 2 2 2 2 2 2 2
left_child=1 5 3 7 11 16 -3 -2 -7 13 -9 15 25 -8 -15 -4 26 24 20 -5 -19 23 -14 -21 -10 -12 -1 -28 -17 -18
right_child=2 6 4 19 -6 8 9 10 17 -11 12 -13 22 14 -16 28 29 18 -20 21 -22 -23 -24 -25 -26 -27 27 -29 -30 -31
leaf_value=-0.0039892895684980707 -0.027931069301211101 0.0023306059343175165 0.0096620393545942193 0.0084434810522440312 0.023612518243769889 0.021902077476971035 0.024014979054388139 -0.02477971968480519 0.011273764527791384 0.02282994938710323 -0.047730195552110673 -0.016208642828940158 0.0045961595423316603 0.010748270864973736 -0.007474204764949333 -0.01167155653981416 0.0011734650392364301 -0.0026760554426865247 -0.010883168784475677 -0.014090448944363385 0.0081936279741428499 -0.034855991295036588 -0.0068345252444929868 -0.026447411981492742 0.0020572262580697263 -0.0097349910049671935 0.011269482067602914 -0.010624920855993513 0.0031710824982975091 -0.012429923255184491
leaf_weight=6186 712 3790 1978 222 964 656 1047 700 1812 2022 100 802 2459 9815 695 1153 908 4686 2852 2602 2276 738 2368 1692 21555 4228 1357 435 1333 3865
leaf_count=6186 712 3790 1978 222 964 656 1047 700 1812 2022 100 802 2459 9815 695 1153 908 4686 2852 2602 2276 738 2368 1692 21555 4228 1357 435 1333 3865
internal_value=0 0.00271534 -0.00787559 -0.0122185 0.00315319 -0.000145398 0.0103885 -0.00833231 0.00160207 0.0126376 -0.00691634 -0.000592113 -0.00555049 0.0108543 0.00954326 0.00221354 -0.00478261 0.00120073 -0.00254026 -0.0200346 0.000877435 -0.021291 -0.00101144 -0.0189596 0.00277193 -0.0106129 -0.00175569 0.00595471 -0.00371289 -0.00984206
internal_weight=0 63957 22051 15821 6230 46588 17369 10567 33837 13579 9855 5266 9155 11557 10510 4464 12751 33181 9814 5254 6962 5032 4827 4294 23367 4328 7978 1792 2486 4773
internal_count=86008 63957 22051 15821 6230 46588 17369 10567 33837 13579 9855 5266 9155 11557 10510 4464 12751 33181 9814 5254 6962 5032 4827 4294 23367 4328 7978 1792 2486 4773
shrinkage=0.1


Tree=11
num_leaves=31
num_cat=0
split_feature=2 0 0 4 2 5 0 2 0 0 13 3 6 1 11 11 0 3 1 2 12 14 0 11 8 9 0 10 6 6
split_gain=151.783 117.792 72.0378 56.4331 50.5963 46.1056 38.6285 32.093 30.1701 29.3015 26.3615 23.4139 22.3996 21.1863 17.1232 16.3874 15.5208 14.8502 14.3442 14.2584 14.6048 14.0437 13.6819 13.5342 13.4441 15.3765 12.8588 15.1122 12.6037 12.3234
threshold=33.500000000000007 32.500000000000007 42.500000000000007 1.0000000180025095e-35 19.500000000000004 3.5000000000000004 20.500000000000004 41.500000000000007 19.500000000000004 17.500000000000004 7.5000000000000009 4.5000000000000009 2.5000000000000004 12.500000000000002 1.5000000000000002 2.5000000000000004 46.500000000000007 22.500000000000004 1.0000000180025095e-35 14.500000000000002 1.5000000000000002 2.5000000000000004 46.500000000000007 2.5000000000000004 25.500000000000004 13.500000000000002 33.500000000000007 1.5000000000000002 2.5000000000000004 2.5000000000000004
decision_type=2 2 2 2 2 2 2 2 2 2 2 2 2 2 2 2 2 2 2 2 2 2 2 2 2 2 2 2 2 2
left_child=1 3 6 10 9 8 -2 12 23 14 -1 18 24 19 -5 -11 -4 28 -10 -3 -21 -9 -22 -6 25 -8 -14 -28 -13 -7
right_child=2 13 16 4 5 29 7 21 11 15 -12 17 26 -15 -16 -17 -18 -19 -20 20 22 -23 -24 -25 -26 -27 27 -29 -30 -31
leaf_value=-0.0036285061220857531 -0.020393919299938973 0.019760781643679125 0.0039364966587246966 0.01701088406050227 -0.0016139766118329043 -0.015656541992009672 -0.011783673561267773 -0.00075977989472448832 -0.0015696064338156703 0.012702670169279945 -0.027199108492180116 -9.4524988076616083e-05 -0.0028588441355311459 0.018327703984022815 -0.0015192678295210494 0.0047234229984301525 0.024881793089700024 -0.014362007555782156 0.011653308338274146 0.020121504049259442 0.003114483545649218 -0.019328157029852105 0.027188384461402895 -0.009001647940486409 -0.024168059387021906 0.0052852047190826458 0.03459497133515916 0.0048400369528085671 0.0060621016388263463 -0.0043516843102718991
leaf_weight=863 3672 967 1116 547 6280 2420 1912 480 1085 5291 1054 19637 2010 3540 5646 5012 518 651 3364 686 4239 2690 250 4098 557 729 212 876 4003 1603
leaf_count=863 3672 967 1116 547 6280 2420 1912 480 1085 5291 1054 19637 2010 3540 5646 5012 518 651 3364 686 4239 2690 250 4098 557 729 212 876 4003 1603
internal_value=0 0.00191298 -0.00922511 0.000300255 0.00084312 -0.000958014 -0.0116879 -0.00831067 9.03655e-05 0.00555352 -0.016588 0.0017592 -0.00417906 0.012166 0.000117418 0.00882108 0.0105764 0.000537678 0.00842857 0.00861469 0.00653193 -0.0165165 0.0044552 -0.00453117 -0.0100497 -0.00707212 0.00188113 0.0106379 0.000947987 -0.011152
internal_weight=0 71236 14772 61554 59637 43141 13138 9466 39118 16496 1917 28740 6296 9682 6193 10303 1634 24291 4449 6142 5175 3170 4489 10378 3198 2641 3098 1088 23640 4023
internal_count=86008 71236 14772 61554 59637 43141 13138 9466 39118 16496 1917 28740 6296 9682 6193 10303 1634 24291 4449 6142 5175 3170 4489 10378 3198 2641 3098 1088 23640 4023
shrinkage=0.1


Tree=12
num_leaves=31
num_cat=0
split_feature=2 0 2 6 0 0 6 3 3 2 2 0 11 13 3 8 11 12 15 13 7 2 8 5 11 1 13 4 1 15
split_gain=126.556 112.374 70.11 41.4139 38.9764 38.0718 26.7187 23.495 23.0054 20.1249 18.5746 18.5552 18.3018 19.2687 16.8349 16.2485 15.8482 17.6298 15.2499 14.4972 14.7191 14.0786 13.9657 15.0075 14.7625 13.6543 13.2168 12.924 14.8556 14.0575
threshold=38.500000000000007 33.500000000000007 26.500000000000004 3.5000000000000004 42.500000000000007 17.500000000000004 1.0000000180025095e-35 7.5000000000000009 16.500000000000004 19.500000000000004 16.500000000000004 43.500000000000007 1.5000000000000002 7.5000000000000009 1.0000000180025095e-35 23.500000000000004 2.5000000000000004 1.5000000000000002 9.5000000000000018 9.5000000000000018 4.5000000000000009 14.500000000000002 13.500000000000002 1.5000000000000002 1.5000000000000002 3.5000000000000004 1.5000000000000002 2.5000000000000004 3.5000000000000004 1.0000000180025095e-35
decision_type=2 2 2 2 2 2 2 2 2 2 2 2 2 2 2 2 2 2 2 2 2 2 2 2 2 2 2 2 2 2
left_child=1 2 3 5 12 10 -4 -8 19 -7 -1 18 -2 14 -14 27 17 -12 25 -5 -21 -20 23 -9 -25 -3 -26 28 -11 -30
right_child=4 11 6 8 -6 9 7 22 -10 15 16 -13 13 -15 -16 -17 -18 -19 21 20 -22 -23 -24 24 26 -27 -28 -29 29 -31
leaf_value=0.00089710008431017566 0.0097526474524352522 0.0052530485090306576 -0.022261499730637055 0.014265434606399886 0.0064639994781650239 0.0059797460284976194 -0.00098882036297711327 -0.022051268434614652 -0.0064053868817970754 -0.005074358020847475 0.020925132634574801 0.018696695469914957 0.013763634442496221 -0.01951683183270847 -0.011572046582513075 -0.014464868730799833 -0.014625106175962464 -0.0062144619205937741 0.018452611459482567 -0.01358871108607242 0.0078037441061469875 0.0025551068074025265 -0.013751390061020725 0.023613996698398781 0.012395367665988644 0.01776941953787943 -0.0067277586061934959 0.0065998552005486757 0.015649298416826541 0.00075688993641213984
leaf_weight=3199 295 1360 967 3981 1002 8836 7134 463 916 4592 257 2291 303 4445 1951 710 2507 3486 646 380 2094 4046 3394 198 410 2427 3050 3410 659 16599
leaf_count=3199 295 1360 967 3981 1002 8836 7134 463 916 4592 257 2291 303 4445 1951 710 2507 3486 646 380 2094 4046 3394 198 410 2427 3050 3410 659 16599
internal_value=0 0.00122808 -0.00029086 0.00148505 -0.0119816 0.000329146 -0.00616195 -0.0050992 0.008425 0.00185737 -0.00530016 0.0107115 -0.0146242 -0.0156977 -0.00816623 0.000454775 -0.00847216 -0.00435102 0.00855394 0.0105295 0.00451792 0.00474389 -0.00900119 -0.00508899 -0.00294204 0.0132745 -0.00446172 0.000874131 -1.94484e-05 0.00132556
internal_weight=0 78012 67242 51626 7996 44255 15616 14649 7371 34806 9449 10770 6994 6699 2254 25970 6250 3743 8479 6455 2474 4692 7515 4121 3658 3787 3460 25260 21850 17258
internal_count=86008 78012 67242 51626 7996 44255 15616 14649 7371 34806 9449 10770 6994 6699 2254 25970 6250 3743 8479 6455 2474 4692 7515 4121 3658 3787 3460 25260 21850 17258
shrinkage=0.1


Tree=13
num_leaves=31
num_cat=0
split_feature=2 0 0 11 10 12 6 6 11 4 0 5 3 0 12 0 3 14 3 0 11 8 2 3 15 2 1 0 13 2
split_gain=104.389 86.7138 61.2703 36.2602 31.9256 34.8176 33.9443 27.6537 26.7181 22.9233 22.8078 21.6035 20.4827 22.4941 17.3738 15.7916 17.9263 15.5478 15.0002 14.9768 20.6371 14.5467 14.4883 13.848 13.3458 13.3366 12.8981 12.7994 12.5563 12.2512
threshold=29.500000000000004 24.500000000000004 37.500000000000007 2.5000000000000004 1.0000000180025095e-35 2.5000000000000004 2.5000000000000004 1.5000000000000002 2.5000000000000004 1.5000000000000002 45.500000000000007 3.5000000000000004 3.5000000000000004 15.500000000000002 1.5000000000000002 36.500000000000007 23.500000000000004 3.5000000000000004 11.500000000000002 16.500000000000004 1.5000000000000002 25.500000000000004 19.500000000000004 7.5000000000000009 9.5000000000000018 10.500000000000002 3.5000000000000004 6.5000000000000009 6.5000000000000009 35.500000000000007
decision_type=2 2 2 2 2 2 2 2 2 2 2 2 2 2 2 2 2 2 2 2 2 2 2 2 2 2 2 2 2 2
left_child=1 4 3 17 25 6 19 -5 23 28 18 27 13 -9 24 16 -16 -2 -4 20 -6 29 -21 -7 -11 -1 -19 -10 -3 -14
right_child=2 9 10 7 5 8 -8 12 11 14 -12 -13 21 -15 15 -17 -18 26 -20 22 -22 -23 -24 -25 -26 -27 -28 -29 -30 -31
leaf_value=0.049816156561310228 0.0043915052643901985 0.0083311219558269284 0.0079417561410362811 -0.023275033648769358 0.020497271294863721 0.002460028420354358 0.0079660927937490363 -0.023850935220424765 -0.026923274643280926 0.022279928912927502 0.018121230880501854 -0.023041490686125186 -0.005023093531155199 0.0018326694437875435 0.0074546562657074591 0.014684643899952924 -0.010824887144068878 -0.013278566282392656 -0.0051611318011955199 0.0062636681894594594 -0.0084914200112414847 -0.021489288519719381 -0.00054670330749885347 -0.0062720326590654145 0.0036562602276042585 0.013162010092450917 -0.0022490398246739554 -0.0057134987961925425 -0.0034459656202650278 -0.015045281669672797
leaf_weight=111 2058 1495 1595 1864 265 4426 5957 406 306 1716 964 1073 2338 2130 7821 2970 576 1613 1932 3727 3351 1507 19299 3080 496 939 3094 4054 2295 2550
leaf_count=111 2058 1495 1595 1864 265 4426 5957 406 306 1716 964 1073 2338 2130 7821 2970 576 1613 1932 3727 3351 1507 19299 3080 496 939 3094 4054 2295 2550
internal_value=0 0.00204564 -0.00593319 -0.00859895 -0.000202643 -0.000600146 0.0011419 -0.0121962 -0.00498913 0.00807609 0.00449002 -0.0103303 -0.00988397 -0.00227914 0.00999536 0.00841745 0.00620075 -0.0028587 0.000764331 -0.000383947 -0.00636697 -0.0128997 0.000555627 -0.00112307 0.0181039 0.0170369 -0.00602865 -0.00720207 0.00119961 -0.0102515
internal_weight=0 63957 22051 17560 46588 45538 32599 10795 12939 17369 4491 5433 8931 2536 13579 11367 8397 6765 3527 26642 3616 6395 23026 7506 2212 1050 4707 4360 3790 4888
internal_count=86008 63957 22051 17560 46588 45538 32599 10795 12939 17369 4491 5433 8931 2536 13579 11367 8397 6765 3527 26642 3616 6395 23026 7506 2212 1050 4707 4360 3790 4888
shrinkage=0.1


Tree=14
num_leaves=31
num_cat=0
split_feature=2 0 2 0 1 10 8 6 6 8 11 7 3 11 1 7 2 0 15 0 1 11 3 0 10 12 14 12 12 9
split_gain=89.4181 79.9934 57.5665 28.8801 26.7537 26.2859 26.3297 21.226 20.3251 19.5017 18.8948 18.2004 17.2639 17.2451 17.199 15.5092 15.4306 14.9503 14.4424 13.6011 13.3454 13.2553 12.3979 12.3964 12.2579 13.192 12.1964 12.1587 11.4004 10.954
threshold=38.500000000000007 28.500000000000004 25.500000000000004 46.500000000000007 2.5000000000000004 1.0000000180025095e-35 22.500000000000004 3.5000000000000004 2.5000000000000004 12.500000000000002 1.5000000000000002 1.5000000000000002 3.5000000000000004 1.5000000000000002 1.5000000000000002 2.5000000000000004 46.500000000000007 42.500000000000007 14.500000000000002 28.500000000000004 1.0000000180025095e-35 1.5000000000000002 3.5000000000000004 21.500000000000004 2.5000000000000004 2.5000000000000004 4.5000000000000009 2.5000000000000004 2.5000000000000004 23.500000000000004
decision_type=2 2 2 2 2 2 2 2 2 2 2 2 2 2 2 2 2 2 2 2 2 2 2 2 2 2 2 2 2 2
left_child=1 2 5 10 28 -1 7 14 9 12 -2 -9 -4 -8 26 -11 19 18 -6 -12 -10 -22 -21 -16 -25 -26 -7 -13 -3 -23
right_child=3 4 8 -5 17 6 13 11 20 15 16 27 -14 -15 23 -17 -18 -19 -20 22 21 29 -24 24 25 -27 -28 -29 -30 -31
leaf_value=0.01661541932045791 0.012475415850725501 0.0061599879619441454 0.0060558742505796787 0.019954439997673035 0.010589669987491432 0.0059930028368833039 0.013584038357236492 -0.029423351066057077 -0.0094741646223247544 -0.036890310153365136 -0.01513436235139257 0.013031134180074684 -0.0088574535774426245 -0.010341994186153131 0.0008908079157395935 -0.013147614899216609 -0.022857978383291455 0.016463257600791262 0.0031583209262294343 0.006701357910251917 0.022355516266105768 0.0025898611410696123 -0.0088883698984892762 0.011618885864332134 0.007707087612495972 -0.0099896220585047185 -0.0045507382293650403 0.0026138629606041884 -0.0038405118879322542 -0.0084145430015632877
leaf_weight=1053 321 1975 1045 308 6585 1265 335 129 1795 300 3017 2671 3018 2990 23268 3318 1167 2329 4338 638 266 3084 2545 2329 1040 708 8265 1930 2696 1280
leaf_count=1053 321 1975 1045 308 6585 1265 335 129 1795 300 3017 2671 3018 2990 23268 3318 1167 2329 4338 638 266 3084 2545 2329 1040 708 8265 1930 2696 1280
internal_value=0 0.00103228 -0.000716573 -0.0100713 0.00689553 0.000997742 0.000631719 0.00131607 -0.00630493 -0.00977663 -0.0112743 0.00762269 -0.00502176 -0.0079314 0.000507111 -0.0151163 -0.0123091 0.00918931 0.00763836 -0.0103235 -0.00215456 0.000683171 -0.00576357 0.00178206 0.00686856 0.000539313 -0.00315118 0.00866136 0.000387916 -0.000637828
internal_weight=0 78012 60089 7996 17923 45983 44930 41605 14106 7681 7688 4730 4063 3325 36875 3618 7367 13252 10923 6200 6425 4630 3183 27345 4077 1748 9530 4601 4671 4364
internal_count=86008 78012 60089 7996 17923 45983 44930 41605 14106 7681 7688 4730 4063 3325 36875 3618 7367 13252 10923 6200 6425 4630 3183 27345 4077 1748 9530 4601 4671 4364
shrinkage=0.1


Tree=15
num_leaves=31
num_cat=0
split_feature=2 0 0 0 11 8 3 1 13 6 2 10 2 4 8 14 11 11 6 4 6 2 13 15 10 3 9 14 5 9
split_gain=74.6629 59.6002 49.3571 25.7096 23.9491 23.9297 23.7374 22.2113 19.8583 17.6764 17.3425 16.8808 16.2276 16.1396 16.0444 15.3966 14.3274 13.0655 12.7817 12.5904 15.4805 14.9698 12.2154 11.5937 11.5762 10.6516 10.8117 10.4607 10.2809 10.0458
threshold=26.500000000000004 24.500000000000004 28.500000000000004 46.500000000000007 1.5000000000000002 27.500000000000004 6.5000000000000009 3.5000000000000004 2.5000000000000004 1.0000000180025095e-35 46.500000000000007 1.0000000180025095e-35 43.500000000000007 1.5000000000000002 28.500000000000004 4.5000000000000009 1.5000000000000002 2.5000000000000004 2.5000000000000004 1.5000000000000002 1.5000000000000002 16.500000000000004 7.5000000000000009 7.5000000000000009 1.5000000000000002 8.5000000000000018 9.5000000000000018 3.5000000000000004 1.5000000000000002 2.5000000000000004
decision_type=2 2 2 2 2 2 2 2 2 2 2 2 2 2 2 2 2 2 2 2 2 2 2 2 2 2 2 2 2 2
left_child=1 7 4 6 -2 8 9 14 -6 -4 16 -9 15 22 17 -10 -8 18 -1 20 -13 -21 -3 27 -11 26 -7 -18 -22 -17
right_child=2 13 3 -5 5 25 10 11 12 24 -12 19 -14 -15 -16 29 23 -19 -20 21 28 -23 -24 -25 -26 -27 -28 -29 -30 -31
leaf_value=-0.0023779633156628781 0.0092713078753438403 0.0083201446707993117 -0.028018975997931208 0.018343039140535464 0.002348150262774313 -0.019901548662822541 0.015111790257527534 0.020223986601731817 -0.0018758756584091128 0.016226068854772398 -0.0213759687668519 -0.032518681219822383 -0.0218153323620488 0.0094901036392152985 -0.018299524763630035 -0.024475496456674909 0.019840888245260882 -0.0066529127145626629 0.006363456101783062 0.0079031966831598546 -0.032182262669438903 0.0011304863015732969 -0.0041279577464286453 -0.0065133356000719733 0.0037295854269981214 -0.023260455016237871 -0.00055007824573124358 -0.00039887580553788225 -0.0015086283816412819 -0.0091614975258142665
leaf_weight=6162 781 1422 149 762 1962 584 434 488 3310 1015 522 193 854 11085 661 460 292 4545 2296 3817 115 22508 1769 4624 2749 1423 571 2035 2193 6227
leaf_count=6162 781 1422 149 762 1962 584 434 488 3310 1015 522 193 854 11085 661 460 292 4545 2296 3817 115 22508 1769 4624 2749 1423 571 2035 2193 6227
internal_value=0 0.00208799 -0.00415754 0.000539587 -0.00781196 -0.00867884 -0.000608148 0.000228473 -0.00691015 0.00576214 -0.00376066 0.00178056 -0.00858417 0.00768609 -0.00310129 -0.00745389 -0.00251555 -0.00232869 -5.02657e-06 0.00146833 -0.00531207 0.0021125 0.00141927 -0.00361615 0.00709939 -0.0174694 -0.0103347 0.00214088 -0.00303699 -0.010215
internal_weight=0 57254 28754 12582 16172 15391 11820 42978 12813 3913 7907 29314 10851 14276 13664 9997 7385 13003 8458 28826 2501 26325 3191 6951 3764 2578 1155 2327 2308 6687
internal_count=86008 57254 28754 12582 16172 15391 11820 42978 12813 3913 7907 29314 10851 14276 13664 9997 7385 13003 8458 28826 2501 26325 3191 6951 3764 2578 1155 2327 2308 6687
shrinkage=0.1


Tree=16
num_leaves=31
num_cat=0
split_feature=2 12 6 0 2 0 11 10 4 1 8 11 5 3 0 3 13 2 4 0 0 12 8 7 13 15 0 0 1 13
split_gain=63.053 54.8918 44.7711 36.0162 32.23 29.6309 29.0465 21.1964 20.4258 17.9725 17.428 16.6734 14.7882 13.5166 13.5072 13.2561 12.9636 12.6189 12.5605 11.8598 10.3129 10.2561 9.5064 9.38699 9.1231 10.1564 9.9949 8.97707 8.91625 8.88528
threshold=36.500000000000007 1.5000000000000002 1.0000000180025095e-35 18.500000000000004 19.500000000000004 35.500000000000007 1.5000000000000002 1.0000000180025095e-35 1.5000000000000002 1.0000000180025095e-35 12.500000000000002 1.5000000000000002 3.5000000000000004 4.5000000000000009 23.500000000000004 10.500000000000002 8.5000000000000018 18.500000000000004 2.5000000000000004 40.500000000000007 46.500000000000007 1.0000000180025095e-35 34.500000000000007 8.5000000000000018 8.5000000000000018 1.0000000180025095e-35 34.500000000000007 24.500000000000004 6.5000000000000009 42.500000000000007
decision_type=2 2 2 2 2 2 2 2 2 2 2 2 2 2 2 2 2 2 2 2 2 2 2 2 2 2 2 2 2 2
left_child=1 6 14 8 19 10 -1 -6 15 22 28 -11 17 -13 -3 -4 -12 -10 21 23 -7 -8 -9 -5 25 -15 -26 -27 -2 -30
right_child=5 2 3 4 7 20 18 9 12 11 16 13 -14 24 -16 -17 -18 -19 -20 -21 -22 -23 -24 -25 26 27 -28 -29 29 -31
leaf_value=0.029360840124047962 -0.010762032090272822 -0.020902976051289986 -0.0069505214356722078 0.0021594368943400224 0.015549624774769802 -0.0013430564007178177 0.010291036422559097 -0.0037126712749010007 0.0042239281855880606 0.015543495321303833 -0.0080859114735599806 0.0057974997528551699 -0.0096252832509616804 0.01318616236475381 -0.0060208095737060161 -0.022182859034651659 -0.019567140603801644 -0.0029012570028133251 0.012174478525909941 0.018462462925866743 0.015971866788451607 -0.00037753497332310468 -0.022838149786620951 0.008457604155424266 -0.0059675250702803757 -0.00034706145731552509 0.00336927612724402 0.0055218406628822145 -0.0023830323137535494 0.02369819608601657
leaf_weight=649 1507 1175 2005 4024 927 2758 1416 6340 3819 794 1617 4714 2073 660 1268 799 2510 7119 2924 809 393 2478 271 5745 4318 16591 1561 3092 1509 143
leaf_count=649 1507 1175 2005 4024 927 2758 1416 6340 3819 794 1617 4714 2073 660 1268 799 2510 7119 2924 809 393 2478 271 5745 4318 16591 1561 3092 1509 143
internal_value=0 0.00100622 0.000113815 0.000608376 0.00192759 -0.00728573 0.00914557 0.000607822 -0.00354954 0.000246562 -0.0107897 0.00123482 -0.00188118 0.000867578 -0.0131786 -0.011291 -0.0150687 -0.0004135 0.00722129 0.00682687 0.000816501 0.00350195 -0.00449667 0.00586329 -1.86878e-05 0.000984039 -0.00348841 0.000574884 -0.0051996 -0.000125396
internal_weight=0 75571 68104 65661 49846 10437 7467 39268 15815 38341 7286 31730 13011 30936 2443 2804 4127 10938 6818 10578 3151 3894 6611 9769 26222 20343 5879 19683 3159 1652
internal_count=86008 75571 68104 65661 49846 10437 7467 39268 15815 38341 7286 31730 13011 30936 2443 2804 4127 10938 6818 10578 3151 3894 6611 9769 26222 20343 5879 19683 3159 1652
shrinkage=0.1


Tree=17
num_leaves=31
num_cat=0
split_feature=6 12 2 0 11 0 4 7 13 11 11 5 0 3 2 0 1 13 10 3 2 13 8 1 3 4 3 13 1 15
split_gain=55.6826 50.5685 39.1856 31.8044 26.5802 26.3858 25.7367 19.4653 19.0737 17.1342 14.8646 14.7118 13.7705 13.3211 14.2352 12.662 12.1376 12.348 11.9645 11.8751 11.6277 11.6101 11.5233 11.3473 11.206 11.1418 13.1599 15.9052 11.4787 10.941
threshold=1.5000000000000002 1.5000000000000002 23.500000000000004 24.500000000000004 1.5000000000000002 21.500000000000004 1.5000000000000002 12.500000000000002 7.5000000000000009 2.5000000000000004 2.5000000000000004 3.5000000000000004 46.500000000000007 3.5000000000000004 45.500000000000007 37.500000000000007 4.5000000000000009 13.500000000000002 3.5000000000000004 1.0000000180025095e-35 39.500000000000007 3.5000000000000004 8.5000000000000018 40.500000000000007 4.5000000000000009 2.5000000000000004 7.5000000000000009 1.0000000180025095e-35 10.500000000000002 11.500000000000002
decision_type=2 2 2 2 2 2 2 2 2 2 2 2 2 2 2 2 2 2 2 2 2 2 2 2 2 2 2 2 2 2
left_child=6 4 5 9 -2 11 7 -1 18 -4 -8 25 13 -10 23 -12 17 24 19 -5 -6 -9 -22 -15 -7 26 27 -3 -28 -18
right_child=1 2 3 8 20 16 10 21 12 -11 15 -13 -14 14 -16 -17 29 -19 -20 -21 22 -23 -24 -25 -26 -27 28 -29 -30 -31
leaf_value=-0.022425629488048122 0.029849737000548906 0.023332253650382717 -0.0025253962095782884 0.018512117287710957 0.0089881908110485235 0.013293547752355254 -0.00043238688648447203 0.05229648423070709 0.0036487352935877649 -0.0097299666074255851 -0.011861243356332068 -0.007639608786293578 0.015913861875350661 -0.004919815700835866 -0.023248749052252729 0.00329872584137731 0.013190582715441733 -0.0060639662459550216 -0.0084725213920945047 0.0046900961699039715 0.0219190657768451 -0.00274741729623393 -0.0094789301348165381 0.029933504430871262 0.0011822855456821626 0.005700379658531653 -0.0062914259044938893 0.0009975232336031461 0.0096375081365502741 0.0050381227384368298
leaf_weight=1503 571 324 6183 736 5288 1177 3916 48 2053 7082 3144 2073 390 5588 428 668 3128 1295 572 3998 142 190 661 95 2177 4427 4133 20035 508 3475
leaf_count=1503 571 324 6183 736 5288 1177 3916 48 2053 7082 3144 2073 390 5588 428 668 3128 1295 572 3998 142 190 661 95 2177 4427 4133 20035 508 3475
internal_value=0 0.000894955 0.000101296 -0.00287167 0.00921956 0.00198756 -0.00723402 -0.018218 0.000478224 -0.00637182 -0.0047595 0.000502765 -0.00244347 -0.00332041 -0.00566171 -0.00920467 0.00614425 0.00223005 0.0051884 0.00683902 0.00728558 0.00835387 -0.00392661 -0.00433719 0.00543242 0.00107636 0.000257537 0.00135297 -0.00454786 0.00890014
internal_weight=0 76539 69877 27125 6662 42752 9469 1741 13860 13265 7728 31500 8554 8164 6111 3812 11252 4649 5306 4734 6091 238 803 5683 3354 29427 25000 20359 4641 6603
internal_count=86008 76539 69877 27125 6662 42752 9469 1741 13860 13265 7728 31500 8554 8164 6111 3812 11252 4649 5306 4734 6091 238 803 5683 3354 29427 25000 20359 4641 6603
shrinkage=0.1


Tree=18
num_leaves=31
num_cat=0
split_feature=10 2 0 4 0 8 1 12 0 14 6 6 11 3 0 13 15 2 9 13 15 14 5 2 1 2 12 3 6 9
split_gain=51.4247 51.2106 35.074 33.9232 27.8592 24.9978 19.6624 17.3633 15.8622 15.9494 14.8293 14.7141 16.1577 14.1042 12.8812 12.7312 12.0372 11.5041 11.4727 10.8221 10.7311 11.6344 10.6554 10.5682 12.5602 10.0725 10.0291 10.6907 9.96365 25.9187
threshold=1.0000000180025095e-35 32.500000000000007 33.500000000000007 1.0000000180025095e-35 22.500000000000004 16.500000000000004 23.500000000000004 1.5000000000000002 45.500000000000007 2.5000000000000004 1.5000000000000002 2.5000000000000004 3.5000000000000004 4.5000000000000009 3.5000000000000004 7.5000000000000009 16.500000000000004 17.500000000000004 3.5000000000000004 5.5000000000000009 14.500000000000002 23.500000000000004 2.5000000000000004 23.500000000000004 7.5000000000000009 47.500000000000007 2.5000000000000004 14.500000000000002 2.5000000000000004 22.500000000000004
decision_type=2 2 2 2 2 2 2 2 2 2 2 2 2 2 2 2 2 2 2 2 2 2 2 2 2 2 2 2 2 2
left_child=19 2 3 15 18 7 8 -5 9 25 -9 12 17 -12 -13 16 -2 -7 -3 -1 26 -22 -16 24 -15 -6 -11 -28 -25 -30
right_child=1 4 -4 5 6 11 -8 10 -10 20 13 14 -14 23 22 -17 -18 -19 -20 -21 21 -23 -24 28 -26 -27 27 -29 29 -31
leaf_value=0.015495713334196252 0.0032798206054412572 -0.024704367110147618 0.0070730116864265299 0.008187037151146449 0.006575226100284254 0.0040668687085413562 0.0072643396264729992 -0.0072076446182006079 0.011690377716415672 -0.00075644904924352676 0.0046065069829998237 -0.035783940349139419 -0.019531788324900701 0.000255861087160264 0.0066524664890492934 -0.021141372227158794 -0.027702819234059178 -0.0087044046821484183 -0.010115063360335588 0.001393191775829672 -0.01571853980522207 -0.00042357149068266158 -0.0031823338460185129 -0.0068973754170822774 0.0069068875242366684 -0.030029357895255088 -0.0041708922534874444 -0.020943211654248912 0.0073700219213106259 -0.013642852909508205
leaf_weight=2507 555 619 7682 3344 1246 965 1636 2243 558 2740 9181 102 1020 23799 1658 1011 162 2621 4171 695 2231 640 3283 3650 3224 80 972 624 1949 840
leaf_count=2507 555 619 7682 3344 1246 965 1636 2243 558 2740 9181 102 1020 23799 1658 1011 162 2621 4171 695 2231 640 3283 3650 3224 80 972 624 1949 840
internal_value=0 -0.000480835 0.000713375 -0.000106238 -0.00565949 0.000305965 -0.00282804 0.00123551 -0.00464425 -0.00571242 0.000717627 -0.00434034 -0.00842643 0.00113449 -0.000608323 -0.0139129 -0.00372044 -0.00526763 -0.0120004 0.0124347 -0.00756688 -0.012309 0.000117828 0.000181872 0.00104937 0.0043668 -0.00442697 -0.0107285 -0.0034588 0.0010413
internal_weight=0 82806 67289 59607 15517 57879 10727 48230 9091 8533 44886 9649 4606 42643 5043 1728 717 3586 4790 3202 7207 2871 4941 33462 27023 1326 4336 1596 6439 2789
internal_count=86008 82806 67289 59607 15517 57879 10727 48230 9091 8533 44886 9649 4606 42643 5043 1728 717 3586 4790 3202 7207 2871 4941 33462 27023 1326 4336 1596 6439 2789
shrinkage=0.1


Tree=19
num_leaves=31
num_cat=0
split_feature=11 3 1 10 13 4 0 2 0 9 8 12 14 6 5 8 6 2 7 12 6 2 0 11 6 0 5 13 9 2
split_gain=48.2395 45.4635 33.6766 31.7688 32.6124 30.8702 20.607 20.2244 19.1244 17.5344 17.1273 16.9138 15.8001 14.2925 13.1122 15.1319 13.0857 11.0549 10.9719 10.9044 10.9919 11.42 12.0657 11.2635 10.5332 10.3507 9.83634 9.72525 9.66202 9.25811
threshold=1.5000000000000002 11.500000000000002 1.0000000180025095e-35 1.5000000000000002 7.5000000000000009 1.5000000000000002 39.500000000000007 20.500000000000004 31.500000000000004 6.5000000000000009 16.500000000000004 1.5000000000000002 1.5000000000000002 2.5000000000000004 1.5000000000000002 13.500000000000002 2.5000000000000004 44.500000000000007 7.5000000000000009 1.0000000180025095e-35 1.5000000000000002 19.500000000000004 20.500000000000004 2.5000000000000004 1.5000000000000002 3.5000000000000004 2.5000000000000004 11.500000000000002 11.500000000000002 38.500000000000007
decision_type=2 2 2 2 2 2 2 2 2 2 2 2 2 2 2 2 2 2 2 2 2 2 2 2 2 2 2 2 2 2
left_child=11 3 29 4 13 14 10 -4 9 -9 19 -1 -13 -2 -5 -16 -12 -11 -14 -7 -21 27 23 -23 -17 -18 -26 -22 -28 -3
right_child=1 2 7 5 -6 6 -8 8 -10 17 16 12 18 -15 15 24 25 -19 -20 20 21 22 -24 -25 26 -27 28 -29 -30 -31
leaf_value=0.024282903021984797 0.0053180395247308977 -0.009743064857473685 0.0039695722093243393 -0.030657416076288316 -0.0025285564328099159 0.01183583590747707 0.011279032055074268 -0.017654456147271343 0.00053474978856072415 -0.0039903473877875052 -0.0094960915866896534 0.02401606690190837 -0.0038517305092869211 0.01515820743629984 -0.0015441614495069727 -0.029429911358659622 -0.045369650840759279 -0.021941755529320536 0.0087765869993849527 -0.0059007942023571961 0.0075603333509604966 0.0002047535589219993 0.0039294479425083873 -0.0063944423892205397 -0.00016338102736702739 0.0004801906455974296 -0.02110811780158307 -0.001165254757434096 -0.0052909934328178344 -0.021322721668522483
leaf_weight=711 2748 4342 3899 218 2775 937 1808 1404 4793 5257 2837 499 993 3189 3653 291 50 367 2240 2225 4644 17497 7441 3035 789 3227 844 1762 712 821
leaf_count=711 2748 4342 3899 218 2775 937 1808 1404 4793 5257 2837 499 993 3189 3653 291 50 367 2240 2225 4644 17497 7441 3035 789 3227 844 1762 712 821
internal_value=0 -0.000552736 -0.00457725 0.000832252 0.00642066 -0.000104561 0.00081749 -0.00227585 -0.00433582 -0.00765748 0.000384219 0.0101472 0.00745413 0.0106036 -0.00654673 -0.00571097 -0.00452393 -0.00516179 0.00489786 0.00118357 0.00091089 0.00135174 0.00047955 -0.000770727 -0.0114854 -0.00021938 -0.00925857 0.00516032 -0.0138705 -0.0115844
internal_weight=0 81565 20883 60682 8712 51970 45463 15720 11821 7028 43655 4443 3732 5937 6507 6289 6114 5624 3233 37541 36604 34379 27973 20532 2636 3277 2345 6406 1556 5163
internal_count=86008 81565 20883 60682 8712 51970 45463 15720 11821 7028 43655 4443 3732 5937 6507 6289 6114 5624 3233 37541 36604 34379 27973 20532 2636 3277 2345 6406 1556 5163
shrinkage=0.1


Tree=20
num_leaves=31
num_cat=0
split_feature=12 11 3 6 8 1 13 11 0 2 0 3 15 0 10 13 15 7 0 2 1 4 10 0 2 0 13 3 14 1
split_gain=41.4814 36.6182 32.3654 30.0586 25.747 22.8294 22.3296 18.3881 17.6057 16.5371 15.478 14.551 13.087 12.7413 11.9105 11.5065 11.4895 11.1238 10.5483 10.0008 9.8606 10.1124 9.61218 9.5988 9.24498 11.4674 9.12712 8.58028 8.55317 8.30149
threshold=2.5000000000000004 1.5000000000000002 10.500000000000002 2.5000000000000004 20.500000000000004 9.5000000000000018 9.5000000000000018 2.5000000000000004 22.500000000000004 41.500000000000007 41.500000000000007 5.5000000000000009 14.500000000000002 39.500000000000007 1.5000000000000002 9.5000000000000018 24.500000000000004 4.5000000000000009 26.500000000000004 24.500000000000004 2.5000000000000004 2.5000000000000004 2.5000000000000004 8.5000000000000018 19.500000000000004 17.500000000000004 3.5000000000000004 1.0000000180025095e-35 1.5000000000000002 18.500000000000004
decision_type=2 2 2 2 2 2 2 2 2 2 2 2 2 2 2 2 2 2 2 2 2 2 2 2 2 2 2 2 2 2
left_child=1 -1 6 4 8 9 16 -8 11 13 -9 -3 19 17 15 -5 22 -4 -7 -10 -16 -22 27 -18 -13 -26 -6 -2 -21 -30
right_child=2 3 5 14 26 18 7 10 12 -11 -12 24 -14 -15 20 -17 23 -19 -20 28 21 -23 -24 -25 25 -27 -28 -29 29 -31
leaf_value=0.015048635455888588 0.0088459855389224368 0.00050467226538929058 -0.018358038084304081 0.014877570061245815 0.0027315254446110739 -0.006560947419560044 0.0012694896720607232 -0.0094625428332991007 0.01078979944198046 -0.022615628312812764 0.00995569685453296 0.0019124963662537542 -0.0055283843512748407 0.0047714025009596766 -0.00097109658512300209 -0.0011369632161343035 -0.021033795554228504 -0.0076584185232621482 0.0026161065637884478 0.018037839031486369 0.0023789180073507175 0.0092526613712476946 -0.0050357600591396691 0.010862570766181467 -0.01611568976056928 -0.0044760095302077384 -0.013067751999011735 0.00094260154949978329 -0.00053908543695960719 0.015866012819585086
leaf_weight=2002 1801 19343 1175 1993 447 2168 3907 4785 2869 890 449 1428 1073 688 3206 579 99 5615 2966 335 4677 3946 1961 2008 1117 3494 2009 5789 2843 346
leaf_count=2002 1801 19343 1175 1993 447 2168 3907 4785 2869 890 449 1428 1073 688 3206 579 99 5615 2966 335 4677 3946 1961 2008 1117 3494 2009 5789 2843 346
internal_value=0 0.00178869 -0.00269636 0.00125461 -0.000315996 -0.00650886 -0.000221422 -0.0039217 0.000422436 -0.00972967 -0.00779674 -0.000833168 0.00469109 -0.00819604 0.00510496 0.0112724 0.00267995 -0.00950997 -0.00125921 0.00640632 0.00376396 0.00552443 0.00120545 0.00936388 -0.00511829 -0.00729568 -0.0101922 0.00281796 0.0028376 0.00124083
internal_weight=0 51707 34301 49705 35304 13502 20799 9141 32848 8368 5234 25382 7466 7478 14401 2572 11658 6790 5134 6393 11829 8623 9551 2107 6039 4611 2456 7590 3524 3189
internal_count=86008 51707 34301 49705 35304 13502 20799 9141 32848 8368 5234 25382 7466 7478 14401 2572 11658 6790 5134 6393 11829 8623 9551 2107 6039 4611 2456 7590 3524 3189
shrinkage=0.1


Tree=21
num_leaves=31
num_cat=0
split_feature=11 0 3 3 13 14 11 4 12 11 1 2 7 1 14 6 2 0 12 14 9 14 2 9 9 3 13 8 0 7
split_gain=38.6973 32.5987 32.4366 30.2729 26.2081 18.73 18.0148 15.9842 15.0826 14.7684 14.6773 12.666 12.5269 12.4166 12.3414 11.3346 10.752 13.6366 10.6283 10.5734 10.2252 9.84166 9.62751 9.91828 9.20949 9.17813 10.4403 8.74505 8.72944 9.62368
threshold=2.5000000000000004 35.500000000000007 8.5000000000000018 4.5000000000000009 7.5000000000000009 23.500000000000004 1.0000000180025095e-35 1.0000000180025095e-35 2.5000000000000004 1.5000000000000002 7.5000000000000009 28.500000000000004 1.5000000000000002 11.500000000000002 20.500000000000004 2.5000000000000004 20.500000000000004 19.500000000000004 1.0000000180025095e-35 22.500000000000004 1.5000000000000002 1.0000000180025095e-35 24.500000000000004 10.500000000000002 37.500000000000007 21.500000000000004 1.5000000000000002 20.500000000000004 9.5000000000000018 2.5000000000000004
decision_type=2 2 2 2 2 2 2 2 2 2 2 2 2 2 2 2 2 2 2 2 2 2 2 2 2 2 2 2 2 2
left_child=3 2 4 9 5 20 -5 -8 22 -1 11 -9 -6 -10 15 -15 27 -18 24 -3 -2 -13 -4 -24 -14 26 -23 -12 -22 -30
right_child=1 19 8 6 12 -7 7 10 13 -11 16 21 18 14 -16 -17 17 -19 -20 -21 28 25 23 -25 -26 -27 -28 -29 29 -31
leaf_value=0.017900737767593319 -0.02857518268042597 0.00054323043921620194 0.00071889939087444582 0.030404908811249354 -0.02438016600930806 0.013846282935726251 -0.012122530190014524 0.00045193803983656556 -0.013853193900087095 0.0054937193740945342 0.012183085981792746 0.016692139309341627 0.012955577057622346 -0.021528252755668179 0.0058609267903698822 -0.0017662847051310466 -0.0071655551561294164 0.0045193071702914677 -0.0048129143489837808 0.0084226999305959411 -0.014816085686907171 0.013739265285460038 -0.014556994037628175 -0.0031006760427397875 -0.031521875367445107 -0.018677448723434003 -0.0071505319869634015 -0.0027316260832447969 -0.012621977464074181 0.0029791982079318945
leaf_weight=1078 116 4126 2452 202 311 1307 983 24771 4624 8720 2258 177 534 527 738 646 1273 4636 9424 2900 320 269 1250 1911 51 597 2163 476 420 6748
leaf_count=1078 116 4126 2452 202 311 1307 983 24771 4624 8720 2258 177 534 527 738 646 1273 4636 9424 2900 320 269 1250 1911 51 597 2163 476 420 6748
internal_value=0 -0.00236154 -0.00374014 0.00190523 -0.0011848 0.00278797 0.000621414 0.000461419 -0.00778541 0.00685877 0.000799214 -0.000313533 -0.00461516 -0.011051 -0.00427056 -0.0106449 0.00440112 0.00200199 -0.00400102 0.0037955 0.000887234 -0.00622791 -0.00398341 -0.00763101 0.00907806 -0.00756724 -0.00483994 0.00958638 0.00134365 0.00206507
internal_weight=0 38405 31379 47603 19231 8911 37805 37603 12148 9798 36620 27977 10320 6535 1911 1173 8643 5909 10009 7026 7604 3206 5613 3161 585 3029 2432 2734 7488 7168
internal_count=86008 38405 31379 47603 19231 8911 37805 37603 12148 9798 36620 27977 10320 6535 1911 1173 8643 5909 10009 7026 7604 3206 5613 3161 585 3029 2432 2734 7488 7168
shrinkage=0.1


Tree=22
num_leaves=31
num_cat=0
split_feature=7 10 2 0 4 12 3 6 5 0 8 14 0 15 10 0 13 9 15 11 9 1 7 1 14 11 6 14 11 1
split_gain=33.965 31.7939 32.1487 27.2133 23.8104 16.4204 14.0925 15.4501 13.3679 13.2392 13.1131 11.9366 10.728 10.6885 11.1143 10.6132 9.95381 12.794 9.54628 9.40899 9.28525 9.11304 8.62273 8.59955 8.57356 13.9088 9.99816 8.26505 8.15794 7.8637
threshold=1.5000000000000002 1.0000000180025095e-35 38.500000000000007 18.500000000000004 2.5000000000000004 2.5000000000000004 18.500000000000004 3.5000000000000004 3.5000000000000004 37.500000000000007 23.500000000000004 3.5000000000000004 44.500000000000007 5.5000000000000009 2.5000000000000004 3.5000000000000004 2.5000000000000004 10.500000000000002 1.0000000180025095e-35 2.5000000000000004 2.5000000000000004 16.500000000000004 25.500000000000004 23.500000000000004 2.5000000000000004 2.5000000000000004 2.5000000000000004 18.500000000000004 1.5000000000000002 23.500000000000004
decision_type=2 2 2 2 2 2 2 2 2 2 2 2 2 2 2 2 2 2 2 2 2 2 2 2 2 2 2 2 2 2
left_child=18 -2 3 8 6 16 7 10 11 19 23 28 24 14 -8 -13 -6 -18 -1 22 -17 -20 -7 -5 25 26 -4 -26 -3 -22
right_child=1 2 12 4 5 9 13 -9 -10 -11 -12 15 -14 -15 -16 20 17 -19 21 -21 29 -23 -24 -25 27 -27 -28 -29 -30 -31
leaf_value=0.017796211283985931 0.010415710446301907 0.020009777936904762 -3.7187541845633508e-05 0.00023320757329913286 0.016993061517608075 0.006407317403497554 0.022378918080805586 0.0062618591475802942 -0.0090447231048280431 0.0092653341245884351 -0.010070640769319985 -0.021125297262737607 0.0067345536012209028 -0.011991880067469532 -0.0059548741431483905 -0.013187888925161477 0.0023151039309887139 0.010425628130901223 -0.015373606208031626 -0.0039968790188008411 -0.0021376005598268658 0.011764506335285578 -0.0052781709276561468 0.020883379887624329 -0.011544842302005694 -0.010187412673997968 0.028781656343657692 -0.0031220358387585765 0.0026045980718565655 0.013941054850721514
leaf_weight=101 3009 311 263 30643 1028 2473 208 4430 2928 1790 1252 311 571 1554 414 749 3748 4043 1977 3520 10792 132 848 203 3981 539 222 1647 2008 313
leaf_count=101 3009 311 263 30643 1028 2473 208 4430 2928 1790 1252 311 571 1554 414 749 3748 4043 1977 3520 10792 132 848 203 3981 539 222 1647 2008 313
internal_value=0 0.00032272 -5.31955e-05 0.000571871 0.00164286 0.00470957 0.000260211 0.000725939 -0.00288209 0.00160878 -3.81001e-05 -0.00163629 -0.00641947 -0.00755785 0.00352009 -0.00288969 0.00774427 0.00652392 -0.0122368 -0.000394622 -0.00241127 -0.0136751 0.00342349 0.000369108 -0.0075486 0.000867902 0.0131541 -0.00907996 0.0049388 -0.00168442
internal_weight=0 83798 80789 73566 56154 17450 38704 36528 17412 8631 32098 14484 7223 2176 622 12165 8819 7791 2210 6841 11854 2109 3321 30846 6652 1024 485 5628 2319 11105
internal_count=86008 83798 80789 73566 56154 17450 38704 36528 17412 8631 32098 14484 7223 2176 622 12165 8819 7791 2210 6841 11854 2109 3321 30846 6652 1024 485 5628 2319 11105
shrinkage=0.1


Tree=23
num_leaves=31
num_cat=0
split_feature=1 10 8 1 2 9 2 0 4 10 2 1 11 7 14 8 0 3 11 14 5 2 4 15 15 13 15 12 2 2
split_gain=30.9592 23.7025 22.2301 18.9424 17.7729 15.8354 15.1927 13.5069 12.9336 14.2325 12.2838 11.4156 11.2943 11.1638 10.2432 10.4971 11.2699 9.98682 10.9355 15.5923 9.77572 11.2792 11.0291 9.46878 9.10854 9.07915 10.4265 9.02104 8.84659 8.60424
threshold=1.0000000180025095e-35 1.0000000180025095e-35 20.500000000000004 23.500000000000004 29.500000000000004 2.5000000000000004 44.500000000000007 8.5000000000000018 2.5000000000000004 3.5000000000000004 8.5000000000000018 10.500000000000002 2.5000000000000004 11.500000000000002 4.5000000000000009 17.500000000000004 33.500000000000007 7.5000000000000009 2.5000000000000004 1.0000000180025095e-35 1.5000000000000002 19.500000000000004 3.5000000000000004 4.5000000000000009 1.5000000000000002 35.500000000000007 16.500000000000004 1.0000000180025095e-35 11.500000000000002 25.500000000000004
decision_type=2 2 2 2 2 2 2 2 2 2 2 2 2 2 2 2 2 2 2 2 2 2 2 2 2 2 2 2 2 2
left_child=4 -2 3 6 10 -4 8 -7 9 13 -1 -9 23 17 28 20 -17 24 19 -19 22 -22 -16 -10 29 26 -14 -6 -12 -3
right_child=1 2 5 -5 27 7 -8 11 12 -11 14 -13 25 -15 15 16 -18 18 -20 -21 21 -23 -24 -25 -26 -27 -28 -29 -30 -31
leaf_value=0.011506020662427303 0.010992479061350768 0.013488555976280101 -0.01773830902458216 0.0094268214985707473 0.018599085342139006 -0.017864663882326461 -0.011017775572872958 -0.0053893525477491655 0.013930593883854682 -0.0058540831229133734 0.038116083161471644 0.0017290594281780991 0.0024729875451373344 0.0061675452474917727 -0.027958144736986091 -0.013168976527238972 0.0084138115986864617 0.040629003423711535 -0.008428141730577432 -0.00095505192629154157 0.0027262739525082762 -0.0042172766642572437 0.014877258879797801 0.0048608730276863236 0.00086887162441491486 0.01262108406547127 -0.0065344841942429274 -0.0091452556916596338 0.0027304047901855143 -0.010847847426638885
leaf_weight=674 2316 999 731 2866 120 538 1019 4184 1484 3393 73 4881 4822 3644 274 1703 282 92 2417 4530 3772 6160 77 5131 20063 632 1752 5013 2196 170
leaf_count=674 2316 999 731 2866 120 538 1019 4184 1484 3393 73 4881 4822 3644 274 1703 282 92 2417 4530 3772 6160 77 5131 20063 632 1752 5013 2196 170
internal_value=0 0.00105604 0.000692763 0.00151984 -0.00340856 -0.00355016 0.00106794 -0.00247013 0.00131862 0.000303484 -0.00169157 -0.00155648 0.00391195 0.000958117 -0.00230347 -0.00344506 -0.0101028 0.000286646 -0.0029776 -0.000127329 -0.00215987 -0.00158024 -0.0185612 0.00689556 0.00136884 0.00117303 7.24566e-05 -0.00849664 0.00386886 0.00994947
internal_weight=0 65664 63348 53014 20344 10334 50148 9603 49129 35308 15211 9065 13821 31915 14537 12268 1985 28271 7039 4622 10283 9932 351 6615 21232 7206 6574 5133 2269 1169
internal_count=86008 65664 63348 53014 20344 10334 50148 9603 49129 35308 15211 9065 13821 31915 14537 12268 1985 28271 7039 4622 10283 9932 351 6615 21232 7206 6574 5133 2269 1169
shrinkage=0.1


Tree=24
num_leaves=31
num_cat=0
split_feature=6 11 13 3 0 4 12 2 0 14 1 12 3 2 14 10 0 1 7 3 7 2 15 10 6 3 8 13 7 8
split_gain=28.7083 28.1103 23.3394 24.9489 20.6753 18.7534 15.7632 14.1347 13.8877 12.9209 12.819 11.5625 11.4458 10.806 11.4384 10.0136 9.27561 9.21015 9.71009 8.73079 8.75007 13.2998 10.8098 8.93483 8.69619 8.65742 8.55934 8.44966 8.30156 8.24842
threshold=1.0000000180025095e-35 1.5000000000000002 9.5000000000000018 1.0000000180025095e-35 42.500000000000007 1.5000000000000002 2.5000000000000004 37.500000000000007 19.500000000000004 1.5000000000000002 6.5000000000000009 1.5000000000000002 16.500000000000004 19.500000000000004 22.500000000000004 3.5000000000000004 6.5000000000000009 21.500000000000004 12.500000000000002 36.500000000000007 11.500000000000002 23.500000000000004 1.5000000000000002 3.5000000000000004 2.5000000000000004 11.500000000000002 22.500000000000004 1.0000000180025095e-35 7.5000000000000009 12.500000000000002
decision_type=2 2 2 2 2 2 2 2 2 2 2 2 2 2 2 2 2 2 2 2 2 2 2 2 2 2 2 2 2 2
left_child=26 9 3 15 5 17 7 -7 12 -2 19 -11 13 14 -5 -3 -8 18 -4 20 21 22 -10 24 27 -22 -1 -23 -13 -9
right_child=1 2 4 8 -6 6 16 29 10 11 -12 28 -14 -15 -16 -17 -18 -19 -20 -21 25 23 -24 -25 -26 -27 -28 -29 -30 -31
leaf_value=-0.0057472084572815245 0.022812868645906665 0.0082558453581102458 -0.011930274114396873 0.0011106394888810316 0.0072351869791098576 0.0024132073835636835 -0.020648306377637694 0.00035426560063640794 0.011445103796207317 0.019283719161908283 0.0048024940195602259 -0.0042939386977238602 -0.011875148028284065 -0.0037210360327933701 0.019572246398112572 -0.0073870844224637206 -0.0040648046086790741 0.01175226687508471 0.0016811746232053067 -0.034234539286731043 0.0092321257455066693 0.013054226274475639 0.00015208505700280356 -0.025544485812251633 0.0021264016472775002 -0.00081626458765690451 -0.016963191670376642 -0.010787932361934295 0.0072909952363612853 -0.015032449165856155
leaf_weight=3476 549 5849 3685 2527 2071 8764 349 616 892 574 8470 890 1202 6768 387 440 10043 204 611 73 2044 162 17034 222 1150 1477 846 1803 2028 802
leaf_count=3476 549 5849 3685 2527 2071 8764 349 616 892 574 8470 890 1202 6768 387 440 10043 204 611 73 2044 162 17034 222 1150 1477 846 1803 2028 802
internal_value=0 0.000420246 -2.95544e-06 0.00126817 -0.00236772 -0.00316088 -0.00188187 0.000914511 0.000429854 0.00855176 0.00144271 0.00630968 -0.00267152 -0.00152891 0.00356247 0.00716141 -0.00462174 -0.00900853 -0.00999438 0.000297864 0.000399577 -0.000365034 0.000714027 -0.00616163 -0.00478026 0.005017 -0.00794266 -0.00882232 0.00375755 -0.00834823
internal_weight=0 81686 77645 50500 27145 25074 20574 10182 44211 4041 33327 3492 10884 9682 2914 6289 10392 4500 4296 24857 24784 21263 17926 3337 3115 3521 4322 1965 2918 1418
internal_count=86008 81686 77645 50500 27145 25074 20574 10182 44211 4041 33327 3492 10884 9682 2914 6289 10392 4500 4296 24857 24784 21263 17926 3337 3115 3521 4322 1965 2918 1418
shrinkage=0.1


Tree=25
num_leaves=31
num_cat=0
split_feature=11 14 3 6 3 13 6 2 8 14 0 6 6 0 7 3 11 9 1 15 13 0 3 0 14 14 15 0 4 15
split_gain=25.6957 25.9395 21.9611 18.5583 15.6133 13.2854 13.152 12.5477 13.0875 11.827 10.4725 11.9893 10.1669 10.1484 9.89006 9.74407 9.57206 9.32075 9.17397 8.83677 9.31221 8.68875 8.62541 8.58559 8.23047 8.20095 8.21485 7.83122 7.55747 8.16969
threshold=2.5000000000000004 23.500000000000004 4.5000000000000009 1.5000000000000002 17.500000000000004 6.5000000000000009 2.5000000000000004 19.500000000000004 30.500000000000004 4.5000000000000009 22.500000000000004 3.5000000000000004 1.5000000000000002 42.500000000000007 3.5000000000000004 28.500000000000004 1.5000000000000002 1.0000000180025095e-35 14.500000000000002 11.500000000000002 6.5000000000000009 8.5000000000000018 31.500000000000004 18.500000000000004 20.500000000000004 3.5000000000000004 5.5000000000000009 18.500000000000004 1.5000000000000002 11.500000000000002
decision_type=2 2 2 2 2 2 2 2 2 2 2 2 2 2 2 2 2 2 2 2 2 2 2 2 2 2 2 2 2 2
left_child=2 3 16 14 9 12 7 -4 23 -5 11 -11 -3 -7 -2 21 -1 -16 -17 20 -19 24 -20 -9 -8 26 -23 -27 29 -25
right_child=1 5 6 4 -6 13 15 8 -10 10 -12 -13 -14 -15 17 18 -18 19 22 -21 -22 25 -24 28 -26 27 -28 -29 -30 -31
leaf_value=0.014661191714094288 -0.025513427067605943 -0.0056388586029118186 0.0046335191341802051 0.0019343849208958528 -0.0092504300246359032 -0.0016259619139390607 -0.0059315067599188141 -0.0063176624009569698 -0.014933747151570226 -0.0077415120420668299 -0.00056428225798770698 0.0014281878838598922 0.01049418861101844 0.010453041919984331 -0.025462008573371789 -0.016535469086163424 0.0046726099150511654 0.0085611318686990429 0.035612285411671593 -0.013791166914298254 -0.0075707266062676193 0.026230374764268979 -0.0051022558721403287 -0.0032549184845671441 -0.058959602005779745 -0.0020301399480495636 0.0080318039889670598 0.0055683297637075697 0.0001253755705799711 -0.021300498464303774
leaf_weight=1078 386 459 3872 6727 3012 5157 343 2774 704 6175 8339 1854 2622 804 290 440 8720 556 76 1020 1004 312 165 1067 32 1801 1210 5494 19187 328
leaf_count=1078 386 459 3872 6727 3012 5157 343 2774 704 6175 8339 1854 2622 804 290 440 8720 556 76 1020 1004 312 165 1067 32 1801 1210 5494 19187 328
internal_value=0 -0.00192435 0.00155252 -0.00336653 -0.00247869 0.00275898 0.00045906 -0.000649848 -0.00150011 -0.00159554 -0.00304628 -0.00562411 0.00809073 3.21424e-06 -0.0104853 0.00359631 0.00577158 -0.00846411 -0.00794559 -0.00655349 -0.00182117 0.0044514 0.00773718 -0.00109519 -0.0104566 0.00508546 0.0117624 0.00369241 -0.000391312 -0.00749789
internal_weight=0 38405 47603 29363 26107 9042 37805 27932 24060 23095 16368 8029 3081 5961 3256 9873 9798 2870 681 2580 1560 9192 241 23356 375 8817 1522 7295 20582 1395
internal_count=86008 38405 47603 29363 26107 9042 37805 27932 24060 23095 16368 8029 3081 5961 3256 9873 9798 2870 681 2580 1560 9192 241 23356 375 8817 1522 7295 20582 1395
shrinkage=0.1


Tree=26
num_leaves=31
num_cat=0
split_feature=12 6 1 7 11 0 3 2 10 9 8 0 2 10 10 13 2 0 5 3 1 15 11 0 14 0 11 8 0 13
split_gain=23.6304 19.6808 17.2214 20.5392 14.4648 17.2422 13.2958 11.4412 10.7918 12.4652 10.181 9.80845 8.95912 8.92666 8.80953 9.2181 8.6274 9.30889 8.50438 8.46375 8.4222 11.6901 9.18439 8.41744 8.62562 8.40805 8.29077 8.26165 9.18291 8.18095
threshold=2.5000000000000004 2.5000000000000004 11.500000000000002 4.5000000000000009 1.5000000000000002 16.500000000000004 9.5000000000000018 19.500000000000004 2.5000000000000004 10.500000000000002 14.500000000000002 26.500000000000004 43.500000000000007 2.5000000000000004 1.5000000000000002 12.500000000000002 41.500000000000007 37.500000000000007 4.5000000000000009 16.500000000000004 23.500000000000004 14.500000000000002 2.5000000000000004 12.500000000000002 23.500000000000004 7.5000000000000009 1.5000000000000002 17.500000000000004 22.500000000000004 3.5000000000000004
decision_type=2 2 2 2 2 2 2 2 2 2 2 2 2 2 2 2 2 2 2 2 2 2 2 2 2 2 2 2 2 2
left_child=1 4 3 13 -1 10 8 19 18 26 23 -4 -13 -2 15 -3 17 -8 25 -7 21 22 -16 24 -6 -5 -10 28 -9 -29
right_child=2 14 11 6 5 7 16 27 9 -11 -12 12 -14 -15 20 -17 -18 -19 -20 -21 -22 -23 -24 -25 -26 -27 -28 29 -30 -31
leaf_value=0.011559853809282856 -0.0062686309577138334 0.011748330983571408 -0.001868095599673348 -0.012743904764752789 0.0039523899772424395 0.0039809470448897337 -0.0054089331120016548 -0.00084767003308530676 0.016530616684206603 0.0016192456376858248 -0.012957521834207507 0.0061267135786388033 -0.0069443138955969999 -0.015783974846869383 0.0069035657420451193 -0.0054846078199164879 -0.014529871372868323 0.0048076183816637081 -0.014625147891969517 0.022389769269097033 0.010857107928044219 -0.0060257584667713828 0.0007772312693827047 -0.0061698632494077013 0.052299410792497496 0.0035269561201293287 -0.01096727547126931 0.0068005145266257895 0.0037594211379323311 -0.0095269620651521978
leaf_weight=1066 2700 2378 4376 332 686 4628 6691 18718 116 1950 1494 4474 594 1553 4530 357 874 1029 290 264 1301 1449 5322 1839 39 7320 2002 378 5627 1631
leaf_count=1066 2700 2378 4376 332 686 4628 6691 18718 116 1950 1494 4474 594 1553 4530 357 874 1029 290 264 1301 1449 5322 1839 39 7320 2002 378 5627 1631
internal_value=0 0.00135003 -0.00203511 -0.00341624 8.31268e-05 -0.000263412 -0.00211025 0.00053301 3.86049e-05 -0.0041498 -0.00639574 0.00160009 0.00459471 -0.0097432 0.00435436 0.00949891 -0.00511325 -0.00404717 0.00218396 0.00497439 0.00323785 0.0023607 0.00359415 -0.00257229 0.00655313 0.00282101 -0.00946125 -0.000291428 0.000217193 -0.00645489
internal_weight=0 51707 34301 24857 36370 35304 20604 31246 12010 4068 4058 9444 5068 4253 15337 2735 8594 7720 7942 4892 12602 11301 9852 2564 725 7652 2118 26354 24345 2009
internal_count=86008 51707 34301 24857 36370 35304 20604 31246 12010 4068 4058 9444 5068 4253 15337 2735 8594 7720 7942 4892 12602 11301 9852 2564 725 7652 2118 26354 24345 2009
shrinkage=0.1


Tree=27
num_leaves=31
num_cat=0
split_feature=7 6 8 12 5 4 13 3 1 0 5 5 2 4 10 13 9 7 0 15 11 0 0 11 15 15 3 13 2 10
split_gain=21.6199 20.202 21.0486 19.2779 14.9919 12.4527 14.4357 12.4312 15.48 11.0524 15.1234 9.9339 9.43537 9.24732 8.84687 10.2709 9.65507 8.76892 8.64351 8.41945 8.24919 8.2437 8.16133 7.68815 7.15403 7.06126 9.11194 7.03476 6.98048 6.91861
threshold=1.5000000000000002 3.5000000000000004 18.500000000000004 1.0000000180025095e-35 1.5000000000000002 2.5000000000000004 13.500000000000002 19.500000000000004 13.500000000000002 37.500000000000007 2.5000000000000004 1.0000000180025095e-35 41.500000000000007 1.5000000000000002 2.5000000000000004 33.500000000000007 1.0000000180025095e-35 29.500000000000004 16.500000000000004 4.5000000000000009 3.5000000000000004 42.500000000000007 45.500000000000007 1.5000000000000002 1.0000000180025095e-35 14.500000000000002 18.500000000000004 6.5000000000000009 13.500000000000002 2.5000000000000004
decision_type=2 2 2 2 2 2 2 2 2 2 2 2 2 2 2 2 2 2 2 2 2 2 2 2 2 2 2 2 2 2
left_child=24 2 3 -2 13 6 17 11 -9 10 20 -3 -13 -5 16 22 -7 18 -6 -18 -4 28 25 -12 -1 -16 -27 29 -8 -25
right_child=1 7 9 4 5 14 21 8 -10 -11 23 12 -14 -15 15 -17 19 -19 -20 -21 -22 -23 -24 27 -26 26 -28 -29 -30 -31
leaf_value=0.016236126039287833 0.01079193506374535 -0.060909206323001702 0.0043811936151520398 -0.024155357037368534 -0.0048199579184170895 -0.023464659104744594 0.004510760395615189 -0.009728877255031125 0.0067600631246245227 0.0030431375238451574 0.0031694294582486782 0.0055752998055653953 -0.0054393929829451154 -0.0054790178493854882 0.00053993952358000739 0.0094914393823023625 0.011747933690616857 0.024904418033910983 0.00044663206591132412 0.0037719671631766486 -0.0092407025907137626 0.0093558820917366368 0.019035190083274638 -0.00047462479840295062 -0.011007979282232301 -0.010739640510115778 0.0050489754696202479 -0.011099284050235372 -0.0094484956518324781 -0.012875574524986578
leaf_weight=101 1702 23 1862 308 3466 114 405 1421 950 1706 573 12126 831 1904 4630 1091 1799 141 30881 5007 584 303 198 1509 2109 1422 492 4607 3102 641
leaf_count=101 1702 23 1862 308 3466 114 405 1421 950 1706 573 12126 831 1904 4630 1091 1799 141 30881 5007 584 303 198 1509 2109 1422 492 4607 3102 641
internal_value=0 0.000257476 -0.000477835 0.000309464 -1.33774e-05 0.000322946 -0.000627958 0.00353608 -0.00312217 -0.00438382 -0.00567989 0.00475231 0.00486887 -0.00807952 0.00279144 0.000489771 0.00539679 1.73392e-05 -8.48263e-05 0.00588022 0.00112887 -0.00646917 -0.000966892 -0.00795195 -0.00976289 -0.00157209 -0.00668112 -0.00889505 -0.00783643 -0.00417184
internal_weight=0 83798 68447 56965 55263 53051 38298 15351 2371 11482 9776 12980 12957 2212 14753 7833 6920 34488 34347 6806 2446 3810 6742 7330 2210 6544 1914 6757 3507 2150
internal_count=86008 83798 68447 56965 55263 53051 38298 15351 2371 11482 9776 12980 12957 2212 14753 7833 6920 34488 34347 6806 2446 3810 6742 7330 2210 6544 1914 6757 3507 2150
shrinkage=0.1


Tree=28
num_leaves=31
num_cat=0
split_feature=1 5 6 2 12 0 0 2 10 13 11 3 2 2 9 0 15 12 14 2 4 15 9 10 0 9 12 15 2 15
split_gain=19.5557 16.2845 15.6638 15.368 13.1314 12.9238 12.454 11.5956 11.0912 13.3434 10.0733 8.7578 10.3728 8.65007 8.51819 8.44643 8.42084 8.22374 7.95443 7.74135 7.4799 7.28919 7.25426 7.23754 7.20889 7.18568 7.12907 7.05292 7.04785 7.01682
threshold=1.0000000180025095e-35 1.0000000180025095e-35 2.5000000000000004 33.500000000000007 1.0000000180025095e-35 25.500000000000004 10.500000000000002 29.500000000000004 1.5000000000000002 14.500000000000002 2.5000000000000004 5.5000000000000009 19.500000000000004 8.5000000000000018 6.5000000000000009 42.500000000000007 6.5000000000000009 4.5000000000000009 4.5000000000000009 21.500000000000004 2.5000000000000004 36.500000000000007 9.5000000000000018 1.0000000180025095e-35 18.500000000000004 29.500000000000004 2.5000000000000004 15.500000000000002 19.500000000000004 14.500000000000002
decision_type=2 2 2 2 2 2 2 2 2 2 2 2 2 2 2 2 2 2 2 2 2 2 2 2 2 2 2 2 2 2
left_child=4 -2 3 5 -1 11 29 13 9 -8 17 -3 -13 22 -14 23 19 -10 20 -7 -15 -11 -6 -5 26 -25 28 -16 -20 -4
right_child=1 2 6 15 7 16 8 -9 10 21 -12 12 14 18 27 -17 -18 -19 24 -21 -22 -23 -24 25 -26 -27 -28 -29 -30 -31
leaf_value=0.015322795744298609 -0.042902513041215784 0.00067569823263439945 -0.0012716107789922683 0.010119331631100612 -0.00047425972514374311 0.01630889280139303 0.0096781749685658953 -0.0072284801363195943 0.0058854614862489879 -0.013720956989205802 0.00033653660865313941 0.0026128570729538792 -0.011911376777130205 -0.00069935049047533261 -0.0018665465069055785 0.0052116256836172827 0.0018853471481273386 -0.0057362728429543996 0.0023250926110642621 0.0044831823679598662 0.011687067918893365 0.03344922322365973 0.020564871805068403 -0.0081859111859141059 -0.0011086467731178963 0.012811416581537597 -0.010496308603515365 -0.014353323529457904 -0.0074330579692667188 -0.016278936032556059
leaf_weight=396 85 19677 932 247 344 934 4009 5013 7721 364 10669 2267 1480 1510 4196 693 4613 661 1381 1359 720 36 313 4577 6955 169 2117 507 1595 468
leaf_count=396 85 19677 932 247 344 934 4009 5013 7721 364 10669 2267 1480 1510 4196 693 4613 661 1381 1359 720 36 313 4577 6955 169 2117 507 1595 468
internal_value=0 0.000839308 0.000896003 -0.000311583 -0.00270902 0.000471079 0.00287395 -0.00306698 0.00342072 0.00794047 0.0023747 -0.000480639 -0.00317333 -0.00167016 -0.00529484 -0.00513378 0.00434727 0.00496898 -0.0021864 0.00930011 0.00329985 -0.00947564 0.00954895 -0.00656966 -0.00320187 -0.00743822 -0.00606037 -0.00321267 -0.00290483 -0.00628835
internal_weight=0 65664 65579 40719 20344 35033 24860 19948 23460 4409 19051 28127 8450 14935 6183 5686 6906 8382 14278 2293 2230 400 657 4993 12048 4746 5093 4703 2976 1400
internal_count=86008 65664 65579 40719 20344 35033 24860 19948 23460 4409 19051 28127 8450 14935 6183 5686 6906 8382 14278 2293 2230 400 657 4993 12048 4746 5093 4703 2976 1400
shrinkage=0.1


Tree=29
num_leaves=31
num_cat=0
split_feature=11 14 3 3 6 11 2 0 7 0 4 5 1 5 8 1 7 11 14 14 15 1 4 10 7 12 2 7 15 14
split_gain=17.9697 20.5113 16.283 13.1239 12.7084 12.2926 9.77333 9.57271 9.81547 9.87648 9.26884 9.21938 8.45079 8.33862 8.33602 10.6903 8.75043 8.28021 7.58059 7.5065 7.49268 8.0947 8.80688 9.25367 8.82981 7.40495 7.32207 7.06318 8.65202 7.15088
threshold=2.5000000000000004 23.500000000000004 4.5000000000000009 8.5000000000000018 1.0000000180025095e-35 1.0000000180025095e-35 20.500000000000004 7.5000000000000009 2.5000000000000004 29.500000000000004 2.5000000000000004 4.5000000000000009 21.500000000000004 4.5000000000000009 30.500000000000004 7.5000000000000009 2.5000000000000004 3.5000000000000004 1.5000000000000002 3.5000000000000004 3.5000000000000004 3.5000000000000004 2.5000000000000004 3.5000000000000004 5.5000000000000009 1.0000000180025095e-35 20.500000000000004 4.5000000000000009 9.5000000000000018 1.5000000000000002
decision_type=2 2 2 2 2 2 2 2 2 2 2 2 2 2 2 2 2 2 2 2 2 2 2 2 2 2 2 2 2 2
left_child=2 3 18 4 -2 -4 -3 -6 9 -9 11 12 -8 -10 15 20 -16 -5 -1 -18 21 22 23 24 -7 -20 -17 28 -22 -30
right_child=1 6 5 17 7 14 10 8 13 -11 -12 -13 -14 -15 16 26 19 -19 25 -21 27 -23 -24 -25 -26 -27 -28 -29 29 -31
leaf_value=0.014349740527513375 -0.01634644071490619 0.0071520793590134652 0.024959483182883019 -0.0037004437898759119 -0.014542276057891729 0.013368295776901892 -0.0041639686270999021 -0.015245560696642155 0.00060284287039032288 0.0077254547756545403 0.0037790252401506564 -0.019818596691346099 0.014164585390916237 -0.012763334673649308 -0.028229196824713382 0.0081451958748864402 0.0093241179515976789 -0.0095289065037693233 0.016686997379364677 -0.0076090628947594486 -0.002346822072286159 0.0093522826476493109 0.00979361525810769 -0.021764887848468584 -0.0023504642802178307 0.003456470929249274 0.0016727413000325372 -0.00067020978152893831 0.014956999899911101 -0.021271276491529802
leaf_weight=786 541 3060 202 7436 492 412 2089 793 15749 245 3278 329 286 481 167 2603 328 3626 445 1297 1152 1445 843 214 2695 8567 5320 20556 61 510
leaf_count=786 541 3060 202 7436 492 412 2089 793 15749 245 3278 329 286 481 167 2603 328 3626 445 1297 1152 1445 843 214 2695 8567 5320 20556 61 510
internal_value=0 -0.00160925 0.00129831 -0.00289168 -0.00124803 0.000356754 0.00255532 -0.000788107 -0.000396223 -0.00982369 0.000203923 -0.0041301 -0.00195682 0.000206716 0.000224591 0.000557655 -0.00643132 -0.00561095 0.00493123 -0.00419117 -0.000363265 0.00290348 0.000665602 -0.00165145 -0.000266097 0.00410978 0.00379918 -0.00118571 -0.00733576 -0.017401
internal_weight=0 38405 47603 29363 18301 37805 9042 17760 17268 1038 5982 2704 2375 16230 37603 35811 1792 11062 9798 1625 27888 5609 4164 3321 3107 9012 7923 22279 1723 571
internal_count=86008 38405 47603 29363 18301 37805 9042 17760 17268 1038 5982 2704 2375 16230 37603 35811 1792 11062 9798 1625 27888 5609 4164 3321 3107 9012 7923 22279 1723 571
shrinkage=0.1


Tree=30
num_leaves=31
num_cat=0
split_feature=6 11 13 4 2 0 5 3 10 5 14 0 12 15 7 0 1 14 11 6 9 10 1 14 13 9 8 8 9 14
split_gain=16.3934 15.0309 16.4592 18.4073 13.0181 11.3377 12.4154 10.2244 11.9329 10.1931 9.37531 9.25359 8.76903 8.31572 7.70085 7.41447 7.27026 6.67481 7.89574 6.61672 10.2171 8.97819 6.73867 8.29191 9.45989 7.21119 6.51839 6.46082 6.43205 6.84673
threshold=1.0000000180025095e-35 1.5000000000000002 2.5000000000000004 1.0000000180025095e-35 37.500000000000007 33.500000000000007 3.5000000000000004 8.5000000000000018 1.0000000180025095e-35 1.5000000000000002 3.5000000000000004 3.5000000000000004 2.5000000000000004 5.5000000000000009 12.500000000000002 12.500000000000002 16.500000000000004 26.500000000000004 3.5000000000000004 3.5000000000000004 27.500000000000004 2.5000000000000004 12.500000000000002 26.500000000000004 14.500000000000002 17.500000000000004 24.500000000000004 17.500000000000004 45.500000000000007 22.500000000000004
decision_type=2 2 2 2 2 2 2 2 2 2 2 2 2 2 2 2 2 2 2 2 2 2 2 2 2 2 2 2 2 2
left_child=-1 10 7 9 5 6 11 -3 -9 -4 -2 -5 -8 -12 16 -6 -11 18 -10 21 -21 22 23 -13 -25 -24 -18 -27 29 -22
right_child=1 2 3 4 15 -7 12 8 17 14 13 19 -14 -15 -16 -17 26 -19 -20 20 28 -23 25 24 -26 27 -28 -29 -30 -31
leaf_value=-0.0060020067511416877 0.0135622999397563 0.0065972511137184532 -0.033413158071997726 -0.01837492237675865 -0.016558960523068777 0.0039479880867987569 -0.00065573676141546526 0.018893461296244002 -0.00048281089472947385 -0.010211518738004896 0.011078308233677336 0.0001517953966599814 -0.00846137229707381 -0.00061073051899816701 0.017883750155829548 -0.0035381738146414102 0.033066661218802133 0.010872672380762059 -0.01386362866346745 0.0056450867328948096 -0.013132466772280702 -0.0027289800989551954 0.0093064954343156404 0.021601949728023241 -0.015851783752441406 -0.00089605036903830134 -0.016521337246749462 -0.042109927170130679 0.0040420020870167578 0.0060819259954958543
leaf_weight=4322 1226 5598 162 265 471 7158 2796 328 3913 1998 890 26109 2966 1925 114 6117 75 444 497 4846 763 9897 1502 342 84 170 41 49 695 245
leaf_count=4322 1226 5598 162 265 471 7158 2796 328 3913 1998 890 26109 2966 1925 114 6117 75 444 497 4846 763 9897 1502 342 84 170 41 49 695 245
internal_value=0 0.000317566 8.10408e-06 -0.000576493 -0.000257046 0.000222316 -0.000303386 0.00363418 0.000433242 -0.00919421 0.00626365 0.000256619 -0.0046737 0.00308492 -0.00743323 -0.00446908 -0.00879848 -0.000814173 -0.00199081 0.00036707 0.0033036 -0.000136989 0.000770887 0.000377597 0.0142167 0.00683477 0.0155399 -0.0101174 -0.00335925 -0.0084623
internal_weight=0 81686 77645 66865 64475 57887 50729 10780 5182 2390 4041 44967 5762 2815 2228 6588 2114 4854 4410 44702 6549 38153 28256 26535 426 1721 116 219 1703 1008
internal_count=86008 81686 77645 66865 64475 57887 50729 10780 5182 2390 4041 44967 5762 2815 2228 6588 2114 4854 4410 44702 6549 38153 28256 26535 426 1721 116 219 1703 1008
shrinkage=0.1


Tree=31
num_leaves=31
num_cat=0
split_feature=4 5 2 1 7 6 15 12 9 3 0 11 14 0 10 1 2 0 8 3 2 13 13 11 14 14 13 7 15 8
split_gain=15.1913 17.7163 16.3362 15.4716 15.1686 14.828 14.8361 12.5357 12.4217 12.0138 9.33455 7.95637 8.62115 8.2624 7.94477 6.99216 6.96027 8.9463 6.26597 6.19747 7.05788 6.1552 6.09331 8.50429 6.77408 8.08599 7.46102 7.29442 6.03187 6.02072
threshold=1.5000000000000002 1.5000000000000002 15.500000000000002 21.500000000000004 12.500000000000002 1.5000000000000002 11.500000000000002 1.5000000000000002 2.5000000000000004 11.500000000000002 27.500000000000004 2.5000000000000004 4.5000000000000009 45.500000000000007 1.5000000000000002 11.500000000000002 20.500000000000004 20.500000000000004 18.500000000000004 5.5000000000000009 17.500000000000004 22.500000000000004 1.0000000180025095e-35 2.5000000000000004 5.5000000000000009 16.500000000000004 14.500000000000002 31.500000000000004 106.50000000000001 10.500000000000002
decision_type=2 2 2 2 2 2 2 2 2 2 2 2 2 2 2 2 2 2 2 2 2 2 2 2 2 2 2 2 2 2
left_child=1 19 -2 4 5 -3 14 -4 22 10 -10 12 15 18 21 -11 -16 -18 28 -1 -21 -7 23 -9 26 -26 27 -24 -13 -6
right_child=2 3 7 -5 29 6 -8 8 9 11 -12 13 -14 -15 16 -17 17 -19 -20 20 -22 -23 24 -25 25 -27 -28 -29 -30 -31
leaf_value=-0.0043236549962219319 0.0046659918424100831 -0.013973985501173614 0.0042334519501190928 0.015904940851856914 0.014279631026424339 0.0072294494623330032 -0.0085913887631560125 0.036678591592086328 5.2504794794177369e-05 0.0015115365473822044 0.004028139237671452 -0.0034505423810015159 -0.0022064854602264028 0.010157937303640296 0.0019444438906415025 0.015339754263391989 -0.01429102143078494 -0.001510522792082347 -0.010208299581437999 -0.045881541158125656 -0.01794979203688471 -0.044916369215301843 0.0078315832551698154 -0.010794353262557612 -0.016398057479619376 -0.0021909609197242426 -0.016897117204521552 -0.048495092118779823 -0.058485094308853153 0.0015363114033924772
leaf_weight=201 8587 1380 6363 452 578 1431 3038 74 33805 1103 7156 4688 5169 344 2285 547 815 1670 2142 123 342 23 547 77 1182 606 202 24 20 1034
leaf_count=201 8587 1380 6363 452 578 1431 3038 74 33805 1103 7156 4688 5169 344 2285 547 815 1670 2142 123 342 23 547 77 1182 606 202 24 20 1034
internal_value=0 -0.00309746 0.000570231 -0.00226412 -0.00293431 -0.00430362 -0.00286278 2.11151e-05 -0.000443523 -0.000117595 0.000747059 -0.00264504 -0.000197573 -0.00496493 -6.65867e-05 0.0060958 -0.00203914 -0.00570211 -0.00572438 -0.018996 -0.0253382 0.00640458 -0.00705029 0.0124705 -0.00820127 -0.0115829 -0.000379332 0.00546409 -0.00368433 0.00610557
internal_weight=0 13372 72636 12706 12254 10642 9262 64049 57686 54974 40961 14013 6819 7194 6224 1650 4770 2485 6850 666 465 1454 2712 151 2561 1788 773 571 4708 1612
internal_count=86008 13372 72636 12706 12254 10642 9262 64049 57686 54974 40961 14013 6819 7194 6224 1650 4770 2485 6850 666 465 1454 2712 151 2561 1788 773 571 4708 1612
shrinkage=0.1


Tree=32
num_leaves=31
num_cat=0
split_feature=12 4 15 10 1 7 14 13 13 9 8 3 1 2 10 11 14 7 2 0 14 11 0 2 11 15 7 8 0 2
split_gain=13.5657 13.7548 18.3911 11.3921 10.5011 11.3089 9.31972 8.70634 8.44087 9.20503 8.41118 9.32744 8.40733 7.88235 7.61076 6.87448 7.49244 7.89202 6.78755 7.23845 6.65632 6.42729 6.42345 6.36129 6.96019 8.51439 6.83132 6.28466 6.48892 6.20113
threshold=2.5000000000000004 2.5000000000000004 14.500000000000002 1.5000000000000002 11.500000000000002 4.5000000000000009 19.500000000000004 6.5000000000000009 2.5000000000000004 10.500000000000002 23.500000000000004 29.500000000000004 1.5000000000000002 42.500000000000007 5.5000000000000009 2.5000000000000004 23.500000000000004 9.5000000000000018 29.500000000000004 31.500000000000004 1.5000000000000002 1.5000000000000002 3.5000000000000004 35.500000000000007 3.5000000000000004 1.0000000180025095e-35 21.500000000000004 89.500000000000014 26.500000000000004 38.500000000000007
decision_type=2 2 2 2 2 2 2 2 2 2 2 2 2 2 2 2 2 2 2 2 2 2 2 2 2 2 2 2 2 2
left_child=1 2 3 7 5 20 -4 15 -3 10 11 -10 18 22 -11 -1 17 -17 19 -5 -2 -14 -7 24 25 -12 -26 28 -6 -30
right_child=4 8 6 12 27 13 -8 -9 9 14 23 -13 21 -15 -16 16 -18 -19 -20 -21 -22 -23 -24 -25 26 -27 -28 -29 29 -31
leaf_value=0.016757505666776744 0.0080318156053435143 0.0098716864953229851 -0.011916623545202242 -0.0026101389285049289 -0.0013078324895548104 -0.016493954106613442 0.0063089275016664746 0.00047893620421335706 0.0010294423229130158 0.0046604817974548176 -0.038127661413616606 0.040368238702172141 0.012170831756187364 -0.0097183447327933749 0.022845406355687017 -0.007338357297436514 0.018613502030637753 0.012777850273816916 -0.01070238619245867 0.012256590903580535 -0.0083350047897902454 0.00061083351307431033 -0.00096163519813934918 -0.021660964851414329 -0.037410633310233012 0.0076520431305517993 -0.00035066371973679992 -0.028772677437982699 0.0060203960887255936 -0.002047130208519318
leaf_weight=895 265 1893 1782 6126 4353 270 333 1684 5055 6213 45 61 491 1144 239 523 299 311 991 346 3988 23530 19190 273 101 418 98 69 3744 1278
leaf_count=895 265 1893 1782 6126 4353 270 333 1684 5055 6213 45 61 491 1144 239 523 299 311 991 346 3988 23530 19190 273 101 418 98 69 3744 1278
internal_value=0 0.00102289 9.7861e-06 0.000554031 -0.00154196 -0.00262045 -0.00904707 0.00579361 0.00364862 0.00270643 -9.53858e-05 0.00149849 -6.37214e-05 -0.00165138 0.0053341 0.0102068 0.00503212 0.00016301 -0.00299544 -0.00181535 -0.00731521 0.000847125 -0.00117714 -0.00881655 -0.00351968 0.00320261 -0.01916 0.00129668 0.00151799 0.00396737
internal_weight=0 51707 37311 35196 34301 24857 2115 3712 14396 12503 6051 5116 31484 20604 6452 2028 1133 834 7463 6472 4253 24021 19460 935 662 463 199 9444 9375 5022
internal_count=86008 51707 37311 35196 34301 24857 2115 3712 14396 12503 6051 5116 31484 20604 6452 2028 1133 834 7463 6472 4253 24021 19460 935 662 463 199 9444 9375 5022
shrinkage=0.1


Tree=33
num_leaves=31
num_cat=0
split_feature=0 11 14 14 14 9 2 7 3 3 7 9 13 9 5 2 14 2 10 12 5 0 8 13 3 6 3 15 7 6
split_gain=13.026 14.3592 14.0148 12.763 11.8223 12.3933 9.35637 10.8058 9.26883 8.88105 8.15505 8.04396 7.70244 7.59555 8.90856 7.39859 7.23456 7.22416 7.10053 7.02917 6.74603 7.8127 7.16804 6.73202 7.19554 6.63626 7.14004 6.42672 6.32098 6.2321
threshold=46.500000000000007 2.5000000000000004 23.500000000000004 1.5000000000000002 4.5000000000000009 7.5000000000000009 19.500000000000004 1.5000000000000002 19.500000000000004 24.500000000000004 56.500000000000007 1.0000000180025095e-35 6.5000000000000009 8.5000000000000018 4.5000000000000009 45.500000000000007 19.500000000000004 41.500000000000007 1.0000000180025095e-35 3.5000000000000004 4.5000000000000009 7.5000000000000009 28.500000000000004 5.5000000000000009 4.5000000000000009 1.5000000000000002 31.500000000000004 82.500000000000014 20.500000000000004 1.0000000180025095e-35
decision_type=2 2 2 2 2 2 2 2 2 2 2 2 2 2 2 2 2 2 2 2 2 2 2 2 2 2 2 2 2 2
left_child=1 3 4 13 8 10 19 -8 17 20 11 16 25 14 23 18 -6 -3 -9 29 21 -7 -22 24 -1 26 -4 -13 -14 -5
right_child=-2 2 12 6 5 9 7 15 -10 -11 -12 27 28 -15 -16 -17 -18 -19 -20 -21 22 -23 -24 -25 -26 -27 -28 -29 -30 -31
