tree
version=v3
num_class=1
num_tree_per_iteration=1
label_index=0
max_feature_idx=15
objective=regression
feature_names=Column_0 Column_1 Column_2 Column_3 Column_4 Column_5 Column_6 Column_7 Column_8 Column_9 Column_10 Column_11 Column_12 Column_13 Column_14 Column_15
feature_infos=[1:49] [0:69] [1:49] [0:75] [0:8] [0:8] [0:8] [0:233] [0:297] [0:260] [0:8] [0:8] [0:9] [0:263] [0:201] [0:225]
tree_sizes=2724 2753 2749 2766 2784 2758 2773 2756 2740 2795 2794 2804 2784 2767 2769 2787 2776 2783

Tree=0
num_leaves=31
num_cat=0
split_feature=0 2 15 2 1 0 5 1 2 0 3 15 6 2 4 13 14 8 7 8 4 0 10 5 9 12 7 13 14 2
split_gain=85.4189 25.8778 22.2159 21.5963 18.1627 11.415 10.0927 11.8102 11.0894 10.783 7.56972 6.09726 6.87073 5.72072 6.56227 5.71176 14.3342 5.70437 5.63276 6.54231 5.62502 6.72073 5.54461 5.90141 5.51179 7.82975 5.45691 5.88449 5.28369 6.06913
threshold=32.500000000000007 19.500000000000004 4.5000000000000009 20.500000000000004 10.500000000000002 20.500000000000004 1.5000000000000002 5.5000000000000009 42.500000000000007 39.500000000000007 2.5000000000000004 9.5000000000000018 2.5000000000000004 35.500000000000007 2.5000000000000004 13.500000000000002 7.5000000000000009 11.500000000000002 16.500000000000004 16.500000000000004 2.5000000000000004 17.500000000000004 2.5000000000000004 2.5000000000000004 13.500000000000002 2.5000000000000004 20.500000000000004 5.5000000000000009 21.500000000000004 12.500000000000002
decision_type=2 2 2 2 2 2 2 2 2 2 2 2 2 2 2 2 2 2 2 2 2 2 2 2 2 2 2 2 2 2
left_child=1 4 -2 17 15 13 -5 -8 9 -9 11 22 -13 14 -3 20 -17 26 19 -18 -1 -22 23 -7 25 -16 27 -4 29 -6
right_child=2 5 3 6 28 10 7 8 -10 -11 -12 12 -14 -15 24 16 18 -19 -20 -21 21 -23 -24 -25 -26 -27 -28 -29 -30 -31
leaf_value=-0.32459867447308627 -0.25939250343245346 -0.33458824816987787 -0.33258798783852317 -0.34493665538335688 -0.24044513618780833 -0.30621436303688743 -0.32015941713656076 -0.29779807394577723 -0.32304006797362722 -0.25727122211550202 -0.32463480169509135 -0.34641287180712255 -0.30022125202785904 -0.34620325262781526 -0.31461754555989141 -0.24173085039688808 -0.32467590039803246 -0.22860303163049489 -0.35544512933327416 -0.25544513529373863 -0.32679648239221804 -0.28720983928276755 -0.3240165597779916 -0.2603631677874863 -0.3056269504844874 -0.35132141823886032 -0.23294513663484315 -0.26986821129982103 -0.30932268310279454 -0.2854451335055993
leaf_weight=508 190 1097 21 59 44 52 210 153 79 115 1123 62 67 277 145 35 39 38 27 21 74 102 42 61 165 97 24 52 49 94
leaf_count=508 190 1097 21 59 44 52 210 153 79 115 1123 62 67 277 145 35 39 38 27 21 74 102 42 61 165 97 24 52 49 94
internal_value=-0.317161 -0.323288 -0.28994 -0.297669 -0.309191 -0.327679 -0.305607 -0.301442 -0.290114 -0.280408 -0.320946 -0.306361 -0.322422 -0.332997 -0.330565 -0.315706 -0.295773 -0.261445 -0.317514 -0.300445 -0.319261 -0.303854 -0.292994 -0.281463 -0.31972 -0.329329 -0.274311 -0.287911 -0.281114 -0.271097
internal_weight=0 4181 941 751 993 3188 616 557 347 268 1407 284 129 1781 1504 806 122 135 87 60 684 176 155 113 407 242 97 73 187 138
internal_count=5122 4181 941 751 993 3188 616 557 347 268 1407 284 129 1781 1504 806 122 135 87 60 684 176 155 113 407 242 97 73 187 138
shrinkage=1


Tree=1
num_leaves=31
num_cat=0
split_feature=0 2 2 15 0 1 12 0 9 3 4 5 1 15 9 2 9 7 15 2 14 9 13 13 1 14 1 2 2 8
split_gain=71.1272 22.7437 15.7222 13.8233 12.4409 10.1312 9.65201 9.60376 8.25411 7.69028 7.63827 7.43664 8.55274 7.35722 6.35075 6.09424 8.32247 6.87191 6.91356 6.01538 7.51584 5.98573 8.12294 5.82015 5.07695 4.96446 6.27958 6.12691 4.85969 4.83139
threshold=27.500000000000004 20.500000000000004 19.500000000000004 4.5000000000000009 32.500000000000007 10.500000000000002 1.5000000000000002 43.500000000000007 26.500000000000004 14.500000000000002 2.5000000000000004 1.5000000000000002 24.500000000000004 31.500000000000004 6.5000000000000009 28.500000000000004 12.500000000000002 31.500000000000004 10.500000000000002 35.500000000000007 34.500000000000007 9.5000000000000018 4.5000000000000009 9.5000000000000018 31.500000000000004 18.500000000000004 15.500000000000002 12.500000000000002 45.500000000000007 9.5000000000000018
decision_type=2 2 2 2 2 2 2 2 2 2 2 2 2 2 2 2 2 2 2 2 2 2 2 2 2 2 2 2 2 2
left_child=2 8 5 4 23 -1 9 11 10 21 14 -5 19 -9 -2 17 29 -8 -19 20 -13 -4 -23 -3 28 27 -27 -7 -18 -17
right_child=1 3 6 7 -6 25 15 13 -10 -11 -12 12 -14 -15 -16 16 24 18 -20 -21 -22 22 -24 -25 -26 26 -28 -29 -30 -31
leaf_value=-0.00092591886835216336 -0.0072699242168002666 -0.02993027623742819 0.0017361196431707829 -0.028128974538453866 0.052486011879049624 0.07586269414786137 -0.010832237507405725 0.05050530236214399 0.074899469912052152 -0.024228034452958541 0.055999977209351286 0.0057291919822934313 0.036651927754282956 -0.0029340298552262157 0.034189271519326762 -0.043838523884853688 -0.0097298180051240378 0.070299056598118373 -0.0030984289718396737 -0.0093954480778087272 0.055406153202056885 0.08619547939300537 0.017044854276585128 0.02468499028682709 0.036883040269215898 -0.036499852201213011 0.033468862237601447 0.023089967261661182 -0.04249363471479977 -0.021196279093759873
leaf_weight=727 54 32 94 71 139 33 1581 80 60 55 99 395 80 38 117 166 403 21 33 275 33 25 53 50 21 23 29 66 51 218
leaf_count=727 54 32 94 71 139 33 1581 80 60 55 99 395 80 38 117 166 403 21 33 275 33 25 53 50 21 23 29 66 51 218
internal_value=0 0.018115 -0.00766579 0.0116879 0.0342626 0.00396966 -0.0114203 0.00655516 0.0413501 0.00832122 0.0338947 0.00286028 0.00567029 0.033296 0.0210969 -0.0132171 -0.0200369 -0.00963409 0.025445 0.00214465 0.00955942 0.0187294 0.0392085 0.00337172 -0.0111868 0.0275398 0.00252116 0.0406809 -0.0134103 -0.0309843
internal_weight=0 1523 3599 1193 221 878 2721 972 330 227 270 854 783 118 171 2494 859 1635 54 703 428 172 78 82 475 151 52 99 454 384
internal_count=5122 1523 3599 1193 221 878 2721 972 330 227 270 854 783 118 171 2494 859 1635 54 703 428 172 78 82 475 151 52 99 454 384
shrinkage=0.1


Tree=2
num_leaves=31
num_cat=0
split_feature=0 2 12 15 2 0 1 0 2 14 9 3 0 9 14 14 4 3 5 8 4 9 9 12 8 14 14 2 1 10
split_gain=57.613 18.4224 12.8178 11.1969 10.2957 10.0771 7.80982 8.71897 7.25995 7.2181 6.68583 6.61227 7.20199 7.28569 6.2882 7.70727 6.187 5.70509 10.7852 6.5123 6.62611 5.20315 5.14411 4.89718 5.1336 8.31243 6.35301 5.189 4.85023 4.74875
threshold=27.500000000000004 20.500000000000004 1.5000000000000002 4.5000000000000009 19.500000000000004 32.500000000000007 5.5000000000000009 40.500000000000007 35.500000000000007 2.5000000000000004 26.500000000000004 14.500000000000002 22.500000000000004 12.500000000000002 29.500000000000004 56.500000000000007 2.5000000000000004 5.5000000000000009 2.5000000000000004 7.5000000000000009 2.5000000000000004 16.500000000000004 6.5000000000000009 3.5000000000000004 12.500000000000002 13.500000000000002 12.500000000000002 37.500000000000007 6.5000000000000009 1.5000000000000002
decision_type=2 2 2 2 2 2 2 2 2 2 2 2 2 2 2 2 2 2 2 2 2 2 2 2 2 2 2 2 2 2
left_child=2 10 11 5 9 -3 -5 14 -9 -4 16 12 29 -14 23 21 22 18 -6 20 -20 -16 -2 24 25 27 -26 -8 -11 -1
right_child=1 3 4 6 17 -7 7 8 -10 28 -12 -13 13 -15 15 -17 -18 -19 19 -21 -22 -23 -24 -25 26 -27 -28 -29 -30 -31
leaf_value=0.041066879339707207 -0.0065429310003916434 0.0030345439910888674 0.03836642698365815 -0.0061572808664658168 -0.013548871623383599 0.047237407818115015 0.024592248534643521 0.060942385560375151 0.015807466904322307 -0.0063480023490755186 0.067409522831439972 -0.015413249695478982 0.025843392809232077 0.099175063967704771 0.021221871078014376 -0.012540719560954884 0.050399979888790782 -0.016906084545125873 0.011827966063580615 -0.0022407654839283002 0.065141760918401903 0.09028383592764537 0.030770345006743052 -0.015968741463799764 0.0082570372309003562 -0.035257352635545552 0.059951304561562016 -0.018110978167231489 0.011569543105166107 0.0017587401538059631
leaf_weight=39 54 82 49 346 889 139 93 59 90 532 60 67 42 20 20 23 99 1189 94 291 31 24 117 117 70 53 36 41 211 145
leaf_count=39 54 82 49 346 889 139 93 59 90 532 60 67 42 20 20 23 99 1189 94 291 31 24 117 117 70 53 36 41 211 145
internal_value=0 0.0163035 -0.00689921 0.0105191 -0.00874106 0.0308363 0.00589964 0.0125637 0.0336797 0.00119191 0.0372151 0.0124373 0.0200226 0.0494988 0.00596771 0.0343703 0.0305052 -0.0118954 -0.0073301 0.00595952 0.0250498 0.058892 0.0189872 0.00132631 0.00823252 -0.00173321 0.0258136 0.0115263 -0.00125971 0.0100904
internal_weight=0 1523 3599 1193 3286 221 972 626 149 792 330 313 246 62 477 67 270 2494 1305 416 125 44 171 410 293 187 106 134 743 184
internal_count=5122 1523 3599 1193 3286 221 972 626 149 792 330 313 246 62 477 67 270 2494 1305 416 125 44 171 410 293 187 106 134 743 184
shrinkage=0.1


Tree=3
num_leaves=31
num_cat=0
split_feature=0 2 2 1 15 0 2 4 11 10 0 2 9 12 1 14 7 3 14 12 3 0 14 2 8 0 14 2 1 7
split_gain=46.8956 14.0692 12.4415 11.5819 8.57052 8.34536 8.33563 7.7794 6.44839 6.01229 6.86489 7.70033 6.00564 5.70047 5.57667 6.90671 7.52449 6.59281 6.0058 5.59661 5.4731 7.1776 7.41822 6.37835 5.31255 5.22527 5.09501 4.76233 4.70729 4.55905
threshold=32.500000000000007 19.500000000000004 38.500000000000007 15.500000000000002 4.5000000000000009 44.500000000000007 14.500000000000002 2.5000000000000004 1.5000000000000002 1.0000000180025095e-35 29.500000000000004 28.500000000000004 27.500000000000004 1.0000000180025095e-35 12.500000000000002 26.500000000000004 6.5000000000000009 1.0000000180025095e-35 6.5000000000000009 3.5000000000000004 12.500000000000002 19.500000000000004 10.500000000000002 21.500000000000004 9.5000000000000018 21.500000000000004 31.500000000000004 30.500000000000004 6.5000000000000009 9.5000000000000018
decision_type=2 2 2 2 2 2 2 2 2 2 2 2 2 2 2 2 2 2 2 2 2 2 2 2 2 2 2 2 2 2
left_child=1 3 4 12 -2 -4 26 13 -9 25 11 20 -1 -3 17 16 -16 -8 19 24 21 -11 23 -23 -19 -10 -6 -15 -12 -24
right_child=2 7 5 -5 6 -7 14 8 9 10 28 -13 -14 27 15 -17 -18 18 -20 -21 -22 22 29 -25 -26 -27 -28 -29 -30 -31
leaf_value=2.6668017156995262e-05 0.047239319557025115 0.020884296691642618 -0.0082351765440936055 0.038491812956576443 0.071882208991557991 0.036418606087846576 0.045203842818737031 0.025145194627517877 0.069061800695600958 -0.0084173048899425732 -0.0096897523577620347 -0.015658274895817271 0.032049459408199976 -0.0096171604415357589 -0.037346947760809039 0.060359433462034984 0.028497853010892873 0.034491926739955769 -0.0085230179173605789 0.067860561880198386 -0.018301542905660776 -0.026791334957689851 0.010522086847396125 0.026000094215075178 -0.032502021491527554 -0.0023585052788257601 0.011619844809174537 -0.021129102198181638 0.032162585778114122 0.066754392826038858
leaf_weight=832 162 53 199 98 47 53 40 86 21 123 41 524 63 1516 21 53 100 29 175 22 91 37 21 60 20 20 20 471 78 46
leaf_count=832 162 53 199 98 47 53 40 86 21 123 41 524 63 1516 21 53 100 29 175 22 91 37 21 60 20 20 20 471 78 46
internal_value=0 -0.00453943 0.0201693 0.00585448 0.0271233 0.00115629 0.0209396 -0.00777693 -0.0011919 -0.00332465 -0.00483243 -0.00781077 0.00228079 -0.0114826 0.0161399 0.030256 0.0170702 0.00755169 0.00142939 0.02596 0.00306779 0.00984343 0.023539 0.00586316 0.00714746 0.0342226 0.0538934 -0.012346 0.0177429 0.0491293
internal_weight=0 4181 941 993 689 252 527 3188 1148 1062 1021 902 895 2040 460 174 121 286 246 71 378 287 164 97 49 41 67 1987 119 67
internal_count=5122 4181 941 993 689 252 527 3188 1148 1062 1021 902 895 2040 460 174 121 286 246 71 378 287 164 97 49 41 67 1987 119 67
shrinkage=0.1


Tree=4
num_leaves=31
num_cat=0
split_feature=0 2 3 0 5 0 2 14 4 14 15 2 15 7 0 15 11 12 7 1 2 1 14 0 13 9 2 11 8 0
split_gain=38.8894 12.9819 9.76747 9.0858 7.72839 7.69831 8.73117 9.29746 7.4362 7.39662 7.68404 6.93783 6.49197 7.69308 6.83334 5.87852 6.91852 6.68746 6.47634 5.10471 5.08641 6.10446 5.93325 6.58928 5.04813 4.96714 6.04763 5.03579 5.31622 5.02588
threshold=27.500000000000004 20.500000000000004 2.5000000000000004 20.500000000000004 2.5000000000000004 43.500000000000007 38.500000000000007 28.500000000000004 2.5000000000000004 5.5000000000000009 25.500000000000004 26.500000000000004 4.5000000000000009 11.500000000000002 35.500000000000007 8.5000000000000018 1.5000000000000002 2.5000000000000004 9.5000000000000018 14.500000000000002 23.500000000000004 7.5000000000000009 3.5000000000000004 21.500000000000004 7.5000000000000009 8.5000000000000018 23.500000000000004 2.5000000000000004 13.500000000000002 18.500000000000004
decision_type=2 2 2 2 2 2 2 2 2 2 2 2 2 2 2 2 2 2 2 2 2 2 2 2 2 2 2 2 2 2
left_child=2 19 3 25 -5 6 7 12 20 -7 -11 15 13 14 -3 18 -17 -18 -10 -2 21 -4 -23 -24 -22 26 -1 28 -27 -29
right_child=1 5 8 4 -6 9 -8 -9 11 10 -12 -13 -14 -15 -16 16 17 -19 -20 -21 24 22 23 -25 -26 27 -28 29 -30 -31
leaf_value=-0.0025881774887639522 0.024203934815584444 -0.012375893263981261 -0.011666563473504834 0.0013683395376845973 0.034736582657529248 0.073625269436067162 -0.0090299657818411483 0.038589719411368684 -0.00019395817409862174 0.037910736425661708 -0.017338930337856977 -0.0096673462570198189 0.0015548779277418925 0.054570268573505547 0.049319895987327285 0.045100799560546877 0.014123795287949699 -0.02431847935076803 0.032333847837171692 0.05388242518901825 -0.010306129378724181 0.056388322331688626 -0.014749521357672555 0.024211910044824758 -0.028768651060808722 0.0086212375489148237 -0.032638257396848579 -0.016131994801182901 0.060953448017438253 0.030361776005837227
leaf_weight=227 255 58 1033 134 144 31 294 107 110 71 39 492 511 56 26 25 70 128 138 75 287 22 105 74 306 55 95 93 30 31
leaf_count=227 255 58 1033 134 144 31 294 107 110 71 39 492 511 56 26 25 70 128 138 75 287 22 105 74 306 55 95 93 30 31
internal_value=0 0.0133948 -0.00566832 0.00400616 0.0186526 0.00853907 0.00559818 0.0112719 -0.00847358 0.030481 0.0183222 -0.00136259 0.00678186 0.0258604 0.00672042 0.00731243 -0.00446897 -0.0107278 0.0179062 0.030949 -0.0122217 -0.00856405 0.00738072 0.00135744 -0.0198332 -0.00366185 -0.0114539 0.00834312 0.0270914 -0.00450855
internal_weight=0 1523 3599 809 278 1193 1052 758 2790 141 110 963 651 140 84 471 223 198 248 330 1827 1234 201 179 593 531 322 209 85 124
internal_count=5122 1523 3599 809 278 1193 1052 758 2790 141 110 963 651 140 84 471 223 198 248 330 1827 1234 201 179 593 531 322 209 85 124
shrinkage=0.1


Tree=5
num_leaves=31
num_cat=0
split_feature=0 0 15 2 1 2 1 9 8 5 10 7 12 3 3 8 14 6 9 0 9 1 3 2 9 1 3 13 8 4
split_gain=31.6842 9.53553 9.46112 9.19829 8.12811 7.66312 12.1431 6.10435 7.83156 5.94962 6.15377 7.67023 5.87121 8.16062 5.73536 10.902 5.60835 5.59989 5.56828 5.08662 5.03818 4.50204 4.68698 6.69229 4.47527 5.01262 5.90631 11.1983 5.5507 4.51586
threshold=32.500000000000007 20.500000000000004 7.5000000000000009 42.500000000000007 1.0000000180025095e-35 21.500000000000004 17.500000000000004 41.500000000000007 16.500000000000004 1.0000000180025095e-35 1.0000000180025095e-35 9.5000000000000018 1.5000000000000002 13.500000000000002 6.5000000000000009 5.5000000000000009 37.500000000000007 3.5000000000000004 26.500000000000004 45.500000000000007 26.500000000000004 5.5000000000000009 2.5000000000000004 20.500000000000004 2.5000000000000004 6.5000000000000009 1.5000000000000002 8.5000000000000018 6.5000000000000009 2.5000000000000004
decision_type=2 2 2 2 2 2 2 2 2 2 2 2 2 2 2 2 2 2 2 2 2 2 2 2 2 2 2 2 2 2
left_child=1 9 4 7 -2 6 18 14 -9 -1 11 -11 13 -7 21 -16 -14 -13 24 -6 -15 -4 23 -23 -3 26 -26 29 -27 -28
right_child=2 5 3 -5 19 12 -8 8 -10 10 -12 17 16 20 15 -17 -18 -19 -20 -21 -22 22 -24 -25 25 28 27 -29 -30 -31
leaf_value=-0.049449754900792064 0.001373805602391561 -0.024726262749457845 0.0028658940323761533 -0.016111670100483404 0.034481539538541398 0.031804291082888229 0.058196273871830531 0.074928542640474105 0.0057479395469029748 -0.014727050284060038 -0.008368042652772311 0.07358950568096978 -0.0077876102911811768 -0.055515576970009577 -0.030785604908659656 0.014264100463110574 0.022573476112805881 0.0084748420715332045 0.046420048944877862 0.084803484955971897 0.013753949176697505 0.061188114637678315 0.060562176272577178 -0.0095951273160822248 0.02397619151487583 0.00048380891482035322 0.00054740484683744373 -0.034279152688880758 0.037467317363267305 0.041287917982448234
leaf_weight=34 75 49 56 116 231 98 49 36 30 41 2235 28 951 21 74 196 65 25 33 22 21 22 49 34 82 72 155 96 93 33
leaf_count=34 75 49 56 116 231 98 49 36 30 41 2235 28 951 21 74 196 65 25 33 22 21 22 49 34 82 72 155 96 93 33
internal_value=0 -0.00373127 0.0165786 0.00924385 0.0302864 0.00171335 0.0102927 0.0151618 0.0434828 -0.00792014 -0.00731387 0.0177507 -0.00319975 0.0159988 0.010825 0.00191714 -0.00584522 0.042875 0.00646357 0.0388574 -0.0208808 0.0257636 0.0379757 0.0182126 0.00419018 0.00685856 0.000334967 -0.00649102 0.0213291 0.00769867
internal_weight=0 4181 941 613 328 1818 662 497 66 2363 2329 94 1156 140 431 270 1016 53 613 253 42 161 105 56 580 531 366 284 165 188
internal_count=5122 4181 941 613 328 1818 662 497 66 2363 2329 94 1156 140 431 270 1016 53 613 253 42 161 105 56 580 531 366 284 165 188
shrinkage=0.1


Tree=6
num_leaves=31
num_cat=0
split_feature=0 2 12 1 15 2 11 0 2 9 3 8 0 5 0 3 0 6 1 2 5 1 11 9 14 14 9 13 13 2
split_gain=26.0048 9.03246 8.58504 6.80549 10.6851 7.11541 6.60535 6.17332 5.74712 7.22222 5.24849 5.55456 5.05098 4.82457 9.12074 7.05081 5.93382 5.26539 5.6684 4.68261 4.62041 6.50957 4.51716 4.48957 7.09297 5.60774 8.85555 5.28882 6.87347 4.39661
threshold=27.500000000000004 20.500000000000004 1.5000000000000002 4.5000000000000009 8.5000000000000018 42.500000000000007 1.5000000000000002 38.500000000000007 28.500000000000004 12.500000000000002 1.5000000000000002 9.5000000000000018 43.500000000000007 2.5000000000000004 18.500000000000004 1.0000000180025095e-35 24.500000000000004 1.5000000000000002 20.500000000000004 10.500000000000002 1.5000000000000002 23.500000000000004 2.5000000000000004 24.500000000000004 25.500000000000004 11.500000000000002 38.500000000000007 41.500000000000007 27.500000000000004 12.500000000000002
decision_type=2 2 2 2 2 2 2 2 2 2 2 2 2 2 2 2 2 2 2 2 2 2 2 2 2 2 2 2 2 2
left_child=2 20 10 -3 7 12 19 -5 13 -10 11 -1 23 17 -15 -16 -17 -8 -19 -4 22 29 -2 27 25 26 -25 28 -6 -22
right_child=1 3 6 4 5 -7 8 -9 9 -11 -12 -13 -14 14 15 16 -18 18 -20 -21 21 -23 -24 24 -26 -27 -28 -29 -30 -31
leaf_value=0.0080523142083124676 0.025250130891799928 -0.0035345026668978903 0.058101442754268651 0.019647007989996707 -0.00076083534681647405 -0.017871696235878125 -0.035325593379006461 0.054902023728936912 -0.024840582440269741 -0.0058423656563867223 0.0033470368281202029 0.059540565311908725 0.041365184302025654 -0.011249406536420188 0.035131131285115295 0.010854859525090332 -0.021628436914512092 -0.0075573805460192704 0.03636231819788615 0.006779234670102597 0.048675694786585295 0.085203027799725536 -0.039731146693229677 0.073680494228998819 0.061949491150238935 -0.032832388083140061 -0.0181555484022413 -0.046892584724859764 0.057650612701069227 0.018774945938056061
leaf_weight=44 23 410 20 171 239 112 67 70 367 440 229 40 47 315 95 286 70 1436 30 160 65 20 20 21 34 24 21 22 22 202
leaf_count=44 23 410 20 171 239 112 67 70 367 440 229 40 47 315 95 286 70 1436 30 160 65 20 20 21 34 24 21 22 22 202
internal_value=0 0.0109534 -0.00463517 0.00690305 0.0123684 0.00457878 -0.00614254 0.0298871 -0.00722186 -0.0144822 0.0111898 0.0325705 0.0104263 -0.00467331 0.0018073 0.0109267 0.00446769 -0.00791151 -0.00665861 0.0124817 0.0255959 0.030176 -0.00497372 0.00662968 0.0248433 0.00572798 0.0277625 0.00019377 0.00416273 0.0260542
internal_weight=0 1523 3599 1193 783 542 3286 241 3106 807 313 84 430 2299 766 451 356 1533 1466 180 330 287 43 383 100 66 42 283 261 267
internal_count=5122 1523 3599 1193 783 542 3286 241 3106 807 313 84 430 2299 766 451 356 1533 1466 180 330 287 43 383 100 66 42 283 261 267
shrinkage=0.1


Tree=7
num_leaves=31
num_cat=0
split_feature=0 4 2 0 5 2 1 11 3 13 3 9 2 8 3 9 9 10 15 3 0 0 3 8 2 6 1 14 0 2
split_gain=21.5284 8.52183 8.46454 8.6465 8.02843 7.59948 9.90292 6.046 5.82593 5.76767 5.41589 4.8753 4.6011 8.4582 4.54614 4.43979 4.43664 4.4126 4.40749 5.36469 4.22863 7.84144 4.18153 4.03389 4.70295 4.15065 4.14507 4.86832 4.00506 3.99296
threshold=32.500000000000007 2.5000000000000004 26.500000000000004 19.500000000000004 1.5000000000000002 44.500000000000007 23.500000000000004 2.5000000000000004 7.5000000000000009 35.500000000000007 1.0000000180025095e-35 13.500000000000002 16.500000000000004 8.5000000000000018 3.5000000000000004 6.5000000000000009 7.5000000000000009 1.5000000000000002 4.5000000000000009 27.500000000000004 27.500000000000004 29.500000000000004 7.5000000000000009 42.500000000000007 33.500000000000007 5.5000000000000009 22.500000000000004 19.500000000000004 43.500000000000007 17.500000000000004
decision_type=2 2 2 2 2 2 2 2 2 2 2 2 2 2 2 2 2 2 2 2 2 2 2 2 2 2 2 2 2 2
left_child=1 14 3 7 8 6 10 12 -2 -8 -6 -4 13 -3 -1 -16 -5 -9 22 28 -17 -22 -12 25 -25 26 -13 -28 -20 -19
right_child=4 2 11 16 5 -7 9 17 -10 -11 18 23 -14 -15 15 20 -18 29 19 -21 21 -23 -24 24 -26 -27 27 -29 -30 -31
leaf_value=0.00017561328726888492 0.020905989023946948 -0.0094053371250629441 -0.012766519138652288 0.037288499030016235 0.036661463489844691 -0.010268474554502837 0.069962264403122768 0.021346985376798189 -0.032333131305506975 0.017077277600765228 0.0025086305337026719 0.007061995292703311 0.0018539518587232578 0.077843617677688604 -0.018431148347975334 -0.0083983653382696047 0.013950110445004452 -0.049910824745893478 -0.00092321261763572693 0.040010875993304787 0.030859797457118095 -0.011916079593228769 0.042107544764876367 0.021431955805531255 -0.027326311654335744 -0.02553593097254634 0.0087065113782882689 0.072455951830615178 0.026061835388342544 -0.011294778923929473
leaf_weight=755 31 20 356 118 105 93 58 26 61 32 40 240 127 25 395 1382 263 40 330 45 81 91 80 27 74 32 25 23 66 81
leaf_count=755 31 20 356 118 105 93 58 26 61 32 40 240 127 25 395 1382 263 40 330 45 81 91 80 27 74 32 25 23 66 81
internal_value=0 -0.00307567 0.00303289 0.0110087 0.0136657 0.0167063 0.0200246 -0.00113747 -0.0143939 0.0511587 0.0158173 -0.00415249 0.0115897 0.0390663 -0.00641234 -0.00896437 0.0211783 -0.0160292 0.011916 0.00729231 -0.00655808 0.00822837 0.0289079 0.00313158 -0.0142919 0.00863087 0.0124272 0.0392531 0.0035743 -0.0240604
internal_weight=0 4181 1477 700 941 849 756 319 92 90 666 777 172 45 2704 1949 381 147 561 441 1554 172 120 421 101 320 288 48 396 121
internal_count=5122 4181 1477 700 941 849 756 319 92 90 666 777 172 45 2704 1949 381 147 561 441 1554 172 120 421 101 320 288 48 396 121
shrinkage=0.1


Tree=8
num_leaves=31
num_cat=0
split_feature=0 11 5 2 5 2 1 1 2 9 15 14 3 15 9 0 14 3 3 12 3 1 9 7 8 6 9 13 8 3
split_gain=17.438 7.55685 6.50303 6.28778 6.70287 5.57185 4.82556 4.80741 6.80469 5.99257 6.70271 5.2526 8.06989 5.52479 4.79187 5.14368 4.76977 4.71901 4.61441 4.46512 4.76406 4.37684 4.63842 4.36564 4.89162 4.22453 4.14243 8.29482 4.10129 4.72974
threshold=32.500000000000007 1.5000000000000002 1.5000000000000002 14.500000000000002 5.5000000000000009 19.500000000000004 17.500000000000004 12.500000000000002 46.500000000000007 45.500000000000007 31.500000000000004 7.5000000000000009 22.500000000000004 7.5000000000000009 6.5000000000000009 10.500000000000002 1.5000000000000002 7.5000000000000009 19.500000000000004 1.5000000000000002 13.500000000000002 4.5000000000000009 9.5000000000000018 13.500000000000002 9.5000000000000018 3.5000000000000004 11.500000000000002 6.5000000000000009 3.5000000000000004 24.500000000000004
decision_type=2 2 2 2 2 2 2 2 2 2 2 2 2 2 2 2 2 2 2 2 2 2 2 2 2 2 2 2 2 2
left_child=1 28 17 -4 7 6 16 11 9 10 23 18 13 -13 -7 -16 -3 -2 26 20 21 -17 -23 24 -9 -22 27 -5 -1 -30
right_child=2 5 3 4 -6 14 -8 8 -10 -11 -12 12 -14 -15 15 19 -18 -19 -20 -21 25 22 -24 -25 -26 -27 -28 -29 29 -31
leaf_value=-0.0195652199909091 0.018815390525325652 0.048081706819080174 0.042885938498216709 -0.018169795047669187 -0.029759344706932707 -0.013268680606544628 0.029327743145135733 -0.0086141831780734823 -0.0231994085586988 0.065973051339387898 -0.00941711594449713 0.022653025799989703 -0.035845496140274345 -0.0071384257847262964 -0.020559789178639473 0.065472164479168982 -0.00019277199419605393 -0.029099818380152593 0.057139175649612184 -0.0037365218899531221 -0.038709828699076618 -0.025370457484608606 0.028688513086392333 0.048921688610599159 0.04767666367384104 0.016728412147079194 -0.00026159584522247317 0.058218020162629815 0.025629803079825181 -0.011966343115015729
leaf_weight=32 31 21 74 21 36 683 65 38 26 40 47 125 51 124 169 22 807 61 31 2018 27 21 65 84 26 28 82 44 182 41
leaf_count=32 31 21 74 21 36 683 65 38 26 40 47 125 51 124 169 22 807 61 31 2018 27 21 65 84 26 28 82 44 182 41
internal_value=0 -0.00276811 0.0122991 0.0150356 0.0123764 -0.0038516 0.00309121 0.014429 0.0253441 0.0307149 0.0234824 0.00846911 0.000394477 0.00781712 -0.00589575 -0.0037529 0.00103158 -0.0129545 0.022078 -0.00245058 0.0134699 0.02567 0.0154881 0.0339302 0.014254 -0.0104867 0.0146842 0.0335389 0.0139134 0.0187175
internal_weight=0 4181 941 849 775 3926 893 739 261 235 195 478 300 249 3033 2350 828 92 178 2181 163 108 86 148 64 55 147 65 255 223
internal_count=5122 4181 941 849 775 3926 893 739 261 235 195 478 300 249 3033 2350 828 92 178 2181 163 108 86 148 64 55 147 65 255 223
shrinkage=0.1


Tree=9
num_leaves=31
num_cat=0
split_feature=0 2 9 12 5 4 7 12 2 0 10 0 8 9 13 11 3 0 1 13 12 9 3 3 13 3 5 8 15 2
split_gain=14.5849 6.35087 6.76103 6.25766 6.24991 9.32154 7.86019 6.80812 5.03904 4.77119 4.67552 5.40985 4.66552 4.63899 4.38395 4.1357 3.9739 7.21924 3.72372 6.51077 3.56644 3.54571 3.53176 3.43372 3.34606 3.32012 5.75809 4.93041 3.73564 4.07869
threshold=27.500000000000004 38.500000000000007 23.500000000000004 1.5000000000000002 3.5000000000000004 2.5000000000000004 24.500000000000004 3.5000000000000004 44.500000000000007 44.500000000000007 1.0000000180025095e-35 25.500000000000004 77.500000000000014 10.500000000000002 8.5000000000000018 1.5000000000000002 1.0000000180025095e-35 30.500000000000004 4.5000000000000009 17.500000000000004 1.5000000000000002 6.5000000000000009 13.500000000000002 13.500000000000002 62.500000000000007 5.5000000000000009 2.5000000000000004 14.500000000000002 16.500000000000004 23.500000000000004
decision_type=2 2 2 2 2 2 2 2 2 2 2 2 2 2 2 2 2 2 2 2 2 2 2 2 2 2 2 2 2 2
left_child=3 2 4 10 5 7 14 16 15 24 -1 23 20 -7 -6 -5 17 -2 -18 -20 -4 -19 -8 -12 -3 26 28 -28 29 -17
right_child=1 9 12 8 6 13 22 -9 -10 -11 11 -13 -14 -15 -16 25 18 21 19 -21 -22 -23 -24 -25 -26 -27 27 -29 -30 -31
leaf_value=0.051522276878356935 -0.025096955647071203 -0.011033004773290535 0.052489963466045911 0.010897983593696897 0.058333815056188357 0.027994390820031578 0.01568468029682453 -0.032791273976549691 -0.024960053017159471 0.024247898639373058 0.0080986626815087726 0.048202615124838699 -0.018237103586611542 0.0036769456333584256 0.019778502813229959 -0.0042444288475900638 -0.01993780299886927 0.011582949486645787 -0.0049015533979808066 0.055998754643258597 0.023101976074381358 0.065230073886258275 -0.038755350492217323 -0.019505802927346067 0.031280525177717212 -0.0085714259025856786 0.013297832942470004 -0.0070292052425695271 0.016368399390152524 -0.019553153938297773
leaf_weight=25 24 285 51 176 58 161 26 81 119 53 202 28 23 153 60 819 111 22 107 21 217 28 22 58 20 1341 362 178 70 221
leaf_count=25 24 285 51 176 58 161 26 81 119 53 202 28 23 153 60 819 111 22 107 21 217 28 22 58 20 1341 362 178 70 221
internal_value=0 0.00820301 0.0117827 -0.00347129 0.00738694 0.00329227 0.0248509 -0.00695112 -0.00475822 -0.00344597 0.0100394 0.00643843 0.0249851 0.0161454 0.0387294 -0.00399914 -0.000264053 0.0199857 -0.00653384 0.0050899 0.0286945 0.0416253 -0.009267 0.00194074 -0.00825835 -0.00487573 -0.00187214 0.00659744 -0.00599247 -0.00749753
internal_weight=0 1523 1165 3599 874 708 166 394 3286 358 313 288 291 314 118 3167 313 74 239 128 268 50 48 260 305 2991 1650 540 1110 1040
internal_count=5122 1523 1165 3599 874 708 166 394 3286 358 313 288 291 314 118 3167 313 74 239 128 268 50 48 260 305 2991 1650 540 1110 1040
shrinkage=0.1


Tree=10
num_leaves=31
num_cat=0
split_feature=0 11 5 15 9 2 2 6 1 1 2 3 7 5 8 4 10 2 0 3 14 10 8 8 13 8 15 6 8 14
split_gain=12.1518 7.44908 8.01975 9.89079 9.06861 7.92664 7.68017 7.64724 6.61543 6.19708 5.90743 5.49606 5.18072 4.93572 4.90156 4.64017 7.60708 4.71075 4.64015 4.60941 7.63037 4.49646 4.36297 4.11788 4.4386 4.04693 3.99419 3.82483 3.55855 5.38723
threshold=20.500000000000004 1.5000000000000002 2.5000000000000004 7.5000000000000009 10.500000000000002 44.500000000000007 16.500000000000004 2.5000000000000004 24.500000000000004 10.500000000000002 37.500000000000007 4.5000000000000009 31.500000000000004 1.0000000180025095e-35 110.50000000000001 2.5000000000000004 1.0000000180025095e-35 34.500000000000007 43.500000000000007 19.500000000000004 26.500000000000004 3.5000000000000004 18.500000000000004 6.5000000000000009 9.5000000000000018 26.500000000000004 2.5000000000000004 1.5000000000000002 15.500000000000002 20.500000000000004
decision_type=2 2 2 2 2 2 2 2 2 2 2 2 2 2 2 2 2 2 2 2 2 2 2 2 2 2 2 2 2 2
left_child=13 -2 7 4 6 8 -4 10 14 -9 12 -11 -3 -1 18 17 -17 28 -5 20 21 23 -22 24 -6 27 -25 -18 29 -15
right_child=1 2 3 5 19 -7 -8 9 -10 11 -12 -13 -14 15 -16 16 25 -19 -20 -21 22 -23 -24 26 -26 -27 -28 -29 -30 -31
leaf_value=-0.043088996322715983 0.022848120215462477 -0.0084464276035975915 -0.015186605576811167 0.0014700405699450796 -0.05001226095926195 -0.024729919964724248 0.039636303837909254 -0.002654705327507612 0.036673984371247838 0.04460053633129786 -0.034375416539436168 0.0087448934639306891 0.034883751026515301 -0.0066987047845845152 -0.04207994006574154 0.045457262898746298 -0.017779992381731669 -0.02620561294198975 0.032307507744375262 -0.019805989231703416 0.061659138040935126 -0.036872162154087652 0.0086560653448104867 0.050184667408466346 0.015812626779079436 -0.016174949806435666 0.0059637513943016536 0.0064893854120053537 0.0062671385556459435 -0.038694988597523086
leaf_weight=34 205 569 29 615 21 101 215 296 61 63 86 133 29 1217 24 38 75 127 53 53 41 26 25 30 20 133 64 484 200 55
leaf_count=34 205 569 29 615 21 101 215 296 61 63 86 133 29 1217 24 38 75 127 53 53 41 26 25 30 20 133 64 484 200 55
internal_value=0 0.00450772 0.0030356 0.00821225 0.0190279 0.00157593 0.0331205 -0.00303024 0.00510434 0.00647787 -0.00986941 0.0202699 -0.00634513 -0.00526314 0.00232147 -0.00471093 0.00189517 -0.00772685 0.00391673 0.00674731 0.012947 0.00120832 0.0415822 0.00854233 -0.0179026 -0.000496973 0.0200768 0.00323321 -0.00613255 -0.00808219
internal_weight=0 2759 2554 1378 524 854 244 1176 753 492 684 196 598 2363 692 2329 730 1599 668 280 227 161 66 135 41 692 94 559 1472 1272
internal_count=5122 2759 2554 1378 524 854 244 1176 753 492 684 196 598 2363 692 2329 730 1599 668 280 227 161 66 135 41 692 94 559 1472 1272
shrinkage=0.1


Tree=11
num_leaves=31
num_cat=0
split_feature=0 15 5 4 2 3 15 1 2 9 5 8 7 11 10 3 12 15 2 7 9 2 5 8 3 15 1 2 13 12
split_gain=10.2989 6.56333 5.73822 6.30246 5.46117 5.17694 5.1609 7.28127 7.47721 5.12651 5.01357 4.86083 4.71008 4.25231 4.87988 4.3525 4.13533 4.04654 3.94629 4.05367 4.76691 3.78309 4.44074 6.59459 4.61806 4.30854 4.28621 4.04909 3.83138 4.2827
threshold=35.500000000000007 7.5000000000000009 1.0000000180025095e-35 2.5000000000000004 26.500000000000004 6.5000000000000009 11.500000000000002 1.0000000180025095e-35 9.5000000000000018 13.500000000000002 5.5000000000000009 5.5000000000000009 8.5000000000000018 2.5000000000000004 1.5000000000000002 2.5000000000000004 2.5000000000000004 6.5000000000000009 42.500000000000007 9.5000000000000018 44.500000000000007 22.500000000000004 3.5000000000000004 6.5000000000000009 1.0000000180025095e-35 12.500000000000002 10.500000000000002 14.500000000000002 14.500000000000002 1.0000000180025095e-35
decision_type=2 2 2 2 2 2 2 2 2 2 2 2 2 2 2 2 2 2 2 2 2 2 2 2 2 2 2 2 2 2
left_child=2 16 -1 21 6 -3 7 17 -9 -6 11 -7 -10 15 -15 -8 -2 -5 19 -13 -21 22 25 -24 -25 -4 -27 -26 29 -23
right_child=1 5 3 4 9 10 13 8 12 -11 -12 18 -14 14 -16 -17 -18 -19 -20 20 -22 28 23 24 27 26 -28 -29 -30 -31
leaf_value=-0.035435799896717073 0.032768280386924746 0.021105701165353201 -0.0047283892780656742 0.0085983216520247423 -0.010404605416488147 -0.021424740150168139 -0.022930543697797335 0.080893271077762952 0.0050118279306828476 0.0053505192046154892 -0.049904993886039375 -0.0085318036053491676 0.030541961251393607 0.027449931701024374 -0.02216197853548485 0.023890310738767899 0.0027134290625972137 -0.025897353190056822 -0.014036916144962969 0.017107765020235723 0.070974225699901583 0.030987758694156528 0.062755590180555973 0.032970696687698364 0.030542563647031784 0.0022395587022151424 0.038923639853795378 -0.016358016110673734 -0.019512163814770653 -0.0068080878185780985
leaf_weight=50 175 129 1303 123 381 74 26 22 119 451 21 46 184 24 114 84 62 47 58 92 20 31 24 45 24 109 45 79 249 911
leaf_count=50 175 129 1303 123 381 74 26 22 119 451 21 46 184 24 114 84 62 47 58 92 20 31 24 45 24 109 45 79 249 911
internal_value=0 0.0114899 -0.00174998 -0.00136675 0.00370035 0.00426362 0.00993153 0.0158307 0.0246024 -0.00186427 -0.00272232 0.000694359 0.0205153 -0.00184305 -0.0135338 0.0128236 0.0249058 -0.000938718 0.0082722 0.0164616 0.0267268 -0.00419679 -0.00106499 0.0141311 0.00624608 -0.0028589 0.0129589 -0.00542973 -0.00848033 -0.00556428
internal_weight=0 677 4445 4395 1575 440 743 495 325 832 311 290 303 248 138 110 237 170 216 158 112 2820 1629 172 148 1457 154 103 1191 942
internal_count=5122 677 4445 4395 1575 440 743 495 325 832 311 290 303 248 138 110 237 170 216 158 112 2820 1629 172 148 1457 154 103 1191 942
shrinkage=0.1


Tree=12
num_leaves=31
num_cat=0
split_feature=0 1 2 0 3 0 0 15 15 9 3 15 2 7 8 8 3 13 14 14 14 9 11 4 3 13 4 10 12 9
split_gain=9.00568 6.50474 6.28803 5.78661 5.11415 6.91177 6.66319 4.61612 4.52244 4.32874 5.5676 5.3739 4.38689 5.92849 5.71286 8.43118 4.26953 7.07864 3.66831 10.2281 3.65422 4.05193 4.07222 3.83239 4.4915 3.59459 3.75285 4.76727 5.0844 3.95579
threshold=20.500000000000004 5.5000000000000009 42.500000000000007 38.500000000000007 1.0000000180025095e-35 22.500000000000004 34.500000000000007 10.500000000000002 9.5000000000000018 24.500000000000004 27.500000000000004 31.500000000000004 28.500000000000004 2.5000000000000004 11.500000000000002 15.500000000000002 16.500000000000004 3.5000000000000004 12.500000000000002 19.500000000000004 2.5000000000000004 21.500000000000004 1.5000000000000002 2.5000000000000004 8.5000000000000018 15.500000000000002 2.5000000000000004 1.0000000180025095e-35 3.5000000000000004 9.5000000000000018
decision_type=2 2 2 2 2 2 2 2 2 2 2 2 2 2 2 2 2 2 2 2 2 2 2 2 2 2 2 2 2 2
left_child=25 4 3 9 5 -2 -7 -4 -5 12 11 16 13 -3 -14 -16 17 -11 -19 -20 -15 22 -22 -24 -25 26 -1 -28 29 -29
right_child=1 2 7 8 -6 6 -8 -9 -10 10 -12 -13 14 20 15 -17 -18 18 19 -21 21 -23 23 24 -26 -27 27 28 -30 -31
leaf_value=-0.0055184237623377465 0.04734506150086721 0.050052953192165919 0.017321565403388098 0.043894570161189354 -0.0042878357493287608 -0.0071359090882239587 0.037515251203016804 -0.017406916063407371 0.014544651018721717 0.084148009717464445 0.054148326218128207 -0.029152292930162874 -0.01616777533390483 0.035622144029254003 0.048802932515376957 -0.0051231216150100789 -0.0074732874224825614 0.04199374671045103 -0.054980628937482838 0.036180400568991904 0.040567236596887768 -0.039224710613489151 -0.0041860803704837279 0.032638674005866057 -0.0011954808389985716 -0.013791533375389121 0.039915893929345275 -0.0034229784291617722 -0.018197693894891179 0.016353227062658831
leaf_weight=1465 45 35 52 84 1051 139 44 145 140 20 40 26 183 42 41 99 41 38 20 32 33 20 232 80 77 356 35 196 102 209
leaf_count=1465 45 35 52 84 1051 139 44 145 140 20 40 26 183 42 41 99 41 38 20 32 33 20 232 80 77 356 35 196 102 209
internal_value=0 0.00388056 0.00839437 0.0109485 -0.00134262 0.0122338 0.00359989 -0.00824001 0.0255509 0.00785983 0.0204537 0.0128391 0.00461414 0.0103084 -0.00453552 0.0106695 0.0200694 0.0303353 0.0183769 0.00111847 0.00743435 0.00475587 0.00684026 0.0039791 0.0160449 -0.00453088 -0.00288823 0.00422106 0.00175692 0.00678252
internal_weight=0 2759 1480 1283 1279 228 183 197 224 1059 217 177 842 519 323 140 151 110 90 52 484 442 422 389 157 2363 2007 542 507 405
internal_count=5122 2759 1480 1283 1279 228 183 197 224 1059 217 177 842 519 323 140 151 110 90 52 484 442 422 389 157 2363 2007 542 507 405
shrinkage=0.1


Tree=13
num_leaves=31
num_cat=0
split_feature=0 5 2 12 5 3 9 3 8 15 10 2 14 0 14 1 6 2 2 13 9 13 0 1 2 2 2 9 1 1
split_gain=7.7036 5.34974 6.57988 4.23013 4.20443 3.94032 4.66014 3.37676 4.14317 3.84524 4.12127 4.18962 3.30329 3.52057 3.34001 3.30263 3.25775 3.18342 3.09471 4.34236 3.51435 2.80538 2.7702 3.7579 5.18374 4.27505 5.94993 5.13745 5.84121 4.12513
threshold=27.500000000000004 1.5000000000000002 14.500000000000002 1.5000000000000002 5.5000000000000009 13.500000000000002 15.500000000000002 1.5000000000000002 9.5000000000000018 18.500000000000004 1.5000000000000002 34.500000000000007 35.500000000000007 44.500000000000007 7.5000000000000009 13.500000000000002 3.5000000000000004 44.500000000000007 34.500000000000007 30.500000000000004 19.500000000000004 12.500000000000002 10.500000000000002 12.500000000000002 12.500000000000002 41.500000000000007 28.500000000000004 23.500000000000004 3.5000000000000004 13.500000000000002
decision_type=2 2 2 2 2 2 2 2 2 2 2 2 2 2 2 2 2 2 2 2 2 2 2 2 2 2 2 2 2 2
left_child=3 5 16 7 12 6 -2 8 -1 10 -9 15 13 -4 -15 -12 -3 22 19 20 -14 -16 -5 25 -25 26 -24 -28 -29 -26
right_child=1 2 4 17 -6 -7 -8 9 -10 -11 11 -13 18 14 21 -17 -18 -19 -20 -21 -22 -23 23 24 29 -27 27 28 -30 -31
leaf_value=0.0045598237351937732 -0.019300509918303718 0.04398318151353111 0.0035753076417526239 -0.012568581050092523 -0.021298266269943932 -0.032184113860130308 0.031815329001795865 0.03131208000704646 0.049028021171689036 0.04418396130204201 0.0094362658663437928 -0.03526760978358133 0.045805774353168627 0.054813456363402881 0.034841756866528441 -0.027751447116175006 0.0088478572311855488 -0.019637899939753428 0.0031377936211916119 0.072276339205828585 -0.0043285873429528597 -0.010775303574545043 -0.0017916132168072027 0.045756589621305466 0.03265065086442371 0.027086284160614017 -0.02076627145484318 -0.016643170553904314 0.033497373121125357 -0.00046097132256656787
leaf_weight=44 42 71 1012 275 55 60 31 32 40 20 104 42 27 26 26 31 42 119 52 22 29 28 2050 32 43 45 327 52 42 301
leaf_count=44 42 71 1012 275 55 60 31 32 40 20 104 42 27 26 26 31 42 119 52 22 29 28 2050 32 43 45 327 52 42 301
internal_value=0 0.00596167 0.00779498 -0.00252282 0.00574832 -0.0131984 0.00240622 0.00858548 0.0257352 0.00229477 -0.00171376 -0.00768454 0.00696564 0.00517174 0.0253666 0.000896865 0.030924 -0.00358091 0.0220344 0.0346321 0.0198433 0.0111885 -0.00297757 -0.00206556 0.00725914 -0.00345908 -0.00401535 -0.0148435 0.00576005 0.00367798
internal_weight=0 1523 1390 3599 1277 133 73 313 84 229 209 177 1222 1092 80 135 113 3286 130 78 56 54 3167 2892 376 2516 2471 421 94 344
internal_count=5122 1523 1390 3599 1277 133 73 313 84 229 209 177 1222 1092 80 135 113 3286 130 78 56 54 3167 2892 376 2516 2471 421 94 344
shrinkage=0.1


Tree=14
num_leaves=31
num_cat=0
split_feature=0 1 15 0 3 3 11 2 1 12 14 14 2 3 3 0 0 15 3 0 5 5 9 6 15 10 13 4 13 3
split_gain=6.2552 4.9655 4.98501 5.6494 6.55828 4.77037 4.76739 4.6711 6.47606 6.18415 4.46513 4.32331 4.1942 4.09899 4.01086 5.67991 5.2324 4.75298 3.99577 3.72339 3.71899 3.28092 6.1539 5.54652 4.3082 3.62173 5.11345 3.43519 3.83811 3.34991
threshold=20.500000000000004 5.5000000000000009 13.500000000000002 38.500000000000007 22.500000000000004 28.500000000000004 3.5000000000000004 42.500000000000007 12.500000000000002 5.5000000000000009 29.500000000000004 33.500000000000007 12.500000000000002 28.500000000000004 1.0000000180025095e-35 22.500000000000004 33.500000000000007 9.5000000000000018 11.500000000000002 29.500000000000004 2.5000000000000004 3.5000000000000004 21.500000000000004 3.5000000000000004 2.5000000000000004 1.5000000000000002 4.5000000000000009 1.5000000000000002 8.5000000000000018 4.5000000000000009
decision_type=2 2 2 2 2 2 2 2 2 2 2 2 2 2 2 2 2 2 2 2 2 2 2 2 2 2 2 2 2 2
left_child=-1 14 3 5 -5 6 10 8 18 13 12 -8 -3 -10 15 -2 17 19 -4 20 -17 22 27 25 -24 -23 -27 -16 -29 -28
right_child=1 2 7 4 -6 -7 11 -9 9 -11 -12 -13 -14 -15 21 16 -18 -19 -20 -21 -22 23 24 -25 -26 26 29 28 -30 -31
leaf_value=-0.0037761114074222322 0.042522692481676741 0.039642026561957144 0.0013935974875434499 0.042997098533273909 -0.012371852000554403 0.043221717131765265 0.035562179614138864 -0.016208041874507001 0.013096049793790823 -0.036677439446034639 0.048729937374591831 -0.0027822234602861628 -0.001613447414237564 0.050380048697645022 -0.025659771690997042 -0.031188856065273288 0.03044510328769684 -0.033072402756264871 -0.028313152492046356 0.043081589256014144 0.016792728304862975 -0.016985449194908141 0.052366115694696264 -0.020580262252897549 0.0044057879419553848 0.068681616187095645 -0.022207010218075345 -0.00057993442419881794 -0.017752199831905718 0.021510520071353553
leaf_weight=2363 45 26 122 103 27 38 93 131 277 23 20 43 472 33 129 30 50 47 72 21 35 29 22 57 126 20 21 323 218 106
leaf_count=2363 45 26 122 103 27 38 93 131 277 23 20 43 472 33 129 30 50 47 72 21 35 29 22 57 126 20 21 323 218 106
internal_value=0 0.00323413 0.00717788 0.0123704 0.0314974 0.00877719 0.00677583 0.000691162 0.00489191 0.0133531 0.00240105 0.0234386 0.000540453 0.017065 -0.00132941 0.0106937 0.00286691 -0.00750083 -0.00963159 0.00647434 -0.00535262 -0.00393766 -0.00691959 0.0065311 0.011535 0.0153115 0.021683 -0.0109961 -0.00749963 0.0142816
internal_weight=0 2759 1480 822 130 692 654 658 527 333 518 136 498 310 1279 228 183 133 194 86 65 1051 818 233 148 176 147 670 541 127
internal_count=5122 2759 1480 822 130 692 654 658 527 333 518 136 498 310 1279 228 183 133 194 86 65 1051 818 233 148 176 147 670 541 127
shrinkage=0.1


Tree=15
num_leaves=31
num_cat=0
split_feature=11 5 15 6 2 0 1 14 6 15 3 7 9 8 1 0 7 10 12 9 14 2 7 13 14 11 15 12 4 8
split_gain=5.94115 5.32872 7.73432 5.60617 5.49951 5.35892 4.62736 4.15072 4.11271 3.91376 3.90181 3.89684 3.84364 7.22929 4.85006 4.04796 3.68208 4.08848 4.12965 3.55046 3.44696 6.19804 4.62218 3.2852 3.71796 3.98489 3.27362 5.0225 3.84957 3.61906
threshold=1.5000000000000002 2.5000000000000004 7.5000000000000009 2.5000000000000004 35.500000000000007 18.500000000000004 17.500000000000004 1.0000000180025095e-35 1.0000000180025095e-35 104.50000000000001 20.500000000000004 23.500000000000004 14.500000000000002 8.5000000000000018 33.500000000000007 43.500000000000007 3.5000000000000004 2.5000000000000004 2.5000000000000004 66.500000000000014 4.5000000000000009 28.500000000000004 19.500000000000004 2.5000000000000004 10.500000000000002 2.5000000000000004 57.500000000000007 2.5000000000000004 1.5000000000000002 42.500000000000007
decision_type=2 2 2 2 2 2 2 2 2 2 2 2 2 2 2 2 2 2 2 2 2 2 2 2 2 2 2 2 2 2
left_child=7 3 5 4 8 20 10 -1 -2 12 23 -8 15 -14 26 -4 17 18 -7 -18 21 -3 -22 24 25 -5 27 28 -15 -30
right_child=1 2 9 6 -6 16 11 -9 -10 -11 -12 -13 13 14 -16 -17 19 -19 -20 -21 22 -23 -24 -25 -26 -27 -28 -29 29 -31
leaf_value=0.054578959670933819 -0.025908074840422603 0.050676293719199399 -0.0084355098385255328 0.058023926429450513 -0.025256484323932279 0.027683665403505656 0.0307120565677944 0.0097226141735326128 -0.0042265112766728492 -0.0451441954998743 -0.023335825599415203 0.00054936191210379966 0.02384315983398811 0.043734403491020202 0.042489452336145483 0.034290158959186599 0.019838259398352869 -0.04131416962905364 -0.025257151930228525 -0.022117799662408375 -0.013129717631945535 -0.013084034025669098 0.031102375630979187 -0.0018061143770655979 -0.0024305065285484748 0.0063668571412563331 0.025945249013602734 -0.015983694991307279 0.015384690367406416 -0.022633732003825055
leaf_weight=22 93 31 618 32 155 41 95 331 1476 21 71 78 143 25 23 23 510 22 23 21 189 30 27 566 53 28 32 239 62 42
leaf_count=22 93 31 618 32 155 41 95 331 1476 21 71 78 143 25 23 23 510 22 23 21 189 30 27 566 53 28 32 239 62 42
internal_value=0 -0.000926593 0.00280679 -0.0039195 -0.00728685 0.00988248 0.00237011 0.0125182 -0.00551165 -0.00234441 -0.00103051 0.0171127 -0.00159975 0.0044056 -0.00216549 -0.00690245 0.0150701 -0.00412553 0.00865806 0.018179 -0.00167259 0.0193188 -0.00760071 0.00130186 0.0168692 0.0339173 -0.00473315 -0.00740084 0.00850073 3.10967e-05
internal_weight=0 4769 2122 2647 1724 894 923 353 1569 1228 750 173 1207 566 423 641 617 86 64 531 277 61 216 679 113 60 400 368 129 104
internal_count=5122 4769 2122 2647 1724 894 923 353 1569 1228 750 173 1207 566 423 641 617 86 64 531 277 61 216 679 113 60 400 368 129 104
shrinkage=0.1


Tree=16
num_leaves=31
num_cat=0
split_feature=5 4 2 0 14 13 12 12 2 13 15 0 3 6 2 9 7 2 0 8 8 15 15 8 15 10 9 15 15 15
split_gain=4.97948 5.47501 5.75696 4.30229 5.60589 5.74617 4.89808 3.74267 3.43563 6.02921 3.35527 3.28739 3.28373 3.6247 3.26191 5.38706 3.72675 4.476 3.63205 4.99074 7.68931 7.33812 3.62305 3.58344 3.21644 3.81935 3.13049 3.20925 3.78304 4.15599
threshold=1.0000000180025095e-35 2.5000000000000004 44.500000000000007 29.500000000000004 2.5000000000000004 6.5000000000000009 1.5000000000000002 1.0000000180025095e-35 36.500000000000007 10.500000000000002 42.500000000000007 19.500000000000004 4.5000000000000009 5.5000000000000009 23.500000000000004 8.5000000000000018 5.5000000000000009 16.500000000000004 16.500000000000004 14.500000000000002 5.5000000000000009 5.5000000000000009 7.5000000000000009 10.500000000000002 7.5000000000000009 2.5000000000000004 8.5000000000000018 21.500000000000004 3.5000000000000004 6.5000000000000009
decision_type=2 2 2 2 2 2 2 2 2 2 2 2 2 2 2 2 2 2 2 2 2 2 2 2 2 2 2 2 2 2
left_child=-1 7 3 4 8 6 -6 24 9 11 -7 -3 13 14 15 16 22 -18 -17 20 -20 -22 -9 -19 25 -2 -8 28 -28 -30
right_child=1 2 -4 -5 5 10 26 12 -10 -11 -12 -13 -14 -15 -16 18 17 23 19 -21 21 -23 -24 -25 -26 -27 27 -29 29 -31
leaf_value=-0.029927211322567683 0.045543858673837451 -0.013418215513229371 -0.013998875598753652 0.013091019743417844 0.038858001908430688 -0.0028811812812199623 -0.0062633870427425097 0.0049006239886869472 -0.010048360669094585 0.062529876216863983 -0.028819717632399669 0.040072436630725863 -0.0051059129667099324 0.043101809847922556 -0.0059843013058184331 -0.0040199118852615361 -0.030019143773959235 -0.0065159100486386207 0.057905049885020536 0.063568682372570046 -0.030914139826046794 0.028766479012038972 0.054369272738695143 0.027396050936136493 -0.0142994282245636 -0.00051980495452880865 -0.016895359382033348 -0.011804115623235703 0.061323065227932405 0.017653382800321662
leaf_weight=55 45 27 155 589 52 652 130 57 23 39 54 20 2087 21 381 50 65 155 34 30 38 45 20 39 25 30 24 40 27 113
leaf_count=55 45 27 155 589 52 652 130 57 23 39 54 20 2087 21 381 50 65 155 34 30 38 45 20 39 25 30 24 40 27 113
internal_value=0 0.000324847 0.00448945 0.00609039 0.00265711 0.00049861 0.010309 -0.00226969 0.0242817 0.033463 -0.00486515 0.00934376 -0.00289953 0.00202531 0.00108154 0.00613236 -0.00156561 -0.00730797 0.0192619 0.0271809 0.0178506 0.00144282 0.0177496 0.000301443 0.0167639 0.0271184 0.00586426 0.0135927 0.019787 0.0260754
internal_weight=0 5067 1945 1790 1201 1092 386 3122 109 86 706 47 3022 935 914 533 336 259 197 147 117 83 77 194 100 75 334 204 164 140
internal_count=5122 5067 1945 1790 1201 1092 386 3122 109 86 706 47 3022 935 914 533 336 259 197 147 117 83 77 194 100 75 334 204 164 140
shrinkage=0.1


Tree=17
num_leaves=31
num_cat=0
split_feature=11 5 1 13 8 1 2 1 9 6 3 10 14 9 8 14 9 0 2 9 0 1 13 3 2 9 0 15 13 5
split_gain=4.56054 4.18619 4.84915 4.24331 4.45162 4.05687 3.81866 4.04377 4.09945 4.99884 4.46638 3.58136 3.57662 4.71128 3.42357 3.37232 3.36577 3.61032 3.38159 3.27247 3.49173 3.24981 3.88265 3.70696 2.95728 3.5786 2.58263 3.66493 4.07934 3.57747
threshold=1.5000000000000002 1.5000000000000002 24.500000000000004 2.5000000000000004 7.5000000000000009 26.500000000000004 19.500000000000004 17.500000000000004 27.500000000000004 3.5000000000000004 19.500000000000004 1.0000000180025095e-35 3.5000000000000004 6.5000000000000009 3.5000000000000004 1.0000000180025095e-35 14.500000000000002 29.500000000000004 39.500000000000007 19.500000000000004 15.500000000000002 12.500000000000002 7.5000000000000009 14.500000000000002 30.500000000000004 7.5000000000000009 18.500000000000004 17.500000000000004 15.500000000000002 2.5000000000000004
decision_type=2 2 2 2 2 2 2 2 2 2 2 2 2 2 2 2 2 2 2 2 2 2 2 2 2 2 2 2 2 2
left_child=15 3 6 14 21 -4 7 8 10 -10 11 -3 13 -13 -2 -1 17 -7 -18 20 -14 -5 -23 -24 25 -17 27 28 -8 -28
right_child=1 2 5 4 -6 16 26 -9 9 -11 -12 12 19 -15 -16 24 18 -19 -20 -21 -22 22 23 -25 -26 -27 29 -29 -30 -31
leaf_value=0.048879949206655678 -0.018313161744957878 0.037519758836976419 0.048048904538154608 -0.019582767239702283 -0.037345662174953352 -0.032622061297297479 -0.0067490673285490188 0.034631712125106288 0.069374069422483448 0.0090787952596491032 -0.037612408080271317 0.00087696023476429479 -0.014206249763568244 0.054099131863692709 0.032239363644574137 0.035773429729170719 0.033611520402359242 0.016093051844629749 -0.00484012850693294 -0.029397390420372423 0.004701077657086509 -0.032155379528800647 0.031956648360937832 -0.0092625591903924952 -0.0064501193401060603 0.0073353653068596357 -0.0041791982801452198 0.0099540844412133248 -0.028231176485617956 0.0032900132697374395
leaf_weight=22 21 29 32 134 72 32 487 44 20 44 28 39 120 29 37 59 66 29 35 37 525 24 48 40 95 177 1416 101 108 1172
leaf_count=22 21 29 32 134 72 32 487 44 20 44 28 39 120 29 37 59 66 29 35 37 525 24 48 40 95 177 1416 101 108 1172
internal_value=0 -0.000811824 5.4956e-05 -0.0109389 -0.0154758 0.0155119 -0.000659179 0.00505394 0.00355977 0.0279211 0.00162777 0.0030382 0.00170492 0.0235747 0.0139359 0.0109677 0.00908487 -0.00946242 0.0202867 -0.000475642 0.00118344 -0.00907481 0.00349721 0.0132206 0.00844783 0.0144449 -0.00225099 -0.00765862 -0.0106483 -0.000796696
internal_weight=0 4769 4393 376 318 194 4199 915 871 64 807 779 750 68 58 353 162 61 101 682 645 246 112 88 331 236 3284 696 595 2588
internal_count=5122 4769 4393 376 318 194 4199 915 871 64 807 779 750 68 58 353 162 61 101 682 645 246 112 88 331 236 3284 696 595 2588
shrinkage=0.1


end of trees

feature_importances:
Column_2=74
Column_0=64
Column_3=48
Column_9=47
Column_1=43
Column_15=40
Column_14=37
Column_8=34
Column_13=27
Column_5=26
Column_12=22
Column_7=18
Column_4=17
Column_10=15
Column_11=15
Column_6=13

parameters:
[boosting: gbdt]
[objective: regression]
[metric: l2]
[tree_learner: serial]
[device_type: cpu]
[data: ]
[valid: ]
[num_iterations: 10000]
[learning_rate: 0.1]
[num_leaves: 31]
[num_threads: 0]
[deterministic: 0]
[force_col_wise: 0]
[force_row_wise: 0]
[histogram_pool_size: -1]
[max_depth: -1]
[min_data_in_leaf: 20]
[min_sum_hessian_in_leaf: 0.001]
[bagging_fraction: 1]
[pos_bagging_fraction: 1]
[neg_bagging_fraction: 1]
[bagging_freq: 0]
[bagging_seed: 3]
[feature_fraction: 1]
[feature_fraction_bynode: 1]
[feature_fraction_seed: 2]
[extra_trees: 0]
[extra_seed: 6]
[early_stopping_round: 10]
[first_metric_only: 0]
[max_delta_step: 0]
[lambda_l1: 0]
[lambda_l2: 0]
[min_gain_to_split: 0]
[drop_rate: 0.1]
[max_drop: 50]
[skip_drop: 0.5]
[xgboost_dart_mode: 0]
[uniform_drop: 0]
[drop_seed: 4]
[top_rate: 0.2]
[other_rate: 0.1]
[min_data_per_group: 100]
[max_cat_threshold: 32]
[cat_l2: 10]
[cat_smooth: 10]
[max_cat_to_onehot: 4]
[top_k: 20]
[monotone_constraints: ]
[monotone_constraints_method: basic]
[monotone_penalty: 0]
[feature_contri: ]
[forcedsplits_filename: ]
[refit_decay_rate: 0.9]
[cegb_tradeoff: 1]
[cegb_penalty_split: 0]
[cegb_penalty_feature_lazy: ]
[cegb_penalty_feature_coupled: ]
[path_smooth: 0]
[interaction_constraints: ]
[verbosity: 1]
[saved_feature_importance_type: 0]
[max_bin: 255]
[max_bin_by_feature: ]
[min_data_in_bin: 3]
[bin_construct_sample_cnt: 200000]
[data_random_seed: 1]
[is_enable_sparse: 1]
[enable_bundle: 1]
[use_missing: 1]
[zero_as_missing: 0]
[feature_pre_filter: 1]
[pre_partition: 0]
[two_round: 0]
[header: 0]
[label_column: ]
[weight_column: ]
[group_column: ]
[ignore_column: ]
[categorical_feature: ]
[forcedbins_filename: ]
[objective_seed: 5]
[num_class: 1]
[is_unbalance: 0]
[scale_pos_weight: 1]
[sigmoid: 1]
[boost_from_average: 1]
[reg_sqrt: 0]
[alpha: 0.9]
[fair_c: 1]
[poisson_max_delta_step: 0.7]
[tweedie_variance_power: 1.5]
[lambdarank_truncation_level: 30]
[lambdarank_norm: 1]
[label_gain: ]
[eval_at: ]
[multi_error_top_k: 1]
[auc_mu_weights: ]
[num_machines: 1]
[local_listen_port: 12400]
[time_out: 120]
[machine_list_filename: ]
[machines: ]
[gpu_platform_id: -1]
[gpu_device_id: -1]
[gpu_use_dp: 0]
[num_gpu: 1]

end of parameters

pandas_categorical:null
