tree
version=v3
num_class=1
num_tree_per_iteration=1
label_index=0
max_feature_idx=15
objective=regression
feature_names=Column_0 Column_1 Column_2 Column_3 Column_4 Column_5 Column_6 Column_7 Column_8 Column_9 Column_10 Column_11 Column_12 Column_13 Column_14 Column_15
feature_infos=[1:49] [0:57] [1:49] [0:69] [0:8] [0:7] [0:7] [2:207] [0:132] [0:156] [0:8] [0:7] [0:7] [0:177] [0:146] [0:136]
tree_sizes=2751 2736 2733 2729 2736 2745 2748 2733 2739

Tree=0
num_leaves=31
num_cat=0
split_feature=0 2 2 0 1 10 0 14 2 4 10 9 9 1 2 14 14 0 2 11 13 3 5 1 9 9 14 8 2 15
split_gain=42.3404 32.9919 20.6423 13.9659 10.2538 14.8018 9.28508 9.95938 8.50727 8.27091 7.71359 7.2903 7.14574 6.37875 6.06751 6.60013 6.12166 5.97671 5.64462 5.39595 9.5271 5.32656 6.18173 5.15462 8.27405 4.60743 4.54036 4.52667 4.50581 4.27558
threshold=32.500000000000007 29.500000000000004 36.500000000000007 21.500000000000004 5.5000000000000009 2.5000000000000004 42.500000000000007 8.5000000000000018 38.500000000000007 3.5000000000000004 3.5000000000000004 33.500000000000007 40.500000000000007 6.5000000000000009 30.500000000000004 24.500000000000004 34.500000000000007 25.500000000000004 10.500000000000002 2.5000000000000004 3.5000000000000004 4.5000000000000009 2.5000000000000004 1.5000000000000002 11.500000000000002 8.5000000000000018 25.500000000000004 11.500000000000002 19.500000000000004 6.5000000000000009
decision_type=2 2 2 2 2 2 2 2 2 2 2 2 2 2 2 2 2 2 2 2 2 2 2 2 2 2 2 2 2 2
left_child=1 3 6 10 5 -5 7 -2 17 -7 18 13 14 -4 15 -9 -17 -3 -1 21 -21 22 -20 25 27 -22 -6 -25 -23 -19
right_child=2 8 11 4 26 9 -8 12 -10 -11 -12 -13 -14 -15 -16 16 -18 29 19 20 23 28 -24 24 -26 -27 -28 -29 -30 -31
leaf_value=-0.026604039807375385 -0.056834175992851607 -0.09188050863350454 -0.12534689433444013 -0.033825341391224145 -0.026888250326162166 -0.096496720882680853 0.010571469457507351 0.003955050368375207 -0.11570403740046532 -0.028638822362167703 -0.090617831215037262 -0.023658585339948732 0.041795958380643428 -0.057846896042751811 -0.067769256108173886 -0.080931311095466862 -0.0086040402842125357 -0.091247516355777589 -0.049404039203381649 -0.11472577660338129 -0.10589634539915427 -0.040906742131185857 0.0071805746822533392 -0.053498156741983396 -0.10220403780465932 -0.055918324745097725 0.023795958857480579 -0.00020404050673654417 -0.069993512342157393 -0.038629571403701199
leaf_weight=50 73 136 28 169 152 82 98 88 96 23 87 22 21 28 23 22 25 23 75 46 39 74 26 34 20 35 20 30 190 47
leaf_count=50 73 136 28 169 152 82 98 88 96 23 87 22 21 28 23 22 25 23 75 46 39 74 26 34 20 35 20 30 190 47
internal_value=-0.05356 -0.0616978 -0.0259143 -0.0539853 -0.0401323 -0.0521456 -0.0155469 -0.025704 -0.0911179 -0.0816326 -0.0627366 -0.0724348 -0.0130085 -0.0915969 -0.0202926 -0.012204 -0.0424594 -0.0796603 -0.0588179 -0.0616487 -0.0746746 -0.0543684 -0.0348377 -0.0630142 -0.0460612 -0.0822581 -0.0209947 -0.0285165 -0.0618404 -0.0559183
internal_weight=0 1454 428 1152 446 274 350 252 302 105 706 78 179 56 158 135 47 206 619 569 204 365 101 158 84 74 172 64 264 70
internal_count=1882 1454 428 1152 446 274 350 252 302 105 706 78 179 56 158 135 47 206 619 569 204 365 101 158 84 74 172 64 264 70
shrinkage=1


Tree=1
num_leaves=31
num_cat=0
split_feature=0 2 2 0 10 10 0 2 1 14 9 15 1 2 7 0 7 14 11 0 3 7 13 13 8 5 2 9 2 9
split_gain=34.3555 30.2993 18.5211 14.3103 8.43526 7.26786 7.04056 6.53203 5.7882 5.46053 8.56352 8.33609 4.48333 4.58254 5.44912 7.90407 5.16616 4.54081 4.30071 3.96599 4.31093 3.95486 3.9117 3.87336 3.60485 4.83494 3.5709 3.11902 5.62772 3.58917
threshold=24.500000000000004 36.500000000000007 29.500000000000004 41.500000000000007 1.0000000180025095e-35 3.5000000000000004 37.500000000000007 10.500000000000002 6.5000000000000009 8.5000000000000018 16.500000000000004 21.500000000000004 1.0000000180025095e-35 17.500000000000004 12.500000000000002 31.500000000000004 7.5000000000000009 19.500000000000004 2.5000000000000004 14.500000000000002 7.5000000000000009 4.5000000000000009 4.5000000000000009 1.5000000000000002 15.500000000000002 2.5000000000000004 25.500000000000004 9.5000000000000018 22.500000000000004 4.5000000000000009
decision_type=2 2 2 2 2 2 2 2 2 2 2 2 2 2 2 2 2 2 2 2 2 2 2 2 2 2 2 2 2 2
left_child=2 3 5 4 -2 7 -3 -1 -8 11 12 27 17 16 15 22 -14 -11 19 20 -9 -7 -15 -20 25 -4 -25 28 -6 -30
right_child=1 6 24 -5 9 21 8 18 -10 10 -12 -13 13 14 -16 -17 -18 -19 23 -21 -22 -23 -24 26 -26 -27 -28 -29 29 -31
leaf_value=0.028052047640085221 0.073747183863073593 -0.048505461215972906 -0.044957276565187117 0.055793298958867255 0.05034706708861561 -0.066179259121418005 -0.037997776837576006 0.044079709649086002 0.033217156380414968 0.0063231497440698024 0.045452726926278636 -0.047857798379043054 0.0029774657704613426 0.028478512709791012 -0.022406607510914146 0.066003414775644031 0.063046557476698628 -0.049597894251346586 -0.052106416454681982 -0.0034437662580100096 -0.0060671649376551314 -0.020025624371156459 -0.030502680851065597 -0.015693694039394981 -0.05375900589674712 0.004166660277229367 0.024296496868133545 -0.0035893251178085168 -0.02666043019294739 0.022949516092027937
leaf_weight=64 25 79 51 112 41 24 21 40 25 53 109 29 22 22 38 28 41 20 26 357 30 82 23 209 100 33 25 93 25 35
leaf_count=64 25 79 51 112 41 24 21 40 25 53 109 29 22 22 38 28 41 20 26 357 30 82 23 209 100 33 25 93 25 35
internal_value=0 0.015032 -0.012144 0.0229628 0.016875 -0.00596343 -0.0303956 -0.00250367 0.000705991 0.0144194 0.0221054 0.00214919 0.0118024 0.0205289 0.00830279 0.0242885 0.04207 -0.00899768 -0.0053502 0.000823768 0.0225882 -0.0304755 -0.00166743 -0.0154898 -0.0409306 -0.0256586 -0.0114212 0.00962446 0.0217916 0.00227871
internal_weight=0 841 1041 716 604 857 125 751 46 579 356 223 247 174 111 73 63 73 687 427 70 106 45 260 184 84 234 194 101 60
internal_count=1882 841 1041 716 604 857 125 751 46 579 356 223 247 174 111 73 63 73 687 427 70 106 45 260 184 84 234 194 101 60
shrinkage=0.1


Tree=2
num_leaves=31
num_cat=0
split_feature=0 2 2 10 1 0 9 14 12 9 4 0 3 13 6 1 2 3 2 14 7 8 12 4 14 0 11 9 0 0
split_gain=28.0751 22.4972 13.4496 9.80342 12.9874 10.84 7.51572 7.14496 6.05307 5.60065 5.59322 4.71143 4.62746 5.04613 4.59697 4.53224 4.45042 4.79306 4.35266 4.16624 4.8652 4.78591 4.16647 3.9239 3.92082 3.87426 3.78129 4.10805 5.55693 4.17579
threshold=32.500000000000007 34.500000000000007 36.500000000000007 2.5000000000000004 5.5000000000000009 24.500000000000004 23.500000000000004 8.5000000000000018 2.5000000000000004 33.500000000000007 2.5000000000000004 41.500000000000007 7.5000000000000009 4.5000000000000009 3.5000000000000004 6.5000000000000009 20.500000000000004 1.0000000180025095e-35 8.5000000000000018 8.5000000000000018 12.500000000000002 15.500000000000002 3.5000000000000004 1.5000000000000002 2.5000000000000004 16.500000000000004 3.5000000000000004 9.5000000000000018 17.500000000000004 17.500000000000004
decision_type=2 2 2 2 2 2 2 2 2 2 2 2 2 2 2 2 2 2 2 2 2 2 2 2 2 2 2 2 2 2
left_child=1 3 6 5 16 7 11 8 14 15 -6 19 23 -14 24 -4 17 -5 -9 22 -21 -22 -2 -7 -1 -26 27 28 -20 -29
right_child=2 -3 9 4 10 12 -8 18 -10 -11 -12 -13 13 -15 -16 -17 -18 -19 26 20 21 -23 -24 -25 25 -27 -28 29 -30 -31
leaf_value=0.018203065058459405 0.012248230744630863 -0.040364074360193881 -0.060283002257347111 -0.045714624438967025 -0.010080118714899257 0.0044470840884793189 0.057162866965833919 0.048346694616171033 -0.03444853331265825 0.027712859348817304 0.029628882914373319 0.043202132590209386 0.02878315074499263 -0.020889758605223435 0.041813097596168525 -0.003385621209495834 -0.038707896724746033 -0.0028801404156731172 0.029793425401051839 0.042938048792863961 -0.01775624732437887 0.040851432897827847 -0.042177633534778249 0.045216298163539233 -0.051875430345535281 -0.0089857823280401015 -0.017086538055847433 0.0016734054594328912 -0.015029779113369224 0.047690697835416213
leaf_weight=46 39 174 28 35 69 31 83 26 89 22 73 79 43 39 20 28 148 103 42 67 38 22 22 99 24 172 58 33 81 49
leaf_count=46 39 174 28 35 69 31 83 26 89 22 73 79 43 39 20 28 148 103 42 67 38 22 22 99 24 172 58 33 81 49
internal_value=0 -0.00662659 0.0225118 -0.0020404 -0.014388 0.00416237 0.0308803 -0.00232954 -0.011917 -0.015039 0.0103337 0.0227101 0.0237606 0.00515823 -0.00426321 -0.0318343 -0.0266624 -0.013744 0.00931479 0.014099 0.0244161 0.00373324 -0.00738077 0.0354944 -0.00807117 -0.0142376 0.00545612 0.011834 0.000275705 0.0291715
internal_weight=0 1454 428 1280 428 852 350 640 351 78 142 267 212 82 262 56 286 138 289 188 127 60 61 130 242 196 263 205 123 82
internal_count=1882 1454 428 1280 428 852 350 640 351 78 142 267 212 82 262 56 286 138 289 188 127 60 61 130 242 196 263 205 123 82
shrinkage=0.1


Tree=3
num_leaves=31
num_cat=0
split_feature=0 2 2 0 6 10 8 5 9 1 8 0 9 15 7 6 6 1 13 3 3 9 2 9 12 9 12 8 14 0
split_gain=22.872 20.2797 13.271 9.48551 7.23584 6.32484 5.48491 6.40666 5.36207 5.20892 4.6605 4.52587 4.38334 4.45724 5.99109 4.29834 4.04528 5.06488 4.25684 4.15585 3.91272 3.78887 3.63157 3.98886 4.62045 3.96157 3.59074 6.6992 3.47239 3.40373
threshold=24.500000000000004 36.500000000000007 20.500000000000004 41.500000000000007 1.0000000180025095e-35 1.0000000180025095e-35 15.500000000000002 2.5000000000000004 9.5000000000000018 6.5000000000000009 39.500000000000007 37.500000000000007 40.500000000000007 8.5000000000000018 35.500000000000007 1.5000000000000002 3.5000000000000004 5.5000000000000009 4.5000000000000009 8.5000000000000018 5.5000000000000009 4.5000000000000009 11.500000000000002 7.5000000000000009 2.5000000000000004 9.5000000000000018 2.5000000000000004 9.5000000000000018 8.5000000000000018 29.500000000000004
decision_type=2 2 2 2 2 2 2 2 2 2 2 2 2 2 2 2 2 2 2 2 2 2 2 2 2 2 2 2 2 2
left_child=2 3 -1 5 -4 -2 7 -6 21 -3 12 -11 13 15 22 -7 17 18 -17 -19 -9 -8 -15 24 -24 -25 27 -20 -22 -27
right_child=1 9 4 -5 6 10 8 20 -10 11 -12 -13 -14 14 -16 16 -18 19 26 -21 28 -23 23 25 -26 29 -28 -29 -30 -31
leaf_value=0.00015747389916715953 0.063043529003858567 -0.044200659430388256 -0.059756306796631922 0.045482412206807307 -0.022783618025919973 -0.011335719749331475 -0.045344427973032002 0.034839645655531631 -0.050817146025052884 -0.02705892412101521 0.04876393992453814 0.028990064084529879 0.048785833517710375 0.030890740589662031 0.048335175570987522 0.046566275745216351 -0.0054562248124016659 0.075855520277312308 -0.040027649514377123 0.021165914833545685 -0.027988933552713958 0.0036694677303666656 0.0010189888377984365 0.027774422491590185 -0.05531891407193365 0.013521064554943757 0.031345779697100326 0.026331728902356379 0.0162804084855157 -0.025425221432339065
leaf_weight=580 25 66 47 112 153 48 24 38 82 34 32 25 27 22 21 36 45 33 32 24 34 46 24 33 37 34 36 29 37 66
leaf_count=580 25 66 47 112 153 48 24 38 82 34 32 25 27 22 21 36 45 33 32 24 34 46 24 33 37 34 36 29 37 66
internal_value=0 0.0122651 -0.00990867 0.0187534 -0.0225732 0.013797 -0.018352 -0.00958487 -0.0334637 -0.0249 0.0116706 -0.00330935 0.00950065 0.00746084 -0.00265612 0.0159334 0.0215032 0.0278883 0.0171998 0.0528283 0.00894182 -0.0131353 -0.00761361 -0.0119801 -0.0331532 -0.00226912 0.00630086 -0.00847975 -0.00491899 -0.0121835
internal_weight=0 841 1041 716 461 604 414 262 152 125 579 59 547 520 237 283 235 190 133 57 109 70 216 194 61 133 97 61 71 100
internal_count=1882 841 1041 716 461 604 414 262 152 125 579 59 547 520 237 283 235 190 133 57 109 70 216 194 61 133 97 61 71 100
shrinkage=0.1


Tree=4
num_leaves=31
num_cat=0
split_feature=0 2 2 0 14 9 10 2 1 10 4 7 7 15 15 1 7 6 14 8 0 4 13 1 9 3 5 10 12 1
split_gain=19.3002 16.5334 8.41261 8.28072 6.4252 5.50078 5.22753 4.78301 4.69429 8.05757 4.90389 4.64854 5.94891 4.48731 5.35688 4.32348 4.27637 3.90103 5.09408 3.67489 3.54497 3.9805 3.49337 3.43931 3.39224 4.83847 4.30217 3.92907 3.35251 6.29078
threshold=33.500000000000007 29.500000000000004 30.500000000000004 20.500000000000004 10.500000000000002 41.500000000000007 3.5000000000000004 38.500000000000007 5.5000000000000009 2.5000000000000004 3.5000000000000004 12.500000000000002 24.500000000000004 24.500000000000004 9.5000000000000018 11.500000000000002 8.5000000000000018 1.0000000180025095e-35 20.500000000000004 7.5000000000000009 35.500000000000007 2.5000000000000004 9.5000000000000018 12.500000000000002 8.5000000000000018 11.500000000000002 2.5000000000000004 2.5000000000000004 1.5000000000000002 3.5000000000000004
decision_type=2 2 2 2 2 2 2 2 2 2 2 2 2 2 2 2 2 2 2 2 2 2 2 2 2 2 2 2 2 2
left_child=1 3 4 6 19 13 28 17 9 -5 22 -10 -13 14 16 20 -4 -3 24 -2 -6 -22 -11 -9 26 -26 -19 -27 29 -1
right_child=2 7 5 8 15 -7 -8 23 11 10 -12 12 -14 -15 -16 -17 -18 18 -20 -21 21 -23 -24 -25 25 27 -28 -29 -30 -31
leaf_value=0.013992341540076517 -0.02280819139310292 -0.058200066643101837 0.021834197214671544 0.014574848816675298 0.064346758276224145 0.048071417808532718 -0.031537942626537419 -0.054818640526843404 0.031980638477924095 -0.011337401783257201 0.021945945739746096 -0.028821608073571148 0.035437604665756232 -0.0518021297454834 0.036136571497752755 0.06295277698565338 -0.032816225926960922 -0.032806835174560546 0.020023571817498462 0.023141246991555977 0.0021832909069809262 0.042751963307028233 -0.049090333872063213 -0.011843497753143311 -0.054809600238998737 0.02131773043762554 0.022189149531451138 -0.034320632616678878 -0.0014664280185332666 -0.055042035290689184
leaf_weight=22 28 21 21 204 24 20 78 73 137 57 25 34 25 20 29 59 45 25 38 46 51 46 43 25 48 22 33 30 520 33
leaf_count=22 28 21 21 204 24 20 78 73 137 57 25 34 25 20 29 59 45 25 38 46 51 46 43 25 48 22 33 30 520 33
internal_value=0 -0.00516911 0.0198393 0.000272578 0.0305604 -0.000332338 -0.00724511 -0.0255193 0.00962315 0.00232462 -0.0176677 0.0218742 -0.00159313 -0.00875038 0.000313143 0.0407582 -0.0154275 -0.0172384 -0.0128496 0.00575497 0.029936 0.021422 -0.0275712 -0.0438556 -0.0207558 -0.0319149 -0.00151602 -0.0107813 -0.00394974 -0.0274283
internal_weight=0 1493 389 1178 254 135 653 315 525 329 125 196 59 115 95 180 66 217 196 74 121 97 100 98 158 100 58 52 575 55
internal_count=1882 1493 389 1178 254 135 653 315 525 329 125 196 59 115 95 180 66 217 196 74 121 97 100 98 158 100 58 52 575 55
shrinkage=0.1


Tree=5
num_leaves=31
num_cat=0
split_feature=0 2 2 0 1 10 9 4 10 9 6 14 15 4 8 9 7 1 2 14 1 9 14 0 2 14 13 13 11 9
split_gain=15.7755 13.1025 7.90765 6.20126 5.11983 7.39108 4.96216 4.77926 4.2343 3.7328 3.58009 3.15117 3.58221 6.67783 5.29582 4.79254 4.14817 3.98238 3.13492 5.31667 3.14037 3.10174 3.09914 3.49926 4.44261 5.50298 3.08231 3.07518 2.99108 3.60786
threshold=32.500000000000007 29.500000000000004 36.500000000000007 20.500000000000004 5.5000000000000009 2.5000000000000004 22.500000000000004 3.5000000000000004 3.5000000000000004 33.500000000000007 1.0000000180025095e-35 8.5000000000000018 1.5000000000000002 1.5000000000000002 9.5000000000000018 7.5000000000000009 9.5000000000000018 4.5000000000000009 38.500000000000007 25.500000000000004 12.500000000000002 10.500000000000002 1.0000000180025095e-35 10.500000000000002 18.500000000000004 6.5000000000000009 8.5000000000000018 9.5000000000000018 2.5000000000000004 7.5000000000000009
decision_type=2 2 2 2 2 2 2 2 2 2 2 2 2 2 2 2 2 2 2 2 2 2 2 2 2 2 2 2 2 2
left_child=1 3 6 8 5 26 -2 27 11 -4 -3 22 15 -14 16 -13 -15 21 19 -12 -20 -16 -1 -24 25 -25 28 -7 -5 -30
right_child=2 10 9 4 -6 7 -8 -9 -10 -11 18 12 13 14 17 -17 -18 -19 20 -21 -22 -23 23 24 -26 -27 -28 -29 29 -31
leaf_value=0.026028805971145631 0.016286240311052937 -0.054593472137595668 -0.025629740727267099 0.037370368791004964 0.021654296379822954 -0.01377737652171742 0.043529655188322074 0.021682918071746826 -0.028384149609467925 0.022984044660221449 -0.018990182885785162 0.0011346001625061036 -0.035412279855121263 -0.031910677427469301 -0.006215148893269626 0.066810224354267131 0.018687129020690918 0.050977285293971789 -0.047536101693012679 0.031442619115114215 -0.0034650680693713107 0.041280195415019989 -0.050333695308021877 0.035684193925159736 -0.017541406172603819 -0.018728230630650239 -0.0034636037914376507 -0.050217983722686765 -0.0228415424823761 0.02689737030438015
leaf_weight=22 260 33 56 63 182 55 90 23 78 22 162 25 44 43 44 20 26 34 61 24 22 20 23 41 199 34 76 40 25 35
leaf_count=22 260 33 56 63 182 55 90 23 78 22 162 25 44 43 44 20 26 34 61 24 22 20 23 41 199 34 76 40 25 35
internal_value=0 -0.00496731 0.0168749 -0.000106918 0.00828614 0.000611044 0.0232917 -0.0192184 -0.0065206 -0.0119182 -0.0235076 -0.00355476 0.00470899 -0.000753882 0.00837767 0.0303238 -0.0128448 0.0233201 -0.0196941 -0.0124827 -0.0358546 0.00862715 -0.0101865 -0.0128691 -0.00972426 0.0110172 0.0123692 -0.0291208 0.0221521 0.00617282
internal_weight=0 1454 428 1152 499 317 350 118 653 78 302 575 256 211 167 45 69 98 269 186 83 64 319 297 274 75 199 95 123 60
internal_count=1882 1454 428 1152 499 317 350 118 653 78 302 575 256 211 167 45 69 98 269 186 83 64 319 297 274 75 199 95 123 60
shrinkage=0.1


Tree=6
num_leaves=31
num_cat=0
split_feature=0 2 2 0 1 10 6 8 11 9 3 6 9 0 13 8 9 5 9 8 2 3 15 3 7 8 14 7 0 12
split_gain=13.1937 11.9359 9.08427 6.60564 5.35454 4.94672 4.42482 4.23572 4.62562 3.9105 4.73909 4.57688 4.39607 3.99245 3.84809 4.25249 4.77633 4.26249 3.98307 3.45162 3.28409 3.628 4.43018 6.85643 6.53084 3.1768 4.24606 4.42239 4.07763 2.80599
threshold=24.500000000000004 37.500000000000007 20.500000000000004 41.500000000000007 6.5000000000000009 1.0000000180025095e-35 1.0000000180025095e-35 39.500000000000007 1.5000000000000002 40.500000000000007 25.500000000000004 3.5000000000000004 24.500000000000004 28.500000000000004 1.5000000000000002 15.500000000000002 9.5000000000000018 2.5000000000000004 4.5000000000000009 20.500000000000004 22.500000000000004 18.500000000000004 8.5000000000000018 6.5000000000000009 12.500000000000002 5.5000000000000009 3.5000000000000004 13.500000000000002 17.500000000000004 3.5000000000000004
decision_type=2 2 2 2 2 2 2 2 2 2 2 2 2 2 2 2 2 2 2 2 2 2 2 2 2 2 2 2 2 2
left_child=2 3 25 5 -3 -2 -4 8 -7 10 11 12 20 -13 -8 17 18 29 -17 -6 -10 22 23 -22 -25 28 -27 -28 -1 -16
right_child=1 4 6 -5 19 7 14 -9 9 -11 -12 13 -14 -15 15 16 -18 -19 -20 -21 21 -23 -24 24 -26 26 27 -29 -30 -31
leaf_value=-0.051224852561950689 0.053399838626384734 -0.042286128319542982 -0.047080738240099972 0.035937586504480111 0.022273746470455082 0.042841068282723431 -0.046428277151925226 0.042798401370193022 0.014913254639856061 0.043115719656149548 -0.043587647242979574 0.016401632785797118 0.054087276756763461 -0.031162961820761365 -0.0083406963326909511 -0.038038822101510092 -0.042325512155309906 0.011658071111706855 0.014430870345005623 -0.030683202743530275 0.041189411655068398 0.028555920617333776 -0.030840647709174236 0.0092016466789775434 -0.06096992265610468 0.043911987304687504 -0.0026354208963001195 0.023404713318898127 -0.0023764565035148903 -0.044837533224087497
leaf_weight=25 25 58 47 115 32 32 35 33 196 24 22 25 20 60 111 23 77 103 39 20 32 29 61 36 21 25 398 78 54 26
leaf_count=25 25 58 47 115 32 32 35 33 196 24 22 25 20 60 111 23 77 103 39 20 32 29 61 36 21 25 398 78 54 26
internal_value=0 0.00931537 -0.00752568 0.0139367 -0.0213955 0.00982939 -0.0180038 0.00798631 0.00592753 0.00368184 0.00179656 0.00387667 0.00840642 -0.0171734 -0.0147028 -0.011773 -0.0256918 -0.00371172 -0.00503369 0.00190569 0.00597011 -0.00382238 -0.0100822 0.00414553 -0.016651 0.00080262 0.00374146 0.00163166 -0.0178348 -0.0152671
internal_weight=0 841 1041 731 110 616 461 591 558 526 502 480 395 85 414 379 139 240 62 52 375 179 150 89 57 580 501 476 79 137
internal_count=1882 841 1041 731 110 616 461 591 558 526 502 480 395 85 414 379 139 240 62 52 375 179 150 89 57 580 501 476 79 137
shrinkage=0.1


Tree=7
num_leaves=31
num_cat=0
split_feature=0 2 0 2 12 5 13 0 10 15 14 1 13 6 6 12 1 13 4 0 2 14 12 13 12 9 7 11 2 1
split_gain=10.924 10.2767 7.24622 4.11922 4.04463 4.46778 4.18304 3.60805 3.53431 3.47428 4.64368 4.62905 3.7119 3.68298 3.64422 3.33609 3.28499 3.8754 3.23669 3.1692 4.15876 4.13096 3.16607 3.14572 3.07405 3.4535 3.27967 3.06903 4.6861 3.2932
threshold=42.500000000000007 34.500000000000007 24.500000000000004 10.500000000000002 2.5000000000000004 3.5000000000000004 8.5000000000000018 20.500000000000004 3.5000000000000004 8.5000000000000018 18.500000000000004 10.500000000000002 12.500000000000002 2.5000000000000004 1.5000000000000002 3.5000000000000004 15.500000000000002 21.500000000000004 2.5000000000000004 31.500000000000004 23.500000000000004 20.500000000000004 1.5000000000000002 8.5000000000000018 3.5000000000000004 6.5000000000000009 8.5000000000000018 2.5000000000000004 22.500000000000004 4.5000000000000009
decision_type=2 2 2 2 2 2 2 2 2 2 2 2 2 2 2 2 2 2 2 2 2 2 2 2 2 2 2 2 2 2
left_child=1 2 3 18 5 27 -7 -3 -6 14 12 -12 24 -14 -4 22 17 -2 -1 20 -16 -21 -9 -24 25 -11 -26 -5 -29 -30
right_child=16 7 9 4 8 6 -8 15 -10 10 11 -13 13 -15 19 -17 -18 -19 -20 21 -22 -23 23 -25 26 -27 -28 28 29 -31
leaf_value=0.0040106317907009489 0.031984051153063776 -0.039309033429300463 -0.0079882614314556125 0.0013913435233037885 -0.010890363645917587 0.0048016272923525651 0.06243691265583038 -0.036221183657646178 -0.040406643195698665 -0.015789345458701805 0.00080366837672698208 0.05212142374366522 0.0011982788303584763 -0.04368317287142684 0.025755486693433541 -0.035110403141196893 0.050708144174681773 -0.017614673790724383 0.048274821043014532 0.049698832328768747 -0.0085488377955921912 0.0079115155670377944 -0.015770762316558672 0.01966654571619901 -0.046200277975627355 0.026664558594877069 0.0096879229659125928 -0.028467627249512018 -0.014439088467395667 0.032652745423493564
leaf_weight=53 50 74 48 329 262 34 20 25 48 27 39 32 33 41 93 49 45 23 24 69 57 36 46 55 21 66 21 102 33 27
leaf_count=53 50 74 48 329 262 34 20 25 48 27 39 32 33 41 93 49 45 23 24 69 57 36 46 55 21 66 21 102 33 27
internal_value=0 -0.00197048 0.00112388 -0.00434598 -0.00634107 -0.00115379 0.026148 -0.0207976 -0.0154606 0.00986814 0.00183768 0.0239328 -0.00566831 -0.0236685 0.017289 -0.0129699 0.029457 0.0163571 0.0178073 0.0220471 0.0127198 0.0353718 -0.00435972 0.00352678 0.00419844 0.0143392 -0.0182562 -0.00415644 -0.0154232 0.00675224
internal_weight=0 1764 1515 932 855 545 54 249 310 583 280 71 209 74 303 175 118 73 77 255 150 105 126 101 135 93 42 491 162 60
internal_count=1882 1764 1515 932 855 545 54 249 310 583 280 71 209 74 303 175 118 73 77 255 150 105 126 101 135 93 42 491 162 60
shrinkage=0.1


Tree=8
num_leaves=31
num_cat=0
split_feature=0 2 2 1 6 8 8 11 12 9 7 7 9 8 8 8 13 14 14 7 6 15 7 12 14 7 3 3 1 4
split_gain=9.10952 6.60042 6.00808 4.70807 3.52254 3.61252 5.20992 3.29867 3.671 3.2367 3.97678 3.42821 2.90974 2.76395 6.10425 5.16703 2.74649 4.05035 3.31999 3.0638 2.78131 2.6755 2.78755 3.67254 3.22846 3.17804 3.53297 2.65613 2.58321 2.5046
threshold=20.500000000000004 29.500000000000004 34.500000000000007 7.5000000000000009 1.0000000180025095e-35 37.500000000000007 20.500000000000004 1.5000000000000002 4.5000000000000009 25.500000000000004 25.500000000000004 7.5000000000000009 1.5000000000000002 24.500000000000004 20.500000000000004 30.500000000000004 4.5000000000000009 8.5000000000000018 6.5000000000000009 12.500000000000002 3.5000000000000004 39.500000000000007 12.500000000000002 2.5000000000000004 14.500000000000002 31.500000000000004 4.5000000000000009 7.5000000000000009 1.0000000180025095e-35 3.5000000000000004
decision_type=2 2 2 2 2 2 2 2 2 2 2 2 2 2 2 2 2 2 2 2 2 2 2 2 2 2 2 2 2 2
left_child=2 3 12 7 -3 6 9 -2 16 11 -11 27 -1 14 29 -15 17 18 -9 -19 -18 22 23 -5 -25 26 -24 -6 -22 -14
right_child=1 4 -4 21 5 -7 -8 8 -10 10 -12 -13 13 15 -16 -17 20 19 -20 -21 28 -23 25 24 -26 -27 -28 -29 -30 -31
leaf_value=-0.034891317691653968 0.038626688931669512 -0.039105686339838755 -0.035378129417831833 0.04256000007901873 0.041238814734277277 0.029724488623680607 -0.037009274376475297 0.015838130377233028 -0.031168482632472599 0.0017939400010638766 0.054495303971426823 -0.017187504534528632 -0.0062763541157000533 -0.054902041986070828 0.040511359460651875 0.0033768596593290569 0.00494194825084842 0.045539125968825145 -0.035332625252859934 0.0063534955959767105 0.0051584653854370123 0.056023296288081587 0.024268166449936956 -0.0099968637029329947 0.032655343839100431 0.030123673554729016 -0.025623121708631513 -0.0051314762234687811 -0.037185940321754006 0.018040168803671135
leaf_weight=32 28 29 74 77 21 31 46 32 29 45 21 115 535 29 32 32 245 53 21 32 25 21 22 36 35 34 40 30 34 46
leaf_count=32 28 29 74 77 21 31 46 32 29 45 21 115 535 29 32 32 245 53 21 32 25 21 22 36 35 34 40 30 34 46
internal_value=0 0.00585321 -0.00826954 0.0110008 -0.00578224 -0.00265479 -0.00626543 0.00528016 0.00329777 -0.00016967 0.0185626 -0.00761742 -0.00542813 -0.00402928 -0.0020092 -0.0243295 0.00555913 0.0172588 -0.00443707 0.0307869 0.000248082 0.021773 0.0188252 0.0274336 0.0110289 0.00555396 -0.00791976 0.0139622 -0.0192434 -0.00435112
internal_weight=0 1102 780 764 338 309 278 499 471 232 66 166 706 674 613 61 442 138 53 85 304 265 244 148 71 96 62 51 59 581
internal_count=1882 1102 780 764 338 309 278 499 471 232 66 166 706 674 613 61 442 138 53 85 304 265 244 148 71 96 62 51 59 581
shrinkage=0.1


end of trees

feature_importances:
Column_2=35
Column_0=34
Column_9=29
Column_1=22
Column_14=22
Column_7=17
Column_8=17
Column_13=14
Column_10=13
Column_3=12
Column_6=12
Column_12=12
Column_4=9
Column_15=9
Column_11=7
Column_5=6

parameters:
[boosting: gbdt]
[objective: regression]
[metric: l2]
[tree_learner: serial]
[device_type: cpu]
[data: ]
[valid: ]
[num_iterations: 10000]
[learning_rate: 0.1]
[num_leaves: 31]
[num_threads: 0]
[deterministic: 0]
[force_col_wise: 0]
[force_row_wise: 0]
[histogram_pool_size: -1]
[max_depth: -1]
[min_data_in_leaf: 20]
[min_sum_hessian_in_leaf: 0.001]
[bagging_fraction: 1]
[pos_bagging_fraction: 1]
[neg_bagging_fraction: 1]
[bagging_freq: 0]
[bagging_seed: 3]
[feature_fraction: 1]
[feature_fraction_bynode: 1]
[feature_fraction_seed: 2]
[extra_trees: 0]
[extra_seed: 6]
[early_stopping_round: 10]
[first_metric_only: 0]
[max_delta_step: 0]
[lambda_l1: 0]
[lambda_l2: 0]
[min_gain_to_split: 0]
[drop_rate: 0.1]
[max_drop: 50]
[skip_drop: 0.5]
[xgboost_dart_mode: 0]
[uniform_drop: 0]
[drop_seed: 4]
[top_rate: 0.2]
[other_rate: 0.1]
[min_data_per_group: 100]
[max_cat_threshold: 32]
[cat_l2: 10]
[cat_smooth: 10]
[max_cat_to_onehot: 4]
[top_k: 20]
[monotone_constraints: ]
[monotone_constraints_method: basic]
[monotone_penalty: 0]
[feature_contri: ]
[forcedsplits_filename: ]
[refit_decay_rate: 0.9]
[cegb_tradeoff: 1]
[cegb_penalty_split: 0]
[cegb_penalty_feature_lazy: ]
[cegb_penalty_feature_coupled: ]
[path_smooth: 0]
[interaction_constraints: ]
[verbosity: 1]
[saved_feature_importance_type: 0]
[max_bin: 255]
[max_bin_by_feature: ]
[min_data_in_bin: 3]
[bin_construct_sample_cnt: 200000]
[data_random_seed: 1]
[is_enable_sparse: 1]
[enable_bundle: 1]
[use_missing: 1]
[zero_as_missing: 0]
[feature_pre_filter: 1]
[pre_partition: 0]
[two_round: 0]
[header: 0]
[label_column: ]
[weight_column: ]
[group_column: ]
[ignore_column: ]
[categorical_feature: ]
[forcedbins_filename: ]
[objective_seed: 5]
[num_class: 1]
[is_unbalance: 0]
[scale_pos_weight: 1]
[sigmoid: 1]
[boost_from_average: 1]
[reg_sqrt: 0]
[alpha: 0.9]
[fair_c: 1]
[poisson_max_delta_step: 0.7]
[tweedie_variance_power: 1.5]
[lambdarank_truncation_level: 30]
[lambdarank_norm: 1]
[label_gain: ]
[eval_at: ]
[multi_error_top_k: 1]
[auc_mu_weights: ]
[num_machines: 1]
[local_listen_port: 12400]
[time_out: 120]
[machine_list_filename: ]
[machines: ]
[gpu_platform_id: -1]
[gpu_device_id: -1]
[gpu_use_dp: 0]
[num_gpu: 1]

end of parameters

pandas_categorical:null
