tree
version=v3
num_class=1
num_tree_per_iteration=1
label_index=0
max_feature_idx=15
objective=regression
feature_names=Column_0 Column_1 Column_2 Column_3 Column_4 Column_5 Column_6 Column_7 Column_8 Column_9 Column_10 Column_11 Column_12 Column_13 Column_14 Column_15
feature_infos=[1:49] [0:65] [1:49] [0:74] [0:7] [0:7] [0:7] [0:128] [0:151] [8:149] [0:7] [0:7] [0:8] [0:155] [0:161] [0:144]
tree_sizes=2726 2760 2762 2750 2756 2766 2747 2758 2753 2759 2773 2758 2748 2770 2761 2784 2765 2773 2789 2762 2772 2775 2792 2768

Tree=0
num_leaves=31
num_cat=0
split_feature=0 2 0 2 3 0 12 9 15 2 3 14 11 9 1 3 9 15 15 0 1 15 3 14 6 7 2 14 5 7
split_gain=42.5771 28.2001 20.457 18.7852 17.7133 17.3992 9.63756 8.90854 8.54681 8.35745 6.93553 5.78059 5.73362 5.71439 5.34974 6.03334 5.1627 5.50754 6.50487 5.06908 5.02578 6.23744 5.01509 4.85748 4.72248 5.69802 5.70911 5.81455 6.59381 4.83615
threshold=33.500000000000007 28.500000000000004 20.500000000000004 30.500000000000004 10.500000000000002 45.500000000000007 1.0000000180025095e-35 28.500000000000004 11.500000000000002 20.500000000000004 10.500000000000002 9.5000000000000018 4.5000000000000009 16.500000000000004 15.500000000000002 7.5000000000000009 20.500000000000004 17.500000000000004 7.5000000000000009 24.500000000000004 8.5000000000000018 16.500000000000004 11.500000000000002 5.5000000000000009 3.5000000000000004 17.500000000000004 18.500000000000004 13.500000000000002 2.5000000000000004 12.500000000000002
decision_type=2 2 2 2 2 2 2 2 2 2 2 2 2 2 2 2 2 2 2 2 2 2 2 2 2 2 2 2 2 2
left_child=1 2 4 20 12 7 -4 22 19 11 14 -8 24 -13 15 -10 17 18 -11 -3 21 -2 -5 -6 25 26 27 28 -1 -28
right_child=3 8 6 5 23 -7 9 -9 10 16 -12 13 -14 -15 -16 -17 -18 -19 -20 -21 -22 -23 -24 -25 -26 -27 29 -29 -30 -31
leaf_value=0.059417800473771737 0.095255637362231083 0.024646717066518109 0.1137335885085789 0.054496452289536201 0.047417800791663176 0.11648756640379966 0.088560656844606817 0.089125116759967316 -0.0059155311288193249 0.037132086778427262 -0.012245118959380907 0.052217800664506597 0.0080428018347444563 0.090687030428978826 0.064084467016813945 0.055243887573258238 0.082999195197915307 0.011417801745337491 0.069711378182736414 0.052326891570707586 0.10972549146022775 0.04961292268473181 0.021288769225781629 0.0040844686062711452 0.072698698998352559 0.0054178019042832037 0.039892717378969676 0.024917801387709618 0.11309347472752759 0.084084466486994885
leaf_weight=60 111 166 38 89 32 43 140 41 54 140 89 150 32 52 27 23 43 40 109 110 130 41 93 135 89 30 299 24 37 27
leaf_count=60 111 166 38 89 32 43 140 41 54 140 89 150 32 52 27 23 43 40 109 110 130 41 93 135 89 30 299 24 37 27
internal_value=0.0526864 0.0457528 0.0525363 0.0773083 0.0411825 0.0582449 0.0647352 0.0470142 0.0243901 0.0619727 0.00824682 0.0729441 0.0492238 0.0621208 0.0257832 0.0123529 0.0506708 0.0458607 0.0513937 0.0356787 0.0952901 0.0829441 0.0375277 0.0123879 0.0515521 0.0476065 0.0504379 0.068988 0.079892 0.0435528
internal_weight=0 1946 1477 548 765 266 712 223 469 674 193 342 598 202 104 77 332 289 249 276 282 152 182 167 566 477 447 121 97 326
internal_count=2494 1946 1477 548 765 266 712 223 469 674 193 342 598 202 104 77 332 289 249 276 282 152 182 167 566 477 447 121 97 326
shrinkage=1


Tree=1
num_leaves=31
num_cat=0
split_feature=0 3 2 0 15 9 0 9 14 2 12 11 2 9 4 1 8 1 7 7 15 6 12 2 15 9 2 0 14 14
split_gain=35.0173 25.3142 25.0151 19.6788 12.1584 9.58294 8.3416 9.30989 8.1957 7.70845 7.64796 9.35079 6.99424 6.89479 6.74174 6.48922 7.66448 6.01866 6.01687 5.80057 5.62703 6.26809 5.16438 5.01815 4.76972 4.40768 4.24813 4.22303 7.3732 4.77031
threshold=25.500000000000004 8.5000000000000018 29.500000000000004 45.500000000000007 8.5000000000000018 14.500000000000002 36.500000000000007 12.500000000000002 14.500000000000002 21.500000000000004 1.0000000180025095e-35 4.5000000000000009 16.500000000000004 28.500000000000004 1.5000000000000002 17.500000000000004 27.500000000000004 10.500000000000002 16.500000000000004 10.500000000000002 11.500000000000002 3.5000000000000004 2.5000000000000004 16.500000000000004 4.5000000000000009 16.500000000000004 20.500000000000004 32.500000000000007 7.5000000000000009 18.500000000000004
decision_type=2 2 2 2 2 2 2 2 2 2 2 2 2 2 2 2 2 2 2 2 2 2 2 2 2 2 2 2 2 2
left_child=1 10 5 4 13 6 7 -2 9 25 -1 12 18 -4 -10 16 20 23 -12 -6 21 -14 -9 -7 -11 -3 -8 -21 -29 -30
right_child=2 8 3 -5 19 17 26 22 14 24 11 -13 15 -15 -16 -17 -18 -19 -20 27 -22 -23 -24 -25 -26 -27 -28 28 29 -31
leaf_value=0.048349455671925702 0.01536305374927349 -0.012202769470593287 0.00053140235548259837 0.058514878352483118 -0.0065160745772245886 0.054401267185807227 0.062079930366302029 0.0025413718819618228 -0.091533996935548465 -0.0082318338289580958 0.029059468526539841 -0.045108282643680775 -0.0035122790321800283 0.053479676285097678 -0.037673468671293342 0.046893476198116943 -0.056307825137828962 0.059157804556942861 -0.017768676451274328 -0.057833432848170656 -0.027014748902803056 0.032116727395491172 -0.066262826571861902 0.01578999630455832 -0.043182661612881416 0.029357014410197738 0.019272796945138414 0.010189156940108851 -0.074902362247993209 -0.015294824838638305
leaf_weight=31 222 126 119 45 107 50 49 20 29 54 127 48 483 31 117 24 29 109 35 59 89 55 24 103 141 32 44 38 29 25
leaf_count=31 222 126 119 45 107 50 49 20 29 54 127 48 483 31 117 24 29 109 35 59 89 55 24 103 141 32 44 38 29 25
internal_value=0 -0.0103051 0.013625 -0.00424386 -0.0111658 0.0266597 0.0160475 0.00703428 -0.0284442 -0.0202023 -0.000477223 -0.00217793 0.000269408 0.011474 -0.0483718 -0.00417913 -0.00604764 0.0412009 0.0189423 -0.0243285 -0.003723 0.000130092 -0.0349882 0.0284081 -0.033504 -0.0037856 0.0418271 -0.0369505 -0.0235582 -0.0473063
internal_weight=0 1420 1074 453 408 621 359 266 499 353 921 890 842 150 146 680 656 262 162 258 627 538 44 153 195 158 93 151 92 54
internal_count=2494 1420 1074 453 408 621 359 266 499 353 921 890 842 150 146 680 656 262 162 258 627 538 44 153 195 158 93 151 92 54
shrinkage=0.1


Tree=2
num_leaves=31
num_cat=0
split_feature=0 2 0 2 3 0 9 11 2 9 3 15 14 12 0 7 9 15 8 13 12 1 15 3 6 9 11 13 7 2
split_gain=28.6654 19.4063 14.6539 12.7681 12.3033 11.3705 7.45696 6.74229 6.55664 6.41831 5.59672 5.44408 4.79417 5.06856 4.30609 4.29428 4.79987 4.25184 4.77051 4.21787 4.64501 4.04433 6.98887 4.00081 3.98934 5.90033 5.79104 5.13053 4.36063 5.33148
threshold=33.500000000000007 28.500000000000004 20.500000000000004 30.500000000000004 10.500000000000002 45.500000000000007 26.500000000000004 1.5000000000000002 20.500000000000004 28.500000000000004 10.500000000000002 5.5000000000000009 4.5000000000000009 1.5000000000000002 42.500000000000007 3.5000000000000004 17.500000000000004 3.5000000000000004 8.5000000000000018 23.500000000000004 2.5000000000000004 8.5000000000000018 8.5000000000000018 6.5000000000000009 3.5000000000000004 8.5000000000000018 4.5000000000000009 7.5000000000000009 19.500000000000004 11.500000000000002
decision_type=2 2 2 2 2 2 2 2 2 2 2 2 2 2 2 2 2 2 2 2 2 2 2 2 2 2 2 2 2 2
left_child=1 2 4 14 24 9 8 -3 19 -5 15 -12 -10 -14 21 -9 -17 -15 -19 20 -4 22 -2 -24 26 -26 28 -27 29 -1
right_child=3 7 6 5 -6 -7 -8 10 12 -11 11 -13 13 17 -16 16 -18 18 -20 -21 -22 -23 23 -25 25 27 -28 -29 -30 -31
leaf_value=0.040759285732551859 0.039553361598934446 0.033399245440959929 0.023758941283200514 -0.012644726823974443 -0.033669116432795264 0.051569520041000017 0.047500641494989393 -0.049342342334635123 0.017888490500904266 0.031151333233205288 -0.010008011670897203 -0.048596846049703248 0.034793306951937469 -0.044025336056947709 0.056131365150213247 -0.020127373832036499 0.012982529799143475 0.0070154420493804305 -0.025859442169283643 0.054388285747596202 -0.0013236258850723018 0.042486595174278878 0.022398831627585672 -0.032654949209906838 0.063790013194084172 0.037764157141957966 -0.059367796182632451 -0.015154239704024117 -0.047923292896964335 -0.0050576221302290943
leaf_weight=27 56 20 187 182 167 43 50 34 84 41 49 144 23 40 72 162 60 97 81 28 122 99 22 33 20 28 20 53 22 428
leaf_count=27 56 20 187 182 167 43 50 34 84 41 49 144 23 40 72 162 60 97 81 28 122 99 22 33 20 28 20 53 22 428
internal_value=0 -0.00568917 -6.19213e-05 0.0202028 -0.00967131 0.00448629 0.0102628 -0.0234108 0.00745024 -0.00459254 -0.0259413 -0.0387997 -0.00268385 -0.00985429 0.0350276 -0.0162474 -0.0111788 -0.0145648 -0.00794448 0.0172235 0.0138558 0.027792 0.014686 -0.0106334 -0.00296958 0.0151487 -0.00665157 0.00313854 -0.00444125 -0.00233882
internal_weight=0 1946 1477 548 765 266 712 469 662 223 449 193 325 241 282 256 222 218 178 337 309 210 111 55 598 101 497 81 477 455
internal_count=2494 1946 1477 548 765 266 712 469 662 223 449 193 325 241 282 256 222 218 178 337 309 210 111 55 598 101 497 81 477 455
shrinkage=0.1


Tree=3
num_leaves=31
num_cat=0
split_feature=0 3 2 0 15 9 14 2 15 2 12 11 9 1 6 2 4 9 15 14 9 3 0 1 8 3 9 1 13 0
split_gain=23.9189 18.0082 16.2239 12.8004 9.36253 7.11607 6.38467 6.27365 6.70238 6.01809 5.83076 6.64199 5.773 12.3057 5.59163 5.498 5.33954 5.10893 5.40356 6.22132 5.33188 4.91708 4.805 4.45383 4.88191 6.6185 4.48474 4.39073 4.51812 4.12896
threshold=25.500000000000004 8.5000000000000018 29.500000000000004 45.500000000000007 8.5000000000000018 14.500000000000002 14.500000000000002 20.500000000000004 17.500000000000004 21.500000000000004 1.0000000180025095e-35 4.5000000000000009 11.500000000000002 6.5000000000000009 1.5000000000000002 10.500000000000002 1.5000000000000002 10.500000000000002 6.5000000000000009 7.5000000000000009 12.500000000000002 13.500000000000002 33.500000000000007 10.500000000000002 24.500000000000004 19.500000000000004 26.500000000000004 1.0000000180025095e-35 9.5000000000000018 22.500000000000004
decision_type=2 2 2 2 2 2 2 2 2 2 2 2 2 2 2 2 2 2 2 2 2 2 2 2 2 2 2 2 2 2
left_child=1 10 5 4 14 7 9 12 17 -3 -1 15 22 -14 -4 -12 -8 18 -9 -20 -19 -6 -2 24 25 26 -7 28 -11 -29
right_child=2 6 3 -5 21 23 16 8 -10 27 11 -13 13 -15 -16 -17 -18 20 19 -21 -22 -23 -24 -25 -26 -27 -28 29 -30 -31
leaf_value=0.042405407082649976 0.021631844282150273 -0.002036143028283421 -0.035416575724428349 0.047486163377761847 -0.0075886566298348562 0.014373976137579942 -0.079816937857660752 -0.035560259464624766 -0.039564684970038282 0.015149787538929991 0.036066596973233105 -0.037894423670756322 -0.05379147082567215 0.047474074363708499 0.019159023975953461 -0.0014782400092530935 -0.031883736769867763 0.057653723043553977 0.054826821251349016 -0.01518494208653768 -0.0012737352933202472 -0.035300057015176543 0.061652688741683961 0.049735729027231904 0.068068124566759383 -0.033911076526750218 0.060727100287164965 -0.050572241376062012 -0.038351186302800974 -0.011682134561049634
leaf_weight=31 75 158 22 45 140 82 29 37 35 38 41 48 24 24 128 801 117 34 22 30 28 118 50 109 21 22 28 91 27 39
leaf_count=31 75 158 22 45 140 82 29 37 35 38 41 48 24 24 128 801 117 34 22 30 28 118 50 109 21 22 28 91 27 39
internal_value=0 -0.00851688 0.0112607 -0.00312969 -0.00871232 0.021758 -0.0238162 0.0126131 -0.000135967 -0.0165416 -0.000227692 -0.00171267 0.0263203 -0.0031587 0.0111546 0.000349953 -0.0414047 0.00900314 -0.0063493 0.0144354 0.0310413 -0.0202629 0.0376402 0.0342886 0.0232837 0.0161589 0.026173 -0.0282947 -0.00707369 -0.0389052
internal_weight=0 1420 1074 453 408 621 499 359 186 353 921 890 173 48 150 842 146 151 89 52 62 258 125 262 153 132 110 195 65 130
internal_count=2494 1420 1074 453 408 621 499 359 186 353 921 890 173 48 150 842 146 151 89 52 62 258 125 262 153 132 110 195 65 130
shrinkage=0.1


Tree=4
num_leaves=31
num_cat=0
split_feature=0 2 0 3 2 13 8 12 8 9 2 11 0 3 15 12 9 2 7 11 2 1 7 14 15 14 14 3 9 15
split_gain=19.8769 14.0558 10.3472 8.47438 8.38573 6.46673 7.10324 10.5555 7.27971 6.08154 5.82155 5.54742 4.72453 4.8681 4.43409 4.89613 4.41118 3.99405 3.97107 5.0587 3.91358 3.73755 9.52368 3.71845 3.64189 4.78209 3.6177 3.43159 3.7317 3.41056
threshold=33.500000000000007 28.500000000000004 20.500000000000004 7.5000000000000009 38.500000000000007 7.5000000000000009 9.5000000000000018 2.5000000000000004 14.500000000000002 10.500000000000002 16.500000000000004 1.5000000000000002 47.500000000000007 28.500000000000004 11.500000000000002 3.5000000000000004 25.500000000000004 21.500000000000004 5.5000000000000009 3.5000000000000004 19.500000000000004 15.500000000000002 18.500000000000004 5.5000000000000009 17.500000000000004 23.500000000000004 7.5000000000000009 17.500000000000004 14.500000000000002 29.500000000000004
decision_type=2 2 2 2 2 2 2 2 2 2 2 2 2 2 2 2 2 2 2 2 2 2 2 2 2 2 2 2 2 2
left_child=1 2 3 5 12 9 7 23 -8 -1 -4 -3 13 17 15 -13 24 -2 -5 27 -10 -16 -23 -7 25 -12 -6 28 -20 -28
right_child=4 11 10 18 26 6 8 -9 20 -11 16 14 -14 -15 21 -17 -18 -19 19 -21 -22 22 -24 -25 -26 -27 29 -29 -30 -31
leaf_value=0.004675901903734579 0.038622364278667234 0.031711380481719974 0.026304306929943545 -0.039305975437164312 0.014540359821725399 0.030559087395668028 0.021174509220934931 -0.071330510041652584 -0.0037472050814401541 0.046465369330512152 0.007415022891143274 -0.018908669705213939 0.064590321595852193 -0.018861727056832152 -0.042301842624294587 0.022291843401211681 0.037942764328585732 0.016560709079106648 -0.0079575750771469968 -0.045540443135470877 -0.054367955774068832 0.040754409631093343 -0.048332080883639203 -0.021829570333162945 -0.020400476914185745 -0.035956362883249923 -0.0048756273587544762 -0.040186653916652389 0.033624927584941573 -0.050942141294479375
leaf_weight=154 121 20 149 85 47 20 94 39 42 45 435 229 26 29 138 33 36 255 127 41 24 21 28 42 65 27 45 26 26 25
leaf_count=154 121 20 149 85 47 20 94 39 42 45 435 229 26 29 138 33 36 255 127 41 24 21 28 42 65 27 45 26 26 25
internal_value=0 -0.00473745 5.16257e-05 -0.00802315 0.0168231 0.00054711 -0.00980598 -0.0305698 0.00330119 0.0141258 0.00872748 -0.0198195 0.0232683 0.0206155 -0.0221148 -0.0137193 0.0040757 0.0236603 -0.0209488 -0.0138563 -0.0221548 -0.0338776 -0.0101522 -0.00493 0.00176221 0.00488033 -0.00691931 -0.00659898 -0.000891267 -0.021328
internal_weight=0 1946 1477 765 548 460 261 101 160 199 712 469 431 405 449 262 563 376 305 220 66 187 49 62 527 462 117 179 153 70
internal_count=2494 1946 1477 765 548 460 261 101 160 199 712 469 431 405 449 262 563 376 305 220 66 187 49 62 527 462 117 179 153 70
shrinkage=0.1


Tree=5
num_leaves=31
num_cat=0
split_feature=0 3 2 0 6 9 15 6 14 2 12 11 2 14 15 9 13 9 0 2 13 1 8 14 14 0 5 8 8 7
split_gain=16.5604 12.8783 10.861 9.29723 6.01481 5.5298 4.99312 6.35585 4.86951 4.83061 4.55971 5.09618 4.39573 6.022 5.8445 5.62872 4.79921 4.67634 4.66821 4.35599 5.02565 4.13968 5.43436 4.63254 4.81238 4.06708 4.67306 4.04792 4.94025 5.50933
threshold=25.500000000000004 8.5000000000000018 28.500000000000004 45.500000000000007 4.5000000000000009 14.500000000000002 8.5000000000000018 1.5000000000000002 14.500000000000002 21.500000000000004 1.0000000180025095e-35 4.5000000000000009 21.500000000000004 4.5000000000000009 17.500000000000004 10.500000000000002 18.500000000000004 11.500000000000002 29.500000000000004 20.500000000000004 4.5000000000000009 16.500000000000004 27.500000000000004 16.500000000000004 6.5000000000000009 33.500000000000007 2.5000000000000004 33.500000000000007 12.500000000000002 18.500000000000004
decision_type=2 2 2 2 2 2 2 2 2 2 2 2 2 2 2 2 2 2 2 2 2 2 2 2 2 2 2 2 2 2
left_child=1 10 5 4 6 12 7 -4 9 -3 -1 19 16 -14 15 18 17 25 -15 20 -12 22 23 24 -21 26 -2 28 -8 -30
right_child=2 8 3 -5 -6 -7 27 -9 -10 -11 11 -13 13 14 -16 -17 -18 -19 -20 21 -22 -23 -24 -25 -26 -27 -28 -29 29 -31
leaf_value=0.037624058992631979 -0.018404398244969988 -0.00067581466481655462 -0.040811737298965457 0.041059695508169097 0.040457562987621015 0.029817435330894579 -0.024759814650924118 0.014349838457708285 -0.035385058973341772 -0.024201520739648586 0.027665833589878487 -0.033083076138670252 0.031092535990935106 0.013506959974765779 -0.059471444461656656 0.027485358549488914 0.053137305130561197 -0.016844856441020968 -0.048460615642609138 0.00095724714258329461 0.0016921264713521122 0.036965333223342896 -0.054763156414031983 0.035898736367623016 -0.023826614000501425 0.048115351069264296 0.032020750045776369 -0.049167734895433697 0.022642348731150393 -0.029698945283889774
leaf_weight=31 34 158 25 46 26 249 135 127 146 195 94 48 39 20 23 36 36 40 31 183 359 20 25 24 137 41 40 35 61 30
leaf_count=31 34 158 25 46 26 249 135 127 146 195 94 48 39 20 23 36 36 40 31 183 359 20 25 24 137 41 40 35 61 30
internal_value=0 -0.00708672 0.00936978 -0.00171227 -0.00619407 0.0184951 -0.00913098 0.00527721 -0.0200246 -0.0136716 -7.693e-05 -0.00139011 0.0102031 -0.00267048 -0.014641 -0.00278928 0.0202459 0.0126066 -0.0241596 0.000416614 0.00708181 -0.00734517 -0.00974683 -0.00647529 -0.00965334 0.0228505 0.00885244 -0.017522 -0.0126211 0.00538698
internal_weight=0 1420 1074 485 439 589 413 152 499 353 921 890 340 149 110 87 191 155 51 842 453 389 369 344 320 115 74 261 226 91
internal_count=2494 1420 1074 485 439 589 413 152 499 353 921 890 340 149 110 87 191 155 51 842 453 389 369 344 320 115 74 261 226 91
shrinkage=0.1


Tree=6
num_leaves=31
num_cat=0
split_feature=0 2 2 0 5 11 4 0 13 3 9 4 0 7 13 9 7 13 11 9 8 14 2 13 3 9 15 3 3 8
split_gain=14.2415 8.83776 7.21764 6.29006 6.18681 7.83702 6.40197 6.00808 5.29766 6.18958 5.36574 4.54758 4.77997 4.35494 4.32365 4.30796 4.22466 4.14429 4.12682 3.9805 3.97453 4.53721 4.39396 4.07309 4.75681 3.72369 3.59294 3.4285 3.40673 5.50297
threshold=31.500000000000004 20.500000000000004 29.500000000000004 45.500000000000007 1.5000000000000002 1.5000000000000002 1.0000000180025095e-35 20.500000000000004 3.5000000000000004 6.5000000000000009 12.500000000000002 1.5000000000000002 35.500000000000007 6.5000000000000009 23.500000000000004 8.5000000000000018 2.5000000000000004 13.500000000000002 2.5000000000000004 29.500000000000004 33.500000000000007 3.5000000000000004 38.500000000000007 8.5000000000000018 11.500000000000002 13.500000000000002 9.5000000000000018 14.500000000000002 1.5000000000000002 12.500000000000002
decision_type=2 2 2 2 2 2 2 2 2 2 2 2 2 2 2 2 2 2 2 2 2 2 2 2 2 2 2 2 2 2
left_child=1 7 11 16 -3 -6 -7 8 10 15 -1 12 -2 -11 17 -10 -4 -9 -15 20 21 -18 23 25 -25 -23 -21 -24 29 -8
right_child=2 4 3 -5 5 6 28 14 9 13 -12 -13 -14 18 -16 -17 19 -19 -20 26 -22 22 27 24 -26 -27 -28 -29 -30 -31
leaf_value=0.0024637709180992773 -0.030113041400909424 -0.046843384173901187 0.035565437555313113 0.036516151163313131 0.03582491633054373 -0.049739257882281049 0.020421233806717263 0.015025165560655297 0.023383788507560205 -0.055414361984301844 0.052431071832262234 0.028600670652097045 0.020377698421478272 0.0042918945352236433 0.053599501371383668 -0.0073417386718999562 0.026392230679911956 -0.019219359101318733 -0.040150313602911464 0.047128711835197783 -0.053513934937390421 0.0035520688347194505 -0.01578715443611145 -0.012318417141514441 0.04509446576789574 -0.052755445986986164 -0.0081813452144463856 -0.065560345888137819 -0.012290518921129034 -0.017054762159075056
leaf_weight=83 30 46 25 45 37 41 89 256 58 39 29 269 50 48 25 214 31 41 37 23 22 23 31 31 27 24 24 25 701 70
leaf_count=83 30 46 25 45 37 41 89 256 58 39 29 269 50 48 25 214 31 41 37 23 22 23 31 31 27 24 24 25 701 70
internal_value=0 -0.00462664 0.0123423 0.00176332 -0.0110372 -0.00928122 -0.0111335 0.00297331 -0.00380037 -0.00923127 0.0154017 0.0223756 0.00144367 -0.0277477 0.0136597 -0.000789972 -0.00370478 0.0102978 -0.0150535 -0.0074663 -0.0132538 -0.00864065 -0.0153861 -0.00332146 0.0144083 -0.0252007 0.0188853 -0.0380073 -0.00929302 0.00392237
internal_weight=0 1814 680 331 984 938 901 830 508 396 112 349 80 124 322 272 286 297 85 261 214 192 161 105 58 47 47 56 860 159
internal_count=2494 1814 680 331 984 938 901 830 508 396 112 349 80 124 322 272 286 297 85 261 214 192 161 105 58 47 47 56 860 159
shrinkage=0.1


Tree=7
num_leaves=31
num_cat=0
split_feature=0 2 12 5 14 0 0 2 11 13 9 0 4 14 15 15 14 7 8 13 7 9 4 12 15 8 1 11 14 3
split_gain=11.6688 8.82215 7.61001 6.52672 5.3035 7.92142 5.14763 5.68132 5.13787 6.14211 7.50144 5.2841 4.33082 4.28935 5.37179 5.3257 4.6944 4.15722 4.11781 4.68455 4.03839 3.99073 3.86047 3.88754 6.42298 3.81827 3.85488 3.79705 5.46438 7.47455
threshold=33.500000000000007 28.500000000000004 1.0000000180025095e-35 2.5000000000000004 5.5000000000000009 25.500000000000004 47.500000000000007 30.500000000000004 2.5000000000000004 10.500000000000002 15.500000000000002 22.500000000000004 2.5000000000000004 6.5000000000000009 8.5000000000000018 16.500000000000004 15.500000000000002 17.500000000000004 9.5000000000000018 6.5000000000000009 39.500000000000007 28.500000000000004 2.5000000000000004 2.5000000000000004 8.5000000000000018 33.500000000000007 2.5000000000000004 3.5000000000000004 12.500000000000002 8.5000000000000018
decision_type=2 2 2 2 2 2 2 2 2 2 2 2 2 2 2 2 2 2 2 2 2 2 2 2 2 2 2 2 2 2
left_child=1 2 -1 4 5 12 7 -2 13 18 17 -12 -4 -5 16 -16 -15 -11 19 -10 22 -9 -3 24 -24 26 -20 28 -6 -30
right_child=6 20 3 8 27 -7 -8 21 9 10 11 -13 -14 14 15 -17 -18 -19 25 -21 -22 -23 23 -25 -26 -27 -28 -29 29 -31
leaf_value=0.034455696709694401 0.02050412385226176 -0.021849940358897896 -0.013453357771408459 0.034057266975558081 -0.015614947359612648 0.048563600911034482 0.052469977832609607 -0.006675998409788813 0.047450099208138211 -0.026384361432148864 -0.025304673998444167 0.035206677644483507 0.020604279526957758 0.0059593726660459104 0.04799527411277478 -0.0081692178249359142 -0.03731501390857081 -0.080032075643539424 -0.042274481442666823 0.0013053163886070252 -0.051075273553530379 0.025722017186753293 0.0079330200950304668 0.0099372507797347177 -0.044073833937340601 0.032717829671773044 0.0014078012828169198 -0.030539134596333364 0.029790664133098388 -0.020538658022880556
leaf_weight=62 271 236 121 86 329 36 31 199 44 52 27 31 54 131 52 25 31 20 31 44 30 47 48 108 47 22 58 99 72 50
leaf_count=62 271 236 121 86 329 36 31 199 44 52 27 31 54 131 52 25 31 20 31 44 30 47 48 108 47 22 58 99 72 50
internal_value=0 -0.0036298 0.000164325 -0.00133819 -0.00763421 0.00584391 0.0128898 0.0105165 0.0059879 -0.0028215 -0.0197265 0.0070376 -0.00294414 0.0149057 0.00801438 0.02976 -0.00232153 -0.0412865 0.00822198 0.0243777 -0.0155785 -0.000486134 -0.0131527 -0.00304169 -0.0177967 -0.00458616 -0.0138074 -0.0128049 -0.00891202 0.00916389
internal_weight=0 1946 1477 1415 761 211 548 517 654 329 130 58 175 325 239 77 162 72 199 88 469 246 439 203 95 111 89 550 451 122
internal_count=2494 1946 1477 1415 761 211 548 517 654 329 130 58 175 325 239 77 162 72 199 88 469 246 439 203 95 111 89 550 451 122
shrinkage=0.1


Tree=8
num_leaves=31
num_cat=0
split_feature=0 5 2 14 4 1 2 0 8 9 13 15 0 12 15 8 8 15 0 2 0 14 15 8 1 0 8 2 6 13
split_gain=9.72641 8.01611 7.30679 7.10184 6.37209 5.59911 4.94486 4.9243 4.80826 4.48889 4.08238 4.03738 3.88594 5.93814 4.10107 5.25117 3.6305 3.46867 3.38077 3.90388 3.72187 3.3396 3.12003 3.72925 4.35615 3.10472 2.99812 2.86528 4.07738 5.43711
threshold=37.500000000000007 1.5000000000000002 16.500000000000004 7.5000000000000009 1.0000000180025095e-35 12.500000000000002 41.500000000000007 18.500000000000004 13.500000000000002 13.500000000000002 7.5000000000000009 5.5000000000000009 24.500000000000004 1.0000000180025095e-35 16.500000000000004 6.5000000000000009 12.500000000000002 26.500000000000004 47.500000000000007 32.500000000000007 40.500000000000007 26.500000000000004 2.5000000000000004 25.500000000000004 3.5000000000000004 45.500000000000007 18.500000000000004 21.500000000000004 2.5000000000000004 3.5000000000000004
decision_type=2 2 2 2 2 2 2 2 2 2 2 2 2 2 2 2 2 2 2 2 2 2 2 2 2 2 2 2 2 2
left_child=1 5 3 26 -4 -1 12 8 10 11 -5 -9 13 -6 21 -16 -13 -17 19 22 -21 -14 -2 24 -24 -22 -3 28 29 -15
right_child=18 2 4 7 6 -7 -8 9 -10 -11 -12 16 14 27 15 17 -18 -19 -20 20 25 -23 23 -25 -26 -27 -28 -29 -30 -31
leaf_value=-0.049847357758020953 0.057553805817257275 0.045093812354623453 -0.034321892487280299 0.035219863744882438 0.036243983109792072 -0.00022604763507843019 -0.028637953996658329 0.032413890238465935 -0.037916607326931424 0.037447203908647808 -0.016781474318769245 -0.02965007239863986 0.012408107693602399 0.014166061289009008 0.02551209470805 -0.032742195423335251 0.021273567563011533 0.0016533490346402537 0.047222980760758926 0.022158744106901454 -0.023856785520911219 -0.016007626704547719 -0.016287477557049242 0.047679440025240188 0.023265893248063101 0.020455161730448406 0.0029810415072874588 -0.012222525908193962 0.014198362731933596 -0.015182729337526405
leaf_weight=59 22 73 66 26 33 37 70 29 45 56 36 42 410 87 34 73 21 49 31 47 64 46 43 32 79 21 22 486 125 230
leaf_count=59 22 73 66 26 33 37 70 29 45 56 36 42 410 87 34 73 21 49 31 47 64 46 43 32 79 21 22 486 125 230
internal_value=0 -0.00247688 -0.00115994 0.0120036 -0.0038558 -0.0307225 -0.00263197 0.00330911 -0.0130342 0.0151249 0.00502554 0.00153744 -0.00147467 -0.00544108 0.00475362 -0.00924202 -0.0126755 -0.0189276 0.0157453 0.0125771 -0.00042284 0.00954161 0.0223271 0.0172947 0.00932495 -0.0129091 0.0353414 -0.00692342 -0.0010968 -0.00712801
internal_weight=0 2155 2059 350 1709 96 1643 255 107 148 62 92 1573 961 612 156 63 122 339 308 132 456 176 154 122 85 95 928 442 317
internal_count=2494 2155 2059 350 1709 96 1643 255 107 148 62 92 1573 961 612 156 63 122 339 308 132 456 176 154 122 85 95 928 442 317
shrinkage=0.1


Tree=9
num_leaves=31
num_cat=0
split_feature=0 3 6 0 2 13 5 15 11 0 12 8 3 1 15 5 7 2 6 1 3 15 13 10 1 13 12 3 13 13
split_gain=7.91879 6.15768 4.64021 4.38161 6.55766 4.626 6.80371 6.49393 5.53527 6.41987 4.39023 4.35078 5.68022 4.23983 6.57765 5.38719 4.10672 3.98016 4.17359 3.84904 5.15668 3.92466 3.81544 6.22017 5.89235 5.4869 3.76179 3.72002 4.53277 3.58449
threshold=31.500000000000004 7.5000000000000009 3.5000000000000004 26.500000000000004 23.500000000000004 10.500000000000002 2.5000000000000004 4.5000000000000009 2.5000000000000004 15.500000000000002 1.5000000000000002 23.500000000000004 1.0000000180025095e-35 15.500000000000002 17.500000000000004 3.5000000000000004 18.500000000000004 29.500000000000004 4.5000000000000009 10.500000000000002 20.500000000000004 16.500000000000004 12.500000000000002 3.5000000000000004 1.5000000000000002 7.5000000000000009 2.5000000000000004 20.500000000000004 15.500000000000002 3.5000000000000004
decision_type=2 2 2 2 2 2 2 2 2 2 2 2 2 2 2 2 2 2 2 2 2 2 2 2 2 2 2 2 2 2
left_child=1 2 11 5 -5 6 7 -3 9 -7 -8 13 -13 14 15 16 29 19 -19 20 21 26 24 -24 25 -4 -2 28 -6 -1
right_child=17 3 22 4 27 8 10 -9 -10 -11 -12 12 -14 -15 -16 -17 -18 18 -20 -21 -22 -23 23 -25 -26 -27 -28 -29 -30 -31
leaf_value=0.017156753959236565 0.035587750410749797 0.0054589068385916704 0.027640527963638306 0.03051498781462185 -0.015663590814386095 -0.049711119830608372 0.049252839237451551 -0.030581281223946072 -0.039930048647547976 0.019125474847498394 2.0992631713549297e-05 0.014505812137023264 -0.046583707067701555 0.036111463233828543 -0.044019588477471297 0.022742627469860777 -0.047127404212951668 -0.0016487481235300456 0.043430678410963583 0.030037383992869156 -0.035288823892672856 -0.012345189059322532 -0.024006452061692066 0.035077499917575292 0.041251206894715627 -0.042631847560405736 0.0034068126231431963 -0.047432442957704719 0.038814709583918257 -0.0045191038336794258
leaf_weight=91 84 71 25 61 56 20 20 169 119 42 192 23 45 32 34 98 20 309 22 133 24 44 49 28 84 20 64 22 21 472
leaf_count=91 84 71 25 61 56 20 20 169 119 42 192 23 45 32 34 98 20 309 22 133 24 44 49 28 84 20 64 22 21 472
internal_value=0 -0.00344998 0.0016847 -0.010061 0.00472405 -0.0137981 -0.00838842 -0.0199194 -0.0273073 -0.00307988 0.00466551 -0.00170461 -0.0259211 0.000499836 -0.00109397 0.00104916 -0.00259743 0.00920334 0.00134747 0.016654 0.00841337 0.0138761 0.0150938 -0.00252138 0.0256084 -0.00359164 0.0216717 -0.0111673 -0.000805873 -0.00101555
internal_weight=0 1814 1021 793 160 633 452 240 181 62 212 815 68 747 715 681 583 680 331 349 216 192 206 77 129 45 148 99 77 563
internal_count=2494 1814 1021 793 160 633 452 240 181 62 212 815 68 747 715 681 583 680 331 349 216 192 206 77 129 45 148 99 77 563
shrinkage=0.1


Tree=10
num_leaves=31
num_cat=0
split_feature=0 5 2 2 1 15 1 9 14 0 2 10 11 8 14 7 14 14 14 15 8 7 1 3 8 0 3 1 2 7
split_gain=6.86138 6.01263 5.94572 4.96088 4.28397 4.12239 5.217 5.39208 11.9143 4.54084 3.97511 3.31721 4.2074 2.98855 3.18442 2.95298 2.91232 2.72534 3.18246 3.87878 3.78369 3.51035 4.84751 3.10522 2.6465 2.60652 3.95616 3.04802 4.11397 3.3229
threshold=37.500000000000007 1.5000000000000002 11.500000000000002 41.500000000000007 12.500000000000002 16.500000000000004 21.500000000000004 25.500000000000004 29.500000000000004 23.500000000000004 24.500000000000004 1.0000000180025095e-35 1.5000000000000002 6.5000000000000009 34.500000000000007 18.500000000000004 13.500000000000002 36.500000000000007 6.5000000000000009 2.5000000000000004 24.500000000000004 17.500000000000004 3.5000000000000004 18.500000000000004 13.500000000000002 34.500000000000007 9.5000000000000018 15.500000000000002 21.500000000000004 20.500000000000004
decision_type=2 2 2 2 2 2 2 2 2 2 2 2 2 2 2 2 2 2 2 2 2 2 2 2 2 2 2 2 2 2
left_child=1 4 16 5 -1 6 7 8 11 -9 -10 -4 -13 15 -15 -7 -3 18 -2 -20 21 22 -21 -24 -19 27 -27 28 29 -14
right_child=17 2 3 -5 -6 13 -8 9 10 -11 -12 12 25 14 -16 -17 -18 24 19 20 -22 -23 23 -25 -26 26 -28 -29 -30 -31
leaf_value=-0.043271570539070388 0.025667913258075714 0.035686639140522669 0.029662265648712983 -0.027447086671988169 0.00013264039078274289 -0.0074932506451239958 0.038502723889218438 -0.0016720884442329408 -0.020634490030783197 0.03854821510612965 -0.074897976495601523 0.035708576633084209 0.0035412876575903183 -0.020528703086044757 0.014697373735493627 0.039768373370170598 0.0031808980873652866 0.057666477084159853 0.038530193383877094 -0.056530314242398294 0.030128529667854311 0.012068327307701111 0.0070018861366777999 -0.039756321609020234 0.013268438084372159 0.05243354791944678 -0.0062746495008468633 0.031441702865637265 -0.0094483581788293407 -0.035991262847726996
leaf_weight=59 84 63 37 75 37 39 36 50 27 64 27 31 634 223 29 20 49 25 26 27 29 50 49 20 29 22 24 26 561 22
leaf_count=59 84 63 37 75 37 39 36 50 27 64 27 31 634 223 29 20 49 25 26 27 29 50 49 20 29 22 24 26 561 22
internal_value=0 -0.00208034 -0.000939783 -0.00222863 -0.0265429 -0.00121827 0.000876325 -1.1905e-05 -0.00170208 0.0209077 -0.0477662 0.00013098 -0.000696791 -0.0117317 -0.0164749 0.00852764 0.0214654 0.0132246 0.00932169 0.00249043 -0.00286405 -0.00941737 -0.0206078 -0.00655122 0.0338231 -0.00157233 0.0218032 -0.00243739 -0.00316118 0.0022155
internal_weight=0 2155 2059 1947 96 1872 1561 1525 1411 114 54 1357 1320 311 252 59 112 339 285 201 175 146 96 69 54 1289 46 1243 1217 656
internal_count=2494 2155 2059 1947 96 1872 1561 1525 1411 114 54 1357 1320 311 252 59 112 339 285 201 175 146 96 69 54 1289 46 1243 1217 656
shrinkage=0.1


Tree=11
num_leaves=31
num_cat=0
split_feature=0 3 2 5 8 13 14 0 1 7 8 9 14 9 4 15 12 13 8 6 0 3 0 2 1 0 12 4 6 13
split_gain=5.5874 6.20492 6.09344 5.24698 4.81483 4.69056 5.3481 4.37881 4.09109 4.42853 3.85269 3.78387 3.90383 3.52277 4.61547 4.28315 5.94654 4.76817 4.12785 3.0117 4.2426 2.84359 3.11326 2.72426 2.68606 4.35392 2.67538 2.93905 3.85828 2.64429
threshold=20.500000000000004 10.500000000000002 20.500000000000004 1.5000000000000002 30.500000000000004 5.5000000000000009 6.5000000000000009 47.500000000000007 6.5000000000000009 9.5000000000000018 3.5000000000000004 29.500000000000004 22.500000000000004 24.500000000000004 1.0000000180025095e-35 8.5000000000000018 2.5000000000000004 7.5000000000000009 31.500000000000004 3.5000000000000004 13.500000000000002 20.500000000000004 39.500000000000007 35.500000000000007 1.5000000000000002 13.500000000000002 2.5000000000000004 2.5000000000000004 2.5000000000000004 2.5000000000000004
decision_type=2 2 2 2 2 2 2 2 2 2 2 2 2 2 2 2 2 2 2 2 2 2 2 2 2 2 2 2 2 2
left_child=1 10 4 -4 21 6 -3 13 9 -8 -1 12 19 14 -5 -15 -17 -18 29 -12 -21 22 26 -20 25 -7 27 -2 -29 -16
right_child=2 5 3 7 -6 24 8 -9 -10 -11 11 -13 -14 15 18 16 17 -19 23 20 -22 -23 -24 -25 -26 -27 -28 28 -30 -31
leaf_value=-0.041639907204586532 0.0091936082621805037 0.040279759873043414 -0.041786014835039777 -0.043738483609976592 0.045294063999539336 0.016344479084014894 -0.068588068783283232 0.038946067464762722 0.018736398479212886 -0.0074215331981922015 -0.0025970999330913861 0.037386277318000795 -0.033062156148858976 0.03289771006657527 -0.013184572096730844 -0.039168427884578708 0.051514650632937753 -0.0032689492119119521 -0.0062340456061065197 -0.010109891162978279 0.033593448482710744 -0.022889655590057373 0.039526461588369838 -0.048179495632648471 -0.042912693409358757 -0.039745282261602344 -0.00021122481893090644 0.05989398773639433 0.0095879551768302922 0.0028837698403757568
leaf_weight=23 153 22 30 27 42 25 20 29 23 29 519 26 37 65 122 28 24 47 32 36 58 25 37 30 85 31 170 31 30 638
leaf_count=23 153 22 30 27 42 25 20 29 23 29 519 26 37 65 122 28 24 47 32 36 58 25 37 30 85 31 170 31 30 638
internal_value=0 -0.0061171 0.00366242 -0.00055437 0.0129255 -0.0201743 -0.00287121 0.000632722 -0.0160562 -0.0323875 -0.00139114 -2.17271e-05 -0.00151805 -0.000464106 -0.00305593 0.0129533 -0.000141464 0.0152495 -0.00171964 0.00038592 0.016856 0.00987736 0.0118231 -0.0265302 -0.0317097 -0.0147052 0.00915382 0.0165933 0.0351533 0.000304378
internal_weight=0 934 1560 1072 488 235 94 1042 72 49 699 676 650 1013 849 164 99 71 822 613 94 446 421 62 141 56 384 214 61 760
internal_count=2494 934 1560 1072 488 235 94 1042 72 49 699 676 650 1013 849 164 99 71 822 613 94 446 421 62 141 56 384 214 61 760
shrinkage=0.1


Tree=12
num_leaves=31
num_cat=0
split_feature=5 0 2 15 3 14 0 7 11 9 13 3 15 4 0 3 6 14 10 0 15 8 15 14 14 1 13 2 13 14
split_gain=5.14586 4.32368 6.25809 5.16394 4.263 5.40877 4.21706 4.19834 4.85561 4.11546 3.82573 5.86741 4.49836 4.01391 3.71907 3.58947 3.46775 3.32094 3.74005 3.57904 3.17974 2.83672 3.18377 4.82212 4.37272 3.05231 4.91007 2.86075 3.5936 3.43411
threshold=2.5000000000000004 32.500000000000007 23.500000000000004 16.500000000000004 8.5000000000000018 34.500000000000007 27.500000000000004 4.5000000000000009 3.5000000000000004 41.500000000000007 12.500000000000002 21.500000000000004 4.5000000000000009 2.5000000000000004 10.500000000000002 14.500000000000002 4.5000000000000009 13.500000000000002 1.5000000000000002 20.500000000000004 23.500000000000004 11.500000000000002 11.500000000000002 4.5000000000000009 12.500000000000002 5.5000000000000009 7.5000000000000009 30.500000000000004 12.500000000000002 7.5000000000000009
decision_type=2 2 2 2 2 2 2 2 2 2 2 2 2 2 2 2 2 2 2 2 2 2 2 2 2 2 2 2 2 2
left_child=4 2 3 17 5 14 20 8 -4 10 12 15 13 -6 -1 -12 -3 18 -2 -19 -5 27 23 -23 25 26 -25 29 -29 -16
right_child=1 16 7 6 9 -7 -8 -9 -10 -11 11 -13 -14 -15 21 -17 -18 19 -20 -21 -22 22 -24 24 -26 -27 -28 28 -30 -31
leaf_value=-0.036809059258165036 0.047137773842424957 0.0098395648387358658 -0.013498577830337345 -0.064812311083078389 -0.011526801409544769 0.050993270277976989 0.019310522647131057 -0.0046245948229422119 -0.073364310860633858 -0.054124451720196268 0.0036145239216940749 -0.029746226092864727 -0.023284610866435938 0.035695532736954867 0.007182622958073575 0.05214280188083649 0.044529829871269966 -0.021740406358017113 0.013258254549878857 0.01193662981192271 -0.012204795634305037 0.061702261594208808 -0.01156325294919636 0.012684360146522522 0.041416823191027491 0.022095421914543428 -0.054917265971501678 -0.045800867150811587 0.0053789375916771269 -0.010714048264073392
leaf_weight=29 37 409 42 20 54 20 21 358 20 23 35 29 224 27 226 27 31 53 273 78 27 22 46 22 31 28 21 34 23 204
leaf_count=29 37 409 42 20 54 20 21 358 20 23 35 29 224 27 226 27 31 53 273 78 27 22 46 22 31 28 21 34 23 204
internal_value=0 0.0041177 0.000250087 0.00770562 -0.00501079 -0.000268523 -0.0179449 -0.00878531 -0.0328101 -0.0130013 -0.0106129 0.00738158 -0.0159817 0.00421398 -0.00176304 0.0247478 0.0122837 0.0116608 0.0173019 -0.00168843 -0.034591 -0.000216104 0.0109055 0.0192406 0.0100822 -0.00359908 -0.0203304 -0.00409837 -0.0251494 -0.00130789
internal_weight=0 1369 929 509 1125 706 68 420 62 419 396 91 305 81 686 62 440 441 310 131 47 657 170 124 102 71 43 487 57 430
internal_count=2494 1369 929 509 1125 706 68 420 62 419 396 91 305 81 686 62 440 441 310 131 47 657 170 124 102 71 43 487 57 430
shrinkage=0.1


Tree=13
num_leaves=31
num_cat=0
split_feature=11 10 0 2 4 13 0 13 15 2 13 6 9 2 9 14 9 15 6 7 9 13 8 0 7 14 14 7 4 3
split_gain=4.36477 4.67864 4.09365 4.50102 4.29059 4.187 3.77329 4.21606 4.91559 5.77732 4.33498 3.74917 4.35658 3.72244 3.63007 5.25276 4.82868 3.09379 2.97373 2.93709 2.65246 3.70806 3.69591 3.40173 3.33366 5.05556 3.47204 2.92747 3.52046 4.72933
threshold=1.5000000000000002 1.0000000180025095e-35 45.500000000000007 20.500000000000004 1.0000000180025095e-35 60.500000000000007 24.500000000000004 39.500000000000007 16.500000000000004 42.500000000000007 15.500000000000002 1.5000000000000002 9.5000000000000018 33.500000000000007 12.500000000000002 9.5000000000000018 16.500000000000004 7.5000000000000009 2.5000000000000004 8.5000000000000018 8.5000000000000018 17.500000000000004 27.500000000000004 19.500000000000004 15.500000000000002 10.500000000000002 14.500000000000002 30.500000000000004 3.5000000000000004 8.5000000000000018
decision_type=2 2 2 2 2 2 2 2 2 2 2 2 2 2 2 2 2 2 2 2 2 2 2 2 2 2 2 2 2 2
left_child=18 -2 3 20 -5 6 -6 8 9 11 -10 17 -13 -12 -14 16 -16 -8 19 -1 24 22 27 -24 25 -3 -27 28 -22 -30
right_child=1 2 -4 4 5 -7 7 -9 10 -11 13 12 14 -15 15 -17 -18 -19 -20 -21 21 -23 23 -25 -26 26 -28 -29 29 -31
leaf_value=-0.027116054438409355 0.02034912509749634 0.040932543415289659 0.023485844534250996 -0.032666436696456656 -0.010373244588928564 -0.049346587913376948 -0.038008260826269791 0.04104136157035828 -0.023975177009900414 -0.035442714709224124 0.037828644752502444 -0.0079609118402004242 0.034514092576914818 -0.014034277392971901 -0.041101128260294599 0.024146483785339765 0.0089364503268842353 0.012767267823219301 0.034647020596568871 0.019483666592522673 -0.0056244401343755416 0.017643690220663481 -0.0022894233465194703 0.053320689634843314 -0.018609612941741942 -0.020540586990468644 0.026134223937988282 -0.038009888172149661 0.049827216033424652 -0.0082941173442772458
leaf_weight=21 99 65 62 59 560 21 30 25 135 33 25 88 87 31 30 112 54 20 59 38 519 107 22 22 25 34 30 25 28 28
leaf_count=21 99 65 62 59 560 21 30 25 135 33 25 88 87 31 30 112 54 20 59 38 519 107 22 22 25 34 30 25 28 28
internal_value=0 -0.000932288 -0.00185757 -0.00256695 -0.00631373 -0.00507087 -0.00431495 0.000748706 -0.000813025 0.00484933 -0.0142722 0.00800761 0.011472 0.00911881 0.0175147 0.00996908 -0.00893411 -0.017698 0.0187722 0.00289733 0.00285655 0.000405004 -0.00245919 0.0255156 0.0148118 0.0212889 0.00133823 -0.00451067 -0.00305419 0.0207665
internal_weight=0 2376 2277 2215 1310 1251 1230 670 645 454 191 421 371 56 283 196 84 50 118 59 905 751 644 44 154 129 64 600 575 56
internal_count=2494 2376 2277 2215 1310 1251 1230 670 645 454 191 421 371 56 283 196 84 50 118 59 905 751 644 44 154 129 64 600 575 56
shrinkage=0.1


Tree=14
num_leaves=31
num_cat=0
split_feature=5 3 1 15 9 7 9 2 11 0 14 4 12 13 0 3 12 0 0 7 15 15 12 0 3 9 14 15 14 14
split_gain=4.1825 3.60074 4.47255 4.25097 3.60651 4.26629 3.38732 3.9268 4.01532 4.19575 3.57627 3.35511 3.23574 4.12255 3.69119 3.42818 6.02331 5.55086 4.21924 3.1531 3.14337 3.11742 3.22435 3.01346 2.99348 2.93461 2.78772 2.74741 2.73684 2.73406
threshold=2.5000000000000004 1.5000000000000002 15.500000000000002 1.0000000180025095e-35 10.500000000000002 7.5000000000000009 38.500000000000007 23.500000000000004 1.5000000000000002 32.500000000000007 5.5000000000000009 2.5000000000000004 2.5000000000000004 1.5000000000000002 19.500000000000004 4.5000000000000009 3.5000000000000004 20.500000000000004 20.500000000000004 4.5000000000000009 24.500000000000004 24.500000000000004 3.5000000000000004 22.500000000000004 12.500000000000002 64.500000000000014 13.500000000000002 9.5000000000000018 7.5000000000000009 7.5000000000000009
decision_type=2 2 2 2 2 2 2 2 2 2 2 2 2 2 2 2 2 2 2 2 2 2 2 2 2 2 2 2 2 2
left_child=1 2 4 -3 5 -1 7 12 -9 19 -11 -6 14 -14 26 16 18 -17 -15 23 -5 22 -21 -10 -24 -8 -2 28 -7 -22
right_child=6 3 -4 20 11 27 25 8 9 10 -12 -13 13 15 -16 17 -18 -19 -20 21 29 -23 24 -25 -26 -27 -28 -29 -30 -31
leaf_value=0.042463403003556388 0.0090676158307546589 0.017829164673411658 0.045264274544186064 -0.0071200814514191125 -0.028900096551427303 0.035567231416702275 0.03219251069757674 0.036145846962928774 -0.010232032228399206 0.02583796301531413 -0.0016554442989198785 0.013893513062170574 0.035791383221231661 0.02388966757318248 0.0219433274812403 -0.039443422624698056 0.046609163377434017 -0.00012428845311033315 -0.033038914302984876 -0.0091078812281290694 -0.0025531352630683356 -0.034166099474980283 0.038200224695667147 -0.057478101165206345 -0.011422146707773209 -0.0050336944560209909 -0.02694840832003232 -0.030576515481585548 -0.012793455882505937 -0.041183548884571729
leaf_weight=35 83 63 27 770 53 25 72 25 27 63 190 28 29 23 226 52 32 116 30 225 28 39 31 27 20 30 29 21 22 53
leaf_count=35 83 63 27 770 53 25 72 25 27 63 190 28 29 23 226 52 32 116 30 225 28 39 31 27 20 30 29 21 22 53
internal_value=0 -0.00451747 0.00725728 -0.00723571 0.00168016 0.0140955 0.00371231 0.00230095 -0.00314877 -0.00472814 0.00519074 -0.0141072 0.00798801 7.89462e-05 0.0145867 -0.00401457 0.0123504 -0.0122945 -0.00833406 -0.0115289 -0.00909128 -0.00770155 -0.00396199 -0.0338551 0.0187405 0.0212436 -0.000257962 -0.000505619 0.0129303 -0.0278298
internal_weight=0 1125 211 914 184 103 1369 1267 647 622 253 81 620 282 338 253 85 168 53 369 851 315 276 54 51 102 112 68 47 81
internal_count=2494 1125 211 914 184 103 1369 1267 647 622 253 81 620 282 338 253 85 168 53 369 851 315 276 54 51 102 112 68 47 81
shrinkage=0.1


Tree=15
num_leaves=31
num_cat=0
split_feature=5 11 10 1 3 2 4 9 8 4 10 5 1 8 7 8 15 3 7 3 8 15 3 8 9 8 0 2 10 7
split_gain=3.47861 4.81879 4.09343 3.70394 3.47512 3.46643 4.14324 3.20207 6.98278 3.90529 3.89265 4.04418 4.82839 4.23198 4.05481 6.01785 3.26602 3.66411 3.67055 3.1185 3.06631 4.52307 2.87479 3.72488 2.92323 2.81304 3.15487 2.79831 3.67149 2.78755
threshold=1.5000000000000002 1.5000000000000002 1.0000000180025095e-35 12.500000000000002 15.500000000000002 8.5000000000000018 1.0000000180025095e-35 16.500000000000004 20.500000000000004 2.5000000000000004 4.5000000000000009 3.5000000000000004 15.500000000000002 11.500000000000002 17.500000000000004 12.500000000000002 24.500000000000004 17.500000000000004 15.500000000000002 7.5000000000000009 12.500000000000002 5.5000000000000009 16.500000000000004 26.500000000000004 28.500000000000004 6.5000000000000009 38.500000000000007 30.500000000000004 2.5000000000000004 9.5000000000000018
decision_type=2 2 2 2 2 2 2 2 2 2 2 2 2 2 2 2 2 2 2 2 2 2 2 2 2 2 2 2 2 2
left_child=3 4 -3 -1 -2 -4 -7 8 10 22 11 12 14 19 16 -16 17 18 27 -14 21 -13 23 24 -9 -11 -27 -8 -29 -22
right_child=1 2 5 -5 -6 6 7 9 -10 25 -12 20 13 -15 15 -17 -18 -19 -20 -21 29 -23 -24 -25 -26 26 -28 28 -30 -31
leaf_value=-0.033391837006615056 0.034660625954469046 0.020632861652872064 0.024014382561047876 0.0056388392299413686 -0.0071096483085836687 -0.023014911700939313 -0.0008689744760787565 -0.0094679812183145612 -0.020273851680344551 0.031614762199097785 -0.028058784348624095 -0.00037996625458752671 0.02964339071796054 0.048755697818363419 -0.0098932580036275534 -0.072294426262378697 -0.035902513949959365 0.036389710582219639 0.03393238974469049 -0.023656410238017206 -0.027299794040877248 0.03680272601455091 -0.023724516757108547 0.042187355245862694 0.026359630801848007 0.0019406100475426878 0.031811761723624342 -0.032280136713614835 0.011033721427832332 0.014360053423378203
leaf_weight=62 69 91 54 40 28 87 765 122 203 69 49 54 21 34 68 20 27 26 28 23 29 83 54 21 28 165 45 65 28 36
leaf_count=62 69 91 54 40 28 87 765 122 203 69 49 54 21 34 68 20 27 26 28 23 29 83 54 21 28 165 45 65 28 36
internal_value=0 0.000771212 -0.000151535 -0.0180857 0.0226032 -0.00100969 -0.0016382 -0.000736715 -0.00297677 0.00619233 -0.000387305 0.000650111 -0.00172822 0.0222578 -0.00354994 -0.0240753 -0.00162637 -0.000611613 -0.00169743 0.00178213 0.0136603 0.0221468 -0.00360984 0.00274217 -0.00278016 0.0140973 0.00834157 -0.00286018 -0.0192394 -0.00422665
internal_weight=0 2392 2295 102 97 2204 2150 2063 1559 504 1356 1307 1105 78 1027 88 939 912 886 44 202 137 225 171 150 279 210 858 93 65
internal_count=2494 2392 2295 102 97 2204 2150 2063 1559 504 1356 1307 1105 78 1027 88 939 912 886 44 202 137 225 171 150 279 210 858 93 65
shrinkage=0.1


Tree=16
num_leaves=31
num_cat=0
split_feature=0 5 3 14 11 2 15 2 13 0 3 13 14 9 6 15 15 4 8 9 8 0 3 0 14 14 4 9 12 15
split_gain=3.1648 2.85774 3.16798 3.63451 4.46769 3.94799 3.73552 3.33706 3.61263 2.90121 2.70125 3.72503 3.93235 7.03022 2.69184 3.73467 3.84991 4.13826 3.36669 3.09469 2.7144 4.26605 4.46753 2.87443 2.53801 2.48713 2.42977 2.65497 2.24606 2.20947
threshold=47.500000000000007 2.5000000000000004 27.500000000000004 38.500000000000007 4.5000000000000009 10.500000000000002 1.0000000180025095e-35 41.500000000000007 28.500000000000004 25.500000000000004 1.5000000000000002 4.5000000000000009 4.5000000000000009 9.5000000000000018 3.5000000000000004 9.5000000000000018 22.500000000000004 2.5000000000000004 17.500000000000004 10.500000000000002 21.500000000000004 29.500000000000004 18.500000000000004 9.5000000000000018 21.500000000000004 21.500000000000004 3.5000000000000004 18.500000000000004 1.0000000180025095e-35 8.5000000000000018
decision_type=2 2 2 2 2 2 2 2 2 2 2 2 2 2 2 2 2 2 2 2 2 2 2 2 2 2 2 2 2 2
left_child=1 2 3 4 5 -1 -7 8 10 -6 11 -8 -13 -14 20 19 18 -18 -17 -16 23 -22 25 -3 28 -23 27 -21 -12 -15
right_child=-2 14 -4 -5 9 6 7 -9 -10 -11 24 12 13 29 15 16 17 -19 -20 26 21 22 -24 -25 -26 -27 -28 -29 -30 -31
leaf_value=0.029037984964009878 0.031752364770058661 0.038699377937750384 -0.039333159327507021 0.028373862036636902 -0.062448029149146315 0.01951417697052802 0.039431328022921527 -0.044325353340669116 0.023376949720604476 -0.01103868938010672 0.021845353603363038 0.026914189713341852 0.015988494455814361 -0.060906059791644422 -0.0055921618143717454 0.0052190026044845583 -0.0083737264254263467 0.043894498005057826 -0.032942378313042399 0.048877353028014853 -0.020706974819854455 0.039930522773000937 -0.02177848994731903 0.0020569059801236471 -0.034821218252182005 -0.00065839244769169735 0.058776028826832777 0.011117343852917355 -0.0087108557087660216 -0.017032204432920976
leaf_weight=37 31 22 25 35 21 62 27 22 43 23 25 35 44 24 30 50 28 33 43 27 135 36 35 796 36 26 24 60 637 22
leaf_count=37 31 22 25 35 21 62 27 22 43 23 25 35 44 24 30 50 28 33 43 27 135 36 35 796 36 26 24 60 637 22
internal_value=0 -0.000399644 -0.00413575 -0.00333069 -0.00437951 -0.00302587 -0.00424016 -0.00584974 -0.00490185 -0.035575 -0.00633243 0.00574791 -0.00152771 -0.0125884 0.00270591 0.011146 0.000379753 0.0199025 -0.0124255 0.0229049 0.000334643 -0.00921254 0.00678488 0.0030424 -0.0089631 0.0229094 0.0306068 0.022836 -0.00755692 -0.0399229
internal_weight=0 2463 1118 1093 1058 1014 977 915 893 44 850 152 125 90 1345 295 154 61 93 141 1050 232 97 818 698 62 111 87 662 46
internal_count=2494 2463 1118 1093 1058 1014 977 915 893 44 850 152 125 90 1345 295 154 61 93 141 1050 232 97 818 698 62 111 87 662 46
shrinkage=0.1


Tree=17
num_leaves=31
num_cat=0
split_feature=0 13 14 11 10 13 7 2 0 15 13 2 1 0 8 8 12 7 2 14 9 13 3 9 13 5 2 0 15 13
split_gain=2.84616 3.62813 3.74086 3.28963 2.87305 2.61405 3.79308 2.86056 3.34532 3.68123 3.65921 3.85902 3.25335 2.60428 2.5978 2.53578 2.5308 5.78015 2.35396 2.18073 4.94668 4.76631 4.35261 3.87788 4.87874 10.6639 3.462 3.36372 2.17556 3.18498
threshold=20.500000000000004 10.500000000000002 22.500000000000004 1.5000000000000002 1.0000000180025095e-35 1.0000000180025095e-35 5.5000000000000009 15.500000000000002 45.500000000000007 16.500000000000004 15.500000000000002 33.500000000000007 15.500000000000002 33.500000000000007 24.500000000000004 6.5000000000000009 3.5000000000000004 6.5000000000000009 10.500000000000002 5.5000000000000009 13.500000000000002 8.5000000000000018 11.500000000000002 8.5000000000000018 7.5000000000000009 2.5000000000000004 19.500000000000004 11.500000000000002 19.500000000000004 14.500000000000002
decision_type=2 2 2 2 2 2 2 2 2 2 2 2 2 2 2 2 2 2 2 2 2 2 2 2 2 2 2 2 2 2
left_child=1 18 28 -2 -5 6 -6 -7 9 16 12 -12 14 -13 -11 -8 -9 -18 -1 20 21 -20 23 26 27 -26 -21 -25 29 -3
right_child=3 2 -4 4 5 7 15 8 -10 10 11 13 -14 -15 -16 -17 17 -19 19 22 -22 -23 -24 24 25 -27 -28 -29 -30 -31
leaf_value=0.025331524189780741 0.023339450767595474 -0.01740268970338198 -0.039302653943498932 0.022155806376383855 0.016315604391552153 0.014249831551237952 -0.0097768543731598639 0.00010839843979248634 0.023577217051857398 -0.03643932053723286 0.023087306934244493 -0.041739606044509193 -8.6871033365076248e-05 0.005008794711186336 0.0023532362211318245 -0.057359328120946886 -0.021762186661362648 0.034279035906943062 -0.012961031750161597 -0.0085534687553133291 0.041485045126506262 0.028622446763209811 -0.024988991469144822 -0.035923615843057637 -0.052993471478974374 0.018499572136822871 0.035525554783490239 0.0073418222409857197 -0.035316738044774094 0.0075290806075133908
leaf_weight=34 73 104 48 65 21 158 21 780 57 97 51 22 55 26 21 24 26 63 94 28 35 39 90 20 54 34 49 177 27 101
leaf_count=34 73 104 48 65 21 158 21 780 57 97 51 22 55 26 21 24 26 63 94 28 35 39 90 20 54 34 49 177 27 101
internal_value=0 -0.00436587 -0.0138911 0.00261392 0.00159646 0.00065669 -0.0187774 0.0016026 -6.54002e-05 -0.0012465 -0.0113991 0.00393343 -0.0201733 -0.0164176 -0.0295356 -0.0351542 0.00193132 0.0179074 -0.000287766 -0.0016927 0.00803521 -0.00076738 -0.00530838 -0.000415405 -0.0057952 -0.0253712 0.0194968 0.00294939 -0.0086336 -0.00511923
internal_weight=0 934 280 1560 1487 1422 66 1356 1198 1141 272 99 173 48 118 45 869 89 654 620 168 133 452 362 285 88 77 197 232 205
internal_count=2494 934 280 1560 1487 1422 66 1356 1198 1141 272 99 173 48 118 45 869 89 654 620 168 133 452 362 285 88 77 197 232 205
shrinkage=0.1


Tree=18
num_leaves=31
num_cat=0
split_feature=5 11 1 8 10 4 9 8 14 14 10 5 1 8 7 8 3 15 0 4 2 6 8 7 15 10 8 15 13 10
split_gain=2.65743 3.08926 3.01627 2.80899 2.61436 2.68732 2.49863 5.82675 3.55792 3.25295 3.10675 3.02079 3.55623 3.87082 2.80024 5.15403 2.66025 2.82202 2.59942 3.60888 3.10071 2.57984 2.53396 3.8439 3.05038 2.48404 4.87619 2.55786 2.44392 2.41994
threshold=1.5000000000000002 1.5000000000000002 12.500000000000002 5.5000000000000009 1.0000000180025095e-35 1.0000000180025095e-35 16.500000000000004 20.500000000000004 47.500000000000007 26.500000000000004 4.5000000000000009 3.5000000000000004 15.500000000000002 11.500000000000002 17.500000000000004 12.500000000000002 15.500000000000002 20.500000000000004 29.500000000000004 2.5000000000000004 32.500000000000007 3.5000000000000004 12.500000000000002 8.5000000000000018 5.5000000000000009 3.5000000000000004 31.500000000000004 35.500000000000007 10.500000000000002 2.5000000000000004
decision_type=2 2 2 2 2 2 2 2 2 2 2 2 2 2 2 2 2 2 2 2 2 2 2 2 2 2 2 2 2 2
left_child=2 3 -1 -2 -3 -6 7 10 9 25 11 12 14 -14 16 -16 17 29 -9 -20 -21 -11 23 -13 -25 26 27 -8 -27 -7
right_child=1 4 -4 -5 5 6 8 18 -10 21 -12 22 13 -15 15 -17 -18 -19 19 20 -22 -23 -24 24 -26 28 -28 -29 -30 -31
leaf_value=-0.029619910159418662 0.050527764502025785 0.016545490724044844 0.0056017395853996278 0.0092092410122093411 -0.017673876633246741 -0.0039646051660600498 0.0014798005916682848 -0.025796196251003829 0.036747799771172665 -0.030815707113255153 -0.024094093322753907 0.051763967772324886 8.3674620027127472e-05 0.043863934692409304 -0.006452101804840734 -0.063923239260911952 0.022219723152617613 -0.029779457620212009 0.026696891365227876 0.0038311173341103962 -0.045722231528033383 0.0036268656683522606 -0.0038573481257145222 -0.010221510762121619 0.024217998765516974 -0.005044907772982562 0.041881063220829802 -0.035679821670055394 0.029920015455066385 0.0080772917849563919
leaf_weight=62 21 91 40 76 90 638 251 135 35 44 50 30 46 36 71 20 48 35 27 28 23 43 65 41 69 27 29 20 77 226
leaf_count=62 21 91 40 76 90 638 251 135 35 44 50 30 46 36 71 20 48 35 27 28 23 43 65 41 69 27 29 20 77 226
internal_value=0 0.000674066 -0.0158075 0.0181545 -6.47585e-05 -0.000750572 -3.00905e-05 -0.00200873 0.00594344 0.00374761 0.000375381 0.00129876 -0.000744016 0.0193043 -0.00232779 -0.0190831 -0.000717724 -0.00194242 -0.0173991 -0.00286569 -0.0185165 -0.0137924 0.0124593 0.0200349 0.0113815 0.00752478 0.00290795 -0.00126261 0.0208426 -0.000814757
internal_weight=0 2392 102 97 2295 2204 2114 1588 526 491 1375 1325 1120 82 1038 91 947 899 213 78 51 87 205 140 110 404 300 271 104 864
internal_count=2494 2392 102 97 2295 2204 2114 1588 526 491 1375 1325 1120 82 1038 91 947 899 213 78 51 87 205 140 110 404 300 271 104 864
shrinkage=0.1


Tree=19
num_leaves=31
num_cat=0
split_feature=12 2 4 14 9 2 5 2 8 1 6 12 12 13 0 7 8 2 1 0 1 10 0 2 2 3 6 14 13 13
split_gain=2.27492 2.39077 2.19997 4.2425 4.10624 3.15674 2.98769 5.2657 4.75571 3.05439 6.12099 5.05056 4.0211 4.73027 3.74889 3.39309 3.04674 3.0216 3.01193 3.90519 2.96466 3.95009 2.88959 6.1509 2.89383 2.88958 2.87207 2.86156 6.03718 2.84921
threshold=1.0000000180025095e-35 35.500000000000007 2.5000000000000004 3.5000000000000004 16.500000000000004 21.500000000000004 2.5000000000000004 16.500000000000004 12.500000000000002 3.5000000000000004 1.5000000000000002 3.5000000000000004 2.5000000000000004 14.500000000000002 24.500000000000004 4.5000000000000009 7.5000000000000009 28.500000000000004 1.0000000180025095e-35 16.500000000000004 2.5000000000000004 3.5000000000000004 25.500000000000004 28.500000000000004 28.500000000000004 10.500000000000002 2.5000000000000004 10.500000000000002 5.5000000000000009 1.5000000000000002
decision_type=2 2 2 2 2 2 2 2 2 2 2 2 2 2 2 2 2 2 2 2 2 2 2 2 2 2 2 2 2 2
left_child=1 -1 6 -4 5 29 25 8 -8 10 -9 18 13 16 -14 -16 -11 -17 19 -12 -6 -22 23 -21 -24 -2 -27 28 -7 -5
right_child=2 -3 3 4 20 27 7 9 -10 12 11 -13 14 -15 15 17 -18 -19 -20 22 21 -23 24 -25 -26 26 -28 -29 -30 -31
leaf_value=0.019473508767132622 -0.0042396620519248099 -0.017547807097435 0.019309677194504844 0.03029081058852813 0.026929718040322004 -0.052582170102331377 0.04025220374266307 0.036514319106936456 9.5423722061617621e-05 0.039915491789579399 -0.04658108250848178 0.015184208874901137 -0.025425319217923865 -0.017745472408003279 -0.028215665013893793 -0.004447894362179009 0.010024813025058071 0.035966184171470433 -0.039099492298232189 0.020105803150397082 -0.005055847376176756 0.025422068287928902 -0.054949689507484439 -0.041067382422360507 -0.0043539699453573957 -0.033981374104817712 -0.0076799199465782415 -0.0028285853997353587 -0.0073760400504566913 -0.00088237365226790385
leaf_weight=103 494 21 137 34 76 45 60 26 58 60 29 48 67 36 23 37 79 37 63 65 146 60 20 22 26 75 93 155 86 213
leaf_count=103 494 21 137 34 76 45 60 26 58 60 29 48 67 36 23 37 79 37 63 65 146 60 20 22 26 75 93 155 86 213
internal_value=0 0.0132038 -0.00069083 0.00302755 0.000290556 -0.00487247 -0.00318723 0.00110811 0.0205141 -0.00248109 -0.00984852 -0.014264 0.00401703 0.0145603 -0.00723341 0.00533213 0.0229273 0.0157591 -0.0205463 -0.0133312 0.010049 0.00382122 -0.00608122 0.00463672 -0.0263521 -0.00809249 -0.0194216 -0.0120244 -0.0229049 0.00340867
internal_weight=0 124 2370 952 815 533 1418 756 118 638 299 273 339 175 164 97 139 74 225 162 282 206 133 87 46 662 168 286 131 247
internal_count=2494 124 2370 952 815 533 1418 756 118 638 299 273 339 175 164 97 139 74 225 162 282 206 133 87 46 662 168 286 131 247
shrinkage=0.1


Tree=20
num_leaves=31
num_cat=0
split_feature=2 12 0 3 5 15 8 1 3 4 15 14 12 12 0 14 4 3 1 10 0 0 15 0 15 2 0 14 14 2
split_gain=2.21855 2.71926 2.01973 2.50128 2.55764 4.37936 3.20851 3.33311 2.90469 2.79823 2.62362 2.81749 2.63671 2.71461 2.6208 2.55526 3.64332 2.75148 2.59304 2.6858 2.56556 2.54899 2.50483 2.41233 2.31981 2.25822 2.14298 2.35813 2.05701 2.3502
threshold=41.500000000000007 1.0000000180025095e-35 30.500000000000004 7.5000000000000009 3.5000000000000004 16.500000000000004 35.500000000000007 7.5000000000000009 1.0000000180025095e-35 1.5000000000000002 11.500000000000002 6.5000000000000009 3.5000000000000004 2.5000000000000004 23.500000000000004 2.5000000000000004 2.5000000000000004 9.5000000000000018 1.5000000000000002 2.5000000000000004 18.500000000000004 17.500000000000004 3.5000000000000004 20.500000000000004 6.5000000000000009 21.500000000000004 22.500000000000004 20.500000000000004 4.5000000000000009 21.500000000000004
decision_type=2 2 2 2 2 2 2 2 2 2 2 2 2 2 2 2 2 2 2 2 2 2 2 2 2 2 2 2 2 2
left_child=1 -1 3 4 6 9 7 10 23 -6 12 -12 13 28 -10 16 24 -17 19 20 -19 -14 -20 -9 -5 -24 27 -27 29 -3
right_child=-2 2 -4 15 5 -7 -8 8 14 -11 11 -13 21 -15 -16 17 -18 18 22 -21 -22 -23 25 -25 -26 26 -28 -29 -30 -31
leaf_value=0.015624418687717669 -0.012822969595436008 0.042604575238444589 0.0048090905762784852 0.022268142754381354 -0.003629428313838111 -0.023872352032749743 -0.039479000653539389 0.0089344410942151006 0.013727925358147458 0.028927249499041626 -0.041281985905435352 -0.00082928890531713318 -0.011502182334661486 -0.018263004469399404 -0.016220005093650385 -0.02009916792695339 0.043973747543666675 0.039347117841243749 -0.040116400003433229 -0.0078382014570867308 0.0020529691225443132 0.031709881369457689 0.0023204096538179063 0.050882668330751613 -0.019171761189188279 -0.03698405653743421 -0.0037769577385466779 0.0027493916451931002 -0.0037037884538201082 0.0035008983284819366
leaf_weight=116 128 22 615 22 36 27 21 26 87 99 36 33 20 101 44 156 23 35 25 68 39 43 136 29 35 59 81 20 261 51
leaf_count=116 128 22 615 22 36 27 21 26 87 99 36 33 20 101 44 156 23 35 25 68 39 43 136 29 35 59 81 20 261 51
internal_value=0 0.000693719 -7.60412e-05 -0.00191357 0.00146648 0.0128925 -0.000925012 0.000150199 0.0117664 0.0202455 -0.00366039 -0.021935 -0.00112836 -0.00389748 0.00366908 -0.00643964 0.0103785 -0.00861323 -0.00474324 0.00650857 0.0196921 0.0179918 -0.00972068 0.0310526 -0.00317741 -0.00715348 -0.0152063 -0.026925 0.00044658 0.0152856
internal_weight=0 2366 2250 1635 936 162 774 753 186 135 567 69 498 435 131 699 80 619 463 142 74 63 321 55 57 296 160 79 334 73
internal_count=2494 2366 2250 1635 936 162 774 753 186 135 567 69 498 435 131 699 80 619 463 142 74 63 321 55 57 296 160 79 334 73
shrinkage=0.1


Tree=21
num_leaves=31
num_cat=0
split_feature=5 11 3 1 10 15 2 4 1 14 0 8 5 8 3 8 14 14 0 11 6 8 1 9 15 1 13 13 2 3
split_gain=2.10019 2.4458 2.48116 2.35721 2.20125 2.0653 1.9526 2.47995 1.80872 2.10768 1.55356 1.711 2.10884 3.0191 2.58297 5.05287 2.54709 3.18188 2.49949 3.55952 2.44951 2.37059 5.62633 2.09085 2.18464 2.59425 2.56576 2.49904 2.11173 1.89701
threshold=1.5000000000000002 1.5000000000000002 15.500000000000002 12.500000000000002 1.0000000180025095e-35 10.500000000000002 6.5000000000000009 1.0000000180025095e-35 8.5000000000000018 12.500000000000002 47.500000000000007 68.500000000000014 3.5000000000000004 19.500000000000004 5.5000000000000009 28.500000000000004 1.5000000000000002 26.500000000000004 25.500000000000004 3.5000000000000004 2.5000000000000004 15.500000000000002 13.500000000000002 24.500000000000004 26.500000000000004 18.500000000000004 14.500000000000002 14.500000000000002 38.500000000000007 5.5000000000000009
decision_type=2 2 2 2 2 2 2 2 2 2 2 2 2 2 2 2 2 2 2 2 2 2 2 2 2 2 2 2 2 2
left_child=3 2 -2 5 8 -1 -6 -8 9 -3 11 12 13 21 15 -15 -14 -18 -16 -20 -19 23 29 24 25 28 -26 -27 -9 -23
right_child=1 4 -4 -5 6 -7 7 10 -10 -11 -12 -13 16 14 18 -17 17 20 19 -21 -22 22 -24 -25 26 27 -28 -29 -30 -31
leaf_value=-0.013201133834152688 0.026341183548388276 -0.014126828158723898 -0.0089535506708281389 0.0048735290765762329 0.025551760090248926 -0.051765467723210661 -0.017567621788074233 -0.0020311238157460589 0.035797335772678768 0.022825544530695137 0.024442600667476656 -0.027181053782502813 -0.023476962532315935 0.026822604366711206 -0.036945784140805731 -0.033514560564704567 0.011619376937690643 -0.031521154217647784 0.016733992099761962 -0.033252757255520141 0.005497169532837012 -0.023429916257208045 0.057732291454854229 0.01183568759346908 -0.037659176539730388 0.044730354651160868 0.0054651074788787148 -0.0036024090647697447 -0.028099852055311205 0.011225986680282015
leaf_weight=41 69 29 28 40 28 21 87 1074 29 33 25 24 28 35 61 23 349 33 29 28 39 22 23 106 37 23 22 20 32 56
leaf_count=41 69 29 28 40 28 21 87 1074 29 33 25 24 28 35 61 23 349 33 29 28 39 22 23 106 37 23 22 20 32 56
internal_value=0 0.000599239 0.016153 -0.0140527 -5.81534e-05 -0.0262632 -0.000687455 -0.00102509 0.0151834 0.00554137 -0.000336149 -0.00063628 -0.000323988 -0.00203201 -0.0143837 0.0028958 0.00572828 0.00767067 -0.022877 -0.0078209 -0.0114696 -0.000495694 0.0142677 -0.00163048 -0.00281211 -0.00184845 -0.0215789 0.02225 -0.00278537 0.00145124
internal_weight=0 2392 97 102 2295 62 2204 2176 91 62 2089 2064 2040 1591 176 58 449 421 118 57 72 1415 101 1314 1208 1149 59 43 1106 78
internal_count=2494 2392 97 102 2295 62 2204 2176 91 62 2089 2064 2040 1591 176 58 449 421 118 57 72 1415 101 1314 1208 1149 59 43 1106 78
shrinkage=0.1


Tree=22
num_leaves=31
num_cat=0
split_feature=5 8 11 8 6 10 10 0 4 6 2 13 11 7 8 1 9 14 2 4 13 8 9 12 14 0 15 0 13 5
split_gain=1.70115 2.2932 1.9811 2.15396 2.18272 1.87123 1.78301 1.62121 1.79574 1.65657 2.20613 4.07353 3.72032 3.01594 2.67941 2.819 2.50627 2.39806 3.61411 3.87962 3.02039 7.08335 3.71347 3.13101 3.00922 5.62042 2.73918 3.39344 4.14162 3.37905
threshold=1.5000000000000002 6.5000000000000009 1.5000000000000002 5.5000000000000009 2.5000000000000004 2.5000000000000004 1.0000000180025095e-35 47.500000000000007 1.0000000180025095e-35 3.5000000000000004 31.500000000000004 8.5000000000000018 2.5000000000000004 5.5000000000000009 5.5000000000000009 23.500000000000004 26.500000000000004 4.5000000000000009 17.500000000000004 2.5000000000000004 10.500000000000002 4.5000000000000009 8.5000000000000018 2.5000000000000004 1.5000000000000002 21.500000000000004 24.500000000000004 34.500000000000007 3.5000000000000004 3.5000000000000004
decision_type=2 2 2 2 2 2 2 2 2 2 2 2 2 2 2 2 2 2 2 2 2 2 2 2 2 2 2 2 2 2
left_child=1 -1 3 -2 -5 -6 -4 8 -8 10 16 12 -12 -14 -13 -16 17 18 -10 24 26 23 -23 -22 -20 -26 27 28 -19 -30
right_child=2 -3 6 4 5 -7 7 -9 9 -11 11 14 13 -15 15 -17 -18 20 19 -21 21 22 -24 -25 25 -27 -28 -29 29 -31
leaf_value=-0.024444775638126193 0.042886229569003703 0.0064097115244620894 0.013665042522844379 -0.011637566217354366 0.043211120438008087 0.00047142446041107175 -0.015003103514512381 0.023290463191057958 0.039556778594851495 0.00544644207879901 -0.042129831476645035 0.027306838958494124 -0.04023108262082805 0.0018193801244099934 -0.0097547209184420738 0.025878026508367982 0.024489051394346286 0.011759982742730855 -0.024054584569401211 0.024261607276275757 -0.022457049041986466 -0.031218962719043099 0.00044951314133320134 -0.078412471711635595 -0.013716018151064388 0.034889693672840415 -0.023007654852193336 0.024925501445929213 -0.0091174558004808812 0.015429797904057938
leaf_weight=63 21 39 91 35 21 20 87 28 32 400 55 31 23 66 152 26 41 206 54 64 20 45 209 20 61 39 46 60 373 66
leaf_count=63 21 39 91 35 21 20 87 28 32 400 55 31 23 66 152 26 41 206 54 64 20 45 209 20 61 39 46 60 373 66
internal_value=0 -0.0126475 0.000539315 0.0145377 0.00670457 0.0223625 -5.23381e-05 -0.000618709 -0.000926364 -0.000340114 -0.00171052 -0.00874151 -0.0216832 -0.00904759 0.00017523 -0.00454994 0.000147215 -0.000623453 0.00817453 0.00356796 -0.00272823 -0.0113207 -0.00516104 -0.0504348 -0.00503199 0.00524021 0.000635539 0.00217822 6.21893e-05 -0.00542698
internal_weight=0 102 2392 97 76 41 2295 2204 2176 2089 1689 353 144 89 209 178 1336 1295 250 218 1045 294 254 40 154 100 751 705 645 439
internal_count=2494 102 2392 97 76 41 2295 2204 2176 2089 1689 353 144 89 209 178 1336 1295 250 218 1045 294 254 40 154 100 751 705 645 439
shrinkage=0.1


Tree=23
num_leaves=31
num_cat=0
split_feature=2 12 14 8 13 13 5 9 1 11 2 15 13 9 0 12 15 15 11 9 9 1 8 9 13 3 9 14 6 8
split_gain=1.63373 2.02136 1.98129 2.09706 1.61281 2.1148 1.36727 4.34904 3.85318 1.94693 2.70953 2.49539 2.44406 1.90748 2.90681 3.13732 2.21658 4.43577 2.24104 2.09989 3.53113 1.83506 1.79742 2.55314 1.78936 2.11276 2.25857 2.79514 4.43168 1.85339
threshold=41.500000000000007 1.0000000180025095e-35 5.5000000000000009 10.500000000000002 7.5000000000000009 11.500000000000002 2.5000000000000004 46.500000000000007 21.500000000000004 4.5000000000000009 10.500000000000002 1.0000000180025095e-35 8.5000000000000018 32.500000000000007 20.500000000000004 2.5000000000000004 16.500000000000004 15.500000000000002 1.5000000000000002 23.500000000000004 15.500000000000002 6.5000000000000009 18.500000000000004 11.500000000000002 28.500000000000004 1.5000000000000002 8.5000000000000018 4.5000000000000009 2.5000000000000004 8.5000000000000018
decision_type=2 2 2 2 2 2 2 2 2 2 2 2 2 2 2 2 2 2 2 2 2 2 2 2 2 2 2 2 2 2
left_child=1 4 -2 -4 -1 -6 7 8 9 10 -3 -12 -11 16 -15 -16 17 -8 -18 20 22 -22 23 -20 25 26 -13 -28 -29 -30
right_child=2 6 3 -5 5 -7 13 -9 -10 12 11 24 -14 14 15 -17 18 -19 19 -21 21 -23 -24 -25 -26 -27 27 28 29 -31
leaf_value=0.025464601056617603 0.0074497332423925401 0.025273169364248005 -0.039320975767843658 -0.0074343794855204499 -0.024559370353817941 0.015436337735408394 0.0020927184457151743 -0.043927890419960022 0.028322175508592187 0.0012672189623117447 0.017551677064462142 0.026090124478706945 -0.047033615952188322 -0.019305529743432998 -0.0037579345805891632 0.036643052375630335 0.024843438863754272 0.042566176397459854 0.0094778870250664515 -0.034728820870320004 0.039832019656896589 0.0012187032960355284 -0.027028837421583754 -0.025594701256070818 0.015945339093847974 -0.007849683014058851 0.024149000336383952 -0.042115374604860943 -0.011882465689078622 0.029207528063229155
leaf_weight=57 40 35 33 55 20 39 823 25 41 20 55 39 22 20 29 57 20 28 51 30 20 32 63 35 41 661 29 30 23 21
leaf_count=57 40 35 33 55 20 39 823 25 41 20 55 39 22 20 29 57 20 28 51 30 20 32 63 35 41 661 29 30 23 21
internal_value=0 0.000595306 -0.0110039 -0.0193919 0.0134682 0.00187847 -6.83636e-05 -0.00272258 -0.00170966 -0.00297125 -0.00202414 -0.00308688 -0.0240332 0.00222112 0.0150336 0.0230195 0.000988697 0.0034244 -0.00726939 -0.0100497 -0.00636627 0.01607 -0.0141964 -0.00479584 -0.00443181 -0.00547223 0.00559462 -0.00216581 -0.0124784 0.00772867
internal_weight=0 2366 128 88 116 59 2250 1042 1017 976 934 899 42 1208 106 86 1102 851 251 231 201 52 149 86 844 803 142 103 74 44
internal_count=2494 2366 128 88 116 59 2250 1042 1017 976 934 899 42 1208 106 86 1102 851 251 231 201 52 149 86 844 803 142 103 74 44
shrinkage=0.1


end of trees

feature_importances:
Column_0=85
Column_2=73
Column_14=63
Column_15=63
Column_9=58
Column_8=56
Column_3=52
Column_13=51
Column_1=41
Column_7=33
Column_12=30
Column_11=27
Column_4=25
Column_5=24
Column_6=22
Column_10=17

parameters:
[boosting: gbdt]
[objective: regression]
[metric: l2]
[tree_learner: serial]
[device_type: cpu]
[data: ]
[valid: ]
[num_iterations: 10000]
[learning_rate: 0.1]
[num_leaves: 31]
[num_threads: 0]
[deterministic: 0]
[force_col_wise: 0]
[force_row_wise: 0]
[histogram_pool_size: -1]
[max_depth: -1]
[min_data_in_leaf: 20]
[min_sum_hessian_in_leaf: 0.001]
[bagging_fraction: 1]
[pos_bagging_fraction: 1]
[neg_bagging_fraction: 1]
[bagging_freq: 0]
[bagging_seed: 3]
[feature_fraction: 1]
[feature_fraction_bynode: 1]
[feature_fraction_seed: 2]
[extra_trees: 0]
[extra_seed: 6]
[early_stopping_round: 10]
[first_metric_only: 0]
[max_delta_step: 0]
[lambda_l1: 0]
[lambda_l2: 0]
[min_gain_to_split: 0]
[drop_rate: 0.1]
[max_drop: 50]
[skip_drop: 0.5]
[xgboost_dart_mode: 0]
[uniform_drop: 0]
[drop_seed: 4]
[top_rate: 0.2]
[other_rate: 0.1]
[min_data_per_group: 100]
[max_cat_threshold: 32]
[cat_l2: 10]
[cat_smooth: 10]
[max_cat_to_onehot: 4]
[top_k: 20]
[monotone_constraints: ]
[monotone_constraints_method: basic]
[monotone_penalty: 0]
[feature_contri: ]
[forcedsplits_filename: ]
[refit_decay_rate: 0.9]
[cegb_tradeoff: 1]
[cegb_penalty_split: 0]
[cegb_penalty_feature_lazy: ]
[cegb_penalty_feature_coupled: ]
[path_smooth: 0]
[interaction_constraints: ]
[verbosity: 1]
[saved_feature_importance_type: 0]
[max_bin: 255]
[max_bin_by_feature: ]
[min_data_in_bin: 3]
[bin_construct_sample_cnt: 200000]
[data_random_seed: 1]
[is_enable_sparse: 1]
[enable_bundle: 1]
[use_missing: 1]
[zero_as_missing: 0]
[feature_pre_filter: 1]
[pre_partition: 0]
[two_round: 0]
[header: 0]
[label_column: ]
[weight_column: ]
[group_column: ]
[ignore_column: ]
[categorical_feature: ]
[forcedbins_filename: ]
[objective_seed: 5]
[num_class: 1]
[is_unbalance: 0]
[scale_pos_weight: 1]
[sigmoid: 1]
[boost_from_average: 1]
[reg_sqrt: 0]
[alpha: 0.9]
[fair_c: 1]
[poisson_max_delta_step: 0.7]
[tweedie_variance_power: 1.5]
[lambdarank_truncation_level: 30]
[lambdarank_norm: 1]
[label_gain: ]
[eval_at: ]
[multi_error_top_k: 1]
[auc_mu_weights: ]
[num_machines: 1]
[local_listen_port: 12400]
[time_out: 120]
[machine_list_filename: ]
[machines: ]
[gpu_platform_id: -1]
[gpu_device_id: -1]
[gpu_use_dp: 0]
[num_gpu: 1]

end of parameters

pandas_categorical:null
