tree
version=v3
num_class=1
num_tree_per_iteration=1
label_index=0
max_feature_idx=15
objective=regression
feature_names=Column_0 Column_1 Column_2 Column_3 Column_4 Column_5 Column_6 Column_7 Column_8 Column_9 Column_10 Column_11 Column_12 Column_13 Column_14 Column_15
feature_infos=[1:49] [0:70] [1:49] [0:72] [0:7] [0:7] [0:8] [0:214] [21:148] [0:183] [0:7] [0:7] [0:7] [0:195] [0:116] [0:163]
tree_sizes=2630 2742 2737 2742 2743 2742 2747 2743 2740 2747 2757 2747 2735 2739 2756 2751 2758 2737 2738 2721 2754 2759 2735 2764 2761 2780 2742 2731 2761 2736 2762 2755

Tree=0
num_leaves=31
num_cat=0
split_feature=0 2 0 4 14 10 1 8 14 2 1 8 2 0 8 7 11 12 15 2 8 9 10 12 2 2 11 0 4 9
split_gain=213.753 26.4693 14.9384 13.6837 8.72845 8.05907 7.71038 10.5575 7.03125 5.81613 6.96131 5.7664 5.27674 6.95291 5.73753 5.18506 5.12022 4.78069 4.60956 4.23542 4.26131 4.21406 4.00158 3.5669 3.86685 3.36974 3.2902 3.35189 4.62733 4.19137
threshold=29.500000000000004 34.500000000000007 17.500000000000004 1.5000000000000002 2.5000000000000004 1.5000000000000002 13.500000000000002 21.500000000000004 15.500000000000002 23.500000000000004 24.500000000000004 22.500000000000004 15.500000000000002 20.500000000000004 22.500000000000004 12.500000000000002 2.5000000000000004 2.5000000000000004 8.5000000000000018 43.500000000000007 28.500000000000004 9.5000000000000018 4.5000000000000009 3.5000000000000004 32.500000000000007 25.500000000000004 4.5000000000000009 25.500000000000004 3.5000000000000004 20.500000000000004
decision_type=2 2 2 2 2 2 2 2 2 2 2 2 2 2 2 2 2 2 2 2 2 2 2 2 2 2 2 2 2 2
left_child=1 3 15 5 -4 21 7 16 19 -8 11 -11 -7 18 -15 -3 -5 -17 -14 20 -6 -1 23 24 26 -18 27 28 29 -9
right_child=-2 2 4 6 8 12 9 22 -10 10 -12 -13 13 14 -16 17 25 -19 -20 -21 -22 -23 -24 -25 -26 -27 -28 -29 -30 -31
leaf_value=0.38777724474843434 0.46189489107096521 0.31069489257300226 0.42814489140624135 0.39760917742387214 0.35601253918163545 0.39727950709747678 0.44237681897570325 0.40018060596975585 0.39689489171668219 0.41811110772213422 0.44903774834154658 0.36189489206437597 0.36035643054119765 0.4258948914285931 0.35522822546393668 0.31789489250147668 0.37598580101530443 0.38060456929786685 0.31108408175832519 0.32818060668501159 0.40429489164316978 0.44475203409840708 0.36829489200079768 0.42626989142486782 0.36371307386449575 0.33371307420767404 0.44112566050805824 0.43376989135036198 0.36980186873001325 0.44624271731341214
leaf_weight=34 610 50 32 56 68 39 83 140 72 37 28 36 39 20 27 20 44 31 37 35 25 21 25 96 22 33 26 32 43 23
leaf_count=34 610 50 32 56 68 39 83 140 72 37 28 36 39 20 27 20 44 31 37 35 25 21 25 96 22 33 26 32 43 23
internal_value=0.413217 0.389909 0.365679 0.398484 0.379654 0.376457 0.405085 0.399062 0.371895 0.422764 0.406647 0.390388 0.365228 0.355066 0.385299 0.333578 0.374602 0.356013 0.336369 0.357832 0.368992 0.409531 0.407055 0.409591 0.403993 0.357869 0.407349 0.40366 0.398982 0.40668
internal_weight=0 1274 333 941 232 217 724 540 200 184 101 73 162 123 47 101 133 51 76 128 93 55 407 382 286 77 264 238 206 163
internal_count=1884 1274 333 941 232 217 724 540 200 184 101 73 162 123 47 101 133 51 76 128 93 55 407 382 286 77 264 238 206 163
shrinkage=1


Tree=1
num_leaves=31
num_cat=0
split_feature=0 2 0 4 2 10 1 8 14 14 2 1 2 0 8 7 11 11 15 13 10 9 14 0 10 0 14 8 3 10
split_gain=173.14 21.4402 12.1001 11.0838 7.5797 6.52784 6.24541 8.55156 5.69294 6.4503 4.71107 5.73098 4.27416 5.63186 4.6474 4.1999 4.14738 3.90805 3.73374 3.72156 4.0005 3.41339 3.41028 3.32766 4.0749 3.39806 3.99872 3.79289 3.9446 3.35276
threshold=29.500000000000004 34.500000000000007 17.500000000000004 1.5000000000000002 46.500000000000007 1.5000000000000002 13.500000000000002 21.500000000000004 2.5000000000000004 15.500000000000002 23.500000000000004 23.500000000000004 15.500000000000002 20.500000000000004 22.500000000000004 12.500000000000002 2.5000000000000004 3.5000000000000004 8.5000000000000018 8.5000000000000018 3.5000000000000004 9.5000000000000018 35.500000000000007 7.5000000000000009 4.5000000000000009 17.500000000000004 17.500000000000004 25.500000000000004 6.5000000000000009 2.5000000000000004
decision_type=2 2 2 2 2 2 2 2 2 2 2 2 2 2 2 2 2 2 2 2 2 2 2 2 2 2 2 2 2 2
left_child=1 3 15 5 8 21 7 16 -4 19 -8 -12 -7 18 -15 -3 -5 -17 -14 -10 -21 -1 23 -9 25 26 -25 -27 -29 -30
right_child=-2 2 4 6 -6 12 10 22 9 -11 11 -13 13 14 -16 17 -18 -19 -20 20 -22 -23 -24 24 -26 27 -28 28 29 -31
leaf_value=-0.022895371913909914 0.043810507655143743 -0.092269490718841551 0.017185507714748385 -0.014046634520803179 -0.075394620653241873 -0.014343335383977647 0.026244243297232201 0.020010062085615621 -0.021490407683128536 -0.0036894899606704709 -0.023639800456854015 0.026095793313450286 -0.047574106240883852 0.011410510540008545 -0.052189487218856814 -0.075594163352045524 -0.049812863051117241 -0.019701514731753956 -0.091919213372307851 -0.076852468333461071 -0.025388407577639039 0.028381937742233278 0.023400846123695376 -0.010971454576570162 -0.053193121877583599 0.012100566399318202 -0.051685504242777826 0.011224814016243508 -0.066518840491771702 -0.011080935597419739
leaf_weight=34 610 50 30 56 32 39 83 37 43 60 65 36 39 20 27 29 77 22 37 44 23 21 37 98 22 108 32 29 20 24
leaf_count=34 610 50 30 56 32 39 83 37 43 60 65 36 39 20 27 29 77 22 37 44 23 21 37 98 22 108 32 29 20 24
internal_value=0 -0.0209768 -0.0427841 -0.0132596 -0.0302067 -0.0330835 -0.00731794 -0.0127395 -0.0229767 -0.0300641 0.00859312 -0.00591226 -0.0431895 -0.0523358 -0.0251257 -0.0716746 -0.0347534 -0.0514836 -0.0691632 -0.0444503 -0.0591857 -0.00331676 -0.00554575 -0.00844042 -0.0116016 -0.00865941 -0.0209934 0.000199235 -0.0174082 -0.03628
internal_weight=0 1274 333 941 232 217 724 540 200 170 184 101 162 123 47 101 133 51 76 110 67 55 407 370 333 311 130 181 73 44
internal_count=1884 1274 333 941 232 217 724 540 200 170 184 101 162 123 47 101 133 51 76 110 67 55 407 370 333 311 130 181 73 44
shrinkage=0.1


Tree=2
num_leaves=31
num_cat=0
split_feature=0 2 2 12 7 1 0 1 5 3 4 7 9 13 7 9 7 7 1 10 8 0 1 11 11 10 4 7 9 14
split_gain=140.244 17.9332 9.70854 8.59966 9.46321 7.63038 6.2838 5.50641 5.39977 5.16485 6.60346 5.37658 5.29214 4.7413 7.23147 5.3164 4.71519 11.3104 4.39572 4.71162 4.0503 3.99065 3.9517 3.88546 5.48293 3.71341 3.76502 3.77163 3.28427 3.18429
threshold=29.500000000000004 42.500000000000007 25.500000000000004 1.0000000180025095e-35 25.500000000000004 12.500000000000002 21.500000000000004 5.5000000000000009 4.5000000000000009 4.5000000000000009 2.5000000000000004 11.500000000000002 6.5000000000000009 15.500000000000002 7.5000000000000009 7.5000000000000009 26.500000000000004 14.500000000000002 2.5000000000000004 2.5000000000000004 34.500000000000007 21.500000000000004 7.5000000000000009 3.5000000000000004 2.5000000000000004 1.5000000000000002 1.5000000000000002 8.5000000000000018 10.500000000000002 5.5000000000000009
decision_type=2 2 2 2 2 2 2 2 2 2 2 2 2 2 2 2 2 2 2 2 2 2 2 2 2 2 2 2 2 2
left_child=1 2 5 -4 9 6 7 16 -6 12 18 28 -5 14 -9 -16 17 25 -11 21 22 -20 -3 24 -13 -1 -27 -28 -12 -8
right_child=-2 20 3 4 8 -7 29 13 -10 10 11 23 -14 -15 15 -17 -18 -19 19 -21 -22 -23 -24 -25 -26 26 27 -29 -30 -31
leaf_value=0.015152642245476062 0.039429458975791934 -0.084784588664770122 0.021135613398674209 -0.046331443434411833 -0.012927455796259585 0.01491137967073828 -0.024611888940517718 -0.061477645780100967 0.041470081562345683 -0.075762897778729923 -0.02616914063692093 -0.020536837230126063 -0.0038563090969215737 -0.068245267605080331 -0.038041542967160544 0.024220346752554179 -0.050797573601206153 0.041501354177792868 -0.045224570864584396 -0.066003472566604618 -0.091646202972957072 0.0042864928642908735 -0.032617030728538082 -0.0054771883921189745 -0.085673182883432938 -0.053683659519468033 0.013777710548762617 -0.034988795433725628 0.026328802567261916 0.0147120453191526
leaf_weight=26 610 20 39 44 107 133 26 33 22 61 22 24 88 34 24 32 24 42 41 50 28 27 53 22 28 35 29 35 26 99
leaf_count=26 610 20 39 44 107 133 26 33 22 61 22 24 88 34 24 32 24 42 41 50 28 27 53 22 28 35 29 35 26 99
internal_value=0 -0.0188791 -0.0153977 -0.0242731 -0.0274242 -0.00607229 -0.0124295 -0.0199782 -0.00365036 -0.034507 -0.0417395 -0.0237984 -0.0180147 -0.0364801 -0.024345 -0.00246332 -0.0093513 -0.00339495 -0.0539675 -0.0427004 -0.0593118 -0.0255658 -0.0469095 -0.0407058 -0.0556103 -0.0184801 -0.027313 -0.0128915 0.00226725 0.00653267
internal_weight=0 1274 1173 601 562 572 439 314 129 433 301 122 132 123 89 56 191 167 179 118 101 68 73 74 52 125 99 64 48 125
internal_count=1884 1274 1173 601 562 572 439 314 129 433 301 122 132 123 89 56 191 167 179 118 101 68 73 74 52 125 99 64 48 125
shrinkage=0.1


Tree=3
num_leaves=31
num_cat=0
split_feature=0 2 4 9 2 15 7 7 2 0 1 11 14 14 8 15 0 0 7 14 13 2 8 8 1 3 7 0 1 11
split_gain=113.597 14.5259 7.99944 6.74613 7.33216 6.45934 6.25002 5.48027 6.62433 5.06092 5.16836 4.6952 4.40597 4.10378 4.72037 4.49057 3.84405 3.8016 3.94735 3.49727 3.37047 2.96445 7.28454 5.22592 3.87748 3.00842 2.92972 3.39602 2.7637 2.62023
threshold=29.500000000000004 42.500000000000007 1.5000000000000002 57.500000000000007 25.500000000000004 1.5000000000000002 35.500000000000007 14.500000000000002 13.500000000000002 12.500000000000002 2.5000000000000004 2.5000000000000004 5.5000000000000009 4.5000000000000009 37.500000000000007 6.5000000000000009 17.500000000000004 17.500000000000004 13.500000000000002 24.500000000000004 12.500000000000002 33.500000000000007 21.500000000000004 22.500000000000004 15.500000000000002 8.5000000000000018 5.5000000000000009 19.500000000000004 7.5000000000000009 3.5000000000000004
decision_type=2 2 2 2 2 2 2 2 2 2 2 2 2 2 2 2 2 2 2 2 2 2 2 2 2 2 2 2 2 2
left_child=1 2 5 4 6 -1 7 8 -4 10 -6 -7 -13 15 21 -11 -17 -3 -19 29 -9 22 -15 -23 -24 -25 -14 -28 -27 -10
right_child=-2 17 3 -5 9 11 -8 20 19 13 -12 12 26 14 -16 16 -18 18 -20 -21 -22 23 24 25 -26 28 27 -29 -30 -31
leaf_value=0.023697907725969952 0.035486510396003722 -0.081869247369468212 -0.044039693772792821 0.034225663630401387 -0.0046647954732179642 -0.01429344649556317 -0.040070828642600621 0.030158331054587696 0.011350344881316685 0.045118740350008013 -0.060437425639894272 -0.08267658627033235 -0.052722516559785416 -0.056987398862838747 0.0092857490445292287 -0.04322443414818157 0.0072546798735857012 -0.019190805157025658 -0.067439396679401395 -0.027811115094133327 -0.0027014411225610852 -0.012744170957141452 0.0090790327224466536 -0.087173984538425106 -0.037333873659372331 -0.017067580873315984 -0.039803311093287039 0.0057815869267170243 -0.068429836481809614 -0.020567677963164548
leaf_weight=21 610 32 40 34 24 79 39 86 151 20 54 25 62 33 43 22 48 39 30 37 49 45 72 22 24 22 44 26 20 31
leaf_count=21 610 32 40 34 24 79 39 86 151 20 54 25 62 33 43 22 48 39 30 37 49 45 72 22 24 22 44 26 20 31
internal_value=0 -0.0169912 -0.0138579 -0.0094837 -0.0111686 -0.0294485 -0.00188409 0.00189581 -0.0066189 -0.0201223 -0.0432766 -0.0341776 -0.044183 -0.0152543 -0.0212065 0.00332958 -0.00861018 -0.0533806 -0.0401685 0.000215949 0.0182315 -0.0267156 -0.0164566 -0.0388569 -0.00252419 -0.0572174 -0.0368926 -0.0228718 -0.0415258 0.00591376
internal_weight=0 1274 1173 916 882 257 433 394 259 449 78 236 157 371 281 90 70 101 69 219 135 238 129 109 96 64 132 70 42 182
internal_count=1884 1274 1173 916 882 257 433 394 259 449 78 236 157 371 281 90 70 101 69 219 135 238 129 109 96 64 132 70 42 182
shrinkage=0.1


Tree=4
num_leaves=31
num_cat=0
split_feature=0 2 0 2 4 9 10 1 8 10 7 8 14 0 2 13 3 10 10 6 0 14 15 7 11 7 2 2 1 2
split_gain=92.0138 12.1507 8.18083 6.79419 6.23155 4.78932 5.87787 4.74646 5.94144 4.55784 3.70086 4.95755 3.39117 4.27893 3.04573 3.58685 4.05279 4.7402 2.98562 2.83361 6.23057 3.57442 2.95647 3.58101 2.82756 2.79387 2.77321 2.68741 3.99432 4.43896
threshold=29.500000000000004 34.500000000000007 15.500000000000002 46.500000000000007 1.5000000000000002 18.500000000000004 3.5000000000000004 13.500000000000002 21.500000000000004 1.5000000000000002 7.5000000000000009 22.500000000000004 26.500000000000004 27.500000000000004 18.500000000000004 27.500000000000004 5.5000000000000009 2.5000000000000004 2.5000000000000004 1.5000000000000002 17.500000000000004 33.500000000000007 5.5000000000000009 29.500000000000004 2.5000000000000004 5.5000000000000009 36.500000000000007 24.500000000000004 23.500000000000004 29.500000000000004
decision_type=2 2 2 2 2 2 2 2 2 2 2 2 2 2 2 2 2 2 2 2 2 2 2 2 2 2 2 2 2 2
left_child=1 4 18 5 9 12 -7 8 24 -1 11 -9 13 26 25 16 -16 -18 -3 20 -10 22 -21 -24 -6 -11 -4 -12 29 -29
right_child=-2 2 3 -5 7 6 -8 10 19 14 27 -13 -14 -15 15 -17 17 -19 -20 21 -22 -23 23 -25 -26 -27 -28 28 -30 -31
leaf_value=0.00052609785036607226 0.031937861442565919 -0.079442964494228371 -0.050358914404079837 -0.061712701656879525 -0.011005616294486183 -0.015765456013057545 0.045282975584268574 0.017989056855440139 -0.060632731364323546 -0.038421959497711877 0.030242416934228279 -0.051577565783546088 0.011768309623003008 -0.071584913523300833 -0.019070730949270316 -0.0034015905857086182 -0.035162138938903811 -0.089698765295393335 -0.039449942111968998 0.009374537824520043 0.0048227766246506662 0.030477301250485811 -0.0054307403419748207 -0.043402106186439249 -0.040537570552392439 0.0095854233812402798 -0.014076202565973457 -0.050759042352437979 0.032350028412682669 0.013030071308215461
leaf_weight=55 610 40 29 39 56 46 24 20 26 22 71 21 20 23 29 20 30 34 35 112 33 34 173 29 77 27 77 20 28 24
leaf_count=55 610 40 29 39 56 46 24 20 26 22 71 21 20 23 29 20 30 34 35 112 33 34 173 29 77 27 77 20 28 24
internal_value=0 -0.0152921 -0.0317088 -0.0232581 -0.00948252 -0.01641 0.00516543 -0.00502735 -0.00975372 -0.0243468 0.00884351 -0.0176426 -0.0265461 -0.0324863 -0.0327912 -0.0418204 -0.0500825 -0.0641347 -0.0607796 -0.0037575 -0.024022 -0.000321847 -0.00365679 -0.0108821 -0.0281031 -0.0119689 -0.0240026 0.0164374 0.00282419 -0.015965
internal_weight=0 1274 333 258 941 219 70 724 540 217 184 41 149 129 162 113 93 64 75 407 59 348 314 202 133 49 106 143 72 44
internal_count=1884 1274 333 258 941 219 70 724 540 217 184 41 149 129 162 113 93 64 75 407 59 348 314 202 133 49 106 143 72 44
shrinkage=0.1


Tree=5
num_leaves=31
num_cat=0
split_feature=0 2 0 2 1 4 7 13 7 3 15 9 3 7 12 13 14 11 4 11 3 2 3 15 7 1 0 0 14 8
split_gain=74.5312 9.97193 5.50362 5.39992 5.11939 4.28943 6.75071 5.5161 4.55949 4.35916 4.13305 4.62511 4.11988 4.09381 4.00081 3.81219 4.59551 4.6323 3.22343 3.20771 3.57491 3.94575 3.64031 3.2052 5.33336 3.77186 2.8303 2.9756 6.15121 2.52248
threshold=29.500000000000004 27.500000000000004 18.500000000000004 46.500000000000007 13.500000000000002 3.5000000000000004 14.500000000000002 14.500000000000002 35.500000000000007 6.5000000000000009 5.5000000000000009 8.5000000000000018 10.500000000000002 6.5000000000000009 1.0000000180025095e-35 37.500000000000007 11.500000000000002 2.5000000000000004 1.5000000000000002 2.5000000000000004 5.5000000000000009 22.500000000000004 1.5000000000000002 9.5000000000000018 9.5000000000000018 11.500000000000002 21.500000000000004 12.500000000000002 15.500000000000002 45.500000000000007
decision_type=2 2 2 2 2 2 2 2 2 2 2 2 2 2 2 2 2 2 2 2 2 2 2 2 2 2 2 2 2 2
left_child=1 4 10 14 5 6 19 -8 9 -7 11 -3 -13 -6 -4 16 17 -12 -16 -1 21 22 -21 24 -20 -26 27 -22 -29 -25
right_child=-2 2 3 -5 13 8 7 -9 -10 -11 15 12 -14 -15 18 -17 -18 -19 23 20 26 -23 -24 29 25 -27 -28 28 -30 -31
leaf_value=-0.00074545603731404186 0.028744074702262881 -0.048306971329909104 0.025209497963940661 -0.057410360872745515 -0.016961732587298831 -0.049642639398574828 0.02844895252159664 -0.01559073308179545 -0.072295047044754021 0.0044111727862744723 -0.0045923148140762796 0.02973844729087971 -0.03014326930046082 0.021720581934565591 -0.03400773967521778 -0.0028612007697423301 -0.070789426722024623 -0.050841766879672103 0.0077382689889739543 -0.042916963465752141 -0.018146675311285873 0.029174209159353506 0.0083706431388854974 -0.0058750602125211531 -0.061715092852308945 -0.010812928155064584 -0.0079753773827706612 -0.02603809745223434 -0.096413254608278695 0.030719174715605653
leaf_weight=115 610 26 27 28 37 25 84 43 20 37 33 27 20 105 69 21 57 63 34 31 29 23 25 131 37 24 31 27 23 22
leaf_count=115 610 26 27 28 37 25 84 43 20 37 33 27 20 105 69 21 57 63 34 31 29 23 25 131 37 24 31 27 23 22
internal_value=0 -0.0137629 -0.0228637 -0.0151802 -0.00516224 -0.00981354 -0.00582504 0.0135379 -0.0307775 -0.0173847 -0.0344355 -0.0144645 0.00425687 0.0116414 -0.0117429 -0.0428141 -0.0482979 -0.0349435 -0.0148903 -0.0139142 -0.0219269 -0.00569814 -0.0200207 -0.00957128 -0.0239986 -0.041688 -0.033582 -0.0436302 -0.0584107 -0.000613144
internal_weight=0 1274 619 372 655 513 431 127 82 62 247 73 47 142 344 174 153 96 317 304 189 79 56 248 95 61 110 79 50 153
internal_count=1884 1274 619 372 655 513 431 127 82 62 247 73 47 142 344 174 153 96 317 304 189 79 56 248 95 61 110 79 50 153
shrinkage=0.1


Tree=6
num_leaves=31
num_cat=0
split_feature=0 2 12 2 7 0 0 1 5 6 3 4 14 1 6 9 1 10 10 7 7 14 9 8 1 4 7 10 7 1
split_gain=60.3703 8.47335 5.60849 5.47152 6.50292 4.14069 3.90238 4.41316 3.74818 3.73234 3.41796 3.96684 3.38168 4.13032 4.41861 3.27081 3.14965 3.13667 3.13957 3.06752 4.15492 4.14928 3.04824 3.03867 2.89651 2.87013 2.57076 2.56597 7.31786 2.47698
threshold=29.500000000000004 42.500000000000007 1.0000000180025095e-35 25.500000000000004 25.500000000000004 21.500000000000004 13.500000000000002 12.500000000000002 4.5000000000000009 2.5000000000000004 2.5000000000000004 2.5000000000000004 4.5000000000000009 7.5000000000000009 2.5000000000000004 7.5000000000000009 1.0000000180025095e-35 2.5000000000000004 3.5000000000000004 23.500000000000004 9.5000000000000018 11.500000000000002 9.5000000000000018 34.500000000000007 7.5000000000000009 2.5000000000000004 11.500000000000002 2.5000000000000004 9.5000000000000018 1.5000000000000002
decision_type=2 2 2 2 2 2 2 2 2 2 2 2 2 2 2 2 2 2 2 2 2 2 2 2 2 2 2 2 2 2
left_child=1 2 -1 5 10 6 19 9 -6 25 15 16 -13 -14 -15 -5 -12 -18 -19 20 21 -4 -9 24 -3 -8 -26 -11 -29 -7
right_child=-2 23 3 4 8 29 7 22 -10 27 11 12 13 14 -16 -17 17 18 -20 -21 -22 -23 -24 -25 26 -27 -28 28 -30 -31
leaf_value=0.017665323658265931 0.025869667530059814 -0.061863368153572088 0.014057991290703798 -0.03032681836801417 -0.0066572684968743377 -0.010789966210722923 -0.026811526958332506 0.033961938775104027 0.038663959367708729 0.0056923003494739541 -0.055431338655414865 0.014616142881327662 -0.00174759179353714 -0.0650464308612487 -0.011402546933719091 0.009874759316444397 -0.017274487840718236 -0.066663227098829603 -0.018181453916159544 -0.035023308098316192 0.026339720262855783 -0.032689704927238258 -0.016983343909184139 -0.068186077049800328 0.0099862027735937216 -0.066727964339717741 -0.035041932575404645 -0.072268983586267987 0.0021879631461519185 0.016056757672759128
leaf_weight=69 610 20 39 34 107 48 43 23 22 40 67 29 48 34 28 50 87 34 22 20 61 37 24 28 21 31 32 22 33 121
leaf_count=69 610 20 39 34 107 48 43 23 22 40 67 29 48 34 28 50 87 34 22 20 61 37 24 28 21 31 32 22 33 121
internal_value=0 -0.0123866 -0.00999351 -0.0117222 -0.0186357 -0.00455353 -0.0104369 -0.0191572 0.00107193 -0.0266952 -0.0245071 -0.0288659 -0.0157616 -0.0237703 -0.0408202 -0.00639731 -0.0375396 -0.0291568 -0.0476168 0.00156051 0.00690121 -0.00870076 0.00794733 -0.0401793 -0.029437 -0.0435333 -0.0172006 -0.0135792 -0.0275948 0.00843165
internal_weight=0 1274 1173 1104 562 542 373 216 129 169 433 349 139 110 62 84 210 143 56 157 137 76 47 101 73 74 53 95 55 169
internal_count=1884 1274 1173 1104 562 542 373 216 129 169 433 349 139 110 62 84 210 143 56 157 137 76 47 101 73 74 53 95 55 169
shrinkage=0.1


Tree=7
num_leaves=31
num_cat=0
split_feature=0 2 0 9 12 2 9 1 2 14 7 5 0 0 13 0 9 10 15 13 13 3 4 14 0 5 4 1 15 10
split_gain=48.8999 7.10466 5.69176 4.68644 4.54569 4.10581 4.08823 4.5765 3.66889 6.60025 4.15343 4.1701 4.12959 4.11984 4.57496 3.69854 3.61333 4.35311 3.33377 3.21437 3.45014 3.15468 4.43823 3.46425 3.24541 2.95412 2.7936 2.73421 5.13436 2.58024
threshold=29.500000000000004 34.500000000000007 15.500000000000002 38.500000000000007 1.0000000180025095e-35 46.500000000000007 29.500000000000004 23.500000000000004 25.500000000000004 4.5000000000000009 39.500000000000007 3.5000000000000004 21.500000000000004 19.500000000000004 11.500000000000002 18.500000000000004 18.500000000000004 3.5000000000000004 5.5000000000000009 8.5000000000000018 12.500000000000002 15.500000000000002 1.5000000000000002 19.500000000000004 19.500000000000004 2.5000000000000004 2.5000000000000004 1.5000000000000002 11.500000000000002 3.5000000000000004
decision_type=2 2 2 2 2 2 2 2 2 2 2 2 2 2 2 2 2 2 2 2 2 2 2 2 2 2 2 2 2 2
left_child=1 3 -3 4 -1 16 7 8 12 -10 11 15 21 18 -15 -11 19 -18 -13 -4 -21 22 -6 -23 -24 -17 -26 -14 -29 -22
right_child=-2 2 5 -5 6 -7 -8 -9 9 10 -12 13 27 14 -16 25 17 -19 -20 20 29 23 24 -25 26 -27 -28 28 -30 -31
leaf_value=0.022091534992922907 0.023282700777053834 -0.047949520508448286 -0.0045295747688838418 0.020829949605053868 -0.029646899754350836 -0.046546041201322511 -0.043651046667780198 0.022246566216150922 0.011089062795304416 -0.062508289569190564 0.013469040134678718 0.03278268627498461 -0.011469350822947243 -0.0087318426796368191 -0.069669844074682755 -0.0022687629417136863 -0.010601202236569447 0.041935687636335692 -0.021667456355961887 -0.069852283746004107 -0.0044743869134357996 -0.056819528341293335 0.0063481851252253189 -0.0041960676962679083 0.0010410977261407035 -0.047182878945022821 -0.050539630225726544 0.041356318520039931 -0.0046598490948478377 -0.047045620034138369
leaf_weight=46 610 75 70 58 66 39 35 45 57 56 23 23 44 28 22 27 46 24 22 20 35 29 167 22 21 32 21 49 48 24
leaf_count=46 610 75 70 58 66 39 35 45 57 56 23 23 44 28 22 27 46 24 22 20 35 29 167 22 21 32 21 49 48 24
internal_value=0 -0.0111479 -0.0237013 -0.00670555 -0.00851423 -0.0166524 -0.0101963 -0.00873627 -0.010578 -0.0194125 -0.0268742 -0.0312928 -0.005092 -0.0157885 -0.0355446 -0.0441006 -0.0113288 0.00741145 0.00616262 -0.020133 -0.0339588 -0.0112764 -0.00704006 -0.0341192 9.89365e-05 -0.026629 -0.0247493 0.00920663 0.0185854 -0.0217915
internal_weight=0 1274 333 941 883 258 837 802 757 290 233 210 467 95 50 115 219 70 45 149 79 326 275 51 209 59 42 141 97 59
internal_count=1884 1274 333 941 883 258 837 802 757 290 233 210 467 95 50 115 219 70 45 149 79 326 275 51 209 59 42 141 97 59
shrinkage=0.1


Tree=8
num_leaves=31
num_cat=0
split_feature=0 2 0 14 9 12 13 8 4 10 9 7 9 2 5 7 7 14 10 3 3 3 13 13 15 13 12 7 2 7
split_gain=39.6089 5.75478 4.66524 4.47234 3.8595 3.80029 3.51997 4.39574 3.41403 3.43499 3.0806 2.91218 2.45458 2.37138 2.46222 2.34827 2.3037 2.49539 2.04092 2.00392 3.33188 1.82277 1.81892 3.27341 2.51201 1.94737 2.16177 3.28248 4.59963 3.56675
threshold=29.500000000000004 34.500000000000007 17.500000000000004 2.5000000000000004 45.500000000000007 1.0000000180025095e-35 7.5000000000000009 38.500000000000007 1.5000000000000002 1.5000000000000002 15.500000000000002 27.500000000000004 9.5000000000000018 18.500000000000004 3.5000000000000004 5.5000000000000009 51.500000000000007 41.500000000000007 2.5000000000000004 6.5000000000000009 15.500000000000002 3.5000000000000004 31.500000000000004 37.500000000000007 45.500000000000007 23.500000000000004 4.5000000000000009 15.500000000000002 27.500000000000004 22.500000000000004
decision_type=2 2 2 2 2 2 2 2 2 2 2 2 2 2 2 2 2 2 2 2 2 2 2 2 2 2 2 2 2 2
left_child=1 4 11 -4 5 21 19 10 9 12 -8 18 -7 15 -15 -11 17 22 -3 -5 -21 -1 24 -24 25 26 27 -10 29 -29
right_child=-2 2 3 6 -6 8 7 -9 16 13 -12 -13 -14 14 -16 -17 -18 -19 -20 20 -22 -23 23 -25 -26 -27 -28 28 -30 -31
leaf_value=-0.0026896715164184573 0.020954430103302002 -0.064005661156119373 0.021189222577959299 -0.023981750369071964 0.022214006276234335 -0.015396226663142443 -0.052832348545392351 0.00782385583107288 -0.011235561819845126 -0.034303880021685648 -0.017763105658597726 -0.0088551431894302365 0.0292618602514267 -0.04989122389736822 -0.018635467778552663 0.010656106013518114 -0.03727660856463693 0.023787458936373393 -0.031375820934772494 0.040556874019759048 -0.013474275112152101 0.037141079593587804 -0.050485925003886226 0.0023074707259302554 0.03063550561666489 0.018844417602785171 -0.030950194937842235 0.034889719395314232 -0.01775193541095807 -0.0022574922312860904
leaf_weight=20 610 41 32 25 46 32 60 26 304 21 43 24 20 59 44 26 22 30 36 21 25 27 24 23 20 31 35 59 52 46
leaf_count=20 610 41 32 25 46 32 60 26 304 21 43 24 20 59 44 26 22 30 36 21 25 27 24 23 20 31 35 59 52 46
internal_value=0 -0.0100331 -0.0213311 -0.0135215 -0.006035 -0.0074869 -0.0190752 -0.0289173 -0.00902098 -0.0203679 -0.0381918 -0.0392701 0.00177996 -0.0280458 -0.0365393 -0.0094324 -0.00547289 -0.0043516 -0.0487502 -0.00119305 0.0111921 0.0201918 -0.00577277 -0.0246509 -0.0041507 -0.00547086 -0.00699056 -0.0051715 0.00657037 0.0186157
internal_weight=0 1274 333 232 941 895 200 129 848 202 103 101 52 150 103 47 646 624 77 71 46 47 594 47 547 527 496 461 157 105
internal_count=1884 1274 333 232 941 895 200 129 848 202 103 101 52 150 103 47 646 624 77 71 46 47 594 47 547 527 496 461 157 105
shrinkage=0.1


Tree=9
num_leaves=31
num_cat=0
split_feature=0 2 9 2 15 14 7 3 1 13 0 12 9 7 7 0 1 13 1 1 11 13 6 1 7 12 8 1 1 3
split_gain=32.0832 5.0599 3.83822 2.93776 3.90734 5.66795 4.10268 3.91708 3.4232 9.40189 4.19769 3.29128 3.64011 3.26816 4.08901 3.06911 3.70179 3.00758 2.95598 5.14348 3.86551 3.44296 2.85948 4.47533 2.83875 2.69482 2.50311 2.38955 2.32452 2.20399
threshold=29.500000000000004 42.500000000000007 60.500000000000007 25.500000000000004 5.5000000000000009 4.5000000000000009 26.500000000000004 5.5000000000000009 2.5000000000000004 10.500000000000002 11.500000000000002 2.5000000000000004 15.500000000000002 37.500000000000007 14.500000000000002 21.500000000000004 1.5000000000000002 13.500000000000002 12.500000000000002 3.5000000000000004 3.5000000000000004 13.500000000000002 2.5000000000000004 10.500000000000002 9.5000000000000018 1.5000000000000002 34.500000000000007 15.500000000000002 17.500000000000004 7.5000000000000009
decision_type=2 2 2 2 2 2 2 2 2 2 2 2 2 2 2 2 2 2 2 2 2 2 2 2 2 2 2 2 2 2
left_child=1 2 3 13 5 -5 8 -8 9 -6 -10 17 -13 14 15 18 -17 25 19 -1 -21 -20 23 29 -24 -7 27 -3 -26 -12
right_child=-2 26 -4 4 6 11 7 -9 10 -11 22 12 -14 -15 -16 16 -18 -19 21 20 -22 -23 24 -25 28 -27 -28 -29 -30 -31
leaf_value=-0.0024054229832612553 0.018858987092971805 -0.036740818110907951 0.025437120114053996 0.04362472426891327 -0.070715620796731188 0.023081733641170322 -0.037753448364409532 0.010162033846503811 -0.059395946155894885 -0.001681850149351008 0.01750841851417835 -0.01170744796593984 0.043090192973613745 -0.032189092950688468 0.0125336087284944 -0.021116082742810252 0.019428769381422746 -0.043365211107514123 0.026902258907045635 -0.022964612260842936 -0.068150713205337526 -0.02510912522673607 -0.022900498850005016 -0.043252703193890851 -0.0030665802104132521 -0.021554662757798247 -0.055926062166690826 -0.00027776602655649185 0.037857855273329695 -0.021971403014275335
leaf_weight=104 610 41 35 25 47 21 22 76 22 34 26 27 22 36 156 32 76 33 35 78 25 20 35 59 35 38 28 32 23 31
leaf_count=104 610 41 35 25 47 21 22 76 22 34 26 27 22 36 156 32 76 33 35 78 25 20 35 59 35 38 28 32 23 31
internal_value=0 -0.00902981 -0.00718055 -0.00818373 -0.0132025 -0.000258503 -0.0184432 -0.000594503 -0.0240495 -0.0417385 -0.0178469 -0.00803922 0.0128956 -0.00303998 -0.00104498 -0.00677001 0.00741548 -0.0191893 -0.0126175 -0.0180926 -0.0339321 0.00798903 -0.0134733 -0.0239466 -0.000409861 -0.00566713 -0.0305068 -0.020757 0.0131621 -0.00396306
internal_weight=0 1274 1173 1138 576 166 410 98 312 81 231 141 49 562 526 370 108 92 262 207 103 55 209 116 93 59 101 73 58 57
internal_count=1884 1274 1173 1138 576 166 410 98 312 81 231 141 49 562 526 370 108 92 262 207 103 55 209 116 93 59 101 73 58 57
shrinkage=0.1


Tree=10
num_leaves=31
num_cat=0
split_feature=0 2 14 12 4 8 10 2 2 2 9 14 4 7 8 3 7 15 11 12 3 15 14 1 1 3 15 10 10 3
split_gain=25.9874 4.09851 3.30005 2.9835 2.86138 3.6811 2.58356 3.60927 2.57959 3.47773 5.66466 3.62355 2.87258 3.06111 4.82398 3.30271 2.85671 2.68556 2.52526 2.33239 2.47497 2.28719 3.19024 2.21871 2.17569 2.14775 2.85087 2.03878 5.19472 4.91097
threshold=29.500000000000004 42.500000000000007 53.500000000000007 1.0000000180025095e-35 1.5000000000000002 45.500000000000007 1.5000000000000002 27.500000000000004 33.500000000000007 36.500000000000007 7.5000000000000009 5.5000000000000009 3.5000000000000004 37.500000000000007 22.500000000000004 5.5000000000000009 32.500000000000007 15.500000000000002 3.5000000000000004 3.5000000000000004 6.5000000000000009 23.500000000000004 10.500000000000002 7.5000000000000009 4.5000000000000009 6.5000000000000009 10.500000000000002 2.5000000000000004 3.5000000000000004 14.500000000000002
decision_type=2 2 2 2 2 2 2 2 2 2 2 2 2 2 2 2 2 2 2 2 2 2 2 2 2 2 2 2 2 2
left_child=1 2 3 -1 6 8 7 -5 12 25 -11 -12 16 14 -14 -16 27 -13 19 20 -8 22 -3 -20 -22 -10 -27 -6 29 -29
right_child=-2 21 -4 4 5 -7 18 -9 9 10 11 17 13 -15 15 -17 -18 -19 23 -21 24 -23 -24 -25 -26 26 -28 28 -30 -31
leaf_value=0.012982886940685671 0.016973088681697845 -0.018576650005398373 0.02106191757179442 0.017489825762235203 0.0042643251343512196 0.019479008665624659 0.016186383777651296 -0.032457172870635986 -0.060154946396748225 -0.045468736825318178 0.034383389764818653 0.011265356684553213 -0.030145764744506694 -0.041095055031933281 -0.02040553845110394 0.029009586258938437 0.030952729891847681 -0.033459108352661131 -0.026153392344713214 -0.035803058540279216 -0.041465699911117558 -0.0088727572560310369 -0.064469031350953249 -0.069762471616268168 -0.00014884873078419613 -0.049604871159508117 0.0013565331697463991 -0.012697995962067086 0.0078675250532806561 -0.062164148688316351
leaf_weight=67 610 33 42 39 213 53 29 23 24 29 29 29 53 38 21 38 27 25 28 44 25 40 28 20 26 21 23 88 93 26
leaf_count=67 610 33 42 39 213 53 29 23 24 29 29 29 53 38 21 38 27 25 28 44 25 40 28 20 26 21 23 88 93 26
internal_value=0 -0.00812683 -0.0064625 -0.00748463 -0.00877346 -0.00601996 -0.0185402 -0.0010389 -0.00775927 -0.0182527 -0.00742194 0.00587152 -0.00459544 -0.0165699 -0.00824891 0.0114212 -0.000577151 -0.00944041 -0.0248488 -0.01731 -0.00713884 -0.0274562 -0.039642 -0.0443238 -0.0204022 -0.0360915 -0.022966 -0.00260407 -0.00967155 -0.0239798
internal_weight=0 1274 1173 1131 1064 830 234 62 777 180 112 83 597 150 112 59 447 54 172 124 80 101 61 48 51 68 44 420 207 114
internal_count=1884 1274 1173 1131 1064 830 234 62 777 180 112 83 597 150 112 59 447 54 172 124 80 101 61 48 51 68 44 420 207 114
shrinkage=0.1


Tree=11
num_leaves=31
num_cat=0
split_feature=0 2 9 14 12 4 15 14 11 14 7 7 7 8 3 2 8 0 2 0 6 7 8 6 13 14 6 9 2 3
split_gain=21.0498 3.3198 2.89117 2.36996 2.2613 2.17428 2.15991 3.5653 2.27567 3.41867 2.36053 2.08846 2.07414 2.06155 2.10959 2.01175 3.23747 2.64605 3.53696 3.10415 2.22919 2.20632 2.17317 1.90683 1.76543 1.66668 1.61109 1.56408 1.73761 3.67345
threshold=29.500000000000004 42.500000000000007 60.500000000000007 63.500000000000007 1.0000000180025095e-35 1.5000000000000002 9.5000000000000018 5.5000000000000009 2.5000000000000004 9.5000000000000018 5.5000000000000009 10.500000000000002 11.500000000000002 34.500000000000007 21.500000000000004 33.500000000000007 37.500000000000007 27.500000000000004 36.500000000000007 15.500000000000002 2.5000000000000004 51.500000000000007 46.500000000000007 2.5000000000000004 19.500000000000004 22.500000000000004 2.5000000000000004 37.500000000000007 13.500000000000002 9.5000000000000018
decision_type=2 2 2 2 2 2 2 2 2 2 2 2 2 2 2 2 2 2 2 2 2 2 2 2 2 2 2 2 2 2
left_child=1 2 3 4 24 6 8 -8 9 -6 -10 -12 25 14 23 21 17 18 20 -20 -17 22 27 -3 -1 -9 -21 28 29 -7
right_child=-2 13 -4 -5 5 15 7 12 10 -11 11 -13 -14 -15 -16 16 -18 -19 19 26 -22 -23 -24 -25 -26 -27 -28 -29 -30 -31
leaf_value=0.021791242957115174 0.015275779366493226 -0.02662177234888077 0.02249279158455985 0.027432755902409556 0.039801647407667978 0.00021076163178996036 -0.055663041530116912 -0.012680154675390663 -0.035532624784268829 -0.017258623810041517 0.020126816630363465 -0.024522165358066561 0.012126947343349457 -0.047779018964086262 -0.038718367769167976 -0.019150091069085259 0.017049405972162882 -0.05440678387880326 -0.034970737045461484 -0.0086546182632446286 -0.059772516380656851 -0.035105620395569574 0.025595767575281637 0.014117043548160131 -0.013916407972574235 -0.046312718287758209 0.023429609572186191 0.022723513435233725 -0.0024313800582071634 -0.048030675892476685
leaf_weight=45 610 20 35 20 21 38 31 41 38 21 22 20 20 28 26 35 27 20 22 29 22 21 27 27 20 23 34 22 492 27
leaf_count=45 610 20 35 20 21 38 31 41 38 21 22 20 20 28 26 35 27 20 22 29 22 21 27 27 20 23 34 22 492 27
internal_value=0 -0.00731415 -0.00581625 -0.00668691 -0.00729728 -0.00841466 -0.0168463 -0.0266791 -0.00757778 0.0112715 -0.0174737 -0.0011346 -0.0159826 -0.0247105 -0.0158624 -0.00596576 -0.0150094 -0.0203526 -0.0155562 -0.00263216 -0.0348289 -0.00323967 -0.0021354 -0.00321862 0.0108043 -0.0247669 0.00866068 -0.00342857 -0.00446151 -0.019828
internal_weight=0 1274 1173 1138 1118 1053 237 115 122 42 80 42 84 101 73 816 189 162 142 85 57 627 606 47 65 64 63 579 557 65
internal_count=1884 1274 1173 1138 1118 1053 237 115 122 42 80 42 84 101 73 816 189 162 142 85 57 627 606 47 65 64 63 579 557 65
shrinkage=0.1


Tree=12
num_leaves=31
num_cat=0
split_feature=0 0 2 2 3 0 10 1 8 13 7 1 9 1 5 13 10 9 13 13 0 3 14 14 10 1 9 9 1 15
split_gain=17.0503 3.00393 3.33476 3.17069 2.8486 2.35573 3.3417 2.63867 2.66375 3.01736 2.63592 2.94308 2.53968 2.43564 4.30289 3.61133 3.37303 4.35204 2.64222 2.34698 4.10877 3.12554 1.9102 1.88136 1.86845 4.43486 1.82495 3.53769 1.96569 2.56553
threshold=29.500000000000004 21.500000000000004 46.500000000000007 34.500000000000007 21.500000000000004 8.5000000000000018 3.5000000000000004 12.500000000000002 23.500000000000004 27.500000000000004 12.500000000000002 17.500000000000004 20.500000000000004 5.5000000000000009 3.5000000000000004 17.500000000000004 2.5000000000000004 9.5000000000000018 18.500000000000004 7.5000000000000009 12.500000000000002 9.5000000000000018 19.500000000000004 11.500000000000002 2.5000000000000004 9.5000000000000018 53.500000000000007 33.500000000000007 15.500000000000002 3.5000000000000004
decision_type=2 2 2 2 2 2 2 2 2 2 2 2 2 2 2 2 2 2 2 2 2 2 2 2 2 2 2 2 2 2
left_child=1 3 26 5 24 6 23 8 13 12 11 -9 19 14 16 -16 17 -7 -15 20 -10 -21 -6 -1 -5 -26 27 28 29 -3
right_child=-2 2 -4 4 22 7 -8 10 9 -11 -12 -13 -14 18 15 -17 -18 -19 -20 21 -22 -23 -24 -25 25 -27 -28 -29 -30 -31
leaf_value=0.013543621781799528 0.013748201727867128 0.018934045016765596 -0.038114152442325244 -0.02717857455665415 -0.067295779287815091 0.017861729383468628 0.0429017247188659 0.0092604817615615006 0.022114315032958985 -0.040915053784847263 0.017412427440285684 -0.031765525043010716 0.031837048991159959 -0.024178724087677995 -0.0093749026718892552 0.043122840225696568 -0.052821303759851772 -0.044722916930913931 -0.064974032640457161 -0.0062684033953008204 -0.030814258618788289 0.040981210981096541 -0.02411336728504726 -0.019016070451055255 0.018714794745812051 -0.031958106929256068 0.026969059087612015 -0.034182601315634595 0.01469077104330063 -0.0060302410418639372
leaf_weight=36 610 50 22 66 20 25 21 36 20 20 64 34 22 77 38 20 31 20 20 42 55 21 21 35 39 31 27 28 100 233
leaf_count=36 610 50 22 66 20 25 21 36 20 20 64 34 22 77 38 20 31 20 20 42 55 21 21 35 39 31 27 28 100 233
internal_value=0 -0.00658273 -0.000123318 -0.010233 -0.0220729 -0.00694312 0.00785809 -0.00944168 -0.0134147 -0.00429473 0.00274436 -0.0106664 0.00028281 -0.0205212 -0.0117848 0.00872777 -0.0274392 -0.00995367 -0.0325901 -0.00474758 -0.0167 0.00948147 -0.045178 -0.00250693 -0.0151074 -0.00372606 0.0017849 0.000130463 0.00263899 -0.00161959
internal_weight=0 1274 460 814 177 637 92 545 411 180 134 70 160 231 134 58 76 45 97 138 75 63 41 71 136 70 438 411 383 283
internal_count=1884 1274 460 814 177 637 92 545 411 180 134 70 160 231 134 58 76 45 97 138 75 63 41 71 136 70 438 411 383 283
shrinkage=0.1


Tree=13
num_leaves=31
num_cat=0
split_feature=0 14 2 0 14 13 4 9 2 1 4 9 9 15 4 0 11 1 2 4 0 3 15 3 13 14 5 9 13 13
split_gain=13.8108 2.61112 2.47435 2.57725 2.8084 3.29879 3.48874 2.56456 3.12163 2.14958 2.37256 3.68267 3.1583 2.57102 2.64754 3.9695 2.64472 4.62878 2.01803 1.993 1.98041 3.70478 3.11942 1.9159 3.17122 4.17859 1.86113 1.85847 1.82138 2.81483
threshold=29.500000000000004 64.500000000000014 34.500000000000007 15.500000000000002 2.5000000000000004 7.5000000000000009 1.5000000000000002 26.500000000000004 36.500000000000007 23.500000000000004 4.5000000000000009 37.500000000000007 29.500000000000004 1.5000000000000002 1.5000000000000002 20.500000000000004 3.5000000000000004 3.5000000000000004 42.500000000000007 3.5000000000000004 15.500000000000002 7.5000000000000009 7.5000000000000009 10.500000000000002 4.5000000000000009 14.500000000000002 3.5000000000000004 17.500000000000004 6.5000000000000009 1.5000000000000002
decision_type=2 2 2 2 2 2 2 2 2 2 2 2 2 2 2 2 2 2 2 2 2 2 2 2 2 2 2 2 2 2
left_child=1 2 9 -4 -5 18 -7 8 -8 10 11 12 13 26 15 20 17 -17 -6 -10 21 -15 -22 28 25 -25 -1 -26 29 -16
right_child=-2 -3 3 4 5 6 7 -9 19 -11 -12 -13 -14 14 23 16 -18 -19 -20 -21 22 -23 -24 24 27 -27 -28 -29 -30 -31
leaf_value=-0.0024212434011347157 0.012373381853103639 0.027463790644770083 -0.030437660499199017 0.01707448946578162 0.01498609459400177 -0.060378341163907737 -0.058383903900782269 0.0090915885567665108 0.0011966751233951467 0.014570693116066818 -0.026301468044519428 0.023011052608489992 -0.042037450101064605 -0.038556382636870112 -0.011225164419895895 -0.019758786112070086 -0.027605540454387668 0.04478503692150116 -0.017820621927579244 -0.03416479772755078 -0.011263813674449922 0.01318340003490448 -0.061313638632947753 -0.0060406536825241587 0.0037485006480262833 -0.060989404678344732 0.030666217909139749 -0.027123191083470985 -0.0038169384604752666 0.021878661020171077
leaf_weight=34 610 23 74 35 50 21 21 30 37 59 50 48 23 31 37 20 20 25 30 28 20 25 33 31 104 25 34 24 198 84
leaf_count=34 610 23 74 35 50 21 21 30 37 59 50 48 23 31 37 20 20 25 30 28 20 25 33 31 104 25 34 24 198 84
internal_value=0 -0.00592446 -0.00653831 -0.0140297 -0.00921152 -0.0134512 -0.022873 -0.0160832 -0.0248651 -0.0038981 -0.00515636 -0.00386071 -0.00554019 -0.00441343 -0.00627524 -0.0169078 0.00265138 0.0160989 0.00268358 -0.014036 -0.0285715 -0.0154583 -0.0424269 -0.00259719 -0.0107234 -0.0305713 0.0141225 -0.00203994 0.00209004 0.011756
internal_weight=0 1274 1251 326 252 217 137 116 86 925 866 816 768 745 677 174 65 45 80 65 109 56 53 503 184 56 68 128 319 121
internal_count=1884 1274 1251 326 252 217 137 116 86 925 866 816 768 745 677 174 65 45 80 65 109 56 53 503 184 56 68 128 319 121
shrinkage=0.1


Tree=14
num_leaves=31
num_cat=0
split_feature=0 14 2 7 7 11 6 7 8 14 2 12 13 11 13 4 11 14 14 7 0 2 13 3 15 3 12 9 0 2
split_gain=11.1867 2.22635 2.29102 4.01409 2.17859 3.75862 3.47516 4.22134 3.05862 2.87429 2.88961 4.20466 2.73927 2.3405 2.26352 1.86296 3.12819 1.85193 1.83508 2.64284 2.36845 2.08039 2.85901 4.31154 3.8805 5.55086 2.62857 1.79579 2.15149 2.97602
threshold=29.500000000000004 53.500000000000007 43.500000000000007 11.500000000000002 15.500000000000002 3.5000000000000004 1.5000000000000002 11.500000000000002 25.500000000000004 3.5000000000000004 25.500000000000004 2.5000000000000004 11.500000000000002 2.5000000000000004 12.500000000000002 1.5000000000000002 2.5000000000000004 11.500000000000002 24.500000000000004 50.500000000000007 15.500000000000002 39.500000000000007 12.500000000000002 12.500000000000002 20.500000000000004 21.500000000000004 3.5000000000000004 5.5000000000000009 17.500000000000004 30.500000000000004
decision_type=2 2 2 2 2 2 2 2 2 2 2 2 2 2 2 2 2 2 2 2 2 2 2 2 2 2 2 2 2 2
left_child=1 2 4 -4 5 9 -7 8 12 13 11 -11 17 -1 -10 16 -13 -8 21 20 -20 22 24 -24 25 -6 -26 -12 29 -29
right_child=-2 -3 3 -5 18 6 7 -9 14 10 27 15 -14 -15 -16 -17 -18 -19 19 -21 -22 -23 23 -25 26 -27 -28 28 -30 -31
leaf_value=0.024916094115802222 0.011136043816804886 0.016027181072438019 0.0010376069106553731 -0.043818575143814091 0.023198900056868487 -0.0585596019313449 -0.06682348263263703 0.015554245667798179 0.022624268702098303 0.013451942789057892 -0.036864773205348422 -0.0030732816173916775 -0.011710648787649054 -0.0086575257507237515 -0.024382357299327851 -0.0045651209540665148 -0.058333683311939249 -0.031394767098956639 -0.0045331897834936779 -0.019403681829571723 0.033444750194366164 0.025426325947046281 -0.028911694918555775 0.011102084662669744 -0.045198366143133328 -0.032437170838767834 0.0037358470615886509 -0.0014026018289419323 -0.0029624339967671011 -0.046346136401681337
leaf_weight=56 610 47 38 42 97 21 25 35 21 120 35 21 38 33 20 96 20 36 24 20 52 24 87 39 23 22 21 26 101 34
leaf_count=56 610 47 38 42 97 21 25 35 21 120 35 21 38 33 20 96 20 36 24 20 52 24 87 39 23 22 21 26 101 34
internal_value=0 -0.00533201 -0.00615017 -0.0225119 -0.00500899 -0.00825343 -0.0201209 -0.0155082 -0.0232739 -0.00396188 -0.00718971 -0.000214907 -0.0327859 0.0124674 -0.000305793 -0.0121859 -0.0300296 -0.0459147 0.000845277 0.0129402 0.0214517 -0.00286434 -0.00521374 -0.0165265 0.00353108 0.0129132 -0.0218434 -0.0163353 -0.0118723 -0.0268706
internal_weight=0 1274 1227 80 1147 738 196 175 140 542 453 257 99 89 41 137 41 61 409 96 76 313 289 126 163 119 44 196 161 60
internal_count=1884 1274 1227 80 1147 738 196 175 140 542 453 257 99 89 41 137 41 61 409 96 76 313 289 126 163 119 44 196 161 60
shrinkage=0.1


Tree=15
num_leaves=31
num_cat=0
split_feature=0 0 2 12 1 0 9 13 4 0 10 7 3 7 8 13 1 8 1 15 2 15 5 0 9 13 11 3 1 2
split_gain=9.06125 1.94631 2.28424 2.12609 2.71268 2.06056 2.47544 2.61147 1.84149 1.76527 2.75037 1.67181 1.95594 2.84468 3.3064 2.12198 2.48519 2.1026 2.00494 4.6954 3.43917 2.17493 2.72854 1.78386 1.62004 3.422 2.62947 2.57261 1.32175 1.31752
threshold=29.500000000000004 21.500000000000004 46.500000000000007 4.5000000000000009 22.500000000000004 8.5000000000000018 7.5000000000000009 9.5000000000000018 3.5000000000000004 7.5000000000000009 2.5000000000000004 1.5000000000000002 15.500000000000002 2.5000000000000004 37.500000000000007 27.500000000000004 2.5000000000000004 28.500000000000004 3.5000000000000004 18.500000000000004 33.500000000000007 7.5000000000000009 2.5000000000000004 11.500000000000002 6.5000000000000009 24.500000000000004 2.5000000000000004 2.5000000000000004 1.0000000180025095e-35 21.500000000000004
decision_type=2 2 2 2 2 2 2 2 2 2 2 2 2 2 2 2 2 2 2 2 2 2 2 2 2 2 2 2 2 2
left_child=1 3 29 4 9 -5 -7 -8 -6 10 28 -11 13 -13 18 16 -14 -18 19 20 21 22 -15 -20 26 27 -25 -26 -1 -3
right_child=-2 2 -4 5 8 6 7 -9 -10 11 -12 12 15 14 -16 -17 17 -19 23 -21 -22 -23 -24 24 25 -27 -28 -29 -30 -31
leaf_value=0.0064298553126198909 0.010022439062595367 0.01145061961629174 -0.031041925603693184 0.005512508526444436 0.033508873145495145 -0.059477280718939644 0.0078557416796684269 -0.040431588267286621 -0.0051526497710834849 0.016975086149962054 0.026786608000596363 -0.041777795164481456 -0.049913082578602962 -0.012189651183460069 -0.037155189052704839 0.0063545213504271076 -0.028827216757668389 0.0094935231265567618 -0.033898706674575806 0.049919036598432637 -0.03919130086898804 -0.015436927974224092 0.02984437923482124 0.0079261164665222171 0.031212864915529888 -0.038975470066070557 -0.032214233532864997 -0.0017603375416781223 -0.029490586221218109 -0.0011962444754317404
leaf_weight=21 610 110 22 20 28 21 21 24 22 23 36 23 34 23 31 22 45 21 25 21 20 32 47 25 30 20 47 112 20 328
leaf_count=21 610 110 22 20 28 21 21 24 22 23 36 23 34 23 31 22 45 21 25 21 20 32 47 25 30 20 47 112 20 328
internal_value=0 -0.00479881 0.000400603 -0.00773706 -0.0059805 -0.0226065 -0.0311274 -0.0178975 0.0164978 -0.00763819 0.00661731 -0.00946461 -0.0105167 -0.00750778 -0.00568744 -0.0217632 -0.0279491 -0.0166343 -0.00326082 0.00624347 -0.00127446 0.00616022 0.0160332 -0.00850836 -0.00579572 -0.00024865 -0.0182766 0.00520583 -0.0110923 0.00197991
internal_weight=0 1274 460 814 728 86 66 45 50 678 77 601 578 456 433 122 100 66 402 143 122 102 70 259 234 162 72 142 41 438
internal_count=1884 1274 460 814 728 86 66 45 50 678 77 601 578 456 433 122 100 66 402 143 122 102 70 259 234 162 72 142 41 438
shrinkage=0.1


Tree=16
num_leaves=31
num_cat=0
split_feature=0 14 1 8 11 2 1 6 13 14 2 2 1 15 15 8 1 12 1 1 14 15 12 15 7 9 15 5 7 14
split_gain=7.33961 1.70907 1.54941 2.05548 1.78962 1.64612 2.47941 3.19831 5.13158 2.9792 2.67259 2.77182 2.424 2.84724 3.34898 3.12209 3.24102 2.78161 2.29519 2.20304 2.6357 2.11276 3.02284 2.35494 2.33007 2.0941 2.06878 2.90766 4.55055 5.5444
threshold=29.500000000000004 64.500000000000014 23.500000000000004 63.500000000000007 3.5000000000000004 25.500000000000004 9.5000000000000018 2.5000000000000004 22.500000000000004 9.5000000000000018 28.500000000000004 34.500000000000007 11.500000000000002 14.500000000000002 11.500000000000002 22.500000000000004 3.5000000000000004 3.5000000000000004 16.500000000000004 9.5000000000000018 24.500000000000004 5.5000000000000009 2.5000000000000004 6.5000000000000009 3.5000000000000004 8.5000000000000018 8.5000000000000018 3.5000000000000004 6.5000000000000009 11.500000000000002
decision_type=2 2 2 2 2 2 2 2 2 2 2 2 2 2 2 2 2 2 2 2 2 2 2 2 2 2 2 2 2 2
left_child=1 2 3 5 -4 12 21 10 9 -9 -8 25 13 14 19 -15 -17 -18 -11 20 26 22 -7 -23 -25 -12 27 28 -1 -30
right_child=-2 -3 4 -5 -6 6 7 8 -10 18 11 -13 -14 15 -16 16 17 -19 -20 -21 -22 23 -24 24 -26 -27 -28 -29 29 -31
leaf_value=0.027490285690873861 0.0090201951563358314 0.022693294027577277 -0.0044017599574450788 -0.032143734857953826 0.022519365126310392 -0.0067451723475954427 -0.060248528556390249 0.026460897005521334 -0.04563325881958008 -0.025622364440385032 0.018541100485758348 -0.038153056641842459 0.011682826203518902 -0.042756551172998217 0.027993827195543993 0.023248268043001494 -0.04449369990825653 0.0055407612025737763 0.017070156186819077 -0.031401686026499821 -0.021358259265520138 -0.03737226862173814 0.02538714987727312 -0.032593879316534312 -0.0017742598147103281 -0.02560703953107198 -0.016102367600328044 0.026112823630683124 0.010982229146692488 -0.054372510671615609
leaf_weight=32 610 23 58 29 43 67 22 39 25 34 22 47 116 36 38 24 25 20 20 26 49 26 52 28 198 21 38 64 27 25
leaf_count=32 610 23 58 29 43 67 22 39 25 34 22 47 116 36 38 24 25 20 20 26 49 26 52 28 198 21 38 64 27 25
internal_value=0 -0.00431893 -0.00481556 -0.00585852 0.00705971 -0.00517853 -0.00874297 -0.0169005 -0.00541198 0.00540019 -0.0290045 -0.0213671 -0.00105885 -0.00471735 0.000257506 -0.0188839 -0.00642853 -0.0222562 -0.00981032 -0.00378073 -0.000724797 -0.00368573 0.00729584 -0.00887147 -0.00559262 -0.00301962 0.0047109 0.0100548 -0.0021798 -0.0204383
internal_weight=0 1274 1251 1150 101 1121 601 230 118 93 112 90 520 404 299 105 69 45 54 261 235 371 119 252 226 43 186 148 84 52
internal_count=1884 1274 1251 1150 101 1121 601 230 118 93 112 90 520 404 299 105 69 45 54 261 235 371 119 252 226 43 186 148 84 52
shrinkage=0.1


Tree=17
num_leaves=31
num_cat=0
split_feature=0 12 1 0 6 4 0 2 15 5 3 8 1 8 13 9 9 15 15 8 7 14 2 14 13 12 7 3 15 9
split_gain=6.12544 1.61978 1.96832 1.60322 2.06736 1.50112 1.4033 1.8216 1.38848 4.19413 1.24364 2.74485 3.11169 2.1087 1.88754 1.88497 2.04678 2.7456 2.72655 3.23588 3.50991 2.63096 2.62405 2.0876 1.85339 1.76206 2.31331 1.93805 1.40833 1.22964
threshold=21.500000000000004 4.5000000000000009 22.500000000000004 8.5000000000000018 2.5000000000000004 3.5000000000000004 29.500000000000004 46.500000000000007 1.5000000000000002 2.5000000000000004 15.500000000000002 28.500000000000004 12.500000000000002 38.500000000000007 10.500000000000002 27.500000000000004 11.500000000000002 5.5000000000000009 3.5000000000000004 26.500000000000004 3.5000000000000004 13.500000000000002 29.500000000000004 16.500000000000004 5.5000000000000009 2.5000000000000004 9.5000000000000018 5.5000000000000009 12.500000000000002 53.500000000000007
decision_type=2 2 2 2 2 2 2 2 2 2 2 2 2 2 2 2 2 2 2 2 2 2 2 2 2 2 2 2 2 2
left_child=1 2 8 -3 -5 -4 7 29 9 -1 13 12 14 15 -12 16 18 -18 21 20 -20 -10 -19 25 -25 26 -22 -27 -13 -2
right_child=6 3 5 4 -6 -7 -8 -9 10 -11 11 28 -14 -15 -16 -17 17 22 19 -21 23 -23 -24 24 -26 27 -28 -29 -30 -31
leaf_value=-0.02807034396606943 0.00085531816684126572 0.005286778509616852 0.02950193804821798 -0.04473073012901075 -0.0093337509668234616 -0.0054041920737786728 0.0081181757152080543 -0.027275446192784741 -0.002161987948006597 0.024043956716009913 -0.052089474827815334 -0.013404565531274545 0.004463725504667863 -0.028866267535421587 -0.016445986802379291 0.018233061747418511 0.0084900663154465813 -0.011226818109712294 -0.036762938896814985 0.032070447802543638 0.02723301820682757 -0.048638522412095757 -0.044333725097851884 0.0025099916756153107 0.045561018884181979 -0.036334221601486208 -0.0091842732719472943 0.0026609326784427351 0.022413739632992521 0.022885750786021907
leaf_weight=23 411 20 28 33 33 22 610 22 29 47 39 23 23 36 24 36 35 62 24 35 33 21 39 20 20 25 37 26 21 27
leaf_count=23 411 20 28 33 33 22 610 22 29 47 39 23 23 36 24 36 35 62 24 35 33 21 39 20 20 25 37 26 21 27
internal_value=0 -0.00653744 -0.00500424 -0.0195162 -0.0270322 0.0141432 0.00497334 0.000803024 -0.0064163 0.00692069 -0.0079518 -0.0166242 -0.0270178 -0.00559321 -0.038511 -0.00369766 -0.00564226 -0.0156465 -0.000603078 0.00418762 -0.00108751 -0.0216821 -0.0240107 0.00423056 0.0240355 -0.00231653 0.00798388 -0.0164543 0.00369053 0.00221336
internal_weight=0 814 728 86 66 50 1070 460 678 70 608 130 86 478 63 442 406 136 270 220 185 50 101 161 40 121 70 51 44 438
internal_count=1884 814 728 86 66 50 1070 460 678 70 608 130 86 478 63 442 406 136 270 220 185 50 101 161 40 121 70 51 44 438
shrinkage=0.1


Tree=18
num_leaves=31
num_cat=0
split_feature=0 2 14 3 3 15 14 8 1 15 7 9 14 11 7 14 0 13 14 3 7 4 2 4 2 2 1 7 0 2
split_gain=4.96161 1.43165 1.75465 1.39952 2.15594 2.50552 1.88952 1.3348 2.62623 2.4936 3.19734 3.57069 3.44433 2.34798 3.28514 2.23498 2.08434 3.34911 2.73787 2.39985 2.31359 2.03148 1.86671 2.11079 1.85516 1.54039 1.4984 2.16339 1.13667 1.4755
threshold=21.500000000000004 42.500000000000007 9.5000000000000018 29.500000000000004 22.500000000000004 11.500000000000002 48.500000000000007 22.500000000000004 12.500000000000002 20.500000000000004 14.500000000000002 6.5000000000000009 22.500000000000004 3.5000000000000004 7.5000000000000009 5.5000000000000009 14.500000000000002 25.500000000000004 12.500000000000002 17.500000000000004 7.5000000000000009 2.5000000000000004 19.500000000000004 1.5000000000000002 29.500000000000004 29.500000000000004 8.5000000000000018 13.500000000000002 29.500000000000004 46.500000000000007
decision_type=2 2 2 2 2 2 2 2 2 2 2 2 2 2 2 2 2 2 2 2 2 2 2 2 2 2 2 2 2 2
left_child=1 3 -3 4 6 -6 7 8 9 10 12 -12 13 14 -1 -10 18 19 26 21 -20 22 -18 -24 -22 -23 27 -9 29 -2
right_child=28 2 -4 -5 5 -7 -8 16 15 -11 11 -13 -14 -15 -16 -17 17 -19 20 -21 24 25 23 -25 -26 -27 -28 -29 -30 -31
leaf_value=0.014411532133817673 0.0019920226445923387 -0.0013110018294790516 -0.038296759847936956 0.018013404252437446 -0.0051653349399566652 -0.05201947972888038 0.020348740468422572 0.046196866996826666 -0.018417948348955673 -0.048964117112613864 -0.02530295926900137 0.026855716535023284 -0.059491344243288037 -0.040962445974349976 -0.026117114573717116 0.021263892613351348 0.010501773292953903 -0.036411660398755756 -0.031482817920354698 -0.035491319000720979 0.020092605240643026 0.0016175790413005932 0.0016447234538293654 -0.033953458733028838 -0.018158464914276487 0.032705515516655785 0.0022956755426194932 0.0070823806982774004 0.0073063582181930545 -0.024547902020541107
leaf_weight=40 438 23 29 26 25 21 30 31 22 21 21 35 20 25 40 40 37 35 26 20 32 37 31 36 21 28 36 26 610 22
leaf_count=40 438 23 29 26 25 21 30 31 22 21 21 35 20 25 40 40 37 35 26 20 32 37 31 36 21 28 36 26 610 22
internal_value=0 -0.0058837 -0.0219377 -0.00478815 -0.00559364 -0.0265553 -0.0041962 -0.00531188 -0.0108197 -0.0163454 -0.0125609 0.00729621 -0.0214569 -0.0142122 -0.00585279 0.00718324 -0.00163998 -0.00799733 0.00663937 -0.00273542 -0.00704959 0.00114102 -0.00752666 -0.0174827 0.00493652 0.0150093 0.0182676 0.0283552 0.00447601 0.000722722
internal_weight=0 814 52 762 736 46 690 660 264 202 181 56 125 105 80 62 396 224 172 189 79 169 104 67 53 65 93 57 1070 460
internal_count=1884 814 52 762 736 46 690 660 264 202 181 56 125 105 80 62 396 224 172 189 79 169 104 67 53 65 93 57 1070 460
shrinkage=0.1


Tree=19
num_leaves=31
num_cat=0
split_feature=0 0 8 3 3 9 7 11 14 12 7 14 14 15 13 15 2 7 6 5 14 13 3 10 6 7 2 7 15 14
split_gain=4.0189 1.25502 2.25707 2.13539 1.14917 2.71089 3.06826 2.5487 2.50544 3.24103 2.27074 1.86927 2.81671 2.3362 2.18713 2.18083 2.00197 2.12658 3.93424 2.79343 2.0608 1.94402 1.48829 1.40959 2.782 1.47813 1.36212 1.66426 1.30025 0.949289
threshold=21.500000000000004 7.5000000000000009 22.500000000000004 6.5000000000000009 5.5000000000000009 7.5000000000000009 6.5000000000000009 2.5000000000000004 15.500000000000002 2.5000000000000004 4.5000000000000009 4.5000000000000009 6.5000000000000009 10.500000000000002 6.5000000000000009 11.500000000000002 38.500000000000007 9.5000000000000018 1.5000000000000002 2.5000000000000004 32.500000000000007 7.5000000000000009 12.500000000000002 3.5000000000000004 3.5000000000000004 14.500000000000002 31.500000000000004 8.5000000000000018 12.500000000000002 14.500000000000002
decision_type=2 2 2 2 2 2 2 2 2 2 2 2 2 2 2 2 2 2 2 2 2 2 2 2 2 2 2 2 2 2
left_child=1 2 -1 -4 5 6 -3 -7 9 -8 -9 14 13 -13 -6 -16 17 19 -19 -14 23 29 -23 24 25 -20 27 -12 -29 -21
right_child=-2 4 3 -5 11 7 8 10 -10 -11 26 12 16 -15 15 -17 -18 18 20 21 -22 22 -24 -25 -26 -27 -28 28 -30 -31
leaf_value=-0.020777299255132678 0.0040284088905030322 0.017367959141731264 -0.0035486791170004639 0.031668518359462425 0.023242231765214137 -0.013092456466477852 -0.010233137217061275 -0.014906770984331767 0.002252706087061337 -0.057115322351455694 0.038387692542303176 -0.06086139196441287 0.0070313445159367154 -0.01310601755976677 0.012314840438573258 -0.030352722644805909 -0.031997635381089316 -0.03049991952650475 0.003011217306960713 -0.025402365553946721 0.034602416803439458 -0.03151573732495308 0.0054202277213335039 -0.014656008867656485 -0.019068671115066695 0.037137219508488972 0.043241408890621232 -0.0094529088586568846 0.023034023290330715 -0.054515585054953901
leaf_weight=24 1070 25 33 36 34 46 29 21 28 30 21 21 35 20 23 25 36 33 22 21 24 20 24 34 23 30 22 28 22 24
leaf_count=24 1070 25 33 36 34 46 29 21 28 30 21 21 35 20 23 25 36 33 22 21 24 20 24 34 23 30 22 28 22 24
internal_value=0 -0.00529533 0.00563769 0.0148255 -0.00670555 -0.00157618 -0.0135084 0.0067764 -0.022381 -0.0340715 0.0147937 -0.00981288 -0.0128628 -0.0375661 0.00383731 -0.00990785 -0.00975592 -0.00699488 0.000406267 -0.0169029 0.00807472 -0.0263152 -0.0113688 0.00223376 0.00989045 0.0226993 0.0215002 0.0147635 0.00484134 -0.0409294
internal_weight=0 814 93 69 721 272 112 160 87 59 114 449 367 41 82 48 326 290 166 124 133 89 44 109 75 52 93 71 50 45
internal_count=1884 814 93 69 721 272 112 160 87 59 114 449 367 41 82 48 326 290 166 124 133 89 44 109 75 52 93 71 50 45
shrinkage=0.1


Tree=20
num_leaves=31
num_cat=0
split_feature=0 4 12 2 13 3 13 15 13 8 9 15 4 0 14 1 9 3 7 13 0 0 15 7 5 13 10 14 10 7
split_gain=3.47052 1.63876 2.07056 1.48937 2.44765 3.08428 3.01747 1.87156 3.14835 3.23001 2.69711 2.39548 2.25478 2.40352 1.93594 2.78717 1.80421 1.77247 3.2538 4.02558 1.70504 2.43389 1.68986 1.68808 1.63021 1.59363 1.49705 1.37475 1.36794 2.03728
threshold=28.500000000000004 4.5000000000000009 1.0000000180025095e-35 18.500000000000004 37.500000000000007 15.500000000000002 31.500000000000004 12.500000000000002 12.500000000000002 25.500000000000004 8.5000000000000018 26.500000000000004 1.5000000000000002 22.500000000000004 4.5000000000000009 2.5000000000000004 6.5000000000000009 7.5000000000000009 5.5000000000000009 5.5000000000000009 21.500000000000004 14.500000000000002 17.500000000000004 15.500000000000002 2.5000000000000004 4.5000000000000009 2.5000000000000004 24.500000000000004 2.5000000000000004 8.5000000000000018
decision_type=2 2 2 2 2 2 2 2 2 2 2 2 2 2 2 2 2 2 2 2 2 2 2 2 2 2 2 2 2 2
left_child=1 2 -1 -4 6 -6 7 14 9 11 -10 12 -9 22 15 -5 -17 24 26 23 21 -21 -14 -20 -16 -11 -19 -3 29 -26
right_child=-2 27 3 4 5 -7 -8 8 10 25 -12 -13 13 -15 17 16 -18 18 19 20 -22 -23 -24 -25 28 -27 -28 -29 -30 -31
leaf_value=0.016368218948101178 0.0058585329190757145 -0.024242287012748422 0.0039169968452663099 -0.018428500209535872 -0.0030520933126476973 0.044229358637874777 -0.037647084097067518 -0.048357290625572202 -0.05961917534470558 -0.0047387453416983284 -0.017843740981291323 0.0068450359197763299 0.01989137191664089 -0.040254017998549073 -0.015660611987113954 0.003600237488746643 0.038988588925670177 -0.016862633705139161 -0.041195745814231133 0.020231921970844269 0.024233518579067331 -0.018623480828184831 -0.018875120450621067 -0.0044753494007246835 0.019165459131040882 0.025750885605812075 -0.052629954706538806 -0.00060983691364526751 0.020603631843220106 -0.014631750470116027
leaf_weight=58 658 64 239 21 37 22 30 25 20 30 68 39 22 22 35 25 34 25 31 28 39 38 23 21 31 40 22 40 55 42
leaf_count=58 658 64 239 21 37 22 30 25 20 30 68 39 22 22 35 25 34 25 31 28 39 38 23 21 31 40 22 40 55 42
internal_value=0 -0.0031443 -0.00203121 -0.00303418 -0.00504792 0.0145783 -0.0065596 -0.00529245 -0.0115639 -0.00465776 -0.0273382 -0.0139243 -0.0227287 -0.0131658 -0.00123775 0.0128577 0.0239935 -0.00431033 -0.0105224 -0.00361237 0.00765627 -0.00213937 7.73869e-05 -0.0263664 0.00346426 0.0126839 -0.0336048 -0.0151529 0.00869371 -0.000279511
internal_weight=0 1226 1122 1064 825 59 766 736 289 201 88 131 92 67 447 80 59 367 204 157 105 66 45 52 163 70 47 104 128 73
internal_count=1884 1226 1122 1064 825 59 766 736 289 201 88 131 92 67 447 80 59 367 204 157 105 66 45 52 163 70 47 104 128 73
shrinkage=0.1


Tree=21
num_leaves=31
num_cat=0
split_feature=0 9 7 14 13 3 7 1 15 2 15 8 4 0 12 3 5 9 14 7 0 10 14 10 11 13 0 14 2 1
split_gain=2.81581 1.12379 1.7462 1.11288 1.22804 2.15407 2.58653 3.15653 3.93104 2.84693 2.24953 2.23547 2.07273 3.45234 2.18492 2.75932 2.6016 3.59548 2.17269 3.45144 1.86538 2.06859 1.83818 2.16021 1.74623 1.68093 1.50754 2.44856 2.29675 3.6667
threshold=29.500000000000004 59.500000000000007 78.500000000000014 62.500000000000007 12.500000000000002 29.500000000000004 14.500000000000002 2.5000000000000004 5.5000000000000009 25.500000000000004 20.500000000000004 22.500000000000004 1.5000000000000002 15.500000000000002 4.5000000000000009 12.500000000000002 4.5000000000000009 29.500000000000004 21.500000000000004 22.500000000000004 20.500000000000004 2.5000000000000004 4.5000000000000009 2.5000000000000004 2.5000000000000004 5.5000000000000009 17.500000000000004 18.500000000000004 20.500000000000004 9.5000000000000018
decision_type=2 2 2 2 2 2 2 2 2 2 2 2 2 2 2 2 2 2 2 2 2 2 2 2 2 2 2 2 2 2
left_child=1 2 3 4 5 6 7 8 -1 25 20 -12 13 -6 15 16 17 18 19 -14 21 -8 -17 -24 -15 -10 28 -28 -9 -30
right_child=-2 -3 -4 -5 12 -7 10 26 9 -11 11 -13 14 24 -16 22 -18 -19 -20 -21 -22 -23 23 -25 -26 -27 27 -29 29 -31
leaf_value=0.0049275698445060039 0.0055870279669761663 0.01217497108238084 -0.032575136125087743 0.020036264965754183 0.012754657322710212 -0.030764799273532369 0.017805144771680995 -0.025498329272324389 0.0034799516201019288 -0.048040410663400382 -0.032766917330974886 0.0059899788349866874 0.0024092649802183496 -0.0097139249245325743 -0.026411873178604325 0.035729906618595125 -0.041108264099983943 -0.04234785376624628 0.021724403884850051 -0.036675937793084555 0.027192618687533671 -0.011876747394219423 -0.022863419283004033 0.01456812509688838 -0.045031198362509413 -0.033946974930309119 0.0011035789323003986 0.028018371899460638 0.027739936902242548 -0.015983988039872863
leaf_weight=55 610 49 20 21 22 23 59 44 28 42 22 46 117 21 39 25 21 22 38 28 72 39 21 58 42 21 158 43 34 44
leaf_count=55 610 49 20 21 22 23 59 44 28 42 22 46 117 21 39 25 21 22 38 28 72 39 21 58 42 21 158 43 34 44
internal_value=0 -0.00267511 -0.00326911 -0.0027827 -0.00318743 -0.000647647 0.000332119 -0.00397663 -0.016179 -0.0289357 0.00882288 -0.00654902 -0.00727123 -0.0213494 -0.00402829 -0.00138295 -0.00758602 -0.00415204 0.000439809 -0.00513822 0.0149716 0.00599296 0.0120968 0.00461797 -0.0332588 -0.0125602 0.00153898 0.00686147 -0.00723003 0.00307516
internal_weight=0 1274 1225 1205 1184 730 707 469 146 91 238 68 454 85 369 330 226 205 183 145 170 98 104 79 63 49 323 201 122 78
internal_count=1884 1274 1225 1205 1184 730 707 469 146 91 238 68 454 85 369 330 226 205 183 145 170 98 104 79 63 49 323 201 122 78
shrinkage=0.1


Tree=22
num_leaves=31
num_cat=0
split_feature=0 12 7 14 7 0 4 2 3 3 2 14 15 8 7 4 14 9 15 5 15 7 3 1 13 4 0 3 15 11
split_gain=2.33384 0.954488 1.49183 1.86936 3.36791 1.42226 1.21195 1.19422 3.40103 1.7408 1.81182 2.34465 1.56551 1.64529 1.38856 1.50314 1.51736 2.47497 1.34771 1.72996 3.65383 2.12523 2.00514 1.9092 1.67839 2.36261 1.67332 1.74098 1.19063 1.25196
threshold=21.500000000000004 4.5000000000000009 1.5000000000000002 30.500000000000004 28.500000000000004 13.500000000000002 2.5000000000000004 34.500000000000007 21.500000000000004 12.500000000000002 38.500000000000007 5.5000000000000009 34.500000000000007 40.500000000000007 35.500000000000007 1.5000000000000002 6.5000000000000009 13.500000000000002 11.500000000000002 3.5000000000000004 8.5000000000000018 6.5000000000000009 16.500000000000004 9.5000000000000018 14.500000000000002 2.5000000000000004 16.500000000000004 7.5000000000000009 36.500000000000007 2.5000000000000004
decision_type=2 2 2 2 2 2 2 2 2 2 2 2 2 2 2 2 2 2 2 2 2 2 2 2 2 2 2 2 2 2
left_child=1 2 -1 7 5 -5 -7 12 9 10 -9 -12 13 14 15 16 -4 -18 19 21 23 -17 24 -21 25 -23 27 -20 29 -3
right_child=-2 28 3 4 -6 6 -8 8 -10 -11 11 -13 -14 -15 -16 18 17 -19 26 20 -22 22 -24 -25 -26 -27 -28 -29 -30 -31
leaf_value=0.020207597425690407 0.0030698371675109198 0.012355536628853192 -0.037053535665784565 0.021623939424753189 0.044746868454274683 0.0033196116829740593 -0.028224524325646816 -0.030605954262945392 -0.049168238302935728 0.015734441922261165 0.023593695887497493 -0.023660903317587717 0.023230888659045809 -0.032740349024534231 -0.0249690803033965 0.011112554089443104 -0.018960451982591466 0.023176510483026505 0.016124714280550297 0.027215464918741158 -0.030400491058826445 -0.03610461120094572 0.011924266070127488 -0.0081409200316383736 -0.045076406836509708 0.0028674675311361041 0.027219163072414888 -0.023119374588131906 -0.03347180978111599 -0.017215166495340627
leaf_weight=27 1070 22 21 20 21 29 21 36 23 26 21 21 21 20 28 37 46 20 26 56 20 28 20 21 25 35 39 20 23 41
leaf_count=27 1070 22 21 20 21 29 21 36 23 26 21 21 21 20 28 37 46 20 26 56 20 28 20 21 25 35 39 20 23 41
internal_value=0 -0.00403529 -0.00285834 -0.00374676 0.00962326 -0.000913821 -0.00992893 -0.0057413 -0.0143701 -0.00667433 -0.0141439 -3.36037e-05 -0.00347246 -0.00468624 -0.00341683 -0.00195919 -0.0136411 -0.00619168 0.00114884 -0.00265591 0.00768141 -0.00957123 -0.0166573 0.0175728 -0.0231532 -0.0144535 0.0119812 -0.000937933 -0.0139983 -0.00688889
internal_weight=0 814 728 701 91 70 50 610 127 104 78 42 483 462 442 414 87 66 327 242 97 145 108 77 88 63 85 46 86 63
internal_count=1884 814 728 701 91 70 50 610 127 104 78 42 483 462 442 414 87 66 327 242 97 145 108 77 88 63 85 46 86 63
shrinkage=0.1


Tree=23
num_leaves=31
num_cat=0
split_feature=0 4 12 15 14 15 2 13 13 15 14 12 1 7 9 4 13 13 1 0 1 3 9 15 15 3 1 14 7 13
split_gain=2.02089 1.40116 1.59068 1.24562 1.92863 1.19986 1.17788 2.38426 2.06595 2.25341 2.02207 2.60762 1.775 1.72325 2.10771 2.26125 2.24322 1.75309 2.00325 2.4387 1.60568 3.00171 2.21954 2.07437 2.63298 2.22862 2.01385 1.54568 1.49164 2.33638
threshold=28.500000000000004 4.5000000000000009 1.0000000180025095e-35 6.5000000000000009 24.500000000000004 16.500000000000004 20.500000000000004 37.500000000000007 31.500000000000004 5.5000000000000009 3.5000000000000004 2.5000000000000004 10.500000000000002 42.500000000000007 3.5000000000000004 2.5000000000000004 24.500000000000004 18.500000000000004 2.5000000000000004 20.500000000000004 6.5000000000000009 20.500000000000004 18.500000000000004 11.500000000000002 25.500000000000004 7.5000000000000009 14.500000000000002 11.500000000000002 14.500000000000002 2.5000000000000004
decision_type=2 2 2 2 2 2 2 2 2 2 2 2 2 2 2 2 2 2 2 2 2 2 2 2 2 2 2 2 2 2
left_child=1 2 -1 -3 5 -5 28 8 9 10 -8 -12 -9 14 15 -11 17 18 19 27 -20 22 23 25 26 -22 -25 -16 -4 -30
right_child=-2 3 6 4 -6 -7 7 12 -10 13 11 -13 -14 -15 16 -17 -18 -19 20 -21 21 -23 -24 24 -26 -27 -28 -29 29 -31
leaf_value=0.014756815623620462 0.0044705715777754425 -0.030297433464757856 -0.0020567939956606281 -0.0033614347999294603 0.014844244056277807 -0.035693082619797104 0.033970220316024057 0.036028081675370534 -0.03262997269630432 -0.0099019123160320795 -0.0094641691192667542 0.01735701036907859 -0.00019574601563715168 -0.036404982776868912 -0.021291412277655169 0.03354521572589874 0.016951923072338105 -0.038846566595814452 0.0094565724071703459 -0.002089316315121121 0.033048136979341509 -0.037682346440851694 0.019438865524716676 -0.013046440325285258 0.0056524586948481477 -0.010046931505203248 -0.047094788821414116 -0.054644358778993291 0.043245592638850215 0.0053815435110168026
leaf_weight=58 658 31 211 24 27 22 21 24 28 23 94 59 31 21 33 25 30 22 57 36 20 32 32 38 33 30 32 24 20 88
leaf_count=58 658 31 211 24 27 22 21 24 28 23 94 59 31 21 33 25 30 22 57 36 20 32 32 38 33 30 32 24 20 88
internal_value=0 -0.00239938 -0.00137013 -0.0135033 -0.00637161 -0.0188244 -0.00224923 -0.00442643 -0.00602361 -0.00489827 0.00487245 0.000878639 0.015611 -0.00838209 -0.00712196 0.0127268 -0.0093958 -0.0114278 -0.00978413 -0.0224656 -0.00547985 -0.00940324 -0.00451172 -0.00952099 -0.0176337 0.0071911 -0.0286114 -0.0353348 0.00283544 0.0123934
internal_weight=0 1226 1122 104 73 46 1064 745 690 662 174 153 55 488 467 48 419 389 367 93 274 217 185 153 103 50 70 57 319 108
internal_count=1884 1226 1122 104 73 46 1064 745 690 662 174 153 55 488 467 48 419 389 367 93 274 217 185 153 103 50 70 57 319 108
shrinkage=0.1


Tree=24
num_leaves=31
num_cat=0
split_feature=0 9 11 12 3 2 15 9 9 15 11 0 15 1 1 3 7 7 11 8 7 0 1 13 13 7 1 7 13 1
split_gain=1.64804 0.935915 1.33161 0.921005 1.16774 1.10689 1.8917 2.63713 1.8651 1.87996 2.81301 3.75338 3.31146 1.71223 1.84617 2.89806 2.32029 2.74894 1.63976 1.5997 1.50184 2.13129 1.46041 2.36027 2.08485 2.02438 1.78339 1.63334 1.59986 1.41297
threshold=29.500000000000004 59.500000000000007 5.5000000000000009 1.0000000180025095e-35 1.5000000000000002 20.500000000000004 5.5000000000000009 2.5000000000000004 3.5000000000000004 23.500000000000004 2.5000000000000004 20.500000000000004 30.500000000000004 13.500000000000002 5.5000000000000009 15.500000000000002 14.500000000000002 11.500000000000002 2.5000000000000004 27.500000000000004 13.500000000000002 17.500000000000004 2.5000000000000004 8.5000000000000018 11.500000000000002 14.500000000000002 9.5000000000000018 10.500000000000002 12.500000000000002 1.0000000180025095e-35
decision_type=2 2 2 2 2 2 2 2 2 2 2 2 2 2 2 2 2 2 2 2 2 2 2 2 2 2 2 2 2 2
left_child=1 2 3 4 -1 13 7 -7 -8 22 -11 19 -13 14 16 20 17 18 -5 -12 21 -16 24 -24 25 -10 27 -25 -28 -18
right_child=-2 -3 -4 5 -6 6 8 -9 9 10 11 12 -14 -15 15 -17 29 -19 -20 -21 -22 -23 23 26 -26 -27 28 -29 -30 -31
leaf_value=-0.0090195109662802326 0.0042742844671010971 0.011505448529306725 -0.027553178724788487 0.02095006625441944 0.018785326860167765 -0.029171471975066445 0.0079053861253401813 0.0075055515290134494 -0.049010942073968743 -0.02317157104993478 0.0032936117865822534 0.047504821221033736 0.002796774498514227 0.016558991716458245 -0.030560451169167797 0.020605830103158952 0.0079302109364006255 -0.037266020327806473 -0.0074013432451322976 -0.035783075392246247 -0.041939751285573715 0.0065209041680059131 0.00050695495605468756 0.010967497341334821 -0.0055970164506058944 -0.010500404664448329 -0.048930087996025884 -0.020983087294735015 -0.019010857833283289 0.038876623392105104
leaf_weight=23 610 49 21 34 44 22 68 180 39 39 22 30 37 65 31 22 36 20 51 20 23 31 125 32 38 21 24 32 70 25
leaf_count=23 610 49 21 34 44 22 68 180 39 39 22 30 37 65 31 22 36 20 51 20 23 31 125 32 38 21 24 32 70 25
internal_value=0 -0.00204656 -0.00258864 -0.00215321 0.00924038 -0.0028246 -0.00485395 0.00351102 -0.00768431 -0.00968828 -0.000123433 0.00812315 0.0228153 0.0019726 -0.00150035 -0.0117431 0.00510191 -0.0039094 0.00393922 -0.0153143 -0.0201158 -0.0120198 -0.0134038 -0.00976047 -0.0239247 -0.0355323 -0.0178834 -0.00500779 -0.0266498 0.0206132
internal_weight=0 1274 1225 1204 67 1137 799 202 597 529 148 109 67 338 273 107 166 105 85 42 85 62 381 283 98 60 158 64 94 61
internal_count=1884 1274 1225 1204 67 1137 799 202 597 529 148 109 67 338 273 107 166 105 85 42 85 62 381 283 98 60 158 64 94 61
shrinkage=0.1


Tree=25
num_leaves=31
num_cat=0
split_feature=0 14 1 8 11 1 13 13 1 0 8 8 8 15 7 15 14 0 7 4 8 3 11 12 9 14 2 7 3 5
split_gain=1.33491 0.895786 0.867954 1.30537 1.20392 0.894852 1.52755 3.07169 2.62628 1.09447 1.0896 0.95181 1.25001 1.21342 4.90416 2.25218 4.08861 2.12545 1.94194 1.99776 2.02904 1.64017 1.51973 2.37534 2.36227 1.87268 2.30602 1.80011 1.50774 1.56063
threshold=29.500000000000004 64.500000000000014 23.500000000000004 63.500000000000007 3.5000000000000004 21.500000000000004 37.500000000000007 31.500000000000004 6.5000000000000009 18.500000000000004 51.500000000000007 40.500000000000007 35.500000000000007 12.500000000000002 3.5000000000000004 25.500000000000004 22.500000000000004 26.500000000000004 22.500000000000004 1.5000000000000002 24.500000000000004 3.5000000000000004 2.5000000000000004 3.5000000000000004 4.5000000000000009 3.5000000000000004 28.500000000000004 14.500000000000002 25.500000000000004 2.5000000000000004
decision_type=2 2 2 2 2 2 2 2 2 2 2 2 2 2 2 2 2 2 2 2 2 2 2 2 2 2 2 2 2 2
left_child=1 2 3 5 -4 6 7 10 -8 -9 11 12 13 22 -15 16 17 18 19 -16 -21 -17 23 25 -24 -1 27 -27 29 -26
right_child=-2 -3 4 -5 -6 -7 8 9 -10 -11 -12 -13 -14 14 15 21 -18 -19 -20 20 -22 -23 24 -25 28 26 -28 -29 -30 -31
leaf_value=0.029531863428976225 0.0038468558341264725 0.017714195925256481 -0.0027140326669503907 -0.023929071015325085 0.019366597366887471 -0.020775676690615141 0.039957737145216575 -0.013722127534094311 -0.0052913071780369206 -0.046408680975437169 0.019309528792897861 -0.017773516436940747 0.016643310669395658 -0.043880923634225674 -0.029748253524303436 0.034697001817680539 0.024085903552270707 -0.044465599920261993 -0.032546858303248882 -0.0071695724600239806 0.027491716916362447 0.0024897045688703659 -0.02100531824398786 0.033676932084149333 -0.01026897926496554 -0.0019903326911084795 -0.022121304693894509 0.024955778036798753 -0.026552557051181792 0.0060970479857411471
leaf_weight=23 610 23 58 29 43 26 23 21 29 20 24 38 36 33 24 21 31 22 32 57 24 64 64 29 79 85 39 35 20 222
leaf_count=23 610 23 58 29 43 26 23 21 29 20 24 38 36 33 24 21 31 22 32 57 24 64 64 29 79 85 39 35 20 222
internal_value=0 -0.0018419 -0.00220145 -0.00298205 0.00668663 -0.00244016 -0.00200479 -0.00283876 0.0147227 -0.0296668 -0.00174101 -0.00225759 -0.00163035 -0.00235806 -0.00745453 -0.00308336 -0.00913633 -0.0156136 -0.0109805 -0.00440783 0.00310044 0.0104468 0.000275689 0.00709672 -0.00346259 0.00286141 -0.000996584 0.00586895 3.50285e-05 0.00180165
internal_weight=0 1274 1251 1150 101 1121 1095 1043 52 41 1002 978 940 904 308 275 190 159 137 105 81 85 596 211 385 182 159 120 321 301
internal_count=1884 1274 1251 1150 101 1121 1095 1043 52 41 1002 978 940 904 308 275 190 159 137 105 81 85 596 211 385 182 159 120 321 301
shrinkage=0.1


Tree=26
num_leaves=31
num_cat=0
split_feature=0 2 2 3 3 15 14 8 8 12 2 8 0 3 1 1 2 1 15 9 14 5 13 15 0 6 14 13 13 6
split_gain=1.17704 0.714075 1.28665 0.939373 1.43022 1.4867 1.04015 0.863045 0.883226 0.969987 1.133 0.909081 1.45837 1.95689 1.07917 1.85886 3.09633 1.5871 1.26461 1.38536 1.29829 1.22724 1.27152 1.34228 1.13336 1.11374 1.01766 0.990576 2.26874 1.20738
threshold=21.500000000000004 42.500000000000007 45.500000000000007 29.500000000000004 22.500000000000004 11.500000000000002 48.500000000000007 51.500000000000007 40.500000000000007 4.5000000000000009 29.500000000000004 26.500000000000004 10.500000000000002 9.5000000000000018 3.5000000000000004 11.500000000000002 15.500000000000002 9.5000000000000018 12.500000000000002 4.5000000000000009 8.5000000000000018 2.5000000000000004 11.500000000000002 4.5000000000000009 15.500000000000002 2.5000000000000004 6.5000000000000009 6.5000000000000009 2.5000000000000004 3.5000000000000004
decision_type=2 2 2 2 2 2 2 2 2 2 2 2 2 2 2 2 2 2 2 2 2 2 2 2 2 2 2 2 2 2
left_child=1 3 -3 4 6 -6 7 8 9 11 -11 14 -13 26 21 16 -16 18 19 -18 -21 25 23 -23 -24 -1 -14 28 -17 -29
right_child=-2 2 -4 -5 5 -7 -8 -9 -10 10 -12 12 13 -15 15 27 17 -19 -20 20 -22 22 24 -25 -26 -27 -28 29 -30 -31
leaf_value=0.0054755423218011863 0.0021800945424170141 -0.032572389461777429 -0.00073333114385604864 0.016588722771176925 -0.0033480581045150755 -0.03944008109115419 0.01659734529753526 0.015067631558135706 -0.023868276998400689 -0.026033592138971603 0.0038028675317764286 0.028112260699272158 -0.005373045653104782 -0.018890652898699047 -0.047973622705625454 -0.0072702338993549352 -0.019711201861500743 -0.026480146394007739 -0.024717800766229633 0.031566274017095566 0.00083822160959243783 0.022558899670839311 0.03882209360599518 -0.0078450024690268176 0.007011309669663509 -0.024397863046481061 0.02321381632125739 -0.014174099631131965 0.036248745024204256 0.01421075612306595
leaf_weight=24 1070 22 30 26 25 21 30 27 20 35 20 25 20 32 23 25 20 36 20 20 44 20 21 53 24 26 33 47 23 22
leaf_count=24 1070 22 30 26 25 21 30 27 20 35 20 25 20 32 23 25 20 36 20 20 44 20 21 53 24 26 33 47 23 22
internal_value=0 -0.00286573 -0.0142037 -0.00209201 -0.00275192 -0.0198249 -0.00161373 -0.0024415 -0.00318834 -0.00251363 -0.015184 -0.00126476 0.00688092 0.000636402 -0.00326481 -0.00706654 -0.0139696 -0.00838327 -0.00211897 0.0032617 0.0104407 0.00307141 0.00863499 0.000484834 0.0218563 -0.0100586 0.0124263 0.00255059 0.0135826 -0.00512386
internal_weight=0 814 52 762 736 46 690 660 633 613 55 558 110 85 448 280 163 140 104 84 64 168 118 73 45 50 53 117 48 69
internal_count=1884 814 52 762 736 46 690 660 633 613 55 558 110 85 448 280 163 140 104 84 64 168 118 73 45 50 53 117 48 69
shrinkage=0.1


Tree=27
num_leaves=31
num_cat=0
split_feature=0 1 11 8 5 10 13 13 8 9 15 7 2 9 9 14 14 8 7 10 9 10 14 0 11 15 9 8 7 14
split_gain=0.953402 0.640654 1.08626 1.07063 2.27215 2.08413 1.8029 1.09713 1.44275 2.18996 1.32349 2.98098 3.14421 3.41963 1.77061 1.72777 1.22128 1.86242 1.8688 1.42745 1.68392 1.27871 2.16102 1.92975 1.8188 1.86008 1.60673 1.19498 1.07638 0.726352
threshold=21.500000000000004 23.500000000000004 3.5000000000000004 40.500000000000007 4.5000000000000009 2.5000000000000004 37.500000000000007 28.500000000000004 30.500000000000004 10.500000000000002 12.500000000000002 6.5000000000000009 20.500000000000004 7.5000000000000009 8.5000000000000018 11.500000000000002 12.500000000000002 21.500000000000004 9.5000000000000018 2.5000000000000004 7.5000000000000009 2.5000000000000004 14.500000000000002 13.500000000000002 3.5000000000000004 5.5000000000000009 12.500000000000002 24.500000000000004 15.500000000000002 7.5000000000000009
decision_type=2 2 2 2 2 2 2 2 2 2 2 2 2 2 2 2 2 2 2 2 2 2 2 2 2 2 2 2 2 2
left_child=1 3 -3 6 5 -5 7 8 10 -10 16 -12 14 -14 -13 28 17 -1 19 20 -19 22 -18 -23 25 -24 -25 29 -15 -20
right_child=-2 2 -4 4 -6 -7 -8 -9 9 -11 11 12 13 15 -16 -17 21 18 27 -21 -22 23 24 26 -26 -27 -28 -29 -30 -31
leaf_value=-0.012334030691315147 0.0019620849846679472 -0.0045937815824380291 0.026404933896847074 -0.025267186835408212 -0.042613871448806358 0.01983831042335147 0.02270749296460833 -0.018644738786442336 0.032435819866328403 -0.0038503915453568481 -0.035863676431931946 -0.00232672318816185 -0.05135602131485939 0.025153901875019077 0.03779364468699152 -0.024402551868787179 -0.027833749070054009 -0.0098234994070870545 -0.0025204428635975896 0.041959465457045514 0.026851656744557043 0.0026731668505817654 0.0033303096890449527 -0.04507754147052765 -0.01074632526405396 0.042701222286337902 -0.007681626081466675 -0.017282208002039365 -0.0072613282572655457 0.018827861485381923
leaf_weight=51 1070 26 20 20 21 21 28 43 29 39 38 22 20 20 22 26 21 21 34 23 31 32 28 27 31 21 20 28 21 30
leaf_count=51 1070 26 20 20 21 21 28 43 29 39 38 22 20 20 22 26 21 21 34 23 31 32 28 27 31 21 20 28 21 30
internal_value=0 -0.00257915 0.00888392 -0.00326574 -0.015865 -0.00216437 -0.00215929 -0.00318624 -0.00213944 0.0116246 -0.00379016 -0.0112044 -0.00405133 -0.0150689 0.0177335 -0.00423696 -0.0006419 0.00439165 0.00949949 0.0212157 0.0120405 -0.00673808 0.000716134 -0.0162682 0.00821048 0.0202036 -0.0291644 -5.17504e-05 0.00855098 0.00748657
internal_weight=0 814 46 768 62 41 706 678 635 68 567 169 131 87 44 67 398 218 167 75 52 180 101 79 80 49 47 92 41 64
internal_count=1884 814 46 768 62 41 706 678 635 68 567 169 131 87 44 67 398 218 167 75 52 180 101 79 80 49 47 92 41 64
shrinkage=0.1


Tree=28
num_leaves=31
num_cat=0
split_feature=0 7 14 3 13 3 4 0 9 5 14 7 1 0 12 10 11 7 10 3 11 14 14 15 14 13 15 5 2 11
split_gain=0.838026 0.776351 1.37108 0.861731 0.972375 2.81255 1.95947 1.99375 1.58344 1.63718 2.1081 1.2655 2.08066 2.88873 1.99023 1.97698 1.87463 2.55756 2.34601 1.58243 1.66855 2.35874 1.7693 1.54916 1.39604 1.24584 1.78956 2.30911 1.22762 1.19017
threshold=29.500000000000004 84.500000000000014 63.500000000000007 36.500000000000007 12.500000000000002 29.500000000000004 1.5000000000000002 15.500000000000002 20.500000000000004 4.5000000000000009 10.500000000000002 14.500000000000002 2.5000000000000004 23.500000000000004 2.5000000000000004 3.5000000000000004 3.5000000000000004 22.500000000000004 2.5000000000000004 9.5000000000000018 2.5000000000000004 16.500000000000004 7.5000000000000009 9.5000000000000018 11.500000000000002 1.5000000000000002 16.500000000000004 3.5000000000000004 25.500000000000004 2.5000000000000004
decision_type=2 2 2 2 2 2 2 2 2 2 2 2 2 2 2 2 2 2 2 2 2 2 2 2 2 2 2 2 2 2
left_child=1 2 3 4 5 8 7 -6 9 11 -11 12 13 14 -1 19 17 28 -19 20 22 23 -14 -22 -16 -10 27 -27 -13 -9
right_child=-2 -3 -4 -5 6 -7 -8 29 25 10 -12 16 15 -15 24 -17 -18 18 -20 -21 21 -23 -24 -25 -26 26 -28 -29 -30 -31
leaf_value=0.010133377788588405 0.0030479524284601212 -0.020527600461528416 0.023604422833093192 0.019005970731377605 0.0073451849676313859 -0.036683653518557548 -0.0024621021218205752 -0.0087960018998100645 -0.0084038728227217984 -0.010027073621749878 0.025914171781945741 0.022880711848182338 0.037364130629145585 -0.049346039994903237 -0.0033335990848995392 0.022413652846890113 0.019626816998828542 0.0016759389042854311 -0.041646228790283207 -0.014630970229273258 0.0033310502235378535 0.024357898980379107 -0.0010673781037330626 -0.027337475530803203 -0.038307862997055055 0.029755465373877556 0.041365606823693155 -0.0066059675719589003 -0.0032447597062265549 -0.037952891205038343
leaf_weight=32 610 21 22 20 21 20 380 21 24 25 47 35 23 23 21 31 55 25 25 92 28 20 25 40 25 31 23 40 37 42
leaf_count=32 610 21 22 20 21 20 380 21 24 25 47 35 23 23 21 31 55 25 25 92 28 20 25 40 25 31 23 40 37 42
internal_value=0 -0.00145938 -0.0011398 -0.00158202 -0.00192204 0.000311244 -0.00551743 -0.0193391 0.00132899 -0.000725327 0.0134346 -0.00262386 -0.00602778 -0.0182019 -0.00901839 -0.00128034 0.00429936 -0.00261056 -0.0199851 -0.00450189 0.00235014 -0.00583036 0.0173477 -0.0147093 -0.0223414 0.0119313 0.0171233 0.00927015 0.00945512 -0.0282339
internal_weight=0 1274 1253 1231 1211 747 464 84 727 609 72 537 360 101 78 259 177 122 50 228 136 88 48 68 46 118 94 71 72 63
internal_count=1884 1274 1253 1231 1211 747 464 84 727 609 72 537 360 101 78 259 177 122 50 228 136 88 48 68 46 118 94 71 72 63
shrinkage=0.1


Tree=29
num_leaves=31
num_cat=0
split_feature=0 2 1 6 0 3 8 0 8 13 13 15 9 10 7 8 2 1 8 7 0 0 14 13 4 0 13 7 13 1
split_gain=0.785868 1.36093 1.32216 2.66223 1.9216 2.86745 2.055 1.89774 2.46535 1.39059 2.57518 2.39467 1.3664 0.994713 0.928535 0.781233 0.753916 0.581533 0.991293 0.996869 0.960755 1.47793 2.20349 1.88848 2.12239 0.586614 1.41041 1.2866 0.995899 0.934773
threshold=17.500000000000004 37.500000000000007 5.5000000000000009 1.5000000000000002 14.500000000000002 4.5000000000000009 22.500000000000004 10.500000000000002 22.500000000000004 2.5000000000000004 14.500000000000002 8.5000000000000018 9.5000000000000018 2.5000000000000004 9.5000000000000018 22.500000000000004 24.500000000000004 2.5000000000000004 30.500000000000004 9.5000000000000018 29.500000000000004 26.500000000000004 26.500000000000004 13.500000000000002 2.5000000000000004 19.500000000000004 3.5000000000000004 10.500000000000002 15.500000000000002 12.500000000000002
decision_type=2 2 2 2 2 2 2 2 2 2 2 2 2 2 2 2 2 2 2 2 2 2 2 2 2 2 2 2 2 2
left_child=1 2 3 -1 7 -6 -7 12 -9 -5 11 15 -4 -3 -12 -11 -10 18 20 -20 21 22 23 24 -2 26 -19 29 -29 -28
right_child=17 13 4 9 5 6 -8 8 16 10 14 -13 -14 -15 -16 -17 -18 25 19 -21 -22 -23 -24 -25 -26 -27 27 28 -30 -31
leaf_value=-0.022980039542721167 -0.0026184128795532472 -0.027590419996429135 0.0035760274087941208 0.028003784485401646 -0.048250982817262415 0.018682326674461364 -0.022179485065862536 -0.012465809484322868 0.033821167821685476 -0.008358770310878753 0.006885616595928486 -0.024406374990940095 -0.026556265792425943 -0.0035136871039867404 0.031989946380695876 0.01605852814023628 0.0087559834122657772 -0.012855492329055612 -0.0078754546741644556 0.017672769570102297 0.0027431571856141091 -0.028935340588743037 -0.033914887363260447 -0.019293177640065551 0.03344440567493439 0.0015918016773260508 0.043703311532735822 -0.012725971974432468 0.018831890746951102 0.013129256963729859
leaf_weight=31 47 37 27 31 24 20 32 30 30 20 26 39 34 32 34 38 20 22 24 42 92 33 22 32 25 960 20 20 20 20
leaf_count=31 47 37 27 31 24 20 32 30 30 20 26 39 34 32 34 38 20 22 24 42 92 33 22 32 25 960 20 20 20 20
internal_value=0 -0.00337498 -0.00130982 0.00417178 -0.00684194 -0.0196595 -0.0064634 6.68094e-05 0.0101973 0.00864894 0.00482729 -0.00524536 -0.013219 -0.0164244 0.0211114 0.00763877 0.0237951 0.00123594 -0.00252276 0.00838251 -0.00539028 -0.0100964 -0.00516242 0.000919837 0.0099034 0.00235789 0.00956813 0.0157346 0.00305296 0.0284163
internal_weight=0 505 436 219 217 76 52 141 80 188 157 97 61 69 60 58 50 1379 317 66 251 159 126 104 72 1062 102 80 40 40
internal_count=1884 505 436 219 217 76 52 141 80 188 157 97 61 69 60 58 50 1379 317 66 251 159 126 104 72 1062 102 80 40 40
shrinkage=0.1


Tree=30
num_leaves=31
num_cat=0
split_feature=0 14 14 0 5 7 11 14 1 9 1 2 1 14 10 14 2 6 2 3 14 0 2 4 12 0 0 14 14 4
split_gain=0.636553 1.40702 1.38782 1.5085 2.19829 1.86027 1.00474 1.4663 1.41464 1.57834 1.76928 1.1633 1.07968 1.25232 0.781815 0.975032 1.06777 0.745545 0.476103 0.94752 1.48428 1.12075 0.811123 0.773069 0.706168 0.834726 0.726886 1.71546 1.35324 1.30082
threshold=17.500000000000004 35.500000000000007 18.500000000000004 12.500000000000002 3.5000000000000004 13.500000000000002 2.5000000000000004 14.500000000000002 4.5000000000000009 11.500000000000002 11.500000000000002 21.500000000000004 1.0000000180025095e-35 8.5000000000000018 3.5000000000000004 3.5000000000000004 22.500000000000004 2.5000000000000004 17.500000000000004 3.5000000000000004 17.500000000000004 29.500000000000004 12.500000000000002 1.5000000000000002 1.0000000180025095e-35 27.500000000000004 28.500000000000004 34.500000000000007 45.500000000000007 4.5000000000000009
decision_type=2 2 2 2 2 2 2 2 2 2 2 2 2 2 2 2 2 2 2 2 2 2 2 2 2 2 2 2 2 2
left_child=1 2 6 4 -4 -5 7 14 12 11 -11 -10 13 -8 15 -1 -17 -3 19 21 22 -2 -21 -22 25 -20 27 29 -29 -26
right_child=18 17 3 5 -6 -7 8 -9 9 10 -12 -13 -14 -15 -16 16 -18 -19 24 20 23 -23 -24 -25 26 -27 -28 28 -30 -31
leaf_value=0.031278382079756778 0.029300557425425901 0.026388028805906124 0.01754469739703032 -0.045906530206020063 -0.024424900549153486 -0.0084301977107922241 -0.016197526374378723 -0.020471765771508218 -0.041453254719575248 -0.017352116935782962 0.020851430567828094 -0.013732444785717057 0.019295540345566617 0.012127182936226881 -0.0046849803999066356 0.019129853268774848 -0.0061890337255693251 0.0024742919966229239 0.018888666550087377 -0.02232037600129843 0.025460649548989273 0.0026215594727545979 8.7740793824195868e-05 0.0040404125101982605 0.00071665246047674974 -0.00081525902848604114 0.0023829168150488571 -0.033225365728139881 -0.0043369056547389309 -0.017092485692765978
leaf_weight=23 31 22 26 26 24 27 37 20 24 27 22 41 28 27 32 36 31 32 43 30 23 32 35 63 463 43 506 31 34 45
leaf_count=23 31 22 26 26 24 27 37 20 24 27 22 41 28 27 32 36 31 32 43 30 23 32 35 63 463 43 506 31 34 45
internal_value=0 -0.00303748 -0.00486395 -0.0150604 -0.00260071 -0.0268148 -0.00184604 0.00462579 -0.0063072 -0.0137516 -0.000199504 -0.0239678 0.0029174 -0.00424804 0.00874015 0.0135135 0.00741514 0.0122169 0.00111235 0.0054477 0.00114967 0.0157493 -0.0102545 0.00976908 0.000315982 0.0090367 -0.000379089 -0.00281814 -0.0181145 -0.000860929
internal_weight=0 505 451 103 50 53 348 142 206 114 49 65 92 64 122 90 67 54 1379 214 151 63 65 86 1165 86 1079 573 65 508
internal_count=1884 505 451 103 50 53 348 142 206 114 49 65 92 64 122 90 67 54 1379 214 151 63 65 86 1165 86 1079 573 65 508
shrinkage=0.1


Tree=31
num_leaves=31
num_cat=0
split_feature=0 1 11 8 13 1 13 3 1 2 8 12 14 2 15 14 12 7 14 13 3 3 7 15 13 13 10 9 9 0
split_gain=0.531874 0.520683 0.812183 0.796362 0.987969 1.65311 1.46876 0.656439 1.21965 1.28558 0.754306 2.32474 1.12879 1.32683 1.22326 1.00567 1.44041 3.55599 1.31108 1.11102 1.35326 1.88882 2.11776 1.08438 1.00119 0.902725 1.86065 1.46554 0.507185 1.8993
threshold=21.500000000000004 23.500000000000004 3.5000000000000004 63.500000000000007 35.500000000000007 8.5000000000000018 28.500000000000004 19.500000000000004 2.5000000000000004 34.500000000000007 22.500000000000004 3.5000000000000004 2.5000000000000004 16.500000000000004 15.500000000000002 2.5000000000000004 3.5000000000000004 6.5000000000000009 12.500000000000002 8.5000000000000018 9.5000000000000018 2.5000000000000004 10.500000000000002 11.500000000000002 8.5000000000000018 9.5000000000000018 2.5000000000000004 7.5000000000000009 9.5000000000000018 16.500000000000004
decision_type=2 2 2 2 2 2 2 2 2 2 2 2 2 2 2 2 2 2 2 2 2 2 2 2 2 2 2 2 2 2
left_child=1 3 -3 4 6 -6 7 10 -9 -10 11 12 -1 -14 25 -12 19 -18 -19 23 21 -21 -23 28 -13 27 -27 -15 29 -17
right_child=-2 2 -4 -5 5 -7 -8 8 9 -11 15 24 13 14 -16 16 17 18 -20 20 -22 22 -24 -25 -26 26 -28 -29 -30 -31
leaf_value=0.02252168230712414 0.0014654945447620997 -0.0032462356612086296 0.023558041465003045 -0.022238291874527933 0.031039655046618504 -0.0077668083565575743 -0.022896938196250372 -0.026295969982941949 0.0098507316531361768 -0.020674851265820592 -0.014849255726702752 -0.010954211165125554 0.014090156978046574 -0.012436188371093185 -0.02947301325343904 -0.021249677817667685 -0.017756269943146479 0.048122256870071101 0.015400530070997776 0.018754123354499993 0.026124703933795297 0.0099014061316847809 -0.035566542262122747 0.0097685508217130387 -0.039596342975678656 -0.034777924757112159 0.0047364199390778176 0.018770126866943695 -0.018422177830791992 0.015028669657530608
leaf_weight=20 1070 26 20 20 23 21 35 30 37 22 31 26 37 27 21 31 21 24 25 33 30 20 21 35 23 22 26 34 46 27
leaf_count=20 1070 26 20 20 23 21 35 30 37 22 31 26 37 27 21 31 21 24 25 33 30 20 21 35 23 22 26 34 46 27
internal_value=0 -0.00192639 0.0084078 -0.00254536 -0.00201881 0.0125184 -0.00292739 -0.00188264 -0.0098792 -0.00153169 -0.000655585 -0.00500953 7.09945e-05 -0.00261771 -0.00737303 0.00233142 0.00403303 0.0166724 0.0314275 0.000392062 0.00820921 0.000946173 -0.0133871 -0.00545674 -0.0243985 -0.00311523 -0.0133743 0.0049575 -0.0105806 -0.00436148
internal_weight=0 814 46 768 748 44 704 669 89 59 580 236 187 167 130 344 313 70 49 243 104 74 41 139 49 109 48 61 104 58
internal_count=1884 814 46 768 748 44 704 669 89 59 580 236 187 167 130 344 313 70 49 243 104 74 41 139 49 109 48 61 104 58
shrinkage=0.1


end of trees

feature_importances:
Column_0=108
Column_7=92
Column_14=92
Column_2=89
Column_1=82
Column_13=72
Column_15=64
Column_3=62
Column_9=61
Column_8=55
Column_4=39
Column_10=39
Column_11=36
Column_12=33
Column_5=20
Column_6=16

parameters:
[boosting: gbdt]
[objective: regression]
[metric: l2]
[tree_learner: serial]
[device_type: cpu]
[data: ]
[valid: ]
[num_iterations: 10000]
[learning_rate: 0.1]
[num_leaves: 31]
[num_threads: 0]
[deterministic: 0]
[force_col_wise: 0]
[force_row_wise: 0]
[histogram_pool_size: -1]
[max_depth: -1]
[min_data_in_leaf: 20]
[min_sum_hessian_in_leaf: 0.001]
[bagging_fraction: 1]
[pos_bagging_fraction: 1]
[neg_bagging_fraction: 1]
[bagging_freq: 0]
[bagging_seed: 3]
[feature_fraction: 1]
[feature_fraction_bynode: 1]
[feature_fraction_seed: 2]
[extra_trees: 0]
[extra_seed: 6]
[early_stopping_round: 10]
[first_metric_only: 0]
[max_delta_step: 0]
[lambda_l1: 0]
[lambda_l2: 0]
[min_gain_to_split: 0]
[drop_rate: 0.1]
[max_drop: 50]
[skip_drop: 0.5]
[xgboost_dart_mode: 0]
[uniform_drop: 0]
[drop_seed: 4]
[top_rate: 0.2]
[other_rate: 0.1]
[min_data_per_group: 100]
[max_cat_threshold: 32]
[cat_l2: 10]
[cat_smooth: 10]
[max_cat_to_onehot: 4]
[top_k: 20]
[monotone_constraints: ]
[monotone_constraints_method: basic]
[monotone_penalty: 0]
[feature_contri: ]
[forcedsplits_filename: ]
[refit_decay_rate: 0.9]
[cegb_tradeoff: 1]
[cegb_penalty_split: 0]
[cegb_penalty_feature_lazy: ]
[cegb_penalty_feature_coupled: ]
[path_smooth: 0]
[interaction_constraints: ]
[verbosity: 1]
[saved_feature_importance_type: 0]
[max_bin: 255]
[max_bin_by_feature: ]
[min_data_in_bin: 3]
[bin_construct_sample_cnt: 200000]
[data_random_seed: 1]
[is_enable_sparse: 1]
[enable_bundle: 1]
[use_missing: 1]
[zero_as_missing: 0]
[feature_pre_filter: 1]
[pre_partition: 0]
[two_round: 0]
[header: 0]
[label_column: ]
[weight_column: ]
[group_column: ]
[ignore_column: ]
[categorical_feature: ]
[forcedbins_filename: ]
[objective_seed: 5]
[num_class: 1]
[is_unbalance: 0]
[scale_pos_weight: 1]
[sigmoid: 1]
[boost_from_average: 1]
[reg_sqrt: 0]
[alpha: 0.9]
[fair_c: 1]
[poisson_max_delta_step: 0.7]
[tweedie_variance_power: 1.5]
[lambdarank_truncation_level: 30]
[lambdarank_norm: 1]
[label_gain: ]
[eval_at: ]
[multi_error_top_k: 1]
[auc_mu_weights: ]
[num_machines: 1]
[local_listen_port: 12400]
[time_out: 120]
[machine_list_filename: ]
[machines: ]
[gpu_platform_id: -1]
[gpu_device_id: -1]
[gpu_use_dp: 0]
[num_gpu: 1]

end of parameters

pandas_categorical:null
