tree
version=v3
num_class=1
num_tree_per_iteration=1
label_index=0
max_feature_idx=15
objective=regression
feature_names=Column_0 Column_1 Column_2 Column_3 Column_4 Column_5 Column_6 Column_7 Column_8 Column_9 Column_10 Column_11 Column_12 Column_13 Column_14 Column_15
feature_infos=[1:49] [0:58] [2:49] [0:61] [0:7] [0:7] [0:7] [0:186] [1:143] [6:119] [0:7] [0:7] [0:7] [0:168] [0:198] [0:116]
tree_sizes=2679 2758 2750 2758 2762 2758 2740 2748 2758 2746 2752 2757 2764 2765 2766 2761

Tree=0
num_leaves=31
num_cat=0
split_feature=3 0 2 2 2 1 12 3 0 0 11 3 7 0 0 8 15 1 2 5 4 1 5 12 3 7 1 9 6 7
split_gain=35.1542 18.2398 14.853 12.4677 10.1184 9.58802 9.74411 9.52291 8.35668 7.91027 7.33874 7.66931 7.36364 7.2985 7.10414 6.77271 8.24272 6.29405 5.91826 5.75903 6.52774 7.73499 6.45567 6.0968 4.85237 4.71168 4.68312 6.88653 4.41231 5.11594
threshold=11.500000000000002 23.500000000000004 32.500000000000007 32.500000000000007 40.500000000000007 9.5000000000000018 3.5000000000000004 1.0000000180025095e-35 36.500000000000007 16.500000000000004 2.5000000000000004 15.500000000000002 10.500000000000002 16.500000000000004 15.500000000000002 8.5000000000000018 27.500000000000004 2.5000000000000004 14.500000000000002 1.5000000000000002 2.5000000000000004 9.5000000000000018 2.5000000000000004 2.5000000000000004 2.5000000000000004 6.5000000000000009 13.500000000000002 19.500000000000004 2.5000000000000004 10.500000000000002
decision_type=2 2 2 2 2 2 2 2 2 2 2 2 2 2 2 2 2 2 2 2 2 2 2 2 2 2 2 2 2 2
left_child=1 3 5 7 8 6 18 9 10 17 11 -2 -13 -12 -5 -4 -17 -1 -3 -9 23 -22 -23 -21 -16 -8 27 -15 -20 -30
right_child=4 2 15 14 -6 -7 25 19 -10 -11 13 12 -14 26 24 16 -18 -19 28 20 21 22 -24 -25 -26 -27 -28 -29 29 -31
leaf_value=0.051234429112368494 0.10274437349827301 0.16137728333743634 0.11873442732422915 0.029377286834242178 0.022177287024977052 0.14099923506952428 0.036234429509732796 0.051755664619795985 0.12491574584179882 0.13023678829460919 0.016400542957308126 0.0097409237180645369 0.091559103368804726 0.035564786670329411 0.11453113067496963 0.067147777636944544 0.1301772841639541 0.11337728460900212 0.097893414051442681 0.092733068464818283 0.12745891688902747 0.040333808283123912 0.11610455726402678 0.071155063505286803 0.062104558694538257 0.095539447243705611 0.097893414051442681 0.098377285006366416 0.15133646727689654 0.10671061811894181
leaf_weight=28 79 30 56 45 50 164 21 37 26 121 43 22 22 64 26 122 25 39 93 683 98 23 22 162 55 37 31 24 49 54
leaf_count=28 79 30 56 45 50 164 21 37 26 121 43 22 22 64 26 122 25 39 93 683 98 23 22 162 55 37 31 24 49 54
internal_value=0.0926414 0.0978496 0.11158 0.0911741 0.0639313 0.121748 0.110631 0.0942841 0.0706442 0.114973 0.0656931 0.084109 0.05065 0.0517106 0.0612344 0.0891408 0.0778671 0.0874071 0.120014 0.0904895 0.09194 0.111699 0.0773773 0.0885962 0.0789328 0.0740669 0.0644697 0.0526955 0.113683 0.12794
internal_weight=0 1990 651 1339 361 448 284 1213 311 188 285 123 44 162 126 203 147 67 226 1025 988 143 45 845 81 58 119 88 196 103
internal_count=2351 1990 651 1339 361 448 284 1213 311 188 285 123 44 162 126 203 147 67 226 1025 988 143 45 845 81 58 119 88 196 103
shrinkage=1


Tree=1
num_leaves=31
num_cat=0
split_feature=3 3 0 2 6 2 0 11 3 12 2 0 2 0 15 5 8 1 2 8 1 14 14 7 2 1 2 1 7 13
split_gain=28.4749 15.8398 15.124 10.3019 10.0044 8.19593 6.78147 9.36188 8.6945 8.02767 6.6477 7.20742 6.51093 7.24841 7.34948 7.03752 6.36148 5.48304 5.54673 5.48184 5.38453 5.36665 5.88171 5.33442 5.19694 5.70542 5.07813 4.38579 4.22323 4.14094
threshold=11.500000000000002 3.5000000000000004 16.500000000000004 45.500000000000007 3.5000000000000004 40.500000000000007 26.500000000000004 2.5000000000000004 15.500000000000002 2.5000000000000004 23.500000000000004 24.500000000000004 28.500000000000004 22.500000000000004 16.500000000000004 4.5000000000000009 7.5000000000000009 1.5000000000000002 29.500000000000004 15.500000000000002 5.5000000000000009 8.5000000000000018 5.5000000000000009 9.5000000000000018 39.500000000000007 1.0000000180025095e-35 18.500000000000004 1.0000000180025095e-35 8.5000000000000018 3.5000000000000004
decision_type=2 2 2 2 2 2 2 2 2 2 2 2 2 2 2 2 2 2 2 2 2 2 2 2 2 2 2 2 2 2
left_child=1 2 17 4 12 6 7 8 -2 -8 27 -12 15 -14 20 19 -11 -1 -19 21 -15 22 -3 -13 25 26 -4 -6 -24 -27
right_child=5 3 24 -5 10 -7 9 -9 -10 16 11 23 13 14 -16 -17 -18 18 -20 -21 -22 -23 28 -25 -26 29 -28 -29 -30 -31
leaf_value=-0.039457223191857342 0.014807528648220126 0.0033679872751235965 0.046362532623882957 -0.066248260935147615 0.0082131834030151375 -0.063417726278305053 0.02769305805365245 -0.050530164801609628 -0.049553638324141502 -0.066700890789861272 -0.021241432542984301 0.070277518601644606 -0.046467762221308322 -0.047445967935380487 0.033003911461148942 0.051193585533362174 0.0022470975294709206 0.018822933859744317 -0.042115463316440588 -0.027113120664249771 -7.9801572220666078e-05 0.013624908962148304 -0.025784233994781969 0.0025139703200413631 -0.0036724669753380543 0.060448183530363547 -0.0020988389674355002 0.058586695311324932 0.0031062271143939045 0.03096859461805794
leaf_weight=48 61 394 29 24 25 50 54 109 32 23 52 21 68 42 35 26 32 59 20 77 56 235 160 26 53 58 85 56 74 267
leaf_count=48 61 394 29 24 25 50 54 109 32 23 52 21 68 42 35 26 32 59 20 77 56 235 160 26 53 58 85 56 74 267
internal_value=0 0.0046874 0.0179651 -0.00130741 -0.000150336 -0.0258391 -0.0197975 -0.0306448 -0.00733825 0.000304695 0.0217935 0.00441047 -0.00353498 -0.0199098 -0.0063313 -0.000127798 -0.0265857 -0.0128008 0.00339549 -0.00154733 -0.0203796 0.000733747 -0.00409017 0.0327913 0.0259067 0.0294777 0.0102291 0.0430393 -0.0166479 0.0362296
internal_weight=0 1990 619 1371 1347 361 311 202 93 109 180 99 1167 201 133 966 55 127 79 940 98 863 628 47 492 439 114 81 234 325
internal_count=2351 1990 619 1371 1347 361 311 202 93 109 180 99 1167 201 133 966 55 127 79 940 98 863 628 47 492 439 114 81 234 325
shrinkage=0.1


Tree=2
num_leaves=31
num_cat=0
split_feature=3 2 0 0 2 1 0 7 12 11 15 0 7 13 1 3 4 15 0 2 14 13 13 1 14 1 12 3 13 7
split_gain=23.5189 12.091 15.7097 11.3171 10.4536 8.13633 6.31479 6.14185 8.57636 5.76135 8.22433 6.58559 5.86127 6.54257 5.65451 5.46494 8.26614 5.26818 7.54459 6.43088 5.83459 5.55923 6.06896 5.21522 5.17042 5.13096 5.03431 4.40074 4.38722 4.3866
threshold=7.5000000000000009 32.500000000000007 20.500000000000004 36.500000000000007 40.500000000000007 15.500000000000002 16.500000000000004 10.500000000000002 2.5000000000000004 3.5000000000000004 10.500000000000002 14.500000000000002 11.500000000000002 6.5000000000000009 9.5000000000000018 1.5000000000000002 1.5000000000000002 3.5000000000000004 31.500000000000004 23.500000000000004 9.5000000000000018 8.5000000000000018 12.500000000000002 1.0000000180025095e-35 7.5000000000000009 2.5000000000000004 4.5000000000000009 12.500000000000002 13.500000000000002 7.5000000000000009
decision_type=2 2 2 2 2 2 2 2 2 2 2 2 2 2 2 2 2 2 2 2 2 2 2 2 2 2 2 2 2 2
left_child=1 2 5 4 9 7 -3 8 -1 10 12 -12 13 -2 -13 -8 -17 18 24 26 21 -21 -23 -9 -4 -5 -19 -16 -25 -18
right_child=3 6 17 25 -6 -7 15 23 -10 -11 11 14 -14 -15 27 16 29 19 -20 20 -22 22 -24 28 -26 -27 -28 -29 -30 -31
leaf_value=0.0012904222522463118 0.0081605367935620819 -0.048143996610197914 0.018336043506860734 -0.017500546872615815 -0.055054275540338052 0.057079651951789857 0.016679951133472579 -0.003631276587645213 -0.029383323355154558 -0.034530093972529985 -0.073609113463988671 -0.035943614396938058 0.023118740916252139 -0.023386213026548686 0.023709233887493613 -0.077087390124797817 0.024022183753550055 0.042006025445742869 0.048723357729613781 0.024030870926089406 0.035203179672582824 -0.062113557755947117 0.0064154220478875304 0.04858356877680748 -0.041585300862789158 0.042974046918940037 -0.0059087820351123813 -0.029774240016937254 -0.0033953357826579707 -0.01955898361033704
leaf_weight=532 130 43 24 20 69 26 70 60 110 113 26 86 80 133 40 20 32 254 24 41 67 24 28 62 36 47 24 25 22 83
leaf_count=532 130 43 24 20 69 26 70 60 110 113 26 86 80 133 40 20 32 254 24 41 67 24 28 62 36 47 24 25 22 83
internal_value=0 0.00697336 0.0107428 -0.0143457 -0.0180935 0.00204189 -0.0133025 0.000221306 -0.0039652 -0.0140646 -0.00961725 -0.0271241 -0.000583082 -0.00779276 -0.0191201 -0.00599433 -0.0177514 0.0242775 0.00133756 0.028677 0.0127049 -0.00350353 -0.0252133 0.0188862 -0.0176168 0.0249219 0.0378695 0.00313867 0.03497 -0.00743205
internal_weight=0 1582 1334 769 702 812 248 786 642 633 520 177 343 263 151 205 135 522 84 438 160 93 52 144 60 67 278 65 84 115
internal_count=2351 1582 1334 769 702 812 248 786 642 633 520 177 343 263 151 205 135 522 84 438 160 93 52 144 60 67 278 65 84 115
shrinkage=0.1


Tree=3
num_leaves=31
num_cat=0
split_feature=3 3 0 10 8 15 5 6 7 2 15 4 0 6 8 8 7 2 15 1 0 2 1 0 11 14 12 7 1 14
split_gain=19.4094 12.6141 10.5922 9.54699 10.7784 7.28967 7.04661 6.92583 6.85382 6.51072 9.59385 5.90267 4.95639 5.25953 4.59534 4.32159 4.25646 6.72627 4.9468 8.06644 4.77677 4.27389 4.08887 4.99573 4.00863 5.58382 4.88414 3.97416 5.36831 4.14607
threshold=13.500000000000002 3.5000000000000004 16.500000000000004 1.5000000000000002 15.500000000000002 4.5000000000000009 1.5000000000000002 2.5000000000000004 10.500000000000002 22.500000000000004 13.500000000000002 3.5000000000000004 32.500000000000007 2.5000000000000004 30.500000000000004 4.5000000000000009 25.500000000000004 38.500000000000007 6.5000000000000009 7.5000000000000009 30.500000000000004 23.500000000000004 1.5000000000000002 13.500000000000002 2.5000000000000004 3.5000000000000004 2.5000000000000004 5.5000000000000009 8.5000000000000018 8.5000000000000018
decision_type=2 2 2 2 2 2 2 2 2 2 2 2 2 2 2 2 2 2 2 2 2 2 2 2 2 2 2 2 2 2
left_child=1 2 22 12 6 8 -5 27 -2 -6 14 -7 13 -3 -11 -9 17 18 19 -4 -20 -22 -1 -24 26 -26 -17 28 -8 -29
right_child=5 3 16 4 9 11 7 15 -10 10 -12 -13 -14 -15 -16 24 -18 -19 20 -21 21 -23 23 -25 25 -27 -28 29 -30 -31
leaf_value=-0.033755396679043773 -0.032262679934501652 -0.0079714436983240062 -0.0071384815642466922 -0.04465195655822754 0.005146191622081556 -0.045072209998965267 -0.037525359509696425 0.042183271208976178 0.041844272842774026 -0.064260437974223386 -0.0051736081498009821 0.0028610773624912385 0.055560836791992189 0.037307594133460006 -0.013611622996952222 0.045467789383495556 0.045928788279730182 -0.018485092454486426 0.041077583954200983 0.043938924778591508 0.037453536192576097 -0.010637130056108748 0.028717731206845017 -0.021580283641815187 0.043513495581490653 -0.013111552654528151 0.0030441098172089148 -0.0048804163408111521 0.010796618636916666 0.014117358976768125
leaf_weight=48 24 58 104 35 57 150 71 47 26 81 70 31 35 46 23 51 63 45 161 44 33 42 39 40 21 102 58 568 34 144
leaf_count=48 24 58 104 35 57 150 71 47 26 81 70 31 35 46 23 51 63 45 161 44 33 42 39 40 21 102 58 568 34 144
internal_value=0 0.00299929 0.015011 -0.00195425 -0.00450203 -0.0275259 -0.000481677 0.000928871 0.00627294 -0.0241861 -0.0337949 -0.0368626 0.0230103 0.0120558 -0.0530593 0.014532 0.0216571 0.0180927 0.0223792 0.00804669 0.0313674 0.0105228 -0.0107361 0.00325038 0.00893026 -0.00344386 0.0228937 -0.00371651 -0.0218782 -0.00103817
internal_weight=0 2120 619 1501 1362 231 1131 1096 50 231 174 181 139 104 104 279 492 429 384 148 236 75 127 79 232 123 109 817 105 712
internal_count=2351 2120 619 1501 1362 231 1131 1096 50 231 174 181 139 104 104 279 492 429 384 148 236 75 127 79 232 123 109 817 105 712
shrinkage=0.1


Tree=4
num_leaves=31
num_cat=0
split_feature=3 2 0 0 2 1 11 15 0 0 3 7 15 7 15 0 7 10 13 1 6 0 15 1 15 12 2 9 8 12
split_gain=16.3243 9.29537 10.946 8.74038 7.85947 6.15863 5.52068 6.37837 5.91119 4.90868 4.63304 6.37437 6.01718 4.62165 4.2445 4.58973 4.23615 5.57043 4.86595 4.64332 4.29045 4.11546 4.08463 4.03125 3.91935 5.81747 3.8428 4.11278 4.64765 3.65247
threshold=7.5000000000000009 32.500000000000007 20.500000000000004 36.500000000000007 43.500000000000007 15.500000000000002 3.5000000000000004 10.500000000000002 14.500000000000002 15.500000000000002 12.500000000000002 7.5000000000000009 12.500000000000002 8.5000000000000018 15.500000000000002 19.500000000000004 11.500000000000002 1.5000000000000002 7.5000000000000009 1.0000000180025095e-35 2.5000000000000004 11.500000000000002 8.5000000000000018 2.5000000000000004 4.5000000000000009 1.5000000000000002 22.500000000000004 10.500000000000002 12.500000000000002 2.5000000000000004
decision_type=2 2 2 2 2 2 2 2 2 2 2 2 2 2 2 2 2 2 2 2 2 2 2 2 2 2 2 2 2 2
left_child=1 2 5 4 6 13 7 16 -9 -3 11 -10 -13 21 15 22 17 -2 20 -20 -19 -1 -15 -5 25 -4 27 28 -23 -22
right_child=3 9 24 23 -6 -7 -8 8 10 -11 -12 12 -14 14 -16 -17 -18 18 19 -21 29 26 -24 -25 -26 -27 -28 -29 -30 -31
leaf_value=-0.044516962766647343 0.032681873813271527 -0.046674934285027642 0.04077911712229252 -0.015045132935047152 -0.058290762901306151 0.049735669906322777 -0.031572154802083967 -0.065434344751494275 0.02822238638997078 -0.006265350112892653 -0.038565801005614436 -0.068145356178283698 -0.0019930066710168669 -0.0058519043420490469 -0.024979529210499354 0.038388481284632826 0.019352761691524872 -0.011381573478380841 0.010919602995827086 -0.042875792524393871 0.057505063116550452 -0.0064741937133173154 0.028197462324585233 0.038558374947689954 0.025095443766896087 -0.0091649246077204864 0.018992305665776352 0.025567349872073614 -0.050161617994308474 -0.002206787325087048
leaf_weight=25 32 35 32 20 40 26 125 28 40 213 57 20 44 95 28 66 84 102 21 68 20 384 56 47 404 86 69 37 26 21
leaf_count=25 32 35 32 20 40 26 125 28 40 213 57 20 44 95 28 66 84 102 21 68 20 384 56 47 404 86 69 37 26 21
internal_value=0 0.00580966 0.00911471 -0.0119517 -0.0152453 0.00185186 -0.0126444 -0.00823849 -0.0230271 -0.0119683 -0.0156519 -0.00309331 -0.0226656 0.000267919 0.0116626 0.0163906 -0.000206759 -0.00643024 -0.011825 -0.0301825 -0.000399733 -0.00489234 0.00677568 0.0225573 0.0204125 0.00437922 -0.00297254 -0.00636309 -0.00924462 0.0269209
internal_weight=0 1582 1334 769 702 812 662 537 189 248 161 104 64 786 245 217 348 264 232 89 143 541 151 67 522 118 516 447 410 41
internal_count=2351 1582 1334 769 702 812 662 537 189 248 161 104 64 786 245 217 348 264 232 89 143 541 151 67 522 118 516 447 410 41
shrinkage=0.1


Tree=5
num_leaves=31
num_cat=0
split_feature=2 3 5 0 12 0 9 6 7 1 13 11 13 1 11 6 8 2 8 3 14 1 12 1 11 15 9 13 5 12
split_gain=13.8212 12.8807 10.1306 9.32397 7.59279 6.05217 5.13299 6.91042 6.57135 6.23071 4.76179 4.62619 4.60514 4.01354 3.68026 4.9694 4.12507 5.87235 3.71144 3.46755 4.01164 3.43482 5.2454 3.37099 6.10478 6.73793 4.73816 3.80761 3.32852 2.92624
threshold=40.500000000000007 3.5000000000000004 1.5000000000000002 32.500000000000007 2.5000000000000004 16.500000000000004 35.500000000000007 2.5000000000000004 5.5000000000000009 1.0000000180025095e-35 8.5000000000000018 3.5000000000000004 13.500000000000002 10.500000000000002 3.5000000000000004 2.5000000000000004 7.5000000000000009 22.500000000000004 12.500000000000002 12.500000000000002 5.5000000000000009 1.5000000000000002 2.5000000000000004 8.5000000000000018 3.5000000000000004 6.5000000000000009 7.5000000000000009 5.5000000000000009 2.5000000000000004 1.5000000000000002
decision_type=2 2 2 2 2 2 2 2 2 2 2 2 2 2 2 2 2 2 2 2 2 2 2 2 2 2 2 2 2 2
left_child=1 5 13 4 14 21 7 8 -6 -9 -10 -5 -11 -3 15 29 -16 -18 -17 20 -2 -1 -23 24 25 -7 -26 -25 -12 -4
right_child=19 2 3 11 6 23 -8 9 10 12 28 -13 -14 -15 16 18 17 -19 -20 -21 -22 22 -24 27 26 -27 -28 -29 -30 -31
leaf_value=-0.026373996682789017 0.0069775514486359385 -0.06808354508492255 0.025467343841280257 0.033442305949601257 -0.0571834589572663 0.0023070607211563613 -0.056006627210548943 -0.02957046323634209 -0.00082177708343583722 0.021729056761328098 -0.064352402448654186 -0.0014601706430829805 -0.021780288027178858 -0.01480731459764334 0.017651006120901841 0.03042918159848168 -0.0002146814320538495 -0.056183231661194245 -0.0016375768184661865 -0.051082638502120969 -0.030963961009321542 0.040411451260248824 -0.014904132634401322 0.057084213603626602 0.029741800682885306 0.03858823383975233 -0.026237705156758981 0.022655556632691073 -0.017838550657033918 -0.0017563167399810191
leaf_weight=46 41 31 42 110 47 91 28 47 98 113 25 58 31 26 26 105 37 38 55 45 87 30 40 44 21 117 54 119 40 659
leaf_count=46 41 31 42 110 47 91 28 47 98 113 25 58 31 26 26 105 37 38 55 45 87 30 40 44 21 117 54 119 40 659
internal_value=0 0.00216093 -0.00237419 -0.00086024 -0.00354786 0.0152014 -0.0146114 -0.011721 -0.0242405 0.00204389 -0.0147416 0.0213926 0.0123625 -0.0437821 0.0013859 0.00350431 -0.0166731 -0.0285721 0.0194062 -0.0272052 -0.0188108 -0.00514677 0.00880255 0.0204938 0.0138958 0.0227152 -0.0105634 0.0319492 -0.0357285 -0.000125227
internal_weight=0 2178 1616 1559 1391 562 429 401 210 191 163 168 144 57 962 861 101 75 160 173 128 116 70 446 283 208 75 163 65 701
internal_count=2351 2178 1616 1559 1391 562 429 401 210 191 163 168 144 57 962 861 101 75 160 173 128 116 70 446 283 208 75 163 65 701
shrinkage=0.1


Tree=6
num_leaves=31
num_cat=0
split_feature=3 0 2 10 2 4 12 8 2 5 3 11 1 15 13 6 3 0 1 7 9 11 3 13 14 3 8 0 15 15
split_gain=11.7147 6.95383 7.70713 5.89299 8.42405 5.13207 5.79007 4.99069 4.78897 6.6313 6.0248 4.72871 4.728 5.67941 5.52321 4.67401 4.44549 4.42466 4.75019 3.79713 3.97782 3.60057 7.42828 3.49546 3.44749 3.64726 3.39983 3.48366 3.31892 3.30898
threshold=11.500000000000002 23.500000000000004 14.500000000000002 1.5000000000000002 44.500000000000007 2.5000000000000004 2.5000000000000004 12.500000000000002 37.500000000000007 2.5000000000000004 1.5000000000000002 1.5000000000000002 2.5000000000000004 2.5000000000000004 13.500000000000002 3.5000000000000004 2.5000000000000004 24.500000000000004 5.5000000000000009 6.5000000000000009 25.500000000000004 2.5000000000000004 13.500000000000002 14.500000000000002 14.500000000000002 1.5000000000000002 13.500000000000002 31.500000000000004 8.5000000000000018 15.500000000000002
decision_type=2 2 2 2 2 2 2 2 2 2 2 2 2 2 2 2 2 2 2 2 2 2 2 2 2 2 2 2 2 2
left_child=1 5 -3 29 11 6 -1 24 9 10 -9 -5 13 -2 21 17 28 -13 -19 -17 23 22 -14 -21 25 -7 -20 -28 -8 -4
right_child=12 2 3 4 -6 7 16 8 -10 -11 -12 15 14 -15 -16 19 -18 18 26 20 -22 -23 -24 -25 -26 -27 27 -29 -30 -31
leaf_value=-3.5108363808099948e-05 0.011348417827061245 0.042339607721401586 0.042154140770435333 0.052130250419889182 -0.05757646425203844 0.0057677514412823845 -0.019962958453430071 0.026928281784057619 -0.036518175948050714 0.031354249837034845 -0.039813214226772912 0.035246734166967462 0.057306285356653157 -0.047084489315748213 -0.02947211464246114 0.058401714978010756 -0.025681334442418553 -0.020593299913406374 0.014231401535331227 0.0051392501798169371 -0.022610853158909344 -0.010864670943505694 -0.0091658680140972153 0.058710133461725149 -0.0098537647205850371 0.045420584368379147 -0.044340201715628309 0.0057315233981970583 0.020978740805929361 0.00561552276978126
leaf_weight=796 21 72 68 21 22 34 36 21 31 59 38 29 29 80 90 23 184 125 122 29 23 101 40 21 23 73 24 33 44 39
leaf_count=796 21 72 68 21 22 34 36 21 31 59 38 29 29 80 90 23 184 125 122 29 23 101 40 21 23 73 24 33 44 39
internal_value=0 0.00300654 0.0114844 0.00764746 0.00284405 -0.00111525 -0.00429143 0.010952 -0.00154074 0.00764824 -0.0160578 0.00579795 -0.0165735 -0.0349351 -0.00944067 0.00352993 -0.0171249 -0.00207448 -0.00563472 0.0229702 0.0118069 0.00116421 0.0187717 0.027639 0.0252705 0.0328206 0.00481121 -0.0153513 0.00255498 0.0288363
internal_weight=0 1990 651 579 472 1339 1060 279 149 118 59 450 361 101 260 429 264 333 304 96 73 170 69 50 130 107 179 57 80 107
internal_count=2351 1990 651 579 472 1339 1060 279 149 118 59 450 361 101 260 429 264 333 304 96 73 170 69 50 130 107 179 57 80 107
shrinkage=0.1


Tree=7
num_leaves=31
num_cat=0
split_feature=3 2 7 0 8 1 2 12 8 2 5 12 12 0 3 4 13 8 9 15 7 4 15 3 9 0 11 15 2 13
split_gain=9.71077 6.3726 7.44415 6.3213 6.01788 4.8025 4.51402 4.37875 3.87148 3.87082 3.84044 7.86859 4.60345 3.63237 3.35379 5.9317 4.93882 4.52384 4.17877 3.8491 3.16916 4.00803 3.32783 3.12134 2.88506 4.59061 2.97738 2.71604 2.58774 2.8466
threshold=7.5000000000000009 32.500000000000007 7.5000000000000009 36.500000000000007 15.500000000000002 6.5000000000000009 24.500000000000004 3.5000000000000004 8.5000000000000018 15.500000000000002 3.5000000000000004 3.5000000000000004 2.5000000000000004 15.500000000000002 1.5000000000000002 1.5000000000000002 6.5000000000000009 19.500000000000004 16.500000000000004 7.5000000000000009 3.5000000000000004 1.5000000000000002 15.500000000000002 10.500000000000002 21.500000000000004 12.500000000000002 3.5000000000000004 12.500000000000002 19.500000000000004 4.5000000000000009
decision_type=2 2 2 2 2 2 2 2 2 2 2 2 2 2 2 2 2 2 2 2 2 2 2 2 2 2 2 2 2 2
left_child=1 2 5 4 10 7 23 -1 -5 -4 11 20 -12 -3 16 -16 -15 18 19 -17 -2 -22 27 -6 25 -11 -26 28 -23 -30
right_child=3 13 9 8 6 -7 -8 -9 -10 24 12 -13 -14 14 15 17 -18 -19 -20 -21 21 22 -24 -25 26 -27 -28 -29 29 -31
leaf_value=-0.0012389831981168907 -0.027274038518468543 -0.040094657795769831 0.031504276849455753 -0.0050102747045457363 0.02167684091971471 0.015920125756388397 -0.037343629477615645 -0.031712000186626725 0.043114287682941982 -0.029640680962595447 -0.010634197394053142 -0.03830558008108384 0.044315484646827948 0.054170403480529788 -0.065006976723670964 -0.032450241088867189 -0.0037203693895467693 0.025295860478372286 -0.050808080699708727 0.019918480329215529 0.032215828044073927 0.018380870248960412 -0.034026161395013334 -0.023288908600807193 0.053346267630977023 0.011480870828909034 0.0038575148582458496 0.035568722486495973 0.0057798392888976308 -0.019190444182423716
leaf_weight=506 48 35 118 32 26 153 133 52 35 29 30 78 31 20 20 25 56 33 27 32 35 46 32 38 31 425 20 20 82 103
leaf_count=506 48 35 118 32 26 153 133 52 35 29 30 78 31 20 20 25 56 33 27 32 35 46 32 38 31 425 20 20 82 103
internal_value=0 0.00448085 0.0072174 -0.00921808 -0.0120191 0.000224796 -0.0268431 -0.00407876 0.0201294 0.0151977 -0.00623622 -0.00946857 0.0172911 -0.0102391 -0.00533329 -0.0146793 0.011514 -0.00607623 -0.018401 -0.00305026 -0.00332298 0.000292272 -0.00365587 -0.00502157 0.0113875 0.00885416 0.0339389 0.000216038 -0.0028448 -0.00812253
internal_weight=0 1582 1334 769 702 711 197 558 67 623 505 444 61 248 213 137 76 117 84 57 366 318 283 64 505 454 51 251 231 185
internal_count=2351 1582 1334 769 702 711 197 558 67 623 505 444 61 248 213 137 76 117 84 57 366 318 283 64 505 454 51 251 231 185
shrinkage=0.1


Tree=8
num_leaves=31
num_cat=0
split_feature=2 5 0 3 11 11 0 12 14 0 1 3 13 13 5 8 1 14 8 5 15 2 14 8 1 1 7 7 9 14
split_gain=8.30467 8.4278 7.30093 7.08451 6.89419 5.19726 8.03415 5.03566 5.96422 4.48543 4.39866 4.22571 3.95726 8.4823 5.32054 4.54318 4.04881 3.93667 3.88111 3.84833 3.84656 3.6964 3.62437 3.56806 4.19531 3.55251 3.53382 3.49296 3.30856 3.13414
threshold=40.500000000000007 1.5000000000000002 32.500000000000007 1.0000000180025095e-35 3.5000000000000004 2.5000000000000004 11.500000000000002 3.5000000000000004 8.5000000000000018 16.500000000000004 1.0000000180025095e-35 7.5000000000000009 8.5000000000000018 2.5000000000000004 3.5000000000000004 10.500000000000002 15.500000000000002 10.500000000000002 19.500000000000004 2.5000000000000004 6.5000000000000009 19.500000000000004 6.5000000000000009 13.500000000000002 4.5000000000000009 9.5000000000000018 5.5000000000000009 6.5000000000000009 8.5000000000000018 6.5000000000000009
decision_type=2 2 2 2 2 2 2 2 2 2 2 2 2 2 2 2 2 2 2 2 2 2 2 2 2 2 2 2 2 2
left_child=1 25 3 9 -4 7 -7 8 22 23 -6 19 13 15 16 -8 29 -12 -15 -10 21 -11 -5 -3 -25 -1 -13 -22 -23 -14
right_child=-2 2 4 5 10 6 12 -9 11 20 17 26 14 18 -16 -17 -18 -19 -20 -21 27 28 -24 24 -26 -27 -28 -29 -30 -31
leaf_value=-0.048862400244582785 -0.021088263995385586 -0.034438851688589366 0.030492423030368074 0.0056012671220578396 -0.044065982103347778 -0.049973945750130554 -0.048039898411794145 -0.016873913540922363 0.014483467977622462 0.03091089791721768 -0.027793301965879359 -0.024038917223612469 -0.014488833546638489 0.016227205555037698 0.0094536540938205404 -0.0025967228819023481 0.0085060749451319386 0.020248951469406938 -0.021255863644182683 0.051071044227533169 0.008657933141176518 0.015439871072769167 -0.011160670352105649 -0.016962604473034541 0.045051129162311555 -0.0082025365460486645 0.016072114575199966 0.044673516935315627 -0.035045921802520752 -0.044488242950784157
leaf_weight=44 173 28 171 389 20 45 44 116 58 36 23 30 60 202 61 44 30 66 32 57 39 25 193 24 20 42 82 87 27 83
leaf_count=44 173 28 171 389 20 45 44 116 58 36 23 30 60 202 61 44 30 66 32 57 39 25 193 24 20 42 82 87 27 83
internal_value=0 0.00167506 0.00293629 0.000614047 0.0179645 -0.00209291 -0.009333 0.00261118 0.00540509 0.0150575 -0.00168931 0.0191535 -0.00604371 0.00114813 -0.0159402 -0.0253183 -0.0248941 0.00783354 0.0111013 0.0326182 0.0223215 0.00627897 4.27552e-05 -0.00653289 0.0112255 -0.0290053 0.00532809 0.0335258 -0.0107739 -0.0319011
internal_weight=0 2178 2092 1812 280 1526 601 925 809 286 109 227 556 322 234 88 173 89 234 115 214 88 582 72 44 86 112 126 52 143
internal_count=2351 2178 2092 1812 280 1526 601 925 809 286 109 227 556 322 234 88 173 89 234 115 214 88 582 72 44 86 112 126 52 143
shrinkage=0.1


Tree=9
num_leaves=31
num_cat=0
split_feature=3 6 3 15 15 9 13 2 12 15 0 10 12 13 1 3 7 12 8 2 1 8 8 8 2 13 14 8 0 1
split_gain=7.46898 5.58213 4.99001 4.75405 5.6343 4.639 4.33506 4.3121 4.07198 4.41462 4.8219 4.48793 3.7765 3.65173 3.64452 3.51392 3.48953 3.49989 3.35732 6.13921 3.26124 5.39704 3.81743 3.8186 3.34217 3.06185 3.05878 4.22925 3.73916 4.43866
threshold=11.500000000000002 2.5000000000000004 5.5000000000000009 16.500000000000004 10.500000000000002 6.5000000000000009 6.5000000000000009 37.500000000000007 4.5000000000000009 4.5000000000000009 20.500000000000004 2.5000000000000004 1.5000000000000002 18.500000000000004 14.500000000000002 9.5000000000000018 4.5000000000000009 2.5000000000000004 12.500000000000002 24.500000000000004 2.5000000000000004 5.5000000000000009 14.500000000000002 10.500000000000002 30.500000000000004 8.5000000000000018 8.5000000000000018 12.500000000000002 29.500000000000004 5.5000000000000009
decision_type=2 2 2 2 2 2 2 2 2 2 2 2 2 2 2 2 2 2 2 2 2 2 2 2 2 2 2 2 2 2
left_child=1 2 5 4 26 6 -1 8 9 11 -11 -3 -2 -13 25 -12 17 -7 19 -8 21 -14 23 24 -22 -9 27 -4 29 -28
right_child=12 7 3 -5 -6 16 18 14 -10 10 15 13 20 -15 -16 -17 -18 -19 -20 -21 22 -23 -24 -25 -26 -27 28 -29 -30 -31
leaf_value=0.048373981133887647 0.020137256768441969 0.012044117722696472 -0.008677847510889956 0.017036411531117499 -0.041410165514264796 -0.0019925443899063838 0.023266540804216942 -0.015329850681366459 -0.015584776717789321 0.0063931258789130616 0.031595440596584388 -0.045031945966184143 0.012367903618585497 0.0086345015537171148 -0.030342650667149969 -0.0041307987705353766 0.0015927709804151751 -0.045511264150792902 0.035942171726908001 -0.043337346315383912 0.0026535631953806121 -0.045248132861322829 -0.027428616080657549 0.024074049158529801 -0.033395533590781977 0.029484296242396037 0.011609049141407014 -0.050232311089833587 0.036539536714553837 -0.037424370447794598
leaf_weight=38 31 103 95 49 70 42 31 31 49 175 246 32 21 21 47 31 677 33 28 25 69 72 83 44 41 30 48 33 26 30
leaf_count=38 31 103 95 49 70 42 31 31 49 175 246 32 21 21 47 31 677 33 28 25 69 72 83 44 41 30 48 33 26 30
internal_value=0 0.00240066 -0.00178473 -0.011856 -0.0165438 0.00225992 0.0203477 0.00910276 0.0121467 0.0143817 0.0193877 -0.00012278 -0.0132336 -0.0237679 -0.00941482 0.0275972 -0.000674538 -0.0211408 0.00766917 -0.00646734 -0.0163684 -0.0322381 -0.0101411 -0.000823785 -0.0107829 0.00670989 -0.00904108 -0.0193911 0.00369742 -0.00724996
internal_weight=0 1990 1225 351 302 874 122 765 657 608 452 156 361 53 108 277 752 75 84 56 330 93 237 154 110 61 232 128 104 78
internal_count=2351 1990 1225 351 302 874 122 765 657 608 452 156 361 53 108 277 752 75 84 56 330 93 237 154 110 61 232 128 104 78
shrinkage=0.1


Tree=10
num_leaves=31
num_cat=0
split_feature=3 6 3 7 15 15 7 2 12 15 14 0 9 13 8 11 0 15 12 6 5 12 12 8 1 7 10 13 11 1
split_gain=6.04988 4.52152 4.04191 4.16093 3.85078 4.56378 3.71992 4.95799 4.6137 4.21555 4.12498 4.03089 3.56277 3.58311 3.50449 3.43894 3.29421 4.18635 7.62493 3.9916 3.65823 3.11932 2.84649 5.87358 5.50915 4.99008 2.80851 3.12204 2.71725 2.69618
threshold=11.500000000000002 2.5000000000000004 5.5000000000000009 7.5000000000000009 16.500000000000004 10.500000000000002 28.500000000000004 37.500000000000007 4.5000000000000009 4.5000000000000009 7.5000000000000009 19.500000000000004 7.5000000000000009 13.500000000000002 12.500000000000002 1.5000000000000002 22.500000000000004 16.500000000000004 3.5000000000000004 3.5000000000000004 2.5000000000000004 2.5000000000000004 2.5000000000000004 9.5000000000000018 3.5000000000000004 2.5000000000000004 2.5000000000000004 18.500000000000004 2.5000000000000004 1.0000000180025095e-35
decision_type=2 2 2 2 2 2 2 2 2 2 2 2 2 2 2 2 2 2 2 2 2 2 2 2 2 2 2 2 2 2
left_child=1 2 3 22 5 -4 7 8 9 26 21 29 13 -5 -12 -2 -17 18 19 -18 -19 -9 23 -1 -25 -24 -3 -28 -7 -11
right_child=15 6 4 12 -6 28 -8 10 -10 11 14 -13 -14 -15 -16 16 17 20 -20 -21 -22 -23 25 24 -26 -27 27 -29 -30 -31
leaf_value=-0.0048713703438178785 0.02640287686478008 0.007237411290407181 -0.0081369722583170597 0.035363640352374034 0.01533277119909014 -0.013138906019074576 0.030886042389002718 0.02979868865013123 -0.023019334891947307 -0.021310521538058916 -0.0045376294851303105 0.023253059916121969 0.0037650628832348607 -0.0099711694500663074 -0.059766247758158933 -0.025265534660395456 0.025221981604894 -0.06355861365795136 -0.049169093111286997 -0.016763784039405087 -0.0075619510241917197 -0.021830756555904041 -0.063794206380844126 -0.0080463643257434551 0.051380113072884398 -0.0068747060957239639 -0.042501829067866009 0.0077710519234339406 -0.053355977648780466 0.011175216361880303
leaf_weight=388 22 96 232 84 49 28 66 25 41 36 20 293 228 22 27 153 84 20 23 31 28 22 20 26 39 67 30 21 42 88
leaf_count=388 22 96 232 84 49 28 66 25 41 36 20 293 228 22 27 153 84 20 23 31 28 22 20 26 39 67 30 21 42 88
internal_value=0 0.0021606 -0.00160625 0.00203393 -0.0106704 -0.0148895 0.00819248 0.00604975 0.00936946 0.011724 -0.0153165 0.016857 0.0108072 0.0259545 -0.0362647 -0.0119102 -0.0143966 -0.00545606 0.00339188 0.0139041 -0.0308939 0.00563171 -0.00339252 -0.000210757 0.0276095 -0.0199596 -0.00283722 -0.0218012 -0.0372691 0.00174387
internal_weight=0 1990 1225 874 351 302 765 699 605 564 94 417 334 106 47 361 339 186 138 115 48 47 540 453 65 87 147 51 70 124
internal_count=2351 1990 1225 874 351 302 765 699 605 564 94 417 334 106 47 361 339 186 138 115 48 47 540 453 65 87 147 51 70 124
shrinkage=0.1


Tree=11
num_leaves=31
num_cat=0
split_feature=5 2 11 0 10 3 6 6 1 7 2 0 8 12 14 9 8 0 2 9 9 15 9 8 0 7 9 7 2 7
split_gain=5.87584 5.71868 5.87719 5.02368 4.98172 5.22067 7.03002 5.15801 4.52247 4.30269 3.89781 3.50935 4.34623 5.64413 4.15539 3.95911 3.53605 3.39492 4.77799 2.99677 5.4737 3.18577 2.90071 2.89871 3.63145 2.71681 2.65212 4.08061 5.62676 3.64157
threshold=1.5000000000000002 40.500000000000007 1.5000000000000002 6.5000000000000009 1.5000000000000002 8.5000000000000018 3.5000000000000004 1.5000000000000002 1.0000000180025095e-35 14.500000000000002 10.500000000000002 36.500000000000007 14.500000000000002 3.5000000000000004 3.5000000000000004 11.500000000000002 7.5000000000000009 33.500000000000007 44.500000000000007 10.500000000000002 27.500000000000004 16.500000000000004 7.5000000000000009 22.500000000000004 26.500000000000004 6.5000000000000009 6.5000000000000009 8.5000000000000018 23.500000000000004 4.5000000000000009
decision_type=2 2 2 2 2 2 2 2 2 2 2 2 2 2 2 2 2 2 2 2 2 2 2 2 2 2 2 2 2 2
left_child=9 2 25 -4 8 6 7 -6 22 -1 -9 12 13 -7 -14 -16 -15 23 -19 -10 21 -21 -5 24 -3 -2 27 -12 -29 -28
right_child=1 17 3 4 5 11 -8 10 19 -11 26 -13 14 16 15 -17 -18 18 -20 20 -22 -23 -24 -25 -26 -27 29 28 -30 -31
leaf_value=-0.038391149721362372 0.00038364946842193602 0.0057947251127987379 -0.046064772931012243 0.026936383190609162 -0.032533914239510249 0.0013706230562786723 0.022348486329569962 0.037194942136605583 0.0099148587804091613 0.0089956826633877229 0.031789271877362184 0.021903411950916052 -0.067817820066755463 -0.063768647735317555 -0.039629281684756282 0.0014254596570263739 -0.0082650398666208446 0.0301716943581899 -0.032928710281848905 0.060518104975873781 -0.0070416996876398732 0.015492461215366016 -0.016065317969168387 -0.04505488183349371 -0.04143556665491175 0.044251675407091781 -0.019166930595246875 0.025018100397927425 -0.032100841315353616 0.0009330064093867464
leaf_weight=66 20 41 22 21 46 215 165 30 95 27 65 32 22 24 48 46 22 30 20 55 24 22 62 48 27 48 101 35 34 838
leaf_count=66 20 41 22 21 46 215 165 30 95 27 65 32 22 24 48 46 22 30 20 55 24 22 62 48 27 48 101 35 34 838
internal_value=0 0.00101458 0.0024322 0.00146068 0.00198294 -2.43855e-05 0.00304665 0.000274843 0.0143794 -0.0246337 0.00164311 -0.00989074 -0.0125894 -0.0054314 -0.0286951 -0.0195387 -0.0372234 -0.0168508 0.00493153 0.0226645 0.0346567 0.0476536 -0.00518537 -0.0262397 -0.0129585 0.0313493 0.000649121 0.0138098 -0.00312747 -0.00122897
internal_weight=0 2258 2092 2024 2002 1723 1314 1149 279 93 1103 409 377 261 116 94 46 166 50 196 101 77 83 116 68 68 1073 134 69 939
internal_count=2351 2258 2092 2024 2002 1723 1314 1149 279 93 1103 409 377 261 116 94 46 166 50 196 101 77 83 116 68 68 1073 134 69 939
shrinkage=0.1


Tree=12
num_leaves=31
num_cat=0
split_feature=12 5 2 1 3 15 15 0 13 8 6 1 7 7 0 14 0 4 3 1 14 11 2 13 14 6 12 11 0 9
split_gain=5.02433 5.18974 4.54062 5.61687 3.57748 5.62158 5.55325 3.58053 3.66379 3.48843 2.87859 3.4953 3.41736 2.80682 2.78684 3.21994 2.76498 2.68468 2.63433 3.60874 2.60904 3.36021 2.71159 2.55198 4.46956 3.54286 2.71729 2.93646 2.44769 4.48559
threshold=1.5000000000000002 1.5000000000000002 40.500000000000007 29.500000000000004 13.500000000000002 4.5000000000000009 5.5000000000000009 20.500000000000004 13.500000000000002 10.500000000000002 2.5000000000000004 15.500000000000002 23.500000000000004 14.500000000000002 16.500000000000004 8.5000000000000018 33.500000000000007 3.5000000000000004 5.5000000000000009 1.5000000000000002 2.5000000000000004 3.5000000000000004 28.500000000000004 17.500000000000004 12.500000000000002 2.5000000000000004 2.5000000000000004 2.5000000000000004 21.500000000000004 13.500000000000002
decision_type=2 2 2 2 2 2 2 2 2 2 2 2 2 2 2 2 2 2 2 2 2 2 2 2 2 2 2 2 2 2
left_child=20 13 3 4 6 -6 9 8 -8 14 11 28 -12 -2 15 -3 -4 -7 -16 -20 -1 -22 -23 24 26 -26 27 -11 -9 -30
right_child=1 2 16 -5 5 17 7 10 -10 23 12 -13 -14 -15 18 -17 -18 -19 19 -21 21 22 -24 -25 25 -27 -28 -29 29 -31
leaf_value=-0.0136055293782004 -0.037614361663996169 0.041885658502578742 -0.027229912686593756 0.049858457886654405 0.021337425027574811 -0.030678748425382835 0.0028951807414264721 0.031900290701840375 -0.023778943717479708 0.0032414028644561772 0.02313916710630122 -0.027963622510433196 -0.008786223102838565 0.0057347397506237038 -0.00034983628988265994 -0.0091693778832753498 0.0040157809853553772 0.0077718607404015276 0.0070530469770784731 -0.039592573462530624 0.026424592292644614 0.01865447026032668 -0.027958300709724427 0.0092797069748242703 -0.02854827333379675 0.019971684673253231 -0.056903368234634405 -0.042821894441881489 -0.0025529714131897144 0.036187972045607038
leaf_weight=29 59 30 97 23 35 104 459 37 58 25 239 30 39 20 350 21 40 22 27 43 142 26 24 30 27 34 38 31 176 36
leaf_count=29 59 30 97 23 35 104 459 37 58 25 239 30 39 20 350 21 40 22 27 43 142 26 24 30 27 34 38 31 176 36
internal_value=0 -0.00148908 -0.00052033 0.000738492 0.000141052 -0.0141168 0.00146794 0.00589586 -9.72742e-05 -0.00578144 0.0114586 0.0042826 0.0186604 -0.0266399 -0.00121121 0.020863 -0.0181071 -0.0239651 -0.00389165 -0.0216007 0.0143518 0.0185745 -0.00371966 -0.017417 -0.0225841 -0.00150436 -0.0362635 -0.0222579 0.00816769 0.00402568
internal_weight=0 2130 2051 1914 1891 161 1730 1074 517 656 557 279 278 79 471 51 137 126 420 70 221 192 50 185 155 61 94 56 249 212
internal_count=2351 2130 2051 1914 1891 161 1730 1074 517 656 557 279 278 79 471 51 137 126 420 70 221 192 50 185 155 61 94 56 249 212
shrinkage=0.1


Tree=13
num_leaves=31
num_cat=0
split_feature=10 5 2 11 3 8 8 0 6 12 8 8 8 9 0 13 14 6 11 2 13 8 2 13 1 14 13 14 13 7
split_gain=4.276 4.48348 4.31939 4.33202 4.39421 4.09376 4.47099 3.94919 3.70172 3.4323 6.68797 3.20863 4.52678 5.36133 6.95991 4.46256 5.21659 5.02131 3.69847 3.63639 3.37684 6.47111 3.31951 6.03346 5.03819 4.90932 3.16598 3.10913 3.04674 3.01596
threshold=1.5000000000000002 1.5000000000000002 45.500000000000007 1.5000000000000002 10.500000000000002 14.500000000000002 11.500000000000002 16.500000000000004 1.5000000000000002 3.5000000000000004 6.5000000000000009 39.500000000000007 18.500000000000004 12.500000000000002 19.500000000000004 2.5000000000000004 8.5000000000000018 3.5000000000000004 3.5000000000000004 21.500000000000004 1.5000000000000002 10.500000000000002 28.500000000000004 8.5000000000000018 5.5000000000000009 4.5000000000000009 11.500000000000002 19.500000000000004 6.5000000000000009 3.5000000000000004
decision_type=2 2 2 2 2 2 2 2 2 2 2 2 2 2 2 2 2 2 2 2 2 2 2 2 2 2 2 2 2 2
left_child=7 -2 3 26 8 6 9 -1 -5 10 -6 12 15 28 -15 20 17 22 -18 -20 21 -10 25 -24 -25 29 -3 -7 -14 -17
right_child=1 2 -4 4 5 27 -8 -9 11 -11 -12 -13 13 14 -16 16 18 -19 19 -21 -22 -23 23 24 -26 -27 -28 -29 -30 -31
leaf_value=-0.011105086172328277 -0.025409034475103606 0.0013915643095970154 -0.032144029819688134 -0.023313940025992314 0.022872052661010198 -0.037522740289568902 0.025984518411682873 0.015868496529231727 -0.027102437130240509 -0.035989923666163187 -0.024113164480888485 0.031719007260269591 -0.0058664793929746077 -0.041087899953126908 0.030585501023701264 -0.014997655550638837 0.02092967920929846 0.027133517418846943 -0.023935433725516 0.015978051185607911 -0.040037233029541215 0.035360486529491565 0.015438450918053138 -0.067899151095028573 -0.010767460411245173 -0.0048342697073462809 0.047109112324136677 0.0022825273183675913 -0.044941762568695205 0.019471248514724503
leaf_weight=68 77 28 43 59 56 80 41 269 43 41 66 36 31 20 42 30 274 66 42 50 38 27 33 29 33 449 33 26 56 165
leaf_count=68 77 28 43 59 56 80 41 269 43 41 66 36 31 20 42 30 274 66 42 50 38 27 33 29 33 449 33 26 56 165
internal_value=0 -0.00174453 -0.000803812 -9.22865e-05 -0.000964733 -0.0118172 -0.00353361 0.0104258 0.00124424 -0.0109584 -0.00254618 0.00223395 0.00149062 -0.0150051 0.00746505 0.00341234 0.0052062 0.000705738 0.0151048 -0.00224332 -0.0160378 -0.0030096 -0.00165452 -0.0191046 -0.0374903 0.000919626 0.026124 -0.0277592 -0.0310184 0.0141683
internal_weight=0 2014 1937 1894 1833 310 204 337 1523 163 122 1464 1428 149 62 1279 1171 805 366 92 108 70 739 95 62 644 61 106 87 195
internal_count=2351 2014 1937 1894 1833 310 204 337 1523 163 122 1464 1428 149 62 1279 1171 805 366 92 108 70 739 95 62 644 61 106 87 195
shrinkage=0.1


Tree=14
num_leaves=31
num_cat=0
split_feature=12 3 7 6 3 9 11 15 11 4 9 7 13 15 14 12 4 13 15 8 2 1 12 9 3 7 14 14 11 1
split_gain=3.99116 3.70863 3.86557 3.31946 4.35352 3.73209 3.82367 3.63302 4.09686 4.06217 3.52684 3.11978 2.93558 2.92059 2.90033 2.64408 2.62332 2.43699 2.77839 2.41542 3.35479 3.61612 3.87678 3.88057 3.27309 4.51922 3.2547 4.35546 2.5542 2.25193
threshold=1.5000000000000002 13.500000000000002 26.500000000000004 2.5000000000000004 5.5000000000000009 6.5000000000000009 4.5000000000000009 16.500000000000004 2.5000000000000004 2.5000000000000004 8.5000000000000018 8.5000000000000018 1.0000000180025095e-35 4.5000000000000009 5.5000000000000009 2.5000000000000004 2.5000000000000004 5.5000000000000009 6.5000000000000009 12.500000000000002 19.500000000000004 1.0000000180025095e-35 2.5000000000000004 23.500000000000004 5.5000000000000009 10.500000000000002 14.500000000000002 7.5000000000000009 3.5000000000000004 4.5000000000000009
decision_type=2 2 2 2 2 2 2 2 2 2 2 2 2 2 2 2 2 2 2 2 2 2 2 2 2 2 2 2 2 2
left_child=-1 3 13 4 5 17 11 8 12 -10 -11 14 -6 -3 -7 -14 29 -2 -19 -5 24 28 -23 26 25 -21 27 -24 -22 -16
right_child=1 2 -4 19 7 6 -8 -9 9 10 -12 -13 15 -15 16 -17 -18 18 -20 20 21 22 23 -25 -26 -27 -28 -29 -30 -31
leaf_value=0.012791369053033684 0.041229267604649067 0.0061184944378005132 0.019950919726799275 0.010567852825074648 0.025992844581604002 0.0018231832389290451 -0.043803582163084123 0.010671572260937449 -0.040683406963944437 -0.038036452588580905 0.014704281371086836 0.010036621570587158 -0.003364139461071692 -0.025704356062001193 -0.034251494654293717 -0.035027399744306291 0.015970359742641448 -0.013057096916086534 0.02481891844007704 -0.025258885067084742 -0.012350577629845719 -0.021572740449280037 0.030008891299366954 -0.017242270631667896 0.042640651961167654 0.033404215176900225 0.052981071886808978 -0.022565245628356934 -0.058803289644420144 -0.0103795321718339
leaf_weight=221 32 36 29 402 25 282 21 59 96 21 32 200 107 145 58 35 26 34 45 29 29 61 40 39 30 24 23 26 20 124
leaf_count=221 32 36 29 402 25 282 21 59 96 21 32 200 107 145 58 35 26 34 45 29 29 61 40 39 30 24 23 26 20 124
internal_value=0 -0.00132718 -0.0139442 5.28104e-05 -0.0031787 0.000894664 -0.0017677 -0.0121075 -0.0163606 -0.028415 -0.00619299 -0.000488344 -0.00560539 -0.0193749 -0.00478425 -0.0111685 -0.0137424 0.0179482 0.00851785 0.0054029 -0.00106536 -0.0071025 -0.000826253 0.00906075 0.0162459 0.00130554 0.0205868 0.00929787 -0.0313109 -0.0179871
internal_weight=0 2130 210 1920 1197 822 711 375 316 149 53 690 167 181 490 142 208 111 79 723 321 238 189 128 83 53 89 66 49 182
internal_count=2351 2130 210 1920 1197 822 711 375 316 149 53 690 167 181 490 142 208 111 79 723 321 238 189 128 83 53 89 66 49 182
shrinkage=0.1


Tree=15
num_leaves=31
num_cat=0
split_feature=10 5 1 9 2 11 0 2 3 15 12 8 9 8 1 0 3 14 14 2 7 1 9 0 8 15 5 14 2 6
split_gain=3.44883 3.67428 3.55198 4.63838 3.53926 3.73372 2.86206 3.98598 2.62102 3.38879 3.46348 3.96743 4.72365 2.83979 2.92083 2.8606 3.25866 2.84257 2.77969 2.75391 2.558 2.40703 2.93866 2.7818 2.32745 2.30842 2.29602 2.23459 2.46402 2.16856
threshold=1.5000000000000002 1.5000000000000002 9.5000000000000018 27.500000000000004 43.500000000000007 1.5000000000000002 16.500000000000004 23.500000000000004 6.5000000000000009 34.500000000000007 3.5000000000000004 7.5000000000000009 8.5000000000000018 14.500000000000002 5.5000000000000009 26.500000000000004 10.500000000000002 3.5000000000000004 13.500000000000002 10.500000000000002 14.500000000000002 1.0000000180025095e-35 9.5000000000000018 25.500000000000004 3.5000000000000004 10.500000000000002 2.5000000000000004 6.5000000000000009 20.500000000000004 3.5000000000000004
decision_type=2 2 2 2 2 2 2 2 2 2 2 2 2 2 2 2 2 2 2 2 2 2 2 2 2 2 2 2 2 2
left_child=2 20 3 6 5 -3 7 -1 19 10 13 -12 -13 14 21 16 -16 -15 -17 -7 -2 22 -10 -23 -21 -8 -27 -19 -29 -26
right_child=1 4 -4 -5 -6 8 25 -9 9 -11 11 12 -14 17 15 18 -18 27 -20 24 -22 23 -24 -25 29 26 -28 28 -30 -31
leaf_value=-0.046064436861446928 -0.034150967374444008 0.02471145734190941 0.023914525711110662 -0.033798107408708138 -0.02130969800055027 0.029760978988238748 0.024520156615310248 0.014844482188875026 -0.022347625006328933 0.027481266958960172 -0.054037131417182187 -0.049045270810956547 0.0055437875144621904 -0.045413467177638306 -0.026815586723387241 0.041205813058397989 0.014213236132446599 0.017769505952795348 0.0017303607861200968 0.022379928171634676 0.0067743126835141864 -0.0087148433431572872 0.02193555901659296 -0.047697718035091055 -0.0012826680396654591 -0.02476640579601129 0.014947820998526909 0.010024518767992657 -0.028074088487131846 0.012764851009142736
leaf_weight=21 56 60 112 31 80 35 90 22 22 29 31 23 51 27 32 44 49 24 30 50 21 109 47 22 966 24 37 24 58 124
leaf_count=21 56 60 112 31 80 35 90 22 22 29 31 23 51 27 32 44 49 24 30 50 21 109 47 22 966 24 37 24 58 124
internal_value=0 -0.00156673 0.00936321 0.00211988 -0.000715131 0.000172088 0.00785936 -0.0149017 -0.000647256 -0.00589636 -0.00752865 -0.0240044 -0.0114231 -0.00398367 0.000685555 0.0109891 -0.00199568 -0.0164466 0.0252023 0.00213142 -0.0229895 -0.00729972 0.00781628 -0.0152616 0.00128314 0.014341 -0.000677449 -0.00906831 -0.0169233 0.000315398
internal_weight=0 2014 337 225 1937 1857 194 43 1797 622 593 105 74 488 355 155 81 133 74 1175 77 200 69 131 1140 151 61 106 82 1090
internal_count=2351 2014 337 225 1937 1857 194 43 1797 622 593 105 74 488 355 155 81 133 74 1175 77 200 69 131 1140 151 61 106 82 1090
shrinkage=0.1


end of trees

feature_importances:
Column_0=52
Column_2=49
Column_1=44
Column_3=40
Column_8=38
Column_7=35
Column_15=35
Column_12=31
Column_13=29
Column_14=27
Column_11=24
Column_9=23
Column_6=19
Column_5=17
Column_4=9
Column_10=8

parameters:
[boosting: gbdt]
[objective: regression]
[metric: l2]
[tree_learner: serial]
[device_type: cpu]
[data: ]
[valid: ]
[num_iterations: 10000]
[learning_rate: 0.1]
[num_leaves: 31]
[num_threads: 0]
[deterministic: 0]
[force_col_wise: 0]
[force_row_wise: 0]
[histogram_pool_size: -1]
[max_depth: -1]
[min_data_in_leaf: 20]
[min_sum_hessian_in_leaf: 0.001]
[bagging_fraction: 1]
[pos_bagging_fraction: 1]
[neg_bagging_fraction: 1]
[bagging_freq: 0]
[bagging_seed: 3]
[feature_fraction: 1]
[feature_fraction_bynode: 1]
[feature_fraction_seed: 2]
[extra_trees: 0]
[extra_seed: 6]
[early_stopping_round: 10]
[first_metric_only: 0]
[max_delta_step: 0]
[lambda_l1: 0]
[lambda_l2: 0]
[min_gain_to_split: 0]
[drop_rate: 0.1]
[max_drop: 50]
[skip_drop: 0.5]
[xgboost_dart_mode: 0]
[uniform_drop: 0]
[drop_seed: 4]
[top_rate: 0.2]
[other_rate: 0.1]
[min_data_per_group: 100]
[max_cat_threshold: 32]
[cat_l2: 10]
[cat_smooth: 10]
[max_cat_to_onehot: 4]
[top_k: 20]
[monotone_constraints: ]
[monotone_constraints_method: basic]
[monotone_penalty: 0]
[feature_contri: ]
[forcedsplits_filename: ]
[refit_decay_rate: 0.9]
[cegb_tradeoff: 1]
[cegb_penalty_split: 0]
[cegb_penalty_feature_lazy: ]
[cegb_penalty_feature_coupled: ]
[path_smooth: 0]
[interaction_constraints: ]
[verbosity: 1]
[saved_feature_importance_type: 0]
[max_bin: 255]
[max_bin_by_feature: ]
[min_data_in_bin: 3]
[bin_construct_sample_cnt: 200000]
[data_random_seed: 1]
[is_enable_sparse: 1]
[enable_bundle: 1]
[use_missing: 1]
[zero_as_missing: 0]
[feature_pre_filter: 1]
[pre_partition: 0]
[two_round: 0]
[header: 0]
[label_column: ]
[weight_column: ]
[group_column: ]
[ignore_column: ]
[categorical_feature: ]
[forcedbins_filename: ]
[objective_seed: 5]
[num_class: 1]
[is_unbalance: 0]
[scale_pos_weight: 1]
[sigmoid: 1]
[boost_from_average: 1]
[reg_sqrt: 0]
[alpha: 0.9]
[fair_c: 1]
[poisson_max_delta_step: 0.7]
[tweedie_variance_power: 1.5]
[lambdarank_truncation_level: 30]
[lambdarank_norm: 1]
[label_gain: ]
[eval_at: ]
[multi_error_top_k: 1]
[auc_mu_weights: ]
[num_machines: 1]
[local_listen_port: 12400]
[time_out: 120]
[machine_list_filename: ]
[machines: ]
[gpu_platform_id: -1]
[gpu_device_id: -1]
[gpu_use_dp: 0]
[num_gpu: 1]

end of parameters

pandas_categorical:null
