tree
version=v3
num_class=1
num_tree_per_iteration=1
label_index=0
max_feature_idx=15
objective=regression
feature_names=Column_0 Column_1 Column_2 Column_3 Column_4 Column_5 Column_6 Column_7 Column_8 Column_9 Column_10 Column_11 Column_12 Column_13 Column_14 Column_15
feature_infos=[1:49] [0:60] [3:49] [0:60] [0:6] [1:6] [0:7] [0:114] [1:122] [0:116] [0:7] [0:6] [0:6] [0:183] [0:91] [0:139]
tree_sizes=1023 1032 1127 1038

Tree=0
num_leaves=11
num_cat=0
split_feature=0 13 1 2 12 13 10 1 8 3
split_gain=8.63885 7.99287 4.23323 6.65951 4.21235 5.09143 4.68878 6.85603 3.362 1.66766
threshold=34.500000000000007 10.500000000000002 5.5000000000000009 27.500000000000004 2.5000000000000004 4.5000000000000009 2.5000000000000004 5.5000000000000009 16.500000000000004 5.5000000000000009
decision_type=2 2 2 2 2 2 2 2 2 2
left_child=1 4 -3 -4 6 -6 7 9 -2 -1
right_child=8 2 3 -5 5 -7 -8 -9 -10 -11
leaf_value=-0.21414793660829012 -0.11336452913988987 -0.24019850261391376 -0.15729309940475156 -0.22907881178879386 -0.16479309920606941 -0.22907881178879386 -0.13285761618110309 -0.134793100000798 -0.16870614258067004 -0.17765024172261429
leaf_weight=31 21 37 24 28 22 28 31 24 23 21
leaf_count=31 21 37 24 28 22 28 31 24 23 21
internal_value=-0.183103 -0.190403 -0.214344 -0.195947 -0.176831 -0.200793 -0.165634 -0.179004 -0.142293 -0.199408
internal_weight=0 246 89 52 157 50 107 76 44 52
internal_count=290 246 89 52 157 50 107 76 44 52
shrinkage=1


Tree=1
num_leaves=11
num_cat=0
split_feature=0 13 7 3 1 2 8 9 13 6
split_gain=6.99747 6.47423 3.72369 3.45255 3.42892 5.3942 2.72322 2.05941 3.55518 2.09743
threshold=34.500000000000007 10.500000000000002 3.5000000000000004 2.5000000000000004 5.5000000000000009 27.500000000000004 16.500000000000004 7.5000000000000009 4.5000000000000009 2.5000000000000004
decision_type=2 2 2 2 2 2 2 2 2 2
left_child=1 2 -1 -4 -3 -6 -2 -5 -9 -10
right_child=6 4 3 7 5 -7 -8 8 9 -11
leaf_value=-0.031527902769005821 0.06276502644731885 -0.051385554107459819 0.044740029710989733 -0.014592483169154118 0.023229307929674786 -0.041377830505371097 0.012957571382107942 0.043640952385388891 0.016930920630693437 -0.026917003095149994
leaf_weight=23 21 37 26 38 24 28 23 26 24 20
leaf_count=23 21 37 26 38 24 28 23 26 24 20
internal_value=0 -0.00656947 0.00564491 0.0120253 -0.0281162 -0.0115592 0.0367293 0.00414956 0.0143238 -0.00299995
internal_weight=0 246 157 134 89 52 44 108 70 44
internal_count=290 246 157 134 89 52 44 108 70 44
shrinkage=0.1


Tree=2
num_leaves=12
num_cat=0
split_feature=0 13 15 9 14 1 14 15 12 2 14
split_gain=5.66795 5.24412 3.3626 4.11021 3.10894 3.02668 3.43079 2.56584 1.91887 3.83519 0.148547
threshold=34.500000000000007 10.500000000000002 2.5000000000000004 19.500000000000004 9.5000000000000018 11.500000000000002 9.5000000000000018 9.5000000000000018 2.5000000000000004 20.500000000000004 6.5000000000000009
decision_type=2 2 2 2 2 2 2 2 2 2 2
left_child=1 2 -1 4 8 6 -3 -2 9 10 -4
right_child=7 5 3 -5 -6 -7 -8 -9 -10 -11 -12
leaf_value=0.041333381967111067 0.056131000573868342 -0.015953490408984097 -0.0078420451283454911 -0.042668192386627196 0.035431836971214846 0.001914545467921666 -0.063544610142707833 0.0077841744536445261 -0.029207021565664383 0.035398217577200672 -0.020030035078525545
leaf_weight=22 23 33 20 20 28 28 28 21 21 26 20
leaf_count=22 23 33 20 20 28 28 28 21 21 26 20
internal_value=0 -0.00591252 0.00508042 -0.000827465 0.00644918 -0.0253046 -0.0377986 0.0330564 -0.00287857 0.00549867 -0.013936
internal_weight=0 246 157 135 115 89 61 44 87 66 40
internal_count=290 246 157 135 115 89 61 44 87 66 40
shrinkage=0.1


Tree=3
num_leaves=11
num_cat=0
split_feature=0 2 7 3 13 1 13 2 15 9
split_gain=4.59104 4.56928 4.36325 3.63449 5.61867 3.30894 3.47533 3.18286 2.07833 1.64619
threshold=34.500000000000007 24.500000000000004 3.5000000000000004 8.5000000000000018 10.500000000000002 9.5000000000000018 4.5000000000000009 20.500000000000004 9.5000000000000018 8.5000000000000018
decision_type=2 2 2 2 2 2 2 2 2 2
left_child=1 5 -3 4 -4 6 -1 9 -2 -8
right_child=8 2 3 -5 -6 -7 7 -9 -10 -11
leaf_value=0.030308441762570984 0.050517898763570449 -0.061638368879045759 0.034918952399286732 -0.038322969790427916 -0.028472403022978043 0.038132188055250385 -0.0077137010438101637 0.022782105775106521 0.00700575624193464 -0.040244686390672413
leaf_weight=27 23 21 29 31 27 27 35 21 21 28
leaf_count=27 23 21 29 31 27 27 35 21 21 28
internal_value=0 -0.00532127 -0.0207271 -0.0108519 0.00435526 0.00673544 -0.000901609 -0.0109334 0.0297507 -0.0221719
internal_weight=0 246 108 87 56 138 111 84 44 63
internal_count=290 246 108 87 56 138 111 84 44 63
shrinkage=0.1


end of trees

feature_importances:
Column_13=7
Column_1=5
Column_2=5
Column_0=4
Column_3=3
Column_9=3
Column_14=3
Column_15=3
Column_7=2
Column_8=2
Column_12=2
Column_6=1
Column_10=1

parameters:
[boosting: gbdt]
[objective: regression]
[metric: l2]
[tree_learner: serial]
[device_type: cpu]
[data: ]
[valid: ]
[num_iterations: 10000]
[learning_rate: 0.1]
[num_leaves: 31]
[num_threads: 0]
[deterministic: 0]
[force_col_wise: 0]
[force_row_wise: 0]
[histogram_pool_size: -1]
[max_depth: -1]
[min_data_in_leaf: 20]
[min_sum_hessian_in_leaf: 0.001]
[bagging_fraction: 1]
[pos_bagging_fraction: 1]
[neg_bagging_fraction: 1]
[bagging_freq: 0]
[bagging_seed: 3]
[feature_fraction: 1]
[feature_fraction_bynode: 1]
[feature_fraction_seed: 2]
[extra_trees: 0]
[extra_seed: 6]
[early_stopping_round: 10]
[first_metric_only: 0]
[max_delta_step: 0]
[lambda_l1: 0]
[lambda_l2: 0]
[min_gain_to_split: 0]
[drop_rate: 0.1]
[max_drop: 50]
[skip_drop: 0.5]
[xgboost_dart_mode: 0]
[uniform_drop: 0]
[drop_seed: 4]
[top_rate: 0.2]
[other_rate: 0.1]
[min_data_per_group: 100]
[max_cat_threshold: 32]
[cat_l2: 10]
[cat_smooth: 10]
[max_cat_to_onehot: 4]
[top_k: 20]
[monotone_constraints: ]
[monotone_constraints_method: basic]
[monotone_penalty: 0]
[feature_contri: ]
[forcedsplits_filename: ]
[refit_decay_rate: 0.9]
[cegb_tradeoff: 1]
[cegb_penalty_split: 0]
[cegb_penalty_feature_lazy: ]
[cegb_penalty_feature_coupled: ]
[path_smooth: 0]
[interaction_constraints: ]
[verbosity: 1]
[saved_feature_importance_type: 0]
[max_bin: 255]
[max_bin_by_feature: ]
[min_data_in_bin: 3]
[bin_construct_sample_cnt: 200000]
[data_random_seed: 1]
[is_enable_sparse: 1]
[enable_bundle: 1]
[use_missing: 1]
[zero_as_missing: 0]
[feature_pre_filter: 1]
[pre_partition: 0]
[two_round: 0]
[header: 0]
[label_column: ]
[weight_column: ]
[group_column: ]
[ignore_column: ]
[categorical_feature: ]
[forcedbins_filename: ]
[objective_seed: 5]
[num_class: 1]
[is_unbalance: 0]
[scale_pos_weight: 1]
[sigmoid: 1]
[boost_from_average: 1]
[reg_sqrt: 0]
[alpha: 0.9]
[fair_c: 1]
[poisson_max_delta_step: 0.7]
[tweedie_variance_power: 1.5]
[lambdarank_truncation_level: 30]
[lambdarank_norm: 1]
[label_gain: ]
[eval_at: ]
[multi_error_top_k: 1]
[auc_mu_weights: ]
[num_machines: 1]
[local_listen_port: 12400]
[time_out: 120]
[machine_list_filename: ]
[machines: ]
[gpu_platform_id: -1]
[gpu_device_id: -1]
[gpu_use_dp: 0]
[num_gpu: 1]

end of parameters

pandas_categorical:null
