tree
version=v3
num_class=1
num_tree_per_iteration=1
label_index=0
max_feature_idx=15
objective=regression
feature_names=Column_0 Column_1 Column_2 Column_3 Column_4 Column_5 Column_6 Column_7 Column_8 Column_9 Column_10 Column_11 Column_12 Column_13 Column_14 Column_15
feature_infos=[2:49] [0:52] [5:48] [0:45] [0:7] [0:7] [0:6] [0:178] [0:81] [0:222] [0:7] [0:6] [0:7] [0:179] [0:175] [0:116]
tree_sizes=1185 1112 1114 1118 1119 1285 1113 1203 1204 1205 1210 1120 1121 1134

Tree=0
num_leaves=13
num_cat=0
split_feature=0 12 4 13 15 7 1 7 8 7 6 3
split_gain=15.5146 7.29061 8.64 5.70759 4.79224 6.27438 4.48489 3.71201 3.49138 2.66582 2.43048 1.91058
threshold=27.500000000000004 2.5000000000000004 2.5000000000000004 9.5000000000000018 8.5000000000000018 9.5000000000000018 3.5000000000000004 7.5000000000000009 8.5000000000000018 17.500000000000004 2.5000000000000004 5.5000000000000009
decision_type=2 2 2 2 2 2 2 2 2 2 2 2
left_child=4 7 3 -3 6 -6 11 -2 -8 -9 -4 -1
right_child=1 2 10 -5 5 -7 8 9 -10 -11 -12 -13
leaf_value=-0.011739130123801855 0.010799999713897706 0.007826086749201237 0.012857142516544887 -0.061199998378753666 -0.070540538671854378 -0.008999999761581421 0.044999998807907109 0.075937497988343247 -0.0093103445809462979 0.031304346996804948 0.058499998450279235 -0.053999998569488533
leaf_weight=23 25 23 28 25 37 30 20 32 29 23 20 20
leaf_count=23 25 23 28 25 37 30 20 32 29 23 20 20
internal_value=0 0.0204545 0.001875 -0.028125 -0.0226415 -0.0429851 -0.00782609 0.04275 0.0128571 0.0572727 0.031875 -0.0313953
internal_weight=0 176 96 48 159 67 92 80 49 55 48 43
internal_count=335 176 96 48 159 67 92 80 49 55 48 43
shrinkage=0.1


Tree=1
num_leaves=12
num_cat=0
split_feature=0 12 4 13 3 15 7 1 7 7 3
split_gain=12.5668 5.9054 6.9984 4.62315 4.2478 4.09546 7.38853 4.50165 3.09891 3.07102 2.07496
threshold=27.500000000000004 2.5000000000000004 2.5000000000000004 9.5000000000000018 1.0000000180025095e-35 7.5000000000000009 9.5000000000000018 3.5000000000000004 8.5000000000000018 17.500000000000004 8.5000000000000018
decision_type=2 2 2 2 2 2 2 2 2 2 2
left_child=4 8 3 -3 -1 7 -7 -6 -2 -10 -4
right_child=1 2 10 -5 5 6 -8 -9 9 -11 -12
leaf_value=0.013516230980555217 0.014370116218924523 0.0070434777754480428 0.0051122452176752542 -0.055079996109008794 -0.037430037151683464 -0.078109300136566168 -0.0087417481334081722 0.014417342753971324 0.078806246817111972 0.028173911101792171 0.047023808735388299
leaf_weight=30 32 23 21 25 33 34 28 34 25 23 27
leaf_count=30 32 23 21 25 33 34 28 34 25 23 27
internal_value=0 0.0184091 0.0016875 -0.0253125 -0.0203774 -0.0282596 -0.046782 -0.0111194 0.038475 0.0545449 0.0286875
internal_weight=0 176 96 48 159 129 62 67 80 48 48
internal_count=335 176 96 48 159 129 62 67 80 48 48
shrinkage=0.1


Tree=2
num_leaves=12
num_cat=0
split_feature=0 11 4 15 14 3 9 3 7 15 7
split_gain=10.2106 4.29623 4.26175 6.82333 4.52903 5.3761 4.08165 3.18711 3.16151 1.8327 1.80846
threshold=28.500000000000004 3.5000000000000004 2.5000000000000004 11.500000000000002 22.500000000000004 7.5000000000000009 13.500000000000002 1.5000000000000002 8.5000000000000018 5.5000000000000009 9.5000000000000018
decision_type=2 2 2 2 2 2 2 2 2 2 2
left_child=1 6 3 8 5 -4 7 -1 -2 -9 -11
right_child=2 -3 4 -5 -6 -7 -8 9 -10 10 -12
leaf_value=0.016621444442055443 0.004466860609896043 -0.05308192412235907 -0.017331421359077746 -0.034305907951784322 0.074333745808828441 0.045267602976630718 0.028340049152788913 -0.0088728417188693315 0.053117708116769795 -0.051127477713993619 -0.014538855986161668
leaf_weight=22 34 28 23 32 21 34 23 39 22 35 22
leaf_count=22 34 28 23 32 21 34 23 39 22 35 22
internal_value=0 -0.0173027 0.0176154 0.00253038 0.0346344 0.0200083 -0.0101976 -0.0177092 0.0235797 -0.0255766 -0.0370056
internal_weight=0 169 166 88 78 57 141 118 56 96 57
internal_count=335 169 166 88 78 57 141 118 56 96 57
shrinkage=0.1


Tree=3
num_leaves=12
num_cat=0
split_feature=0 12 4 7 15 1 1 11 14 14 3
split_gain=8.36099 4.00331 4.08261 3.60046 6.3956 2.99805 1.76207 1.58248 1.95155 1.24268 1.00496
threshold=30.500000000000004 2.5000000000000004 2.5000000000000004 9.5000000000000018 6.5000000000000009 1.0000000180025095e-35 4.5000000000000009 2.5000000000000004 13.500000000000002 6.5000000000000009 9.5000000000000018
decision_type=2 2 2 2 2 2 2 2 2 2 2
left_child=3 7 -3 4 6 -5 -1 -2 -9 -6 -4
right_child=1 2 10 5 9 -7 -8 8 -10 -11 -12
leaf_value=-0.020429184394223351 0.05407748463805076 -0.020926507968360035 0.0073589997366070754 -0.020791512727737427 -0.03093247439550317 0.022097475712115951 0.013921284303069116 0.0014912826674325127 0.044602955806823004 -0.061028760145692265 0.038008883725041936
leaf_weight=28 27 39 20 28 23 39 32 21 21 34 23
leaf_count=28 27 39 20 28 23 39 32 21 21 34 23
internal_value=0 0.0174392 0.00250305 -0.0143115 -0.0248971 0.00417372 -0.00210893 0.0351894 0.0230471 -0.0488846 0.0237531
internal_weight=0 151 82 184 117 67 60 69 42 57 43
internal_count=335 151 82 184 117 67 60 69 42 57 43
shrinkage=0.1


Tree=4
num_leaves=12
num_cat=0
split_feature=0 8 15 1 12 4 13 6 7 6 7
split_gain=6.85316 3.83594 3.81779 5.38636 3.67962 3.89993 3.79983 2.81454 2.01633 2.01532 1.91408
threshold=27.500000000000004 16.500000000000004 8.5000000000000018 3.5000000000000004 2.5000000000000004 2.5000000000000004 9.5000000000000018 2.5000000000000004 7.5000000000000009 2.5000000000000004 17.500000000000004
decision_type=2 2 2 2 2 2 2 2 2 2 2
left_child=1 2 3 -1 8 6 -6 -4 -2 -7 -10
right_child=4 -3 7 -5 5 9 -8 -9 10 -11 -12
leaf_value=-0.019543833703529547 0.0058862411975860599 -0.048644554827894482 -0.048117406149545024 0.032368262456013611 0.0095734568393748744 0.0032330212848527095 -0.046747364521026617 -1.0454654693603517e-06 0.055952995643019678 0.044795252121984958 0.018132873916107677
leaf_weight=41 25 28 31 39 23 28 25 20 32 20 23
leaf_count=41 25 28 31 39 23 28 25 20 32 20 23
internal_value=0 -0.0150481 -0.00786714 0.00576331 0.0135946 0.000395157 -0.0197603 -0.0292482 0.0294338 0.0205506 0.0401373
internal_weight=0 159 131 80 176 96 48 51 80 48 55
internal_count=335 159 131 80 176 96 48 51 80 48 55
shrinkage=0.1


Tree=5
num_leaves=14
num_cat=0
split_feature=0 15 0 13 7 15 2 10 14 0 1 14 13
split_gain=5.62272 3.29036 5.34325 3.11196 3.01515 4.67002 2.65358 4.51251 1.96111 1.76124 1.3083 0.913816 0.470552
threshold=30.500000000000004 13.500000000000002 45.500000000000007 9.5000000000000018 9.5000000000000018 6.5000000000000009 19.500000000000004 2.5000000000000004 14.500000000000002 42.500000000000007 5.5000000000000009 6.5000000000000009 6.5000000000000009
decision_type=2 2 2 2 2 2 2 2 2 2 2 2 2
left_child=4 3 -3 9 5 10 -6 -8 -5 -2 12 -7 -1
right_child=1 2 -4 8 6 11 7 -9 -10 -11 -12 -13 -14
leaf_value=0.01933712035417557 0.059507382049092228 -0.027406476719959362 0.033971668407320979 -0.016735664010047915 0.035687780380249022 -0.026526417680408643 0.020045094535900997 -0.042279850585120071 0.027548740506172183 0.022160772007444634 -0.022833539247512819 -0.052334952003815598 -0.0023550817370414736
leaf_weight=20 28 37 23 20 20 23 26 21 20 23 20 34 20
leaf_count=20 28 37 23 20 20 23 26 21 20 23 20 34 20
internal_value=0 0.0143012 -0.00387819 0.0262875 -0.0117363 -0.0214233 0.00517987 -0.00780222 0.00540654 0.0426648 -0.0019505 -0.041921 0.00849102
internal_weight=0 151 60 91 184 117 67 47 40 51 60 57 40
internal_count=335 151 60 91 184 117 67 47 40 51 60 57 40
shrinkage=0.1


Tree=6
num_leaves=12
num_cat=0
split_feature=0 8 15 1 12 4 15 6 7 7 6
split_gain=4.61381 2.8405 2.82044 4.53429 2.6769 3.21717 3.01161 2.13315 1.69412 2.04049 1.5944
threshold=27.500000000000004 16.500000000000004 8.5000000000000018 3.5000000000000004 2.5000000000000004 2.5000000000000004 11.500000000000002 2.5000000000000004 8.5000000000000018 17.500000000000004 2.5000000000000004
decision_type=2 2 2 2 2 2 2 2 2 2 2
left_child=1 2 3 -1 8 6 -6 -4 -2 -10 -7
right_child=4 -3 7 -5 5 10 -8 -9 9 -11 -12
leaf_value=-0.017671555862194155 0.0068416571244597438 -0.041257579411779134 -0.040972194916779003 0.029957857040258558 0.0099920954023088732 0.0027992999979427886 -0.040500568614030882 0.00091683328151702891 0.056322219252586375 0.01505034941694011 0.039767267368733886
leaf_weight=41 32 28 31 39 21 28 27 20 25 23 20
leaf_count=41 32 28 31 39 21 28 27 20 25 23 20
internal_value=0 -0.0123471 -0.00616778 0.00554778 0.0111545 -0.000103704 -0.01841 -0.0245451 0.0246643 0.0365461 0.0182026
internal_weight=0 159 131 80 176 96 48 51 80 48 48
internal_count=335 159 131 80 176 96 48 51 80 48 48
shrinkage=0.1


Tree=7
num_leaves=13
num_cat=0
split_feature=0 6 2 12 8 10 0 3 3 2 14 7
split_gain=3.8295 3.79786 4.23766 3.98962 2.75423 2.74069 3.61623 2.11276 3.68131 1.75729 1.66567 1.53896
threshold=45.500000000000007 2.5000000000000004 29.500000000000004 1.5000000000000002 4.5000000000000009 1.5000000000000002 30.500000000000004 12.500000000000002 2.5000000000000004 24.500000000000004 9.5000000000000018 10.500000000000002
decision_type=2 2 2 2 2 2 2 2 2 2 2 2
left_child=1 3 7 -1 -5 -6 9 8 -3 10 -7 -2
right_child=11 2 -4 4 5 6 -8 -9 -10 -11 -12 -13
leaf_value=0.027946529218128752 0.0084981839039496004 0.042548910975456239 -0.020927867677903944 -0.051272668757221918 0.018337916032127713 -0.0091065717094084807 0.0052780340879391404 0.050770702809095382 -0.0076938012880938397 -0.056787967681884766 -0.044926694035530096 0.046344809234142303
leaf_weight=21 21 25 31 22 23 34 39 20 35 21 21 22
leaf_count=21 21 25 31 22 23 34 39 20 35 21 21 22
internal_value=0 -0.0041029 0.0104603 -0.0130339 -0.0184126 -0.013174 -0.0194764 0.0226232 0.0132407 -0.0321794 -0.0227833 0.0278616
internal_weight=0 292 111 181 160 138 115 80 60 76 55 43
internal_count=335 292 111 181 160 138 115 80 60 76 55 43
shrinkage=0.1


Tree=8
num_leaves=13
num_cat=0
split_feature=4 14 0 15 11 11 10 0 4 3 14 14
split_gain=3.34383 3.34046 2.52798 3.56836 2.61763 2.60053 2.29686 2.1534 2.0417 3.53383 1.62417 1.49638
threshold=3.5000000000000004 13.500000000000002 30.500000000000004 13.500000000000002 3.5000000000000004 2.5000000000000004 2.5000000000000004 44.500000000000007 1.5000000000000002 6.5000000000000009 12.500000000000002 6.5000000000000009
decision_type=2 2 2 2 2 2 2 2 2 2 2 2
left_child=2 -2 4 5 6 -4 8 -5 -1 11 -7 -10
right_child=1 -3 3 7 -6 10 -8 -9 9 -11 -12 -13
leaf_value=-0.026832976511546543 0.0006666354835033417 0.049452681124210363 0.045460565732075624 -0.036166738873968526 -0.042436090588569647 -0.015572480857372284 -0.028437138087040671 0.0082623837050050507 0.013117811990820844 0.040178942928711575 0.021738971663372859 -0.020784902969996136
leaf_weight=21 32 25 26 24 25 20 37 20 23 24 28 30
leaf_count=21 32 25 26 24 25 20 37 20 23 24 28 30
internal_value=0 0.022064 -0.00452392 0.00658019 -0.0127132 0.0199894 -0.00720896 -0.0159717 0.000805762 0.0083436 0.00619253 -0.0060724
internal_weight=0 57 278 118 160 74 135 44 98 77 48 53
internal_count=335 57 278 118 160 74 135 44 98 77 48 53
shrinkage=0.1


Tree=9
num_leaves=13
num_cat=0
split_feature=4 1 15 9 0 13 14 7 6 3 0 15
split_gain=2.7085 3.03373 2.06776 4.16212 3.04595 4.64504 4.55881 2.6099 5.62426 1.75711 1.43347 1.41486
threshold=3.5000000000000004 12.500000000000002 13.500000000000002 21.500000000000004 30.500000000000004 8.5000000000000018 11.500000000000002 14.500000000000002 3.5000000000000004 1.0000000180025095e-35 21.500000000000004 5.5000000000000009
decision_type=2 2 2 2 2 2 2 2 2 2 2 2
left_child=2 -2 3 4 6 -6 9 8 -4 -1 11 -11
right_child=1 -3 7 -5 5 -7 -8 -9 -10 10 -12 -13
leaf_value=0.021786664639200485 0.0028960808306126985 0.051236472278833392 -0.0597280043980171 0.037591663775620641 0.038075790510458112 -0.02011158207188482 -0.052468624090154972 0.011818793900310993 0.0073233382099054077 0.013151735478434071 -0.031765073926552485 -0.018973986919109637
leaf_weight=21 37 20 29 27 34 23 24 20 22 29 23 26
leaf_count=21 37 20 29 27 34 23 24 20 22 29 23 26
internal_value=0 0.0198576 -0.00407153 0.000979412 -0.00451243 0.0145967 -0.0133679 -0.0187975 -0.0308039 -0.00388889 -0.0108015 -0.00203497
internal_weight=0 57 278 207 180 57 123 71 51 99 78 55
internal_count=335 57 278 207 180 57 123 71 51 99 78 55
shrinkage=0.1


Tree=10
num_leaves=13
num_cat=0
split_feature=1 13 6 14 11 0 4 15 0 0 3 2
split_gain=2.49777 3.26244 3.61815 2.71344 2.95194 2.97526 2.81703 2.57044 4.19194 2.28482 0.652224 0.599931
threshold=1.0000000180025095e-35 12.500000000000002 2.5000000000000004 21.500000000000004 2.5000000000000004 20.500000000000004 2.5000000000000004 5.5000000000000009 33.500000000000007 32.500000000000007 11.500000000000002 20.500000000000004
decision_type=2 2 2 2 2 2 2 2 2 2 2 2
left_child=1 2 -1 4 7 -6 -5 -2 11 -7 -11 -9
right_child=3 -3 -4 6 5 9 -8 8 -10 10 -12 -13
leaf_value=-0.020272640310800994 0.034857982216459332 -0.043368610187813093 0.029735734410907912 0.0029200815636178726 -0.043888128969980324 0.019117310540429477 0.052972700379111552 -0.0075481452047824861 0.028351660282351077 -0.02980943804695493 -0.0051710919350047013 -0.031748291282426747
leaf_weight=39 33 27 23 23 23 29 22 20 32 21 22 21
leaf_count=39 33 27 23 23 23 29 22 20 32 21 22 21
internal_value=0 -0.0143558 -0.00172115 0.00519375 0.00022439 -0.0125767 0.0273903 0.0116971 0.00122707 -0.00257445 -0.0172038 -0.0199433
internal_weight=0 89 62 246 201 95 45 106 73 72 43 41
internal_count=335 89 62 246 201 95 45 106 73 72 43 41
shrinkage=0.1


Tree=11
num_leaves=12
num_cat=0
split_feature=14 4 11 15 14 7 0 6 15 7 1
split_gain=2.10845 4.5034 3.10068 2.34039 2.49723 2.36708 1.82647 2.21733 3.26384 2.42921 1.882
threshold=22.500000000000004 2.5000000000000004 2.5000000000000004 14.500000000000002 5.5000000000000009 9.5000000000000018 40.500000000000007 2.5000000000000004 6.5000000000000009 10.500000000000002 3.5000000000000004
decision_type=2 2 2 2 2 2 2 2 2 2 2
left_child=2 -2 6 4 -4 -6 7 8 10 -9 -1
right_child=1 -3 3 -5 5 -7 -8 9 -10 -11 -12
leaf_value=-0.011734263747930527 -0.0077583594668296082 0.049286075860261923 -0.03228874216819632 -0.040096675379779838 -0.015357399582862856 0.021973619406873531 0.030735189855098728 0.037105989881924227 -0.031547293812036518 -0.0062500137835741045 0.03164773091673851
leaf_weight=20 31 25 29 29 35 33 25 28 36 24 20
leaf_count=20 31 25 29 29 35 33 25 28 36 24 20
internal_value=0 0.0177079 -0.00355428 -0.0151711 -0.0077191 0.00275912 0.00601251 0.00118386 -0.00970307 0.0170955 0.00995673
internal_weight=0 56 279 126 97 68 153 128 76 52 40
internal_count=335 56 279 126 97 68 153 128 76 52 40
shrinkage=0.1


Tree=12
num_leaves=12
num_cat=0
split_feature=1 13 8 14 1 8 4 13 15 8 2
split_gain=2.01458 2.83245 2.57558 1.90758 2.20317 2.95218 2.56076 3.56741 2.47708 2.1002 1.45129
threshold=1.0000000180025095e-35 11.500000000000002 10.500000000000002 25.500000000000004 5.5000000000000009 11.500000000000002 2.5000000000000004 5.5000000000000009 8.5000000000000018 15.500000000000002 24.500000000000004
decision_type=2 2 2 2 2 2 2 2 2 2 2
left_child=1 2 -1 4 5 8 9 -8 -2 10 -6
right_child=3 -3 -4 -5 6 -7 7 -9 -10 -11 -12
leaf_value=-0.016449123095063602 0.022446751991907758 -0.036131952567534015 0.027462613582611085 0.02923543325492314 0.009258547549446423 0.04389967317692936 -0.020773801379478898 0.027046708342356559 -0.018539362843951274 -0.046104523539543155 -0.025168446540832518
leaf_weight=34 30 33 22 28 24 24 26 39 29 21 25
leaf_count=34 30 33 22 28 24 24 26 39 29 21 25
internal_value=0 -0.0128927 0.000801916 0.00466442 0.00150851 0.0143296 -0.00637406 0.0079185 0.00230103 -0.0196457 -0.00830625
internal_weight=0 89 56 246 218 83 135 65 59 70 49
internal_count=335 89 56 246 218 83 135 65 59 70 49
shrinkage=0.1


Tree=13
num_leaves=12
num_cat=0
split_feature=6 4 9 15 3 3 0 14 1 15 7
split_gain=1.97724 2.19807 1.98319 1.84961 2.83515 2.88215 3.08151 2.22873 2.14197 3.03358 1.99008
threshold=4.5000000000000009 3.5000000000000004 8.5000000000000018 13.500000000000002 14.500000000000002 10.500000000000002 30.500000000000004 10.500000000000002 1.0000000180025095e-35 5.5000000000000009 13.500000000000002
decision_type=2 2 2 2 2 2 2 2 2 2 2
left_child=1 3 -3 4 5 6 7 8 -1 -10 -5
right_child=-2 2 -4 10 -6 -7 -8 -9 9 -11 -12
leaf_value=-0.025370697259902954 0.02829570974344793 -0.0083788529410958306 0.031528082851207617 -0.036143016481461628 0.023733151683936249 -0.038171138525009161 0.025917888991534712 -0.034924262762069704 0.040936672389507295 -0.0081450614859076113 0.0010322446624437967
leaf_weight=25 23 20 33 36 37 25 32 26 20 34 24
leaf_count=25 23 20 33 36 37 25 32 26 20 34 24
internal_value=0 -0.0020859 0.0164689 -0.00588282 -0.00124259 -0.00694693 -0.00124908 -0.00952854 -0.00117046 0.0100334 -0.0212729
internal_weight=0 312 53 259 199 162 137 105 79 54 60
internal_count=335 312 53 259 199 162 137 105 79 54 60
shrinkage=0.1


end of trees

feature_importances:
Column_0=20
Column_7=19
Column_15=19
Column_14=15
Column_1=13
Column_3=13
Column_4=13
Column_6=10
Column_13=9
Column_8=7
Column_11=6
Column_12=6
Column_2=5
Column_9=3
Column_10=3

parameters:
[boosting: gbdt]
[objective: regression]
[metric: l2]
[tree_learner: serial]
[device_type: cpu]
[data: ]
[valid: ]
[num_iterations: 10000]
[learning_rate: 0.1]
[num_leaves: 31]
[num_threads: 0]
[deterministic: 0]
[force_col_wise: 0]
[force_row_wise: 0]
[histogram_pool_size: -1]
[max_depth: -1]
[min_data_in_leaf: 20]
[min_sum_hessian_in_leaf: 0.001]
[bagging_fraction: 1]
[pos_bagging_fraction: 1]
[neg_bagging_fraction: 1]
[bagging_freq: 0]
[bagging_seed: 3]
[feature_fraction: 1]
[feature_fraction_bynode: 1]
[feature_fraction_seed: 2]
[extra_trees: 0]
[extra_seed: 6]
[early_stopping_round: 10]
[first_metric_only: 0]
[max_delta_step: 0]
[lambda_l1: 0]
[lambda_l2: 0]
[min_gain_to_split: 0]
[drop_rate: 0.1]
[max_drop: 50]
[skip_drop: 0.5]
[xgboost_dart_mode: 0]
[uniform_drop: 0]
[drop_seed: 4]
[top_rate: 0.2]
[other_rate: 0.1]
[min_data_per_group: 100]
[max_cat_threshold: 32]
[cat_l2: 10]
[cat_smooth: 10]
[max_cat_to_onehot: 4]
[top_k: 20]
[monotone_constraints: ]
[monotone_constraints_method: basic]
[monotone_penalty: 0]
[feature_contri: ]
[forcedsplits_filename: ]
[refit_decay_rate: 0.9]
[cegb_tradeoff: 1]
[cegb_penalty_split: 0]
[cegb_penalty_feature_lazy: ]
[cegb_penalty_feature_coupled: ]
[path_smooth: 0]
[interaction_constraints: ]
[verbosity: 1]
[saved_feature_importance_type: 0]
[max_bin: 255]
[max_bin_by_feature: ]
[min_data_in_bin: 3]
[bin_construct_sample_cnt: 200000]
[data_random_seed: 1]
[is_enable_sparse: 1]
[enable_bundle: 1]
[use_missing: 1]
[zero_as_missing: 0]
[feature_pre_filter: 1]
[pre_partition: 0]
[two_round: 0]
[header: 0]
[label_column: ]
[weight_column: ]
[group_column: ]
[ignore_column: ]
[categorical_feature: ]
[forcedbins_filename: ]
[objective_seed: 5]
[num_class: 1]
[is_unbalance: 0]
[scale_pos_weight: 1]
[sigmoid: 1]
[boost_from_average: 1]
[reg_sqrt: 0]
[alpha: 0.9]
[fair_c: 1]
[poisson_max_delta_step: 0.7]
[tweedie_variance_power: 1.5]
[lambdarank_truncation_level: 30]
[lambdarank_norm: 1]
[label_gain: ]
[eval_at: ]
[multi_error_top_k: 1]
[auc_mu_weights: ]
[num_machines: 1]
[local_listen_port: 12400]
[time_out: 120]
[machine_list_filename: ]
[machines: ]
[gpu_platform_id: -1]
[gpu_device_id: -1]
[gpu_use_dp: 0]
[num_gpu: 1]

end of parameters

pandas_categorical:null
