tree
version=v3
num_class=1
num_tree_per_iteration=1
label_index=0
max_feature_idx=15
objective=regression
feature_names=Column_0 Column_1 Column_2 Column_3 Column_4 Column_5 Column_6 Column_7 Column_8 Column_9 Column_10 Column_11 Column_12 Column_13 Column_14 Column_15
feature_infos=[1:49] [0:50] [1:49] [0:59] [0:6] [0:7] [0:6] [0:63] [0:126] [0:112] [0:7] [0:7] [0:7] [0:182] [0:144] [0:142]
tree_sizes=2255 2289 2287 2377 2374 2378 2296 2209

Tree=0
num_leaves=26
num_cat=0
split_feature=0 8 2 7 0 2 7 3 8 15 13 12 7 9 8 1 2 0 14 9 0 13 9 7 2
split_gain=17.638 14.6129 12.7992 7.68798 7.65543 5.11247 4.21492 6.68016 3.66686 4.61256 3.52425 3.44388 4.24888 3.34918 2.98667 2.87707 4.64813 2.80656 2.78079 4.42729 2.45836 2.2154 2.06071 1.23429 0.908883
threshold=36.500000000000007 8.5000000000000018 22.500000000000004 8.5000000000000018 11.500000000000002 41.500000000000007 14.500000000000002 6.5000000000000009 9.5000000000000018 4.5000000000000009 13.500000000000002 1.5000000000000002 19.500000000000004 14.500000000000002 25.500000000000004 7.5000000000000009 15.500000000000002 27.500000000000004 10.500000000000002 14.500000000000002 22.500000000000004 6.5000000000000009 6.5000000000000009 8.5000000000000018 28.500000000000004
decision_type=2 2 2 2 2 2 2 2 2 2 2 2 2 2 2 2 2 2 2 2 2 2 2 2 2
left_child=2 -2 4 5 -1 8 7 15 20 -10 13 -5 17 -9 -3 16 -6 21 19 -11 -4 -13 -18 -24 -23
right_child=1 14 3 11 6 -7 -8 10 9 18 -12 12 -14 -15 -16 -17 22 -19 -20 -21 -22 24 23 -25 -26
leaf_value=-0.32321526378246368 -0.30137618317805903 -0.23232856367315569 -0.33089999289739702 -0.27947142112822765 -0.29326024109532378 -0.33518570721149449 -0.2993942011829509 -0.29147142120770048 -0.31375713564100721 -0.25274873187561997 -0.3210428499749729 -0.30304284985576357 -0.34804285015378683 -0.24167921308573193 -0.18369502297839765 -0.21499937101180511 -0.26704284961734504 -0.28966447138878371 -0.23631871148283262 -0.31204284991536824 -0.28597388422547892 -0.34804285015378683 -0.21089999210266841 -0.24518570661544803 -0.32232856426920214
leaf_weight=29 27 28 21 21 23 21 37 35 21 34 20 36 47 22 23 23 20 37 29 20 29 27 21 21 28
leaf_count=29 27 28 21 21 23 21 37 35 21 34 20 36 47 22 23 23 20 37 29 20 29 27 21 21 28
internal_value=-0.286714 -0.241889 -0.292335 -0.304134 -0.274895 -0.2889 -0.268583 -0.262421 -0.282588 -0.271889 -0.284926 -0.317737 -0.322329 -0.272253 -0.210396 -0.246376 -0.254866 -0.312887 -0.261296 -0.27471 -0.304843 -0.322329 -0.240623 -0.228043 -0.334952
internal_weight=0 78 622 371 251 175 222 185 154 104 77 196 175 57 51 108 85 128 83 54 50 91 62 42 55
internal_count=700 78 622 371 251 175 222 185 154 104 77 196 175 57 51 108 85 128 83 54 50 91 62 42 55
shrinkage=1


Tree=1
num_leaves=26
num_cat=0
split_feature=0 8 2 7 0 2 0 13 14 8 15 12 7 3 7 15 0 14 12 12 0 13 8 8 9
split_gain=14.2867 11.8364 10.3674 6.22727 6.2009 4.1411 3.60155 5.70824 3.98437 2.97016 3.73617 2.78954 3.4416 2.74922 3.26235 2.43369 2.42868 2.27455 2.89772 2.06789 1.99127 1.69448 1.79107 1.36439 0.427702
threshold=36.500000000000007 8.5000000000000018 22.500000000000004 8.5000000000000018 11.500000000000002 41.500000000000007 28.500000000000004 7.5000000000000009 6.5000000000000009 9.5000000000000018 4.5000000000000009 1.5000000000000002 19.500000000000004 11.500000000000002 8.5000000000000018 12.500000000000002 29.500000000000004 8.5000000000000018 2.5000000000000004 2.5000000000000004 22.500000000000004 7.5000000000000009 11.500000000000002 17.500000000000004 6.5000000000000009
decision_type=2 2 2 2 2 2 2 2 2 2 2 2 2 2 2 2 2 2 2 2 2 2 2 2 2
left_child=2 -2 4 5 -1 9 7 8 -6 20 -11 -5 16 14 -9 -3 21 18 -12 24 -4 22 -13 -23 -10
right_child=1 15 3 11 6 -7 -8 13 19 10 17 12 -14 -15 -16 -17 -18 -19 -20 -21 -22 23 -24 -25 -26
leaf_value=-0.032850887446567931 -0.013195714244136104 0.086963290373484298 -0.039767140150070192 0.0065185688790820907 0.058783658619584712 -0.043624284153892884 0.045758980853216995 0.0031528523093775698 0.017939044833183287 -0.024338570946738834 0.036646636724472048 -0.034775128147818822 -0.055195713043212892 0.024596251192547026 -0.040183025039732458 0.042577132724580316 0.0075378761405036562 0.04133464967882311 -0.013983045174525336 -0.007646599411964417 0.00066635690886398841 -0.02783789231970504 0.0055763986977663913 -0.057729719693844141 0.038372310570308141
leaf_weight=29 27 30 21 21 29 21 35 38 20 21 20 22 47 21 32 21 21 37 26 26 29 37 22 26 21
leaf_count=29 27 30 21 21 29 21 35 38 20 21 20 22 47 21 32 21 21 37 26 26 29 37 22 26 21
internal_value=0 0.0403427 -0.00505906 -0.0156782 0.010637 -0.00196714 0.0163178 0.0108074 0.0278179 0.00371338 0.0133427 -0.0279202 -0.0320529 -0.00713766 -0.0166578 0.0686866 -0.0235551 0.0228766 0.00802986 0.0144147 -0.0163157 -0.0296574 -0.0145994 -0.0401742 0.0284049
internal_weight=0 78 622 371 251 175 222 187 96 154 104 196 175 91 70 51 128 83 46 67 50 107 44 63 41
internal_count=700 78 622 371 251 175 222 187 96 154 104 196 175 91 70 51 128 83 46 67 50 107 44 63 41
shrinkage=0.1


Tree=2
num_leaves=26
num_cat=0
split_feature=0 8 2 7 3 7 3 5 3 14 6 9 0 0 2 8 2 15 13 15 1 7 0 9 13
split_gain=11.5723 10.1297 8.39758 5.24522 5.53158 5.04409 4.07843 3.85079 3.72814 3.54033 3.22284 3.31101 2.92792 2.65768 2.55833 2.30207 2.2595 2.98355 4.03687 3.20745 2.15988 2.28484 2.65976 3.11483 1.0298
threshold=36.500000000000007 12.500000000000002 22.500000000000004 14.500000000000002 6.5000000000000009 8.5000000000000018 8.5000000000000018 3.5000000000000004 1.5000000000000002 7.5000000000000009 2.5000000000000004 6.5000000000000009 19.500000000000004 10.500000000000002 30.500000000000004 21.500000000000004 40.500000000000007 4.5000000000000009 14.500000000000002 10.500000000000002 11.500000000000002 19.500000000000004 27.500000000000004 9.5000000000000018 9.5000000000000018
decision_type=2 2 2 2 2 2 2 2 2 2 2 2 2 2 2 2 2 2 2 2 2 2 2 2 2
left_child=2 14 3 4 7 8 -5 10 -4 -6 11 -1 -11 -10 -2 20 17 -15 19 -19 21 22 23 -7 -17
right_child=1 -3 5 6 9 15 -8 -9 13 12 -12 -13 -14 16 -16 24 -18 18 -20 -21 -22 -23 -24 -25 -26
leaf_value=0.0096242875888429835 0.0276708847284317 0.074243571307208087 0.030979038929117138 -0.050719923817593118 0.03041095811387767 -0.0029141902923583984 0.0088322639465332042 0.067034052506737093 -0.037957749843597413 -0.040269031127293908 -0.0038612660133477417 0.055315981762749815 0.003559739249093192 -0.02975761890411377 -0.022303290026528495 -0.025709742437238281 -0.029614948729674025 0.023703520386307329 0.049795913425358856 -0.024602400405066355 0.0046060560271143913 -0.050158680809868711 0.013090154799548063 -0.049373015665238905 -0.053107238867703611
leaf_weight=29 20 37 29 23 23 27 23 23 25 27 33 35 35 20 21 23 24 27 22 28 32 27 22 31 34
leaf_count=29 20 37 29 23 23 27 23 23 25 27 33 35 35 20 21 23 24 27 22 28 32 27 22 31 34
internal_value=0 0.0363085 -0.00455315 0.00957326 0.016421 -0.0141104 -0.0209438 0.030246 -0.00177043 -0.00309672 0.0215231 0.0346119 -0.015527 -0.00827546 0.00207436 -0.0251282 -0.00214275 0.00465449 0.0135927 -0.000888585 -0.0181882 -0.0250051 -0.0165158 -0.0277456 -0.0420521
internal_weight=0 78 622 251 205 371 46 120 175 85 97 64 62 146 41 196 121 97 77 55 139 107 80 58 57
internal_count=700 78 622 251 205 371 46 120 175 85 97 64 62 146 41 196 121 97 77 55 139 107 80 58 57
shrinkage=0.1


Tree=3
num_leaves=27
num_cat=0
split_feature=0 8 2 0 11 2 7 13 12 0 14 13 3 2 14 0 8 2 8 15 8 8 11 2 9 13
split_gain=9.37353 8.39918 6.80204 4.81709 4.12798 4.10633 3.62527 2.73786 2.68626 4.94815 3.77749 2.95155 2.61691 2.59411 2.57611 5.16461 3.10239 2.88019 2.46445 2.10964 2.01353 1.81184 1.76591 3.30146 0.852555 0.0214002
threshold=36.500000000000007 8.5000000000000018 22.500000000000004 11.500000000000002 1.5000000000000002 40.500000000000007 12.500000000000002 13.500000000000002 3.5000000000000004 11.500000000000002 2.5000000000000004 12.500000000000002 5.5000000000000009 30.500000000000004 6.5000000000000009 19.500000000000004 6.5000000000000009 19.500000000000004 11.500000000000002 9.5000000000000018 12.500000000000002 17.500000000000004 3.5000000000000004 29.500000000000004 7.5000000000000009 17.500000000000004
decision_type=2 2 2 2 2 2 2 2 2 2 2 2 2 2 2 2 2 2 2 2 2 2 2 2 2 2
left_child=2 -2 3 -1 -4 6 8 14 9 -6 -11 13 -9 18 24 -16 -17 -18 -12 -3 -10 -7 23 -8 -5 -23
right_child=1 19 4 7 5 21 22 12 20 10 11 -13 -14 -15 15 16 17 -19 -20 -21 -22 25 -24 -25 -26 -27
leaf_value=-0.029713540036102822 -0.012422156554681284 0.07649751741152544 0.031490294188261034 0.055663457938602993 -0.040280060682977951 -0.014683219080879576 -0.040455402831236525 0.016935719975403378 -0.045957562753132418 -0.026380568600836252 0.015980974833170573 0.048544881741205859 -0.025572069088617963 0.032143944309603788 -0.017777514771411294 -0.0044914841651916507 0.019545536532121547 0.063759573606344364 -0.031548832207918168 0.035812699317932128 -0.0046711037556330364 -0.053033337422779631 -0.044755131006240845 0.0050583606257158173 0.027494264732707632 -0.048462703824043274
leaf_weight=29 27 26 20 21 21 21 30 28 21 21 24 27 30 31 38 23 34 26 20 25 27 21 33 34 22 20
leaf_count=29 27 26 20 21 21 21 30 28 21 21 24 27 30 31 38 23 34 26 20 25 27 21 33 34 22 20
internal_value=0 0.0326776 -0.00409784 0.00861593 -0.0126993 -0.0152173 -0.0102075 0.0136229 -0.00224667 0.00458241 0.0122419 0.0201935 -0.00505107 0.00998705 0.0202272 0.0127558 0.0267349 0.038705 -0.00562348 0.056554 -0.0227339 -0.0385694 -0.0259649 -0.0162762 0.0412513 -0.0508038
internal_weight=0 78 622 251 371 351 289 222 192 144 123 102 58 75 164 121 83 60 44 51 48 62 97 64 43 41
internal_count=700 78 622 251 371 351 289 222 192 144 123 102 58 75 164 121 83 60 44 51 48 62 97 64 43 41
shrinkage=0.1


Tree=4
num_leaves=27
num_cat=0
split_feature=0 5 15 2 0 14 7 15 3 9 3 1 2 7 9 11 13 9 9 9 3 8 12 1 13 2
split_gain=7.75599 10.3598 5.9742 5.7258 5.13122 4.64643 4.18858 4.66105 5.7976 5.69451 3.45594 3.42495 3.39202 2.81358 4.04739 2.77387 2.71667 2.3325 1.96122 1.92931 1.63577 1.45535 1.23568 0.969227 0.609461 0.135776
threshold=30.500000000000004 3.5000000000000004 10.500000000000002 34.500000000000007 11.500000000000002 9.5000000000000018 8.5000000000000018 3.5000000000000004 5.5000000000000009 12.500000000000002 12.500000000000002 5.5000000000000009 32.500000000000007 14.500000000000002 15.500000000000002 2.5000000000000004 6.5000000000000009 9.5000000000000018 7.5000000000000009 8.5000000000000018 7.5000000000000009 22.500000000000004 3.5000000000000004 1.0000000180025095e-35 8.5000000000000018 40.500000000000007
decision_type=2 2 2 2 2 2 2 2 2 2 2 2 2 2 2 2 2 2 2 2 2 2 2 2 2 2
left_child=2 3 4 5 20 -2 7 8 -6 15 16 -7 13 14 18 -9 17 -8 -4 -18 -1 -3 25 -21 -20 -14
right_child=1 21 12 -5 6 11 10 9 -10 -11 -12 -13 22 -15 -16 -17 19 -19 24 23 -22 -23 -24 -25 -26 -27
leaf_value=-0.010549898716536436 -0.014383167953326784 0.073211429764827099 0.003488599061965943 -0.031319279389248958 0.031551521133493493 0.0064799884955088309 0.029685024646195497 0.07523629315968218 -0.031369139812886714 0.0024490488427025931 0.028411694645881655 0.060777497291564946 -0.053450470715761193 -0.03795277067908534 0.030756286425249919 0.029276684050758679 -0.046592051937029914 -0.016908377125149681 -0.01658152773976326 -0.027121877244540623 -0.049568792893773035 0.040173419713974007 -0.022347436321748272 0.0032602433647428244 -0.041268791705369956 -0.041937710131917688
leaf_weight=22 29 24 35 36 27 21 22 29 32 35 25 26 20 27 28 24 26 21 20 21 21 30 37 21 20 21
leaf_count=22 29 24 35 36 27 21 22 29 32 35 25 26 20 27 28 24 26 21 20 21 21 30 37 21 20 21
internal_value=0 0.0188793 -0.00586885 0.00153294 0.00257989 0.0170945 0.00747027 0.019172 -0.00257494 0.0337524 -0.00517795 0.0365169 -0.0191106 -0.00921888 -0.00168669 0.0544244 -0.0127432 0.00693011 -0.0137987 -0.0251836 -0.0296056 0.054857 -0.0355969 -0.0119308 -0.0289252 -0.0475537
internal_weight=0 166 534 112 326 76 283 147 59 88 136 47 208 130 103 53 111 43 75 68 43 54 78 42 40 41
internal_count=700 166 534 112 326 76 283 147 59 88 136 47 208 130 103 53 111 43 75 68 43 54 78 42 40 41
shrinkage=0.1


Tree=5
num_leaves=27
num_cat=0
split_feature=0 8 2 4 11 13 1 2 7 7 14 13 3 0 2 11 14 8 7 8 13 8 3 3 15 13
split_gain=6.38184 6.65574 4.93264 4.27552 3.39851 3.03495 3.02172 2.69746 2.72778 2.32094 2.00494 1.9155 3.25609 1.93222 1.88277 1.86711 1.78079 1.41387 1.1196 3.21102 2.5652 2.23744 1.76877 0.863494 0.770838 0.0281398
threshold=36.500000000000007 12.500000000000002 23.500000000000004 3.5000000000000004 1.5000000000000002 14.500000000000002 10.500000000000002 40.500000000000007 19.500000000000004 8.5000000000000018 2.5000000000000004 11.500000000000002 6.5000000000000009 18.500000000000004 30.500000000000004 2.5000000000000004 4.5000000000000009 17.500000000000004 9.5000000000000018 9.5000000000000018 4.5000000000000009 9.5000000000000018 11.500000000000002 4.5000000000000009 7.5000000000000009 17.500000000000004
decision_type=2 2 2 2 2 2 2 2 2 2 2 2 2 2 2 2 2 2 2 2 2 2 2 2 2 2
left_child=2 14 3 5 -4 6 11 8 10 -7 24 12 15 -14 -2 23 -12 -9 19 -18 -20 -22 -21 -1 -6 -19
right_child=1 -3 4 -5 7 9 -8 17 -10 -11 16 -13 13 -15 -16 -17 18 25 20 22 21 -23 -24 -25 -26 -27
leaf_value=0.019190077483654023 0.021171831637620927 0.057712993106326542 0.028853264600038533 -0.03020811975002289 -0.011219288855791092 0.0098685412571348011 0.050268431504567473 -0.011302024126052856 -0.034108422147600279 -0.031277458025858955 0.01985132115728715 0.041249518245458611 -0.028896652989917334 0.006286551984580788 -0.021699360438755581 0.0036397132909659182 -0.025499822456261208 -0.04576664623760042 -0.045174211263656616 0.002129179697770339 0.021862890323003134 -0.02202331194510827 0.037590638886798512 0.046828098251269414 -0.038650747707911902 -0.040525479018688207
leaf_weight=20 20 37 20 28 20 29 24 21 38 26 34 20 27 37 21 33 29 21 20 39 21 26 22 26 21 20
leaf_count=20 20 37 20 28 20 29 24 21 38 26 34 20 27 37 21 33 29 21 20 39 21 26 22 26 21 20
internal_value=0 0.0269632 -0.00338124 0.00678672 -0.0111805 0.0110671 0.0171405 -0.0135922 -0.00927281 -0.00958229 -0.00520491 0.0122627 0.00820864 -0.00855636 -0.000786584 0.0217904 -0.00089784 -0.0324024 -0.00539129 0.00189486 -0.0151787 -0.00241458 0.0149186 0.0348116 -0.0252695 -0.04321
internal_weight=0 78 622 270 352 242 187 332 270 55 232 163 143 64 41 79 191 62 157 90 67 47 61 46 41 41
internal_count=700 78 622 270 352 242 187 332 270 55 232 163 143 64 41 79 191 62 157 90 67 47 61 46 41 41
shrinkage=0.1


Tree=6
num_leaves=26
num_cat=0
split_feature=0 5 13 2 7 7 14 3 12 2 15 15 14 9 7 6 14 3 4 2 5 14 14 9 1
split_gain=5.64664 8.06786 5.06508 3.97639 3.49297 3.39245 2.60232 5.31998 2.82451 2.30667 2.23015 2.22616 2.14168 2.66375 3.24791 2.13658 1.84223 1.73402 2.13971 1.4993 0.946284 0.813112 0.772425 0.601373 0.512601
threshold=29.500000000000004 3.5000000000000004 8.5000000000000018 34.500000000000007 10.500000000000002 7.5000000000000009 7.5000000000000009 3.5000000000000004 2.5000000000000004 32.500000000000007 12.500000000000002 7.5000000000000009 10.500000000000002 4.5000000000000009 9.5000000000000018 2.5000000000000004 15.500000000000002 1.5000000000000002 1.0000000180025095e-35 29.500000000000004 2.5000000000000004 11.500000000000002 4.5000000000000009 18.500000000000004 12.500000000000002
decision_type=2 2 2 2 2 2 2 2 2 2 2 2 2 2 2 2 2 2 2 2 2 2 2 2 2
left_child=2 3 6 4 15 17 7 -1 22 12 11 20 -8 -14 -15 -2 -3 -4 -19 -20 21 -7 -9 -5 -12
right_child=1 16 5 23 -6 10 9 8 -10 -11 24 -13 13 14 -16 -17 -18 18 19 -21 -22 -23 -24 -25 -26
leaf_value=-0.024028536677360535 0.050023725509643562 0.057920882105827333 0.022960628374763158 -0.037772648334503174 -0.011589733759562175 -0.047713184924352739 -0.021513345092535021 0.029648201366265614 0.0011318511687792264 -0.030458646902331601 -0.046648926719238884 0.0093291044235229489 -0.019843286985442753 0.04891036534309387 0.0011256821227796151 0.0098031410149165572 0.021183750317210245 -0.030678775906562806 0.016090240989412582 -0.016360930725932123 -0.009970082768372128 -0.020496963029322419 0.052742386077131546 -0.013249745368957519 -0.027181240916252139
leaf_weight=25 25 39 23 20 36 21 28 30 26 27 38 27 21 25 33 28 21 28 35 24 28 23 28 20 21
leaf_count=25 25 39 23 20 36 21 28 30 26 27 38 27 21 25 33 28 21 28 35 24 28 23 28 20 21
internal_value=0 0.0147681 -0.00546218 0.000677541 0.0124478 -0.0149424 0.00499337 0.0164674 0.0285198 -0.00434 -0.0243301 -0.0151584 0.00225069 0.0106734 0.0217225 0.0287751 0.0450629 -0.00145832 -0.0079139 0.00288976 -0.0243412 -0.0334865 0.0407971 -0.0255112 -0.0397198
internal_weight=0 189 511 129 89 268 243 109 84 134 158 99 107 79 58 53 60 110 87 59 72 44 58 40 59
internal_count=700 189 511 129 89 268 243 109 84 134 158 99 107 79 58 53 60 110 87 59 72 44 58 40 59
shrinkage=0.1


Tree=7
num_leaves=25
num_cat=0
split_feature=0 8 2 4 13 1 7 8 1 11 6 3 2 7 9 0 7 0 9 1 12 6 11 2
split_gain=4.70108 5.43507 3.57719 3.04081 2.7628 3.32836 3.31809 2.76265 2.70077 2.5859 2.40599 2.33882 2.27566 2.3754 1.81143 1.71953 2.61551 1.86572 3.69391 3.02265 2.57022 1.19683 0.910843 0.815237
threshold=36.500000000000007 8.5000000000000018 22.500000000000004 3.5000000000000004 14.500000000000002 4.5000000000000009 10.500000000000002 9.5000000000000018 1.0000000180025095e-35 1.5000000000000002 1.0000000180025095e-35 5.5000000000000009 40.500000000000007 19.500000000000004 15.500000000000002 18.500000000000004 6.5000000000000009 26.500000000000004 8.5000000000000018 5.5000000000000009 2.5000000000000004 2.5000000000000004 3.5000000000000004 18.500000000000004
decision_type=2 2 2 2 2 2 2 2 2 2 2 2 2 2 2 2 2 2 2 2 2 2 2 2
left_child=2 -2 3 4 5 6 8 -7 23 -4 -11 -6 13 15 -3 16 21 18 -17 -20 -19 -12 -14 -1
right_child=1 14 9 -5 11 7 -8 -9 -10 10 12 -13 22 -15 -16 17 -18 20 19 -21 -22 -23 -24 -25
leaf_value=0.017386735133502796 -0.013137413726912607 0.062338001032670343 0.025835249871015549 -0.02606106767287621 0.0092074381894078749 0.014246413723016396 0.028483772112263574 0.053245334502528698 -0.039933118969202042 -0.04102992141246796 0.021600690335035325 -0.032994411637385687 -0.039649799055066604 -0.028668624887595306 0.024580062760247125 0.041412573494017127 -0.032332563243414228 0.013348287902772427 -0.028970610836277839 0.018555963411927223 -0.025116862278235588 -0.01299448072910309 -0.013603278040885925 -0.010218875110149385
leaf_weight=23 27 24 20 26 29 39 36 34 20 25 20 24 29 37 27 32 38 32 23 32 38 20 25 20
leaf_count=23 27 24 20 26 29 39 36 34 20 25 20 24 29 37 27 32 38 32 23 32 38 20 25 20
internal_value=0 0.0231418 -0.00290203 0.00631787 0.0100594 0.0162106 0.00426536 0.0324103 -0.00957373 -0.00913975 -0.0111326 -0.00990283 -0.00883989 -0.0051172 0.0423485 -0.0014091 -0.013545 0.00462021 0.0143985 -0.00131879 -0.00753279 0.0043031 -0.0275912 0.00454692
internal_weight=0 78 622 251 225 172 99 73 63 371 351 53 326 272 51 235 78 157 87 55 70 40 54 43
internal_count=700 78 622 251 225 172 99 73 63 371 351 53 326 272 51 235 78 157 87 55 70 40 54 43
shrinkage=0.1


end of trees

feature_importances:
Column_2=26
Column_0=25
Column_7=22
Column_8=21
Column_13=17
Column_9=16
Column_3=15
Column_14=14
Column_15=11
Column_1=9
Column_12=8
Column_11=7
Column_5=4
Column_6=4
Column_4=3

parameters:
[boosting: gbdt]
[objective: regression]
[metric: l2]
[tree_learner: serial]
[device_type: cpu]
[data: ]
[valid: ]
[num_iterations: 10000]
[learning_rate: 0.1]
[num_leaves: 31]
[num_threads: 0]
[deterministic: 0]
[force_col_wise: 0]
[force_row_wise: 0]
[histogram_pool_size: -1]
[max_depth: -1]
[min_data_in_leaf: 20]
[min_sum_hessian_in_leaf: 0.001]
[bagging_fraction: 1]
[pos_bagging_fraction: 1]
[neg_bagging_fraction: 1]
[bagging_freq: 0]
[bagging_seed: 3]
[feature_fraction: 1]
[feature_fraction_bynode: 1]
[feature_fraction_seed: 2]
[extra_trees: 0]
[extra_seed: 6]
[early_stopping_round: 10]
[first_metric_only: 0]
[max_delta_step: 0]
[lambda_l1: 0]
[lambda_l2: 0]
[min_gain_to_split: 0]
[drop_rate: 0.1]
[max_drop: 50]
[skip_drop: 0.5]
[xgboost_dart_mode: 0]
[uniform_drop: 0]
[drop_seed: 4]
[top_rate: 0.2]
[other_rate: 0.1]
[min_data_per_group: 100]
[max_cat_threshold: 32]
[cat_l2: 10]
[cat_smooth: 10]
[max_cat_to_onehot: 4]
[top_k: 20]
[monotone_constraints: ]
[monotone_constraints_method: basic]
[monotone_penalty: 0]
[feature_contri: ]
[forcedsplits_filename: ]
[refit_decay_rate: 0.9]
[cegb_tradeoff: 1]
[cegb_penalty_split: 0]
[cegb_penalty_feature_lazy: ]
[cegb_penalty_feature_coupled: ]
[path_smooth: 0]
[interaction_constraints: ]
[verbosity: 1]
[saved_feature_importance_type: 0]
[max_bin: 255]
[max_bin_by_feature: ]
[min_data_in_bin: 3]
[bin_construct_sample_cnt: 200000]
[data_random_seed: 1]
[is_enable_sparse: 1]
[enable_bundle: 1]
[use_missing: 1]
[zero_as_missing: 0]
[feature_pre_filter: 1]
[pre_partition: 0]
[two_round: 0]
[header: 0]
[label_column: ]
[weight_column: ]
[group_column: ]
[ignore_column: ]
[categorical_feature: ]
[forcedbins_filename: ]
[objective_seed: 5]
[num_class: 1]
[is_unbalance: 0]
[scale_pos_weight: 1]
[sigmoid: 1]
[boost_from_average: 1]
[reg_sqrt: 0]
[alpha: 0.9]
[fair_c: 1]
[poisson_max_delta_step: 0.7]
[tweedie_variance_power: 1.5]
[lambdarank_truncation_level: 30]
[lambdarank_norm: 1]
[label_gain: ]
[eval_at: ]
[multi_error_top_k: 1]
[auc_mu_weights: ]
[num_machines: 1]
[local_listen_port: 12400]
[time_out: 120]
[machine_list_filename: ]
[machines: ]
[gpu_platform_id: -1]
[gpu_device_id: -1]
[gpu_use_dp: 0]
[num_gpu: 1]

end of parameters

pandas_categorical:null
