tree
version=v3
num_class=1
num_tree_per_iteration=1
label_index=0
max_feature_idx=15
objective=regression
feature_names=Column_0 Column_1 Column_2 Column_3 Column_4 Column_5 Column_6 Column_7 Column_8 Column_9 Column_10 Column_11 Column_12 Column_13 Column_14 Column_15
feature_infos=[2:49] [0:60] [3:49] [0:64] [0:8] [0:6] [0:7] [0:175] [1:171] [0:133] [0:7] [1:7] [0:7] [0:167] [0:127] [0:179]
tree_sizes=1991 1880 2055 1787 2048 1963 2037 1871 2050

Tree=0
num_leaves=23
num_cat=0
split_feature=1 2 12 0 0 1 3 7 9 14 15 14 13 15 7 0 8 2 6 5 1 1
split_gain=13.0135 9.70972 7.20508 6.83462 6.61841 5.10037 6.60057 3.53105 4.26601 3.99174 3.28159 5.49436 6.71796 3.02949 5.1511 2.63098 2.17872 1.98107 1.296 1.2417 1.57315 0.84
threshold=29.500000000000004 30.500000000000004 1.5000000000000002 38.500000000000007 40.500000000000007 8.5000000000000018 16.500000000000004 9.5000000000000018 5.5000000000000009 14.500000000000002 26.500000000000004 25.500000000000004 9.5000000000000018 7.5000000000000009 18.500000000000004 20.500000000000004 12.500000000000002 38.500000000000007 1.5000000000000002 2.5000000000000004 8.5000000000000018 1.5000000000000002
decision_type=2 2 2 2 2 2 2 2 2 2 2 2 2 2 2 2 2 2 2 2 2 2
left_child=1 2 -1 10 5 7 -7 9 -9 15 11 12 17 -5 -15 21 -10 -3 -12 -14 -21 -4
right_child=-2 3 4 13 -6 6 -8 8 16 -11 18 -13 19 14 -16 -17 -18 -19 -20 20 -22 -23
leaf_value=-0.13337837798936708 -0.1167857148324844 -0.20166666220735618 -0.19499999593805384 -0.14357142757486413 -0.1264285714538009 -0.13337837798936708 -0.20357142399858544 -0.2063513466128119 -0.18187499672036478 -0.24599999289821695 -0.21899999450754234 -0.15599999826263497 -0.24857142131637644 -0.22038460980962823 -0.15857142668079446 -0.17142856877159188 -0.14467741829235209 -0.16071428369592736 -0.25499999236177517 -0.20099999558042597 -0.23934781938167393 -0.22166666101526331
leaf_weight=37 28 27 21 21 21 37 21 37 32 20 20 20 28 26 28 28 31 21 20 20 23 27
leaf_count=37 28 27 21 21 21 37 21 37 32 20 20 20 28 26 28 28 31 21 20 20 23 27
internal_value=-0.183333 -0.186625 -0.174808 -0.201142 -0.180382 -0.184843 -0.158793 -0.192551 -0.1794 -0.20625 -0.21176 -0.204496 -0.212647 -0.1758 -0.188333 -0.195789 -0.163571 -0.18375 -0.237 -0.232183 -0.221512 -0.21
internal_weight=0 566 312 254 275 254 58 196 100 96 179 139 119 75 54 76 63 48 40 71 43 48
internal_count=594 566 312 254 275 254 58 196 100 96 179 139 119 75 54 76 63 48 40 71 43 48
shrinkage=1


Tree=1
num_leaves=21
num_cat=0
split_feature=1 2 12 0 1 0 14 13 7 3 9 14 15 10 0 13 3 7 9 12
split_gain=10.5409 7.86488 5.83612 5.77539 5.46388 4.57718 3.61399 4.26166 3.41735 3.13191 3.12133 3.01108 2.32143 2.01971 1.83794 1.83031 1.61899 1.12928 1.10363 1.98773
threshold=29.500000000000004 30.500000000000004 1.5000000000000002 25.500000000000004 8.5000000000000018 32.500000000000007 20.500000000000004 21.500000000000004 9.5000000000000018 11.500000000000002 5.5000000000000009 3.5000000000000004 13.500000000000002 3.5000000000000004 41.500000000000007 9.5000000000000018 15.500000000000002 15.500000000000002 5.5000000000000009 2.5000000000000004
decision_type=2 2 2 2 2 2 2 2 2 2 2 2 2 2 2 2 2 2 2 2
left_child=1 2 -1 12 5 8 11 -8 18 -6 -10 -5 15 14 17 -3 -12 -13 -4 -20
right_child=-2 3 4 6 9 -7 7 -9 10 -11 16 13 -14 -15 -16 -17 -18 -19 19 -21
leaf_value=0.044959459433684484 0.059892859442957816 -0.0026718815167744957 -0.010059523582458497 0.017208517116049062 0.054876299087817854 0.031697582376414332 -0.0077838357417814204 0.049764817953109747 -0.020716214663273582 0.010069647966287076 0.029042718539366852 -0.028572712974114851 -0.061232718612466541 -0.0010288779077858761 -0.0097102237784344233 -0.040437154697649413 -0.0057209111395336333 -0.060613588311455469 -0.016909369922453357 -0.05480780863761902
leaf_weight=37 28 21 30 23 26 29 31 22 37 39 37 22 28 29 23 33 21 22 31 25
leaf_count=37 28 21 30 23 26 29 31 22 37 39 37 22 28 29 23 33 21 22 31 25
internal_value=0 -0.0029629 0.00767308 -0.0160276 0.00265636 -0.00518571 -0.00561598 0.0161043 -0.0110952 0.0279923 0.00197833 -0.0152897 -0.0378665 -0.0230757 -0.0326184 -0.0257507 0.0164559 -0.0445932 -0.0255369 -0.0338283
internal_weight=0 566 312 254 275 210 172 53 181 65 95 119 82 96 67 54 58 44 86 56
internal_count=594 566 312 254 275 210 172 53 181 65 95 119 82 96 67 54 58 44 86 56
shrinkage=0.1


Tree=2
num_leaves=23
num_cat=0
split_feature=1 2 5 0 0 12 9 5 2 3 7 7 15 14 13 15 15 15 7 14 9 7
split_gain=8.53814 6.37055 5.35987 6.17128 4.75716 3.95143 3.99875 4.54258 5.92572 5.72868 3.30328 2.59595 3.84346 2.94753 3.36077 2.57368 2.99271 2.42505 4.22016 1.88277 0.572808 0.290482
threshold=29.500000000000004 30.500000000000004 1.5000000000000002 40.500000000000007 38.500000000000007 1.5000000000000002 2.5000000000000004 2.5000000000000004 26.500000000000004 11.500000000000002 7.5000000000000009 3.5000000000000004 22.500000000000004 23.500000000000004 9.5000000000000018 16.500000000000004 5.5000000000000009 7.5000000000000009 15.500000000000002 8.5000000000000018 8.5000000000000018 18.500000000000004
decision_type=2 2 2 2 2 2 2 2 2 2 2 2 2 2 2 2 2 2 2 2 2 2
left_child=1 2 -1 5 11 -4 -7 9 15 10 -8 -3 13 14 20 16 -9 -6 -19 -16 -13 -14
right_child=-2 4 3 -5 17 6 7 8 -10 -11 -12 12 21 -15 19 -17 -18 18 -20 -21 -22 -23
leaf_value=0.054492680051110014 0.053903571569493838 0.0097490884008861727 0.034556175129754202 0.052998449232267299 0.03555231293042501 -0.042172249463888319 -0.019624713808298111 -0.011536743491888046 0.062024334782645824 -0.048753669507363262 0.021546902625184314 -0.016009634435176851 -0.062983698844909661 0.016392372250556949 -0.026490571919609518 -0.023511124574221099 0.035839775999387112 -0.040945531725883486 0.016944927152465372 -0.063535837246024088 0.0076371371746063238 -0.045940158069133763
leaf_weight=22 28 21 28 23 21 26 40 24 21 34 38 20 20 20 34 26 30 20 34 23 21 20
leaf_count=22 28 21 28 23 21 26 40 24 21 34 38 20 20 20 34 26 30 20 34 23 21 20
internal_value=0 -0.00266661 0.00690577 0.00329573 -0.0144248 -0.00098578 -0.00514969 -0.000630506 0.0147479 -0.0144985 0.000433253 -0.0232833 -0.0276737 -0.018593 -0.0257328 0.00233778 0.0147835 0.00671754 -0.00449598 -0.0414387 -0.00389787 -0.0544619
internal_weight=0 566 312 290 254 267 239 213 101 112 78 179 158 118 98 80 54 75 54 57 41 40
internal_count=594 566 312 290 254 267 239 213 101 112 78 179 158 118 98 80 54 75 54 57 41 40
shrinkage=0.1


Tree=3
num_leaves=20
num_cat=0
split_feature=0 15 14 11 7 0 4 8 8 9 8 3 1 3 6 6 15 5 9
split_gain=7.03721 5.46659 7.12453 7.13544 5.68602 6.94975 6.23206 6.22127 4.84805 4.57467 4.97823 4.05754 3.48885 4.03237 2.35537 2.15757 2.09233 1.72602 3.65446
threshold=42.500000000000007 27.500000000000004 29.500000000000004 1.5000000000000002 13.500000000000002 25.500000000000004 2.5000000000000004 10.500000000000002 13.500000000000002 8.5000000000000018 14.500000000000002 13.500000000000002 6.5000000000000009 24.500000000000004 1.5000000000000002 2.5000000000000004 9.5000000000000018 2.5000000000000004 7.5000000000000009
decision_type=2 2 2 2 2 2 2 2 2 2 2 2 2 2 2 2 2 2 2
left_child=1 2 3 -1 5 11 7 -7 -2 16 -11 15 -3 -14 -4 17 -6 18 -5
right_child=8 12 14 4 9 6 -8 -9 -10 10 -12 -13 13 -15 -16 -17 -18 -19 -20
leaf_value=0.04840830039978028 -0.003762462983528773 -0.056684540598480798 0.015843516588211062 -0.02719898803366555 -0.022279791478757506 0.034244938586887562 0.064931962581781244 -0.026672466595967611 0.053361172248155647 -0.032260703643163045 0.026927121701063934 -0.041543464274967419 0.02056120661172 -0.033780258562829756 0.063794434922082088 -0.026897875193891852 -0.059105627901024298 0.020910804500607283 0.020500975847244265
leaf_weight=25 24 27 20 36 27 38 26 30 39 30 27 34 22 36 21 29 36 38 29
leaf_count=25 24 27 20 36 27 38 26 30 39 30 27 34 22 36 21 29 36 38 29
internal_value=0 -0.00374913 0.000680357 -0.00334102 -0.00674558 0.00156471 0.0232911 0.00736961 0.0315998 -0.0247512 -0.00422437 -0.0107382 -0.0269909 -0.013168 0.0404037 -0.00280351 -0.0433231 0.00398034 -0.00591747
internal_weight=0 531 446 405 380 260 94 68 63 120 57 166 85 58 41 132 63 103 65
internal_count=594 531 446 405 380 260 94 68 63 120 57 166 85 58 41 132 63 103 65
shrinkage=0.1


Tree=4
num_leaves=23
num_cat=0
split_feature=1 2 5 0 0 0 6 5 13 11 14 15 14 2 11 7 5 7 3 13 5 13
split_gain=6.10484 5.04452 4.02204 4.5087 3.53255 3.06113 2.85789 4.89741 5.08954 7.11624 2.37286 3.83344 2.32371 4.76844 2.28885 2.2167 2.37207 2.26397 1.80372 1.47698 1.25529 1.08925
threshold=29.500000000000004 30.500000000000004 1.5000000000000002 40.500000000000007 25.500000000000004 15.500000000000002 1.0000000180025095e-35 2.5000000000000004 9.5000000000000018 2.5000000000000004 25.500000000000004 18.500000000000004 9.5000000000000018 22.500000000000004 3.5000000000000004 13.500000000000002 2.5000000000000004 24.500000000000004 6.5000000000000009 6.5000000000000009 2.5000000000000004 6.5000000000000009
decision_type=2 2 2 2 2 2 2 2 2 2 2 2 2 2 2 2 2 2 2 2 2 2
left_child=1 2 -1 5 19 18 -7 8 9 21 14 -12 13 -9 15 16 -6 -17 -4 -3 -21 -8
right_child=-2 4 3 -5 10 6 7 12 -10 -11 11 -13 -14 -15 -16 17 -18 -19 -20 20 -22 -23
leaf_value=0.047485652836886327 0.045579875746209711 -0.010101452584450062 -0.0039991912387666254 0.04561934289724931 -0.011680171164599332 -0.023500052466988566 -0.024710801153471976 -0.02267112650654533 -0.043179261242901841 0.051173598289489745 0.046329192604337426 -0.013402900099754334 0.044455504264587012 0.040586199897986196 -0.03555406471093496 -0.037493773230484556 0.033779405057430267 0.0039085440635681151 -0.044972174546935341 -0.056876388062601507 -0.026443333968971718 0.0048644924163818368
leaf_weight=22 28 26 21 23 22 32 33 22 27 25 21 22 39 26 30 28 24 25 22 23 33 20
leaf_count=22 28 26 21 23 22 32 33 22 27 25 21 22 39 26 30 28 24 25 22 23 33 20
internal_value=0 -0.00225483 0.00626324 0.00313602 -0.012718 -0.000523589 0.00416774 0.00877903 -0.00575873 0.00719453 -0.00457525 0.0157686 0.0263246 0.0115933 -0.0113565 -0.00402394 0.0120379 -0.0179644 -0.0249621 -0.0297979 -0.0389426 -0.0135503
internal_weight=0 566 312 290 254 267 224 192 105 78 172 43 87 48 129 99 46 53 43 82 56 53
internal_count=594 566 312 290 254 267 224 192 105 78 172 43 87 48 129 99 46 53 43 82 56 53
shrinkage=0.1


Tree=5
num_leaves=22
num_cat=0
split_feature=0 15 11 14 7 0 13 3 8 9 10 3 6 1 3 4 0 9 6 14 0
split_gain=5.05448 4.23126 5.17851 5.18071 4.10377 4.73518 5.14122 4.52492 3.79875 3.45338 3.31561 4.11723 2.67096 2.66796 3.11473 2.27978 2.25355 2.40752 1.58622 1.31307 1.72051
threshold=42.500000000000007 27.500000000000004 1.5000000000000002 29.500000000000004 13.500000000000002 25.500000000000004 10.500000000000002 15.500000000000002 13.500000000000002 15.500000000000002 1.5000000000000002 13.500000000000002 2.5000000000000004 6.5000000000000009 24.500000000000004 3.5000000000000004 21.500000000000004 6.5000000000000009 1.5000000000000002 5.5000000000000009 19.500000000000004
decision_type=2 2 2 2 2 2 2 2 2 2 2 2 2 2 2 2 2 2 2 2 2
left_child=1 2 -1 4 5 10 7 -7 -2 15 -4 12 19 -3 -15 16 -6 -18 -5 -12 -21
right_child=8 13 3 18 9 6 -8 -9 -10 -11 11 -13 -14 14 -16 -17 17 -19 -20 20 -22
leaf_value=0.044028086616442752 -0.0045216336846351625 -0.049591551886664503 0.024903483152389529 0.012356895804405214 0.0092921276887257889 0.061664479620316452 -0.0083437114189832649 0.0026256578309195385 0.046043663911330399 0.017071559727191928 0.017701756231712575 -0.04893937781453133 -0.035711143910884861 0.018106651306152344 -0.029653077407015695 -0.049962243889317373 -0.054137587411837142 -0.0083395293603340786 0.052184310257434842 0.012794334938128791 -0.022625102405436338
leaf_weight=26 24 27 25 20 21 34 39 21 39 20 33 28 24 22 36 33 22 24 20 24 32
leaf_count=26 24 27 25 20 21 34 39 21 39 20 33 28 24 22 36 33 22 24 20 24 32
internal_value=0 -0.00317737 0.000719625 -0.00196138 -0.00556474 0.00149524 0.019429 0.0391224 0.0267807 -0.0208614 -0.00866003 -0.014611 -0.00610486 -0.0236251 -0.0115373 -0.0284479 -0.0178514 -0.0302429 0.0322706 0.00187886 -0.00744534
internal_weight=0 531 446 420 380 260 94 55 63 120 166 141 113 85 58 100 67 46 40 89 56
internal_count=594 531 446 420 380 260 94 55 63 120 166 141 113 85 58 100 67 46 40 89 56
shrinkage=0.1


Tree=6
num_leaves=23
num_cat=0
split_feature=1 2 1 12 9 7 14 0 9 2 8 14 13 14 0 0 1 10 5 15 4 13
split_gain=4.40122 3.89144 3.39548 3.39288 2.94954 4.40827 2.90143 2.4901 2.34524 3.94218 2.2484 1.76818 3.0743 2.1366 1.62913 3.38793 2.09555 1.59721 1.53678 1.39639 1.1097 1.02074
threshold=29.500000000000004 30.500000000000004 8.5000000000000018 1.5000000000000002 2.5000000000000004 9.5000000000000018 12.500000000000002 25.500000000000004 11.500000000000002 23.500000000000004 8.5000000000000018 20.500000000000004 21.500000000000004 3.5000000000000004 16.500000000000004 24.500000000000004 2.5000000000000004 3.5000000000000004 3.5000000000000004 13.500000000000002 2.5000000000000004 9.5000000000000018
decision_type=2 2 2 2 2 2 2 2 2 2 2 2 2 2 2 2 2 2 2 2 2 2
left_child=1 2 3 -1 -5 6 10 19 9 -4 -6 13 -13 -9 -7 -16 -17 18 20 21 -15 -3
right_child=-2 7 8 4 5 14 -8 11 -10 -11 -12 12 -14 17 15 16 -18 -19 -20 -21 -22 -23
leaf_value=0.033067000133019907 0.038701042226914853 0.0011872853551592147 0.037842382064887457 -0.035445857820687474 -0.021624414324760439 -0.010460748672485351 -0.044990434527397156 0.01634100027706312 0.050700404333031704 -0.017388909310102462 0.016393977935825074 -0.0093644235403307022 0.039514188332991168 -0.053836316296032499 0.046981670587293564 0.026659766407240007 -0.017032206835954088 0.002012730569675051 -0.0058070622384548192 -0.043566688256604334 -0.021698548577048563 -0.027015214706912184
leaf_weight=27 28 21 28 27 35 20 25 23 23 24 28 31 22 21 31 21 23 29 24 28 22 33
leaf_count=27 28 21 28 27 35 20 25 23 23 24 28 31 22 21 31 21 23 29 24 28 22 33
internal_value=0 -0.00191454 0.00556692 -0.000301612 -0.00459186 -3.9633e-05 -0.0161657 -0.0111044 0.0241115 0.012351 -0.00472735 -0.00426787 0.0109248 -0.0110344 0.0148982 0.0216606 0.00382078 -0.017593 -0.0260791 -0.0254443 -0.0373937 -0.0160476
internal_weight=0 566 312 237 210 183 88 254 75 52 63 172 53 119 95 75 44 96 67 82 43 54
internal_count=594 566 312 237 210 183 88 254 75 52 63 172 53 119 95 75 44 96 67 82 43 54
shrinkage=0.1


Tree=7
num_leaves=21
num_cat=0
split_feature=0 12 2 8 14 15 2 4 9 1 1 0 9 3 5 7 0 7 6 3
split_gain=3.80898 3.45837 3.31976 2.93152 2.73266 4.94929 2.2344 2.65827 2.91429 5.4435 3.44169 2.33792 2.23842 1.62548 1.77803 2.20702 1.59741 1.24602 1.1445 0.493845
threshold=42.500000000000007 1.0000000180025095e-35 14.500000000000002 13.500000000000002 29.500000000000004 27.500000000000004 30.500000000000004 1.5000000000000002 7.5000000000000009 3.5000000000000004 4.5000000000000009 23.500000000000004 5.5000000000000009 31.500000000000004 2.5000000000000004 10.500000000000002 22.500000000000004 23.500000000000004 2.5000000000000004 9.5000000000000018
decision_type=2 2 2 2 2 2 2 2 2 2 2 2 2 2 2 2 2 2 2 2
left_child=1 -1 19 -2 6 -6 7 11 9 -9 -10 -4 -11 14 18 -16 -12 -17 -8 -3
right_child=3 2 4 -5 5 -7 13 8 10 12 16 -13 -14 -15 15 17 -18 -19 -20 -21
leaf_value=0.037012483924627304 -0.0042499770720799768 0.034371317923069002 -0.044145894050598149 0.040170047069207217 0.036281059682369235 -0.024805821833156407 -0.045418364038834202 0.020772730095966446 -0.010948882202307384 -0.046045899856835604 0.049819656133651739 0.0007149377039500646 -0.006949177715513441 0.0036094535390535989 0.0050115871123778515 -0.038425536227948739 0.01532624836625724 -0.0081051334090854812 -0.01689318445595828 0.012148687392473221
leaf_weight=21 24 20 26 39 36 21 39 37 30 32 25 21 27 30 39 33 29 23 22 20
leaf_count=21 24 20 26 39 36 21 39 37 30 32 25 21 27 30 39 33 29 23 22 20
internal_value=0 -0.00275825 -0.00439587 0.0232481 -0.00674956 0.0137754 -0.0095823 -0.00292422 0.00260545 -0.00929693 0.0162082 -0.0241017 -0.0281542 -0.017708 -0.0218075 -0.0132527 0.0312954 -0.0259725 -0.0351306 0.02326
internal_weight=0 531 510 63 470 57 413 227 180 96 84 47 59 186 156 95 54 56 61 40
internal_count=594 531 510 63 470 57 413 227 180 96 84 47 59 186 156 95 54 56 61 40
shrinkage=0.1


Tree=8
num_leaves=23
num_cat=0
split_feature=1 2 14 0 4 4 3 15 3 6 9 8 7 7 8 10 4 9 2 1 2 2
split_gain=3.28406 2.84546 2.75284 2.60487 3.93213 4.13506 3.36955 2.85242 2.45498 2.26891 2.00819 2.25555 1.88557 1.69442 1.58441 1.56613 2.30624 1.88777 3.3126 1.23132 0.857735 0.73871
threshold=31.000000000000004 18.500000000000004 8.5000000000000018 27.500000000000004 3.5000000000000004 2.5000000000000004 1.0000000180025095e-35 4.5000000000000009 27.500000000000004 1.0000000180025095e-35 7.5000000000000009 9.5000000000000018 18.500000000000004 7.5000000000000009 12.500000000000002 1.5000000000000002 1.5000000000000002 8.5000000000000018 29.500000000000004 7.5000000000000009 39.500000000000007 26.500000000000004
decision_type=2 2 2 2 2 2 2 2 2 2 2 2 2 2 2 2 2 2 2 2 2 2
left_child=1 2 -1 6 5 9 -3 13 20 -5 -11 -12 -7 -8 -4 -9 -17 21 -19 -13 -6 -18
right_child=-2 3 14 4 8 12 7 15 -10 10 11 19 -14 -15 -16 16 17 18 -20 -21 -22 -23
leaf_value=0.040444882573752568 0.035473058789968495 0.022230442556051111 -0.014845033045168278 -0.031411281526088713 0.0079539396192716532 0.048041213024407628 -0.017189818849930396 -0.00072602056539975693 -0.047624064385890966 0.02563821826920365 0.023290256559848788 0.00061310756774175736 0.013436446074516543 0.016312047176890904 0.019741200369137984 -0.053023334592580795 -0.044893671075503037 0.023640009760856631 -0.030234565377235414 -0.032543994362155597 -0.020362065434455873 -0.021711320110729765
leaf_weight=29 25 26 27 20 23 32 26 26 20 33 20 21 31 36 26 28 27 21 25 24 20 28
leaf_count=29 25 26 27 20 23 32 26 26 20 33 20 21 31 36 26 28 27 21 25 24 20 28
internal_value=0 -0.00155857 0.0156751 -0.00446034 0.00283822 0.0103277 -0.0117889 -0.015865 -0.0186791 -0.00071644 0.00554781 -0.00465193 0.0310135 0.00226288 0.0021218 -0.0231161 -0.0276289 -0.0205888 -0.00563965 -0.0170707 -0.0052163 -0.0330917
internal_weight=0 569 82 487 244 181 243 217 63 118 98 65 63 62 53 155 129 101 46 45 43 55
internal_count=594 569 82 487 244 181 243 217 63 118 98 65 63 62 53 155 129 101 46 45 43 55
shrinkage=0.1


end of trees

feature_importances:
Column_0=24
Column_1=17
Column_7=17
Column_14=16
Column_2=15
Column_9=15
Column_3=14
Column_15=14
Column_5=10
Column_13=10
Column_8=9
Column_6=8
Column_4=7
Column_12=6
Column_10=4
Column_11=4

parameters:
[boosting: gbdt]
[objective: regression]
[metric: l2]
[tree_learner: serial]
[device_type: cpu]
[data: ]
[valid: ]
[num_iterations: 10000]
[learning_rate: 0.1]
[num_leaves: 31]
[num_threads: 0]
[deterministic: 0]
[force_col_wise: 0]
[force_row_wise: 0]
[histogram_pool_size: -1]
[max_depth: -1]
[min_data_in_leaf: 20]
[min_sum_hessian_in_leaf: 0.001]
[bagging_fraction: 1]
[pos_bagging_fraction: 1]
[neg_bagging_fraction: 1]
[bagging_freq: 0]
[bagging_seed: 3]
[feature_fraction: 1]
[feature_fraction_bynode: 1]
[feature_fraction_seed: 2]
[extra_trees: 0]
[extra_seed: 6]
[early_stopping_round: 10]
[first_metric_only: 0]
[max_delta_step: 0]
[lambda_l1: 0]
[lambda_l2: 0]
[min_gain_to_split: 0]
[drop_rate: 0.1]
[max_drop: 50]
[skip_drop: 0.5]
[xgboost_dart_mode: 0]
[uniform_drop: 0]
[drop_seed: 4]
[top_rate: 0.2]
[other_rate: 0.1]
[min_data_per_group: 100]
[max_cat_threshold: 32]
[cat_l2: 10]
[cat_smooth: 10]
[max_cat_to_onehot: 4]
[top_k: 20]
[monotone_constraints: ]
[monotone_constraints_method: basic]
[monotone_penalty: 0]
[feature_contri: ]
[forcedsplits_filename: ]
[refit_decay_rate: 0.9]
[cegb_tradeoff: 1]
[cegb_penalty_split: 0]
[cegb_penalty_feature_lazy: ]
[cegb_penalty_feature_coupled: ]
[path_smooth: 0]
[interaction_constraints: ]
[verbosity: 1]
[saved_feature_importance_type: 0]
[max_bin: 255]
[max_bin_by_feature: ]
[min_data_in_bin: 3]
[bin_construct_sample_cnt: 200000]
[data_random_seed: 1]
[is_enable_sparse: 1]
[enable_bundle: 1]
[use_missing: 1]
[zero_as_missing: 0]
[feature_pre_filter: 1]
[pre_partition: 0]
[two_round: 0]
[header: 0]
[label_column: ]
[weight_column: ]
[group_column: ]
[ignore_column: ]
[categorical_feature: ]
[forcedbins_filename: ]
[objective_seed: 5]
[num_class: 1]
[is_unbalance: 0]
[scale_pos_weight: 1]
[sigmoid: 1]
[boost_from_average: 1]
[reg_sqrt: 0]
[alpha: 0.9]
[fair_c: 1]
[poisson_max_delta_step: 0.7]
[tweedie_variance_power: 1.5]
[lambdarank_truncation_level: 30]
[lambdarank_norm: 1]
[label_gain: ]
[eval_at: ]
[multi_error_top_k: 1]
[auc_mu_weights: ]
[num_machines: 1]
[local_listen_port: 12400]
[time_out: 120]
[machine_list_filename: ]
[machines: ]
[gpu_platform_id: -1]
[gpu_device_id: -1]
[gpu_use_dp: 0]
[num_gpu: 1]

end of parameters

pandas_categorical:null
