tree
version=v3
num_class=1
num_tree_per_iteration=1
label_index=0
max_feature_idx=15
objective=regression
feature_names=Column_0 Column_1 Column_2 Column_3 Column_4 Column_5 Column_6 Column_7 Column_8 Column_9 Column_10 Column_11 Column_12 Column_13 Column_14 Column_15
feature_infos=[2:49] [0:50] [1:49] [0:83] [0:8] [0:6] [0:7] [0:179] [1:132] [0:157] [0:7] [0:6] [0:7] [0:117] [0:143] [0:102]
tree_sizes=1604 1624 1611 1706 1532 1545 1620 1698 1702 1624

Tree=0
num_leaves=18
num_cat=0
split_feature=0 2 2 1 7 1 13 0 0 8 8 12 15 3 13 8 6
split_gain=18.7734 13.5949 10.5898 9.68136 5.04662 4.39426 4.27826 4.11658 3.76908 3.64481 3.37848 3.26873 2.62676 3.18594 1.45706 1.02918 0.729
threshold=29.500000000000004 28.500000000000004 25.500000000000004 24.500000000000004 7.5000000000000009 6.5000000000000009 21.500000000000004 24.500000000000004 20.500000000000004 12.500000000000002 12.500000000000002 2.5000000000000004 5.5000000000000009 14.500000000000002 6.5000000000000009 13.500000000000002 2.5000000000000004
decision_type=2 2 2 2 2 2 2 2 2 2 2 2 2 2 2 2 2
left_child=2 5 4 6 9 -2 10 11 15 14 -3 -4 -7 -14 -1 -6 -10
right_child=1 3 7 -5 8 12 -8 -9 16 -11 -12 -13 13 -15 -16 -17 -18
leaf_value=0.0076871052050439294 0.037426234852008626 -0.010312894318118909 -0.0034305416140462119 0.069235490671342687 0.036275339741831975 0.1098806508849362 -0.037312893602863176 0.014148643495410078 0.052687104012951042 0.035687104463297238 0.047115675589114919 -0.04585135491513273 0.096401388569203661 0.047287104081496376 -0.030027179510154406 0.0076871052050439294 0.079687103297695294
leaf_weight=20 23 20 34 31 34 31 20 39 20 27 21 39 28 25 21 20 20
leaf_count=20 23 20 34 31 34 31 20 39 20 27 21 39 28 25 21 20 20
internal_value=0.0285412 0.0519183 0.011563 0.0237306 0.0279093 0.0761544 0.000605138 -0.0120808 0.0429211 0.00715769 0.0191017 -0.0260937 0.0867585 0.0732343 -0.01163 0.0256871 0.0661871
internal_weight=0 199 274 92 162 107 61 112 94 68 41 73 84 53 41 54 40
internal_count=473 199 274 92 162 107 61 112 94 68 41 73 84 53 41 54 40
shrinkage=1


Tree=1
num_leaves=18
num_cat=0
split_feature=0 2 2 1 0 13 0 1 15 9 1 14 12 13 8 15 2
split_gain=15.2064 11.0119 8.5945 7.8419 3.85308 6.13473 3.78591 4.99355 5.15076 5.71639 3.55935 3.48786 3.20034 6.49974 2.20338 1.25714 0.338843
threshold=29.500000000000004 28.500000000000004 24.500000000000004 24.500000000000004 24.500000000000004 10.500000000000002 16.500000000000004 1.0000000180025095e-35 10.500000000000002 7.5000000000000009 6.5000000000000009 15.500000000000002 2.5000000000000004 10.500000000000002 16.500000000000004 11.500000000000002 34.500000000000007
decision_type=2 2 2 2 2 2 2 2 2 2 2 2 2 2 2 2 2
left_child=2 10 6 11 12 -6 -1 -8 9 -9 -2 -3 13 -4 15 -12 -14
right_child=1 3 4 -5 5 -7 7 8 -10 -11 14 -13 16 -15 -16 -17 -18
leaf_value=-0.028522292480749247 0.0079965067946392559 -0.0071829960896418648 -0.065603964437137952 0.036624835575780564 0.028089529559725809 -0.048347360179537821 0.047092819876141022 -0.050072631041208904 0.030102848820388318 0.013351674874623617 0.079725206119042866 -0.056979749419472439 -0.076822555065155035 0.013163390140980483 0.030666478089988233 0.049209383019694575 -0.058414863348007211
leaf_weight=34 23 39 22 31 21 21 27 30 32 27 27 22 20 20 30 27 20
leaf_count=34 23 39 22 31 21 21 27 30 32 27 27 22 20 20 30 27 20
internal_value=0 0.0210393 -0.0152804 -0.00432958 -0.0347595 -0.0101289 0.000822371 0.00942339 -0.00200441 -0.0200295 0.0428518 -0.0251425 -0.0473752 -0.0280957 0.0523956 0.0644673 -0.0676187
internal_weight=0 199 274 92 124 42 150 116 89 57 107 61 82 42 84 54 40
internal_count=473 199 274 92 124 42 150 116 89 57 107 61 82 42 84 54 40
shrinkage=0.1


Tree=2
num_leaves=18
num_cat=0
split_feature=0 2 2 3 1 7 0 0 8 6 0 12 2 13 6 10 6
split_gain=12.3172 9.09086 6.989 4.85566 4.35845 3.91006 3.67536 2.89476 2.81096 2.79551 2.66845 2.13629 2.11735 1.13912 1.01768 0.811535 0.523085
threshold=29.500000000000004 35.500000000000007 25.500000000000004 15.500000000000002 13.500000000000002 7.5000000000000009 40.500000000000007 20.500000000000004 12.500000000000002 2.5000000000000004 24.500000000000004 2.5000000000000004 20.500000000000004 6.5000000000000009 2.5000000000000004 3.5000000000000004 2.5000000000000004
decision_type=2 2 2 2 2 2 2 2 2 2 2 2 2 2 2 2 2
left_child=2 4 5 -3 9 8 12 14 13 -2 11 -4 -6 -1 -7 -14 -9
right_child=1 3 10 -5 6 7 -8 16 -10 -11 -12 -13 15 -15 -16 -17 -18
leaf_value=-0.018158012628555299 -0.0096838796744123101 -0.045440259788717546 -0.025920893884647418 0.016570368279581485 0.058850659075237455 0.0090201724320650104 0.077843089342117311 0.02169504225254059 0.0063155399428473577 0.034461281849787785 -0.011842438960686708 -0.060215052121724837 0.007859298835198085 -0.051504660788036533 -0.018919134681875057 0.035133960545063021 0.044566084444522862
leaf_weight=20 32 28 34 23 21 32 25 20 27 26 39 39 24 21 22 20 20
leaf_count=20 32 28 34 23 21 32 25 20 27 26 39 39 24 21 22 20 20
internal_value=0 0.0189354 -0.0137524 -0.0174747 0.0314821 -0.000472787 0.0452583 0.0127409 -0.0187388 0.0101053 -0.0329603 -0.0442424 0.0327256 -0.035238 -0.00236251 0.0202569 0.0331306
internal_weight=0 199 274 51 148 162 90 94 68 58 112 73 65 41 54 44 40
internal_count=473 199 274 51 148 162 90 94 68 58 112 73 65 41 54 44 40
shrinkage=0.1


Tree=3
num_leaves=19
num_cat=0
split_feature=0 2 2 1 0 0 9 0 1 15 11 8 6 0 3 9 7 6
split_gain=9.97694 7.78352 5.74156 5.07126 3.53215 4.01489 3.32833 3.26124 4.91618 5.60196 3.15889 2.97601 2.84458 3.85372 3.40558 1.54006 1.50756 1.24131
threshold=29.500000000000004 27.500000000000004 24.500000000000004 24.500000000000004 31.500000000000004 35.500000000000007 17.500000000000004 16.500000000000004 1.0000000180025095e-35 10.500000000000002 2.5000000000000004 10.500000000000002 1.5000000000000002 24.500000000000004 3.5000000000000004 12.500000000000002 8.5000000000000018 2.5000000000000004
decision_type=2 2 2 2 2 2 2 2 2 2 2 2 2 2 2 2 2 2
left_child=2 4 6 10 -2 -6 7 -1 -9 16 -3 -12 -4 14 -14 -16 -10 -7
right_child=1 3 12 -5 5 17 -8 8 9 -11 11 -13 13 -15 15 -17 -18 -19
leaf_value=-0.034620678027470909 0.073930776686895461 0.014128297025507148 -0.062836495237424975 0.029824703405885136 -0.0061576239764690403 0.026528779967971473 0.034092693328857421 0.043448515042014746 -0.045010957232228033 0.029789701600869495 -0.061093384921550753 -0.010587284181799208 -0.0035414755344390873 0.0059643016142003685 -0.032781260212262471 -0.068992913028468258 -0.00928641018413362 0.058142714147214537
leaf_weight=30 21 22 20 34 24 23 25 23 27 24 20 28 23 34 24 23 21 27
leaf_count=30 21 22 20 34 24 23 25 23 27 24 20 28 23 34 24 23 21 27
internal_value=0 0.0170419 -0.0123771 -0.00186009 0.0377345 0.0274626 0.000784368 -0.0058773 0.00319956 -0.00965774 -0.0172498 -0.0316315 -0.0282983 -0.0216563 -0.035072 -0.0505019 -0.0293815 0.0436003
internal_weight=0 199 274 104 95 74 150 125 95 72 70 48 124 104 70 47 48 50
internal_count=473 199 274 104 95 74 150 125 95 72 70 48 124 104 70 47 48 50
shrinkage=0.1


Tree=4
num_leaves=17
num_cat=0
split_feature=12 0 14 1 2 7 6 14 8 13 13 0 13 15 0 13
split_gain=8.22993 7.69486 5.56329 5.13056 4.75235 3.33692 3.28647 3.87526 3.13106 3.065 2.90507 2.92166 2.5072 2.11401 2.62915 2.08779
threshold=1.5000000000000002 16.500000000000004 1.5000000000000002 25.500000000000004 27.500000000000004 13.500000000000002 2.5000000000000004 11.500000000000002 14.500000000000002 12.500000000000002 19.500000000000004 32.500000000000007 24.500000000000004 3.5000000000000004 20.500000000000004 7.5000000000000009
decision_type=2 2 2 2 2 2 2 2 2 2 2 2 2 2 2 2
left_child=6 9 -3 4 5 13 7 -1 -8 -2 11 -6 -5 -4 -15 -16
right_child=1 2 3 12 10 -7 8 -9 -10 -11 -12 -13 -14 14 15 -17
leaf_value=-0.025215643644332889 -0.021210954524576664 0.041840647666582041 -0.03102005521456401 0.038483337504523145 -0.035933208022568677 0.027872551390618991 0.068391929149627689 0.03553566733996074 0.020100108713939274 -0.069069306746773099 -0.05601868629455567 0.0068813570908137743 -0.002512407073607812 -0.026377452135086063 0.03843031942844391 -0.002756198309361935
leaf_weight=21 32 28 30 35 37 33 25 21 29 23 28 28 26 25 20 32
leaf_count=21 32 28 30 35 37 33 25 21 29 23 28 28 26 25 20 32
internal_value=0 -0.00665629 -0.000751793 -0.00480822 -0.0115674 7.2602e-05 0.0261398 0.00516001 0.0424574 -0.0412244 -0.02909 -0.01749 0.0210097 -0.00850121 0.00027236 0.0130848
internal_weight=0 377 322 294 233 140 96 42 54 55 93 65 61 107 77 52
internal_count=473 377 322 294 233 140 96 42 54 55 93 65 61 107 77 52
shrinkage=0.1


Tree=5
num_leaves=17
num_cat=0
split_feature=0 2 6 15 12 6 15 12 0 2 1 7 8 1 9 6
split_gain=7.07221 6.48121 5.00206 5.14629 4.79495 3.54516 3.37671 3.27776 4.0948 3.05277 2.65983 4.01763 3.6872 2.06348 2.76024 6.16651
threshold=34.500000000000007 23.500000000000004 3.5000000000000004 19.500000000000004 1.5000000000000002 1.5000000000000002 20.500000000000004 1.5000000000000002 16.500000000000004 31.500000000000004 4.5000000000000009 5.5000000000000009 19.500000000000004 1.0000000180025095e-35 7.5000000000000009 2.5000000000000004
decision_type=2 2 2 2 2 2 2 2 2 2 2 2 2 2 2 2
left_child=1 7 3 4 -2 -3 10 -1 -9 -6 -7 -12 -13 -10 -15 -16
right_child=2 5 -4 -5 9 6 -8 8 13 -11 11 12 -14 14 15 -17
leaf_value=0.040211124718189245 0.032692600431896389 -0.058136778292448621 0.052702601341640246 0.042688023994366331 -0.00087580299377441407 -0.029209820098347133 -0.042380423181586802 -0.03334082755549201 0.034750674913326902 -0.051951499147848648 -0.032731683197475617 0.042658189452927688 -0.011632213267413052 -0.019018048675436723 0.06068449348211289 -0.0076119954769427959
leaf_weight=24 21 23 34 30 25 36 36 29 24 22 21 29 22 38 20 39
leaf_count=24 21 23 34 30 25 36 36 29 24 22 21 29 22 38 20 39
internal_value=0 -0.00760776 0.0196534 0.00818732 -0.00703358 -0.0216801 -0.0158572 0.00589848 0.000408456 -0.0247836 -0.00701611 0.00408074 0.0192388 0.00849713 0.0020014 0.0155394
internal_weight=0 341 132 98 68 167 144 174 150 47 108 72 51 121 97 59
internal_count=473 341 132 98 68 167 144 174 150 47 108 72 51 121 97 59
shrinkage=0.1


Tree=6
num_leaves=18
num_cat=0
split_feature=0 2 6 15 12 6 15 12 0 2 1 7 8 14 9 11 8
split_gain=5.72849 5.24978 4.05167 4.1685 3.88391 2.87158 2.73514 2.65499 3.31679 2.47274 2.15446 3.25428 2.98663 1.85974 3.36946 3.96934 2.64126
threshold=34.500000000000007 23.500000000000004 3.5000000000000004 19.500000000000004 1.5000000000000002 1.5000000000000002 20.500000000000004 1.5000000000000002 16.500000000000004 31.500000000000004 4.5000000000000009 5.5000000000000009 19.500000000000004 4.5000000000000009 7.5000000000000009 2.5000000000000004 10.500000000000002
decision_type=2 2 2 2 2 2 2 2 2 2 2 2 2 2 2 2 2
left_child=1 7 3 4 -2 -3 10 -1 -9 -6 -7 -12 -13 -10 16 -16 -15
right_child=2 5 -4 -5 9 6 -8 8 13 -11 11 12 -14 14 15 -17 -18
leaf_value=0.036190011352300648 0.029423340303557262 -0.0523230997764546 0.047432341733399559 0.0384192219376564 -0.00078822255134582521 -0.02628883769114812 -0.038142380283938515 -0.03000674371061654 0.031941388845443723 -0.046756350181319496 -0.029458514849344891 0.038392371144788023 -0.01046899204904383 -0.044999496142069502 0.04495526221063402 -0.0092688123385111492 0.0051551285244169692
leaf_weight=24 21 23 34 30 25 36 36 29 25 22 21 29 22 21 27 27 21
leaf_count=24 21 23 34 30 25 36 36 29 25 22 21 29 22 21 27 27 21
internal_value=0 -0.00684698 0.017688 0.00736859 -0.00633022 -0.0195121 -0.0142715 0.00530863 0.000367611 -0.0223052 -0.0063145 0.00367267 0.0173149 0.00764741 0.00132086 0.0178432 -0.0199222
internal_weight=0 341 132 98 68 167 144 174 150 47 108 72 51 121 96 54 42
internal_count=473 341 132 98 68 167 144 174 150 47 108 72 51 121 96 54 42
shrinkage=0.1


Tree=7
num_leaves=19
num_cat=0
split_feature=0 9 2 10 3 7 7 8 3 11 3 14 8 12 2 3 2 5
split_gain=4.64477 6.24671 6.52231 3.17162 3.45008 3.13094 2.71648 2.68907 2.6493 2.47242 2.4112 2.16461 1.85902 1.6435 1.50066 1.46293 1.25072 1.1584
threshold=20.500000000000004 3.5000000000000004 35.500000000000007 2.5000000000000004 15.500000000000002 7.5000000000000009 25.500000000000004 24.500000000000004 6.5000000000000009 2.5000000000000004 12.500000000000002 14.500000000000002 14.500000000000002 2.5000000000000004 24.500000000000004 5.5000000000000009 32.500000000000007 2.5000000000000004
decision_type=2 2 2 2 2 2 2 2 2 2 2 2 2 2 2 2 2 2
left_child=10 -2 5 -4 -5 9 7 8 -7 -3 14 -10 -8 -11 15 17 -16 -1
right_child=1 2 3 4 -6 6 12 -9 11 13 -12 -13 -14 -15 16 -17 -18 -19
leaf_value=-0.023505801359812423 -0.034230415391571387 0.024887338100057662 0.013969997737718665 -0.06127920917102269 -0.0057775688668092098 0.049763222138086954 0.026625467907814754 0.062116690339713267 -0.0084873342514038084 0.0066837212553730726 -0.046581502471651354 0.034021237362986026 -0.015974504947662355 -0.029281447579463323 -0.043073479831218724 0.019639595436013263 -0.008521071618253535 0.0063234311083088749
leaf_weight=30 34 33 23 21 24 30 21 29 25 27 21 23 20 24 20 23 22 23
leaf_count=30 34 33 23 21 24 30 21 29 25 27 21 23 20 24 20 23 22 23
internal_value=0 0.00639272 0.0109967 -0.0162385 -0.0316783 0.0189794 0.0277313 0.0361176 0.0264513 0.00355938 -0.0153609 0.0118814 0.00584499 -0.0102411 -0.00980473 -0.00142137 -0.0249746 -0.010561
internal_weight=0 334 300 68 45 232 148 107 78 84 139 48 41 51 118 76 42 53
internal_count=473 334 300 68 45 232 148 107 78 84 139 48 41 51 118 76 42 53
shrinkage=0.1


Tree=8
num_leaves=19
num_cat=0
split_feature=12 2 0 14 9 13 0 2 4 7 14 5 14 6 5 7 3 0
split_gain=4.19878 4.54332 3.82344 4.85727 4.08699 4.19342 5.19341 3.4545 3.13907 2.36774 3.05447 2.752 2.18396 3.36381 1.55977 1.16821 0.999246 0.876426
threshold=1.5000000000000002 42.500000000000007 16.500000000000004 1.5000000000000002 18.500000000000004 11.500000000000002 31.500000000000004 14.500000000000002 2.5000000000000004 7.5000000000000009 5.5000000000000009 3.5000000000000004 14.500000000000002 2.5000000000000004 2.5000000000000004 4.5000000000000009 9.5000000000000018 31.500000000000004
decision_type=2 2 2 2 2 2 2 2 2 2 2 2 2 2 2 2 2 2
left_child=12 2 8 -4 7 -6 -7 -5 -2 11 -11 15 13 -1 -12 -9 -14 -16
right_child=1 -3 3 4 5 6 -8 9 -10 10 14 -13 16 -15 17 -17 -18 -19
leaf_value=-0.019636762804455227 -0.050432891205505093 -0.044279041555192737 0.044763491332530977 0.020574641588962439 0.043143531845675577 -0.036895273761315781 0.033513125777244572 -0.025604242370242166 -0.00015931492266447648 -0.033654155333836873 0.023188956578572593 0.0014407041668891907 0.05030975084413182 0.030758000681033505 0.0081646832823753356 -0.057597657442092901 0.019813282433010282 -0.02108525335788727
leaf_weight=27 27 27 25 33 36 22 20 21 23 27 30 20 22 26 20 25 21 21
leaf_count=27 27 27 25 33 36 22 20 21 23 27 30 20 22 26 20 25 21 21
internal_value=0 -0.0047544 -0.00170536 0.00256159 -0.00127494 0.0180991 -0.00336746 -0.00894591 -0.027307 -0.014886 -0.00502541 -0.0295275 0.0186709 0.0050852 0.00586158 -0.042992 0.0354161 -0.00681699
internal_weight=0 377 350 300 275 78 42 197 50 164 98 66 96 53 71 46 43 41
internal_count=473 377 350 300 275 78 42 197 50 164 98 66 96 53 71 46 43 41
shrinkage=0.1


Tree=9
num_leaves=18
num_cat=0
split_feature=0 2 6 15 12 5 4 13 9 3 6 13 0 13 8 13 7
split_gain=3.60427 3.72458 2.45917 3.26288 2.73982 2.16138 3.93467 4.38536 3.63549 3.28438 2.03637 1.90483 2.19015 1.98063 2.76051 1.85856 1.75438
threshold=34.500000000000007 23.500000000000004 3.5000000000000004 19.500000000000004 1.5000000000000002 3.5000000000000004 2.5000000000000004 8.5000000000000018 6.5000000000000009 5.5000000000000009 1.5000000000000002 25.500000000000004 21.500000000000004 12.500000000000002 13.500000000000002 11.500000000000002 13.500000000000002
decision_type=2 2 2 2 2 2 2 2 2 2 2 2 2 2 2 2 2
left_child=1 5 3 4 -2 6 7 9 -7 -1 -3 12 -12 14 -14 -6 -8
right_child=2 10 -4 -5 15 8 16 -9 -10 -11 11 -13 13 -15 -16 -17 -18
leaf_value=-0.017824547688166301 0.023900366822878522 -0.043729390139165131 0.03720328746473088 0.033462183475494386 0.00076696121174356217 -0.0081003338098526011 0.0047545284032821655 -0.04476978971112159 0.049100529193878174 0.034491671025753026 -0.024669953340139147 -0.033202772028744221 0.017256003274367406 0.030602887698582243 -0.028825134268173805 -0.039013287176688512 0.043532828539609908
leaf_weight=30 21 23 34 30 23 20 28 31 25 20 39 32 26 21 26 24 20
leaf_count=30 21 23 34 30 23 20 28 31 25 20 39 32 26 21 26 24 20
internal_value=0 -0.0054311 0.0140303 0.00599076 -0.00612899 0.00480761 -0.00177506 -0.0152193 0.0236779 0.00310194 -0.016099 -0.0116858 -0.00553808 0.00468306 -0.00578457 -0.0195464 0.0209122
internal_weight=0 341 132 98 68 174 129 81 45 50 167 144 112 73 52 47 48
internal_count=473 341 132 98 68 174 129 81 45 50 167 144 112 73 52 47 48
shrinkage=0.1


end of trees

feature_importances:
Column_0=28
Column_2=21
Column_6=15
Column_13=14
Column_8=13
Column_1=12
Column_7=11
Column_12=11
Column_15=10
Column_3=9
Column_9=8
Column_14=8
Column_5=4
Column_11=3
Column_4=2
Column_10=2

parameters:
[boosting: gbdt]
[objective: regression]
[metric: l2]
[tree_learner: serial]
[device_type: cpu]
[data: ]
[valid: ]
[num_iterations: 10000]
[learning_rate: 0.1]
[num_leaves: 31]
[num_threads: 0]
[deterministic: 0]
[force_col_wise: 0]
[force_row_wise: 0]
[histogram_pool_size: -1]
[max_depth: -1]
[min_data_in_leaf: 20]
[min_sum_hessian_in_leaf: 0.001]
[bagging_fraction: 1]
[pos_bagging_fraction: 1]
[neg_bagging_fraction: 1]
[bagging_freq: 0]
[bagging_seed: 3]
[feature_fraction: 1]
[feature_fraction_bynode: 1]
[feature_fraction_seed: 2]
[extra_trees: 0]
[extra_seed: 6]
[early_stopping_round: 10]
[first_metric_only: 0]
[max_delta_step: 0]
[lambda_l1: 0]
[lambda_l2: 0]
[min_gain_to_split: 0]
[drop_rate: 0.1]
[max_drop: 50]
[skip_drop: 0.5]
[xgboost_dart_mode: 0]
[uniform_drop: 0]
[drop_seed: 4]
[top_rate: 0.2]
[other_rate: 0.1]
[min_data_per_group: 100]
[max_cat_threshold: 32]
[cat_l2: 10]
[cat_smooth: 10]
[max_cat_to_onehot: 4]
[top_k: 20]
[monotone_constraints: ]
[monotone_constraints_method: basic]
[monotone_penalty: 0]
[feature_contri: ]
[forcedsplits_filename: ]
[refit_decay_rate: 0.9]
[cegb_tradeoff: 1]
[cegb_penalty_split: 0]
[cegb_penalty_feature_lazy: ]
[cegb_penalty_feature_coupled: ]
[path_smooth: 0]
[interaction_constraints: ]
[verbosity: 1]
[saved_feature_importance_type: 0]
[max_bin: 255]
[max_bin_by_feature: ]
[min_data_in_bin: 3]
[bin_construct_sample_cnt: 200000]
[data_random_seed: 1]
[is_enable_sparse: 1]
[enable_bundle: 1]
[use_missing: 1]
[zero_as_missing: 0]
[feature_pre_filter: 1]
[pre_partition: 0]
[two_round: 0]
[header: 0]
[label_column: ]
[weight_column: ]
[group_column: ]
[ignore_column: ]
[categorical_feature: ]
[forcedbins_filename: ]
[objective_seed: 5]
[num_class: 1]
[is_unbalance: 0]
[scale_pos_weight: 1]
[sigmoid: 1]
[boost_from_average: 1]
[reg_sqrt: 0]
[alpha: 0.9]
[fair_c: 1]
[poisson_max_delta_step: 0.7]
[tweedie_variance_power: 1.5]
[lambdarank_truncation_level: 30]
[lambdarank_norm: 1]
[label_gain: ]
[eval_at: ]
[multi_error_top_k: 1]
[auc_mu_weights: ]
[num_machines: 1]
[local_listen_port: 12400]
[time_out: 120]
[machine_list_filename: ]
[machines: ]
[gpu_platform_id: -1]
[gpu_device_id: -1]
[gpu_use_dp: 0]
[num_gpu: 1]

end of parameters

pandas_categorical:null
