tree
version=v3
num_class=1
num_tree_per_iteration=1
label_index=0
max_feature_idx=15
objective=regression
feature_names=Column_0 Column_1 Column_2 Column_3 Column_4 Column_5 Column_6 Column_7 Column_8 Column_9 Column_10 Column_11 Column_12 Column_13 Column_14 Column_15
feature_infos=[1:49] [0:75] [2:49] [0:87] [0:8] [0:8] [0:8] [0:196] [0:290] [0:244] [0:8] [0:8] [0:8] [0:203] [0:217] [0:303]
tree_sizes=2685 2725 2709 2724 2724 2728 2730 2721 2730 2734 2726 2731 2719 2741 2740 2729 2749 2731 2749 2726 2752 2746 2725 2742 2763

Tree=0
num_leaves=31
num_cat=0
split_feature=0 2 10 15 1 1 14 2 7 15 2 6 12 0 10 14 8 2 7 11 3 0 9 0 14 2 1 13 1 2
split_gain=30.4367 17.0795 13.1586 8.49957 8.27182 8.13246 8.89391 8.22296 7.16501 5.86801 5.86713 5.64222 4.97045 4.38995 9.41207 4.19854 4.60851 4.48375 5.66833 4.54612 3.92187 3.31775 3.14182 2.75505 2.88942 2.64493 2.6244 2.59673 2.57124 2.9292
threshold=25.500000000000004 25.500000000000004 1.0000000180025095e-35 18.500000000000004 1.5000000000000002 7.5000000000000009 4.5000000000000009 42.500000000000007 7.5000000000000009 1.5000000000000002 38.500000000000007 3.5000000000000004 2.5000000000000004 36.500000000000007 2.5000000000000004 17.500000000000004 16.500000000000004 18.500000000000004 13.500000000000002 2.5000000000000004 1.5000000000000002 40.500000000000007 18.500000000000004 9.5000000000000018 18.500000000000004 32.500000000000007 10.500000000000002 9.5000000000000018 3.5000000000000004 17.500000000000004
decision_type=2 2 2 2 2 2 2 2 2 2 2 2 2 2 2 2 2 2 2 2 2 2 2 2 2 2 2 2 2 2
left_child=2 3 -1 28 9 11 12 13 20 -4 15 27 -7 14 -8 17 -17 -10 19 -19 -6 -9 -15 -11 -25 -22 -20 -3 -2 -30
right_child=1 5 4 -5 8 6 7 21 10 23 -12 -13 -14 22 -16 16 -18 18 26 -21 25 -23 -24 24 -26 -27 -28 -29 29 -31
leaf_value=-0.15733418941651922 -0.17342016237373112 -0.22113876364365401 -0.2078319273075136 -0.20654416895240324 -0.19887265123007911 -0.19194957426115244 -0.16880671696502622 -0.25872376825176757 -0.15444957401279977 -0.2819495748571989 -0.24502649768959012 -0.19194957426115244 -0.12444957381411761 -0.19467684700648719 -0.23794957456579841 -0.25528290801392589 -0.19194957426115244 -0.19822864407017896 -0.19554957428499431 -0.24894957463864853 -0.23419447250011305 -0.21123528867459099 -0.15104048308113133 -0.25331321103118415 -0.21337814583163969 -0.26348803627339451 -0.14694957396312924 -0.25623528897261422 -0.11480671660739836 -0.15636817867666897
leaf_weight=26 34 37 34 37 26 20 35 31 24 28 39 32 24 33 45 27 20 43 25 30 147 28 33 132 21 39 20 49 28 43
leaf_count=26 34 37 34 37 26 20 35 31 24 28 39 32 24 33 45 27 20 43 25 30 147 28 33 132 21 39 20 49 28 43
internal_value=-0.213277 -0.194779 -0.227104 -0.16533 -0.229873 -0.206173 -0.195925 -0.204681 -0.222018 -0.24595 -0.209713 -0.227797 -0.155131 -0.19195 -0.2077 -0.202426 -0.228333 -0.193851 -0.201865 -0.219073 -0.235251 -0.236187 -0.172859 -0.25311 -0.247832 -0.240337 -0.17395 -0.241136 -0.150807 -0.139978
internal_weight=0 509 681 142 655 367 249 205 440 215 228 118 44 146 80 189 47 142 118 73 212 59 66 181 153 186 45 86 105 71
internal_count=1190 509 681 142 655 367 249 205 440 215 228 118 44 146 80 189 47 142 118 73 212 59 66 181 153 186 45 86 105 71
shrinkage=1


Tree=1
num_leaves=31
num_cat=0
split_feature=0 2 10 15 1 1 14 2 12 7 14 15 6 12 7 15 0 15 1 14 14 3 9 1 0 12 13 4 13 0
split_gain=24.6537 13.8344 10.6585 6.88465 6.70018 6.58729 7.20406 6.66059 5.98556 5.90016 6.42633 4.75309 4.5702 4.02607 3.94586 3.85903 7.62284 4.07851 3.3606 3.28957 4.6526 3.28625 3.20859 2.88153 2.68738 2.28951 5.17582 2.25786 2.12343 1.97678
threshold=25.500000000000004 25.500000000000004 1.0000000180025095e-35 18.500000000000004 1.5000000000000002 7.5000000000000009 4.5000000000000009 42.500000000000007 1.5000000000000002 12.500000000000002 8.5000000000000018 1.5000000000000002 3.5000000000000004 2.5000000000000004 21.500000000000004 12.500000000000002 37.500000000000007 27.500000000000004 17.500000000000004 15.500000000000002 6.5000000000000009 3.5000000000000004 11.500000000000002 13.500000000000002 40.500000000000007 2.5000000000000004 12.500000000000002 3.5000000000000004 8.5000000000000018 22.500000000000004
decision_type=2 2 2 2 2 2 2 2 2 2 2 2 2 2 2 2 2 2 2 2 2 2 2 2 2 2 2 2 2 2
left_child=2 3 -1 25 11 12 13 15 -6 19 22 -4 28 -7 -12 16 -8 23 -16 20 21 -10 -11 -17 -9 -2 -27 29 -3 -13
right_child=1 5 4 -5 8 6 7 24 9 10 14 27 -14 -15 18 17 -18 -19 -20 -21 -22 -23 -24 -25 -26 26 -28 -29 -30 -31
leaf_value=0.050348804547236517 0.06901165110369524 -0.0051588510473569238 0.0049008418531978834 0.0060598219165930878 0.030069232300708171 0.019194957613945008 -0.029590324395232733 -0.040901813007170162 0.0085468141805557975 0.011909127235412598 0.024213070973106054 -0.034999411808910655 0.019194957613945008 0.07994495853781701 -0.0025475390752156581 0.082499630749225616 0.040700007368017127 0.010375736057758331 -0.052190684080123909 -0.044934694434321208 0.00055547633739275355 -0.0346870169043541 0.065433086667742044 0.030599698813065242 0.0018378147057124547 0.070896663144230848 0.0029167408034915018 -0.0050202559857141409 -0.037471537207657439 -0.065129468303460336
leaf_weight=26 60 33 34 37 38 20 36 31 21 24 23 134 32 24 30 20 27 40 25 43 107 108 21 23 28 24 21 21 53 26
leaf_count=26 60 33 34 37 38 20 36 31 21 24 23 134 32 24 30 20 27 40 25 43 107 108 21 23 28 24 21 21 53 26
internal_value=0 0.0166488 -0.0124438 0.0431527 -0.0149363 0.00639387 0.0156166 0.00773642 -0.00786641 -0.0114524 0.00679367 -0.029405 -0.0130678 0.0523313 -0.0105679 0.019195 0.000534104 0.0333592 -0.0251126 -0.0194963 -0.0148614 -0.027649 0.036887 0.0547392 -0.0206186 0.0562235 0.0391727 -0.0358492 -0.0250725 -0.0398955
internal_weight=0 509 681 142 655 367 249 205 440 402 123 215 118 44 78 146 63 83 55 279 236 129 45 43 59 105 45 181 86 160
internal_count=1190 509 681 142 655 367 249 205 440 402 123 215 118 44 78 146 63 83 55 279 236 129 45 43 59 105 45 181 86 160
shrinkage=0.1


Tree=2
num_leaves=31
num_cat=0
split_feature=0 2 10 12 0 6 2 0 7 7 10 9 12 10 3 11 4 2 0 9 10 13 12 8 9 15 14 13 0 1
split_gain=19.9695 11.2059 8.63339 5.73892 5.53586 6.788 5.38025 7.18527 8.27741 6.6972 7.69598 6.61832 5.74375 6.84833 4.51189 4.33749 5.4549 4.45797 3.74688 3.72634 5.41951 3.52283 3.22499 2.60042 3.73459 2.54079 2.28816 1.94847 1.86853 1.73507
threshold=25.500000000000004 25.500000000000004 1.0000000180025095e-35 2.5000000000000004 9.5000000000000018 2.5000000000000004 46.500000000000007 39.500000000000007 21.500000000000004 47.500000000000007 1.5000000000000002 14.500000000000002 2.5000000000000004 2.5000000000000004 35.500000000000007 2.5000000000000004 3.5000000000000004 18.500000000000004 17.500000000000004 11.500000000000002 2.5000000000000004 8.5000000000000018 1.5000000000000002 12.500000000000002 15.500000000000002 12.500000000000002 7.5000000000000009 23.500000000000004 32.500000000000007 16.500000000000004
decision_type=2 2 2 2 2 2 2 2 2 2 2 2 2 2 2 2 2 2 2 2 2 2 2 2 2 2 2 2 2 2
left_child=2 3 -1 26 27 22 7 9 29 10 -3 25 -13 -14 -10 17 23 -7 -19 -20 -21 -5 -6 24 -17 -12 -2 -4 -28 -9
right_child=1 6 4 21 5 15 -8 8 14 -11 11 12 13 -15 -16 16 -18 18 19 20 -22 -23 -24 -25 -26 -27 28 -29 -30 -31
leaf_value=0.045313918590545656 0.087251853286510417 0.032308958891110545 -0.054007704343114582 0.049212037342099044 0.016708730355553005 0.0534532618522644 -0.036375275467123304 0.04359139939149221 0.024746643208168648 0.042446128399141379 -0.052766704948052114 -0.02687077420098441 0.066862315481359319 -0.012041122263128107 -0.034205660820007325 0.022540971094911752 0.022214341991477544 0.035225985050201414 -0.040972745960408993 -0.028443558514118197 0.042732759143995207 0.0035080389740566411 -0.022051118591927595 -0.041223871166055859 -0.034499531487623851 -0.017013597318104336 0.026292453841729596 -0.017270928079431709 0.066251746341586121 0.080564717271111239
leaf_weight=26 21 39 42 26 23 25 28 30 37 31 46 35 22 22 20 22 36 30 22 20 23 48 322 44 24 35 22 22 25 22
leaf_count=26 21 39 42 26 23 25 28 30 37 31 46 35 22 22 20 22 36 30 22 20 23 48 322 44 24 35 22 22 25 22
internal_value=0 0.0149839 -0.0111994 0.0388374 -0.0134427 -0.0104174 0.00575448 0.00923423 0.0303824 -0.000788156 -0.00752314 -0.0172322 0.00336189 0.0274106 0.00406162 0.00227427 -0.0106843 0.0158808 0.00599328 -0.00749874 0.0096275 0.0195662 -0.0194671 -0.0238438 -0.00721929 -0.0373178 0.0598091 -0.0413794 0.0475474 0.059234
internal_weight=0 509 681 142 655 591 367 339 109 230 199 160 79 44 57 246 126 120 95 65 43 74 345 90 46 81 68 64 47 52
internal_count=1190 509 681 142 655 591 367 339 109 230 199 160 79 44 57 246 126 120 95 65 43 74 345 90 46 81 68 64 47 52
shrinkage=0.1


Tree=3
num_leaves=31
num_cat=0
split_feature=0 2 10 1 13 1 12 7 2 0 8 9 10 12 14 14 2 10 7 14 7 14 8 3 1 15 9 14 14 13
split_gain=16.1753 9.43413 6.99304 5.26043 6.09832 5.21579 5.16114 4.49092 5.11538 5.49419 5.1671 4.72992 4.36473 4.19308 6.95999 6.83075 4.22552 4.14182 3.80983 4.13959 3.61491 3.46066 3.26377 3.2181 4.77367 3.04974 2.71972 2.20075 4.44332 2.10888
threshold=25.500000000000004 28.500000000000004 1.0000000180025095e-35 7.5000000000000009 65.500000000000014 1.0000000180025095e-35 1.5000000000000002 56.500000000000007 44.500000000000007 39.500000000000007 9.5000000000000018 17.500000000000004 1.5000000000000002 2.5000000000000004 7.5000000000000009 6.5000000000000009 21.500000000000004 2.5000000000000004 12.500000000000002 7.5000000000000009 21.500000000000004 22.500000000000004 30.500000000000004 19.500000000000004 18.500000000000004 1.5000000000000002 14.500000000000002 6.5000000000000009 12.500000000000002 3.5000000000000004
decision_type=2 2 2 2 2 2 2 2 2 2 2 2 2 2 2 2 2 2 2 2 2 2 2 2 2 2 2 2 2 2
left_child=2 13 -1 12 7 25 -7 8 9 10 -5 -12 -3 14 -2 -15 -16 -17 23 -20 -21 -19 -11 24 27 -4 -14 -8 29 -29
right_child=1 3 5 4 -6 6 18 -9 -10 22 11 -13 26 15 16 17 -18 21 19 20 -22 -23 -24 -25 -26 -27 -28 28 -30 -31
leaf_value=0.040782533242152287 0.087287594223844592 0.024197881562369211 0.0021587135213794128 -0.025719552690332589 -0.034987138509750368 0.028584298415061757 -0.026565410540654113 0.057978302985429768 -0.022967134503757255 0.074907927668612942 -0.0027189131826162341 0.053560348706586026 -0.048935780561331549 -0.033473931181998477 0.05696053722252449 0.057648296970309633 0.0036175772999272205 0.036383636544148133 0.030158667924792267 0.022465146029437031 -0.021711250988103576 -0.019939276296645405 0.022710828781127929 -0.052610463174906641 0.034168623089790344 -0.03112616883703025 -0.010958504676818848 -0.022609136218116398 -0.034816024652341515 0.013708747411841776
leaf_weight=26 29 21 33 33 25 39 117 24 34 23 32 28 33 21 27 33 33 24 43 27 59 20 25 22 20 166 44 21 41 67
leaf_count=26 29 21 33 33 25 39 117 24 34 23 32 28 33 21 27 33 33 24 43 27 59 20 25 22 20 166 44 21 41 67
internal_value=0 0.0134855 -0.0100795 0.00311059 0.0115648 -0.0120984 -0.00620344 0.017413 0.0118498 0.0202453 0.00606386 0.0235447 -0.0162133 0.0313504 0.0470635 0.0170802 0.0276219 0.0308677 -0.00945697 0.00482494 -0.00784192 0.0107823 0.0477219 -0.0158541 -0.0128141 -0.0256066 -0.0272345 -0.0166338 -0.00762607 0.00504198
internal_weight=0 509 681 322 224 655 456 199 175 141 93 60 98 187 89 98 60 77 417 129 86 44 48 288 266 199 77 246 129 88
internal_count=1190 509 681 322 224 655 456 199 175 141 93 60 98 187 89 98 60 77 417 129 86 44 48 288 266 199 77 246 129 88
shrinkage=0.1


Tree=4
num_leaves=31
num_cat=0
split_feature=0 2 6 10 2 0 4 0 11 10 0 7 9 10 8 4 13 12 15 2 15 1 1 13 9 1 7 14 5 2
split_gain=13.2159 8.5531 7.52759 6.19704 5.72455 5.00714 4.74181 6.77364 5.58314 4.66838 4.66777 6.85178 4.41464 3.81098 3.74425 3.79282 3.4284 3.60525 3.20016 4.85819 5.50099 3.0493 2.96057 2.83091 3.37939 2.3199 3.76079 2.21606 2.1677 4.51382
threshold=26.500000000000004 11.500000000000002 2.5000000000000004 1.0000000180025095e-35 46.500000000000007 8.5000000000000018 3.5000000000000004 16.500000000000004 2.5000000000000004 1.0000000180025095e-35 36.500000000000007 23.500000000000004 17.500000000000004 2.5000000000000004 5.5000000000000009 2.5000000000000004 6.5000000000000009 2.5000000000000004 18.500000000000004 23.500000000000004 11.500000000000002 6.5000000000000009 2.5000000000000004 9.5000000000000018 9.5000000000000018 2.5000000000000004 11.500000000000002 12.500000000000002 2.5000000000000004 36.500000000000007
decision_type=2 2 2 2 2 2 2 2 2 2 2 2 2 2 2 2 2 2 2 2 2 2 2 2 2 2 2 2 2 2
left_child=2 -2 22 -4 9 -5 8 -8 21 -3 13 16 -13 14 -11 -16 -12 -18 19 -15 -21 23 -1 24 -7 -10 -27 -14 -24 -30
right_child=1 4 3 5 -6 6 7 -9 25 10 11 12 27 18 15 -17 17 -19 -20 20 -22 -23 28 -25 -26 26 -28 -29 29 -31
leaf_value=-0.030263454547295204 0.075361409357615886 0.048401915040962834 0.056565685272216795 -0.039689743121465053 -0.03547688057789436 -0.014979385787790473 0.066240992683630734 0.0021278297901153563 -0.042313008273349093 -0.022019531510092998 0.0073234239449867832 -0.034489295803583585 0.041037428095227202 0.040516132683981035 0.0079815537345652686 0.05411857622010368 0.071752557883391507 0.028177165755858793 -0.035683727111571875 -0.038588815122037323 0.026505329906940461 0.035984471866062712 -0.018766868368881504 -0.029858768257227816 0.038759232044219973 -0.032493221428659229 0.014622709155082703 -0.0022757705714967517 0.012324806925368637 -0.03847736120223999
leaf_weight=130 21 34 20 30 26 22 26 45 34 22 26 26 21 21 49 28 37 39 39 37 20 35 164 22 25 36 32 27 73 23
leaf_count=130 21 34 20 30 26 22 26 45 34 22 26 26 21 21 49 28 37 39 39 37 20 35 164 22 25 36 32 27 73 23
internal_value=0 0.0129749 -0.00855944 0.00263048 0.0100764 -0.000883218 0.00331966 0.0256059 -0.00436152 0.0128566 0.00977363 0.0218624 -0.00130245 -7.64794e-05 0.0143635 0.0247587 0.0386683 0.0493915 -0.0122949 -0.000600523 -0.0157488 0.0119423 -0.0179418 -0.000253023 0.013605 -0.020985 -0.010321 0.0166738 -0.0117809 0.000153454
internal_weight=0 473 717 327 452 307 277 71 206 426 392 176 74 216 99 77 102 76 117 78 57 104 390 69 47 102 68 48 260 96
internal_count=1190 473 717 327 452 307 277 71 206 426 392 176 74 216 99 77 102 76 117 78 57 104 390 69 47 102 68 48 260 96
shrinkage=0.1


Tree=5
num_leaves=31
num_cat=0
split_feature=0 2 6 10 11 2 2 0 8 8 7 9 15 1 13 15 13 8 7 0 1 0 11 8 0 2 14 7 13 6
split_gain=10.7049 7.02378 6.09735 5.0196 4.17019 4.43034 3.88022 4.55126 4.77974 3.78593 3.48634 4.07768 3.42564 3.40258 3.1991 3.1687 3.01817 2.58118 2.58103 2.57882 3.16793 2.4629 2.81438 3.1635 2.55574 4.06583 2.62452 2.40899 2.32433 2.21655
threshold=26.500000000000004 23.500000000000004 2.5000000000000004 1.0000000180025095e-35 2.5000000000000004 38.500000000000007 46.500000000000007 36.500000000000007 9.5000000000000018 40.500000000000007 23.500000000000004 16.500000000000004 11.500000000000002 2.5000000000000004 6.5000000000000009 21.500000000000004 7.5000000000000009 5.5000000000000009 7.5000000000000009 14.500000000000002 10.500000000000002 16.500000000000004 2.5000000000000004 14.500000000000002 18.500000000000004 20.500000000000004 7.5000000000000009 39.500000000000007 10.500000000000002 3.5000000000000004
decision_type=2 2 2 2 2 2 2 2 2 2 2 2 2 2 2 2 2 2 2 2 2 2 2 2 2 2 2 2 2 2
left_child=2 15 19 -4 17 13 7 8 16 12 14 -12 -10 -6 -9 -2 -3 -5 -15 20 -1 -21 23 24 -23 26 -26 -13 -20 -19
right_child=1 6 3 4 5 -7 -8 10 9 -11 11 27 -14 18 -16 -17 -18 29 28 21 -22 22 -24 -25 25 -27 -28 -29 -30 -31
leaf_value=-0.04520590993491086 0.044411027021234555 0.0047546508411566418 0.050909115076065062 0.041303466757138571 -0.024507137548689748 -0.048145185091665821 -0.031929192405480609 0.003932055113492189 0.0069432305853541314 -0.012307411302690922 -0.032257369973442772 -0.0063889282090323317 0.05334450350357936 -0.01809600055217743 0.044792351668531245 0.0014992762018333783 -0.039330702275037766 0.019508660041679771 -0.0018638048171997071 0.01612961313554219 0.0012693774700164796 -0.044992821372073631 -0.032213858693418369 0.023450815219145556 -0.0083251628008755765 -0.037239606529474258 0.02635092330830438 0.038083776523327006 0.039421896735827133 -0.0072624555000892063
leaf_weight=55 79 24 20 24 51 28 26 27 41 46 22 21 26 25 66 22 44 59 25 28 20 23 71 26 99 40 28 29 30 65
leaf_count=55 79 24 20 24 51 28 26 27 41 46 22 21 26 25 66 22 44 59 25 28 20 23 71 26 99 40 28 29 30 65
internal_value=0 0.0116774 -0.0077035 0.00236743 -0.000794895 -0.0120394 0.00532783 0.00812749 -0.00282293 0.00978309 0.0201398 0.00361944 0.0249497 -0.00432215 0.0329297 0.0350639 -0.0237712 0.0112854 0.00854577 -0.0161476 -0.0328125 -0.0121797 -0.0149416 -0.00926418 -0.013741 -0.00943682 -0.000680041 0.0194052 0.0206557 0.00547541
internal_weight=0 473 717 327 307 159 372 346 181 113 165 72 67 131 93 101 68 148 80 390 75 315 287 216 190 167 127 50 55 124
internal_count=1190 473 717 327 307 159 372 346 181 113 165 72 67 131 93 101 68 148 80 390 75 315 287 216 190 167 127 50 55 124
shrinkage=0.1


Tree=6
num_leaves=31
num_cat=0
split_feature=10 0 2 9 6 11 15 6 11 12 10 4 1 9 1 13 2 10 9 4 2 13 2 1 3 14 12 5 1 8
split_gain=9.42785 8.03822 5.24861 4.93173 4.39321 4.92345 4.35236 3.67758 5.11848 4.40957 3.61543 3.52273 3.88764 3.42531 3.4112 4.42255 4.14854 2.90982 2.41684 2.53961 2.21975 2.18924 2.82922 2.67667 2.76414 2.69722 2.17075 2.52472 3.91211 2.63007
threshold=1.0000000180025095e-35 32.500000000000007 28.500000000000004 13.500000000000002 2.5000000000000004 2.5000000000000004 21.500000000000004 3.5000000000000004 1.5000000000000002 3.5000000000000004 2.5000000000000004 3.5000000000000004 2.5000000000000004 13.500000000000002 7.5000000000000009 65.500000000000014 42.500000000000007 2.5000000000000004 32.500000000000007 3.5000000000000004 28.500000000000004 44.500000000000007 37.500000000000007 1.5000000000000002 1.5000000000000002 9.5000000000000018 3.5000000000000004 2.5000000000000004 7.5000000000000009 11.500000000000002
decision_type=2 2 2 2 2 2 2 2 2 2 2 2 2 2 2 2 2 2 2 2 2 2 2 2 2 2 2 2 2 2
left_child=3 4 10 -1 21 7 11 9 -9 -6 -3 12 -7 -14 -4 16 18 -10 19 -16 -19 22 23 25 -25 -2 27 29 -29 -26
right_child=1 2 14 -5 5 6 -8 8 17 -11 -12 -13 13 -15 15 -17 -18 20 -20 -21 -22 -23 -24 24 26 -27 -28 28 -30 -31
leaf_value=0.0017253830432891846 -0.013373004453522819 0.059532579826191069 -0.018368783649408593 0.058077437376103748 0.043147416033987279 -0.033582058621615896 -0.032454329530398056 0.043713393807411197 -0.036591208557928766 -0.0050421195370810371 0.01725760813918896 0.027204312000955855 0.033929568529129032 -0.012254600084963299 0.037080441502963794 -0.032434868812561038 -0.0070256630348604788 0.027851480543613433 0.056510391143652111 -0.0059442447579425321 -0.018698507547378541 0.018609516024589542 -0.036878763392286483 0.018531886629156166 -0.0081522450117128241 -0.045671261592609126 -0.032756506926135014 0.036839878764645805 -0.013503842552502952 -0.045971723849123181
leaf_weight=25 70 32 53 41 59 41 60 20 31 28 55 35 26 42 34 20 43 20 26 23 21 20 53 37 112 41 38 29 33 22
leaf_count=25 70 32 53 41 59 41 60 20 31 28 55 35 26 42 34 20 43 20 26 23 21 20 53 37 112 41 38 29 33 22
internal_value=0 -0.00215686 0.0123187 0.036732 -0.00709721 0.000794574 -0.00982597 0.0128984 -0.0010402 0.0276381 0.032807 -0.000397485 -0.00926045 0.00540405 0.00336151 0.0112499 0.018184 -0.0134718 0.0312444 0.0197196 0.0040088 -0.0137402 -0.0152275 -0.0122236 -0.0068663 -0.025303 -0.0108823 -0.00664132 0.010044 -0.0143614
internal_weight=0 1124 286 66 838 383 204 179 92 87 87 144 109 68 199 146 126 72 83 57 41 455 435 382 271 111 234 196 62 134
internal_count=1190 1124 286 66 838 383 204 179 92 87 87 144 109 68 199 146 126 72 83 57 41 455 435 382 271 111 234 196 62 134
shrinkage=0.1


Tree=7
num_leaves=31
num_cat=0
split_feature=10 0 9 0 6 15 1 13 2 13 2 3 8 2 13 9 0 7 14 7 12 2 2 2 9 13 1 6 3 3
split_gain=7.63656 6.7595 3.9947 3.87045 4.48782 4.41355 6.05624 4.03082 3.76513 3.43411 3.15394 4.22753 4.18285 3.70162 3.77736 3.57507 3.38037 2.75846 2.7224 3.98793 2.85258 2.66192 4.18977 2.57587 2.47945 2.85387 2.41865 2.33056 4.06728 2.39621
threshold=1.0000000180025095e-35 36.500000000000007 13.500000000000002 9.5000000000000018 2.5000000000000004 21.500000000000004 18.500000000000004 22.500000000000004 20.500000000000004 48.500000000000007 27.500000000000004 11.500000000000002 16.500000000000004 34.500000000000007 12.500000000000002 8.5000000000000018 26.500000000000004 19.500000000000004 4.5000000000000009 17.500000000000004 2.5000000000000004 19.500000000000004 17.500000000000004 13.500000000000002 6.5000000000000009 13.500000000000002 21.500000000000004 1.5000000000000002 3.5000000000000004 21.500000000000004
decision_type=2 2 2 2 2 2 2 2 2 2 2 2 2 2 2 2 2 2 2 2 2 2 2 2 2 2 2 2 2 2
left_child=2 3 -1 -2 21 6 10 17 -3 -9 11 12 15 14 -12 -6 -15 -7 -10 26 -21 22 23 -5 25 -23 -20 -26 -29 -30
right_child=1 8 -4 4 5 7 -8 9 18 -11 13 -13 -14 16 -16 -17 -18 -19 19 20 -22 24 -24 -25 27 -27 -28 28 29 -31
leaf_value=0.0015528456568717956 -0.029253885056823494 0.050297201267228676 0.052269692537261214 0.013993013311516157 0.0081592719554901116 -0.053616748801593131 0.044294510172172029 0.038551442027091987 0.037998755595513752 -0.020049870014190674 -0.0026931915172310767 -0.014591022537035101 -0.01240667672384353 -0.0067238637970553506 -0.048927102883656821 0.055323779185613001 0.043030740862542938 -0.0082893197536468514 0.00713319223980571 0.0070493874641565177 -0.031711383445842845 -0.014268687040838477 0.037484044368777961 -0.032499675681957829 0.013720154762268066 -0.047238461418849666 0.046247581243515017 0.024961440952924584 -0.013327846134963789 -0.048189033296975221
leaf_weight=25 64 26 41 22 25 29 44 20 28 20 43 34 21 36 30 45 22 25 43 39 37 73 28 26 40 41 25 26 190 22
leaf_count=25 64 26 41 22 25 29 44 20 28 20 43 34 21 36 30 45 22 25 43 39 37 73 28 26 40 41 25 26 190 22
internal_value=0 -0.00194117 0.0330588 -0.0055271 -0.00376548 0.00409844 0.0100229 -0.0148094 0.0148294 0.00925079 0.00413248 0.0154953 0.0267364 -0.00670995 -0.0216934 0.0384793 0.0121486 -0.0326318 0.00946795 0.00392029 -0.011821 -0.010386 0.00674221 -0.0111905 -0.0137067 -0.0261262 0.0215135 -0.00861383 -0.0123674 -0.0169455
internal_weight=0 1124 66 926 862 394 300 94 198 40 256 125 91 131 73 70 58 54 172 144 76 468 76 48 392 114 68 278 238 212
internal_count=1190 1124 66 926 862 394 300 94 198 40 256 125 91 131 73 70 58 54 172 144 76 468 76 48 392 114 68 278 238 212
shrinkage=0.1


Tree=8
num_leaves=31
num_cat=0
split_feature=0 2 15 7 12 10 4 2 12 13 13 10 0 0 12 2 7 13 3 13 14 6 13 2 0 14 13 9 6 15
split_gain=6.22228 4.37431 4.04135 4.16057 3.73891 3.20524 4.32463 4.73416 3.97729 4.10881 8.14694 3.89541 3.66418 3.55486 3.0273 2.96898 2.72851 4.15308 3.31821 3.13394 3.04457 2.72731 3.61539 2.27244 2.20061 2.46503 2.02301 1.95398 1.90346 1.89148
threshold=25.500000000000004 40.500000000000007 8.5000000000000018 36.500000000000007 1.5000000000000002 2.5000000000000004 2.5000000000000004 27.500000000000004 2.5000000000000004 30.500000000000004 10.500000000000002 1.5000000000000002 34.500000000000007 30.500000000000004 2.5000000000000004 20.500000000000004 12.500000000000002 44.500000000000007 3.5000000000000004 7.5000000000000009 12.500000000000002 2.5000000000000004 9.5000000000000018 20.500000000000004 18.500000000000004 7.5000000000000009 9.5000000000000018 12.500000000000002 3.5000000000000004 44.500000000000007
decision_type=2 2 2 2 2 2 2 2 2 2 2 2 2 2 2 2 2 2 2 2 2 2 2 2 2 2 2 2 2 2
left_child=4 5 -3 -4 15 6 7 13 12 10 -10 -9 27 -2 -8 -1 20 18 19 -18 21 23 28 24 -6 -26 -16 -7 -23 -20
right_child=1 2 3 -5 16 8 14 11 9 -11 -12 -13 -14 -15 26 -17 17 -19 29 -21 -22 22 -24 -25 25 -27 -28 -29 -30 -31
leaf_value=0.049656739085912706 0.001882333556811015 0.021331285346638074 -0.035932755310620582 0.010217170317967733 -0.032148241038833347 -0.024534650146961212 0.017616780648628871 0.01950577599927783 0.015896758437156679 0.016618040968210269 -0.056024450394842364 -0.034545652767022449 0.037525901886133049 0.052794845029711726 0.038780369965926459 0.00082869611003182151 0.042740051984786989 0.043218432863553369 -0.0075385239010765442 -0.0041988019690369117 -0.028431438730687514 0.037943084537982945 -0.019040969439915248 -0.027482210826583028 -0.0078378353083487784 0.028436340326848237 0.082266888022422796 0.015310201328247786 0.0011162761449813844 -0.041092682927846909
leaf_weight=20 24 33 56 30 28 20 30 24 28 39 36 30 52 32 23 33 25 21 105 33 98 32 35 82 101 23 20 32 25 20
leaf_count=20 24 33 56 30 28 20 30 24 28 39 36 30 52 32 23 33 25 21 105 33 98 32 35 82 101 23 20 32 25 20
internal_value=0 0.00836404 -0.00841838 -0.0198339 -0.00625154 0.0134848 0.0231266 0.0106035 0.00496093 -0.00896764 -0.0245589 -0.0105228 0.0187556 0.0309752 0.0419971 0.0192544 -0.0084041 0.00109867 -0.00373474 0.0160335 -0.0129762 -0.00833014 0.00625708 -0.0140653 -0.00682721 -0.00110956 0.0590067 -1.47415e-05 0.021791 -0.0129072
internal_weight=0 509 119 86 681 390 183 110 207 103 64 54 104 56 73 53 628 204 183 58 424 326 92 234 152 124 43 52 57 125
internal_count=1190 509 119 86 681 390 183 110 207 103 64 54 104 56 73 53 628 204 183 58 424 326 92 234 152 124 43 52 57 125
shrinkage=0.1


Tree=9
num_leaves=31
num_cat=0
split_feature=10 0 14 6 0 4 0 5 9 15 2 1 2 14 8 6 14 7 13 0 1 2 8 9 15 9 14 13 6 13
split_gain=5.39325 4.60022 3.63729 3.38286 3.60432 4.34414 3.9334 4.35102 3.13146 3.12042 2.97131 4.26799 2.84097 2.61544 2.58692 2.25394 2.13923 3.19253 2.30306 2.25332 1.99691 2.50494 3.95843 3.02293 2.7243 2.52168 2.05068 1.93218 1.69385 1.56353
threshold=1.0000000180025095e-35 36.500000000000007 64.500000000000014 2.5000000000000004 8.5000000000000018 3.5000000000000004 16.500000000000004 2.5000000000000004 13.500000000000002 24.500000000000004 27.500000000000004 9.5000000000000018 20.500000000000004 9.5000000000000018 8.5000000000000018 3.5000000000000004 4.5000000000000009 17.500000000000004 10.500000000000002 41.500000000000007 2.5000000000000004 36.500000000000007 16.500000000000004 8.5000000000000018 16.500000000000004 11.500000000000002 6.5000000000000009 10.500000000000002 3.5000000000000004 20.500000000000004
decision_type=2 2 2 2 2 2 2 2 2 2 2 2 2 2 2 2 2 2 2 2 2 2 2 2 2 2 2 2 2 2
left_child=8 2 3 20 -5 9 -7 -8 -1 10 13 -12 -3 27 -15 -9 -14 19 -19 -18 -2 22 25 -23 -24 26 -22 -6 -16 -20
right_child=1 12 -4 4 5 6 7 15 -10 -11 11 -13 16 14 28 -17 17 18 29 -21 21 23 24 -25 -26 -27 -28 -29 -30 -31
leaf_value=-0.00011285501718521118 -0.018947271211393949 0.043012740463018423 -0.04008253940514156 -0.030156368712584175 0.015523730651024852 0.057197898626327515 -0.027860878109931948 0.047941463268720189 0.044791003189435824 -0.026029970587753672 -0.022409807084357903 0.015980573184788228 0.032837522987808503 0.031602163165807724 0.0091188524450574598 0.0070528540228094383 -0.0015173248706325409 0.017673450410366061 -0.041873518928237589 0.035032394286748529 -0.014728984268421822 -0.048366294083771882 0.035046538849209628 -0.00010886645317077636 -0.0088948160409927368 -0.038183003415664038 0.0054277565227736028 0.054273489930412991 -0.029770326614379884 -0.0079089186408302994
leaf_weight=25 145 26 28 30 31 26 20 26 41 41 73 48 28 20 21 28 31 20 23 37 94 27 43 25 21 24 109 22 24 33
leaf_count=25 145 26 28 30 31 26 20 26 41 41 73 48 28 20 21 28 31 20 23 37 94 27 43 25 21 24 109 22 24 33
internal_value=0 -0.00163133 -0.00458956 -0.00348288 0.00321322 0.00584766 0.0237389 0.011983 0.027782 -0.000542048 0.00383036 -0.00718057 0.0122037 0.0151212 0.00167771 0.02674 0.00754649 0.00262879 -0.0114555 0.01837 -0.0091087 -0.00494954 -0.00133705 -0.0251656 0.0206283 -0.00752992 -0.00390591 0.0316085 -0.011622 -0.0218587
internal_weight=0 1124 926 898 410 380 100 74 66 280 239 121 198 118 65 54 172 144 76 68 488 343 291 52 64 227 203 53 45 56
internal_count=1190 1124 926 898 410 380 100 74 66 280 239 121 198 118 65 54 172 144 76 68 488 343 291 52 64 227 203 53 45 56
shrinkage=0.1


Tree=10
num_leaves=31
num_cat=0
split_feature=1 14 7 2 1 1 7 9 2 0 10 2 1 14 4 13 15 7 15 15 3 13 0 2 15 11 3 9 13 13
split_gain=4.48251 4.78652 4.24491 3.48599 3.27408 5.01959 3.48768 7.2456 3.05689 2.98638 2.97698 2.52191 3.34489 2.43122 2.34777 1.98288 1.89266 1.84514 2.1163 1.79582 1.75032 2.72299 3.4235 3.16598 3.10924 2.83771 5.32704 3.36561 2.65782 2.56432
threshold=10.500000000000002 4.5000000000000009 13.500000000000002 42.500000000000007 18.500000000000004 12.500000000000002 17.500000000000004 14.500000000000002 32.500000000000007 9.5000000000000018 3.5000000000000004 13.500000000000002 1.5000000000000002 33.500000000000007 2.5000000000000004 22.500000000000004 31.500000000000004 35.500000000000007 28.500000000000004 10.500000000000002 37.500000000000007 17.500000000000004 33.500000000000007 29.500000000000004 4.5000000000000009 2.5000000000000004 1.5000000000000002 7.5000000000000009 28.500000000000004 4.5000000000000009
decision_type=2 2 2 2 2 2 2 2 2 2 2 2 2 2 2 2 2 2 2 2 2 2 2 2 2 2 2 2 2 2
left_child=9 2 8 4 5 19 7 15 -2 -1 14 12 -11 -5 -7 -6 -4 -8 -19 -3 21 22 25 28 -24 26 27 -13 -23 -27
right_child=1 3 16 13 6 10 17 -9 -10 11 -12 20 -14 -15 -16 -17 -18 18 -20 -21 -22 23 24 -25 -26 29 -28 -29 -30 -31
leaf_value=-0.028194367647171023 0.032141895174980166 0.0005910578228178479 0.072205930948257446 -0.032313960648718332 -0.015084943771362306 -0.033869333267211914 -0.019804143464123763 0.062535351209151435 -0.018968327478929001 -0.010187615389409273 -0.050801173111666813 0.0011059097945690156 0.040878145961925905 0.0093584221033822922 0.010362755358219148 0.026596910612923758 0.029701462388038637 0.037340253368020063 -0.0071375778187876167 0.041037875932195912 0.024557146579027175 -0.023552701950073245 0.051495090946555133 -0.034744675313272785 0.0047066128071473574 -0.034821197562492814 -0.0055108524775237186 0.056142681837081911 0.023036492212365072 -0.0074429127275943757
leaf_weight=50 25 21 22 42 25 20 27 39 22 23 23 20 29 21 30 21 20 20 23 23 20 25 20 62 49 52 267 25 24 100
leaf_count=50 25 21 22 42 25 20 27 39 22 23 23 20 29 21 30 21 20 20 23 23 20 25 20 62 49 52 267 25 24 100
internal_value=0 0.00824933 0.028863 0.00277287 0.00768225 -0.00494571 0.0172143 0.0308269 0.00821796 -0.00456621 -0.0210265 -0.0029162 0.0182914 -0.0184232 -0.00733008 0.00394373 0.0519657 0.000684699 0.0135498 0.0217337 -0.00457703 -0.00548182 -0.00251441 -0.0197307 0.0182685 -0.00560497 -0.000146514 0.0316819 -0.000733505 -0.0168092
internal_weight=0 424 89 335 272 117 155 85 47 766 73 716 52 63 50 46 42 70 43 44 664 644 533 111 69 464 312 45 49 152
internal_count=1190 424 89 335 272 117 155 85 47 766 73 716 52 63 50 46 42 70 43 44 664 644 533 111 69 464 312 45 49 152
shrinkage=0.1


Tree=11
num_leaves=31
num_cat=0
split_feature=10 0 14 3 2 1 15 12 0 9 13 3 9 2 3 14 14 10 0 9 2 13 14 10 14 1 3 0 11 13
split_gain=4.07239 3.12027 3.06884 2.7435 3.05719 3.96222 4.19817 2.54872 3.17136 2.50114 2.43452 2.40946 3.04685 2.21699 2.88986 3.19102 3.49347 2.8531 2.18484 2.79729 2.00913 2.45581 4.28724 2.22222 2.0853 1.97786 2.3223 1.89481 3.25629 1.75658
threshold=1.0000000180025095e-35 36.500000000000007 64.500000000000014 39.500000000000007 40.500000000000007 18.500000000000004 28.500000000000004 1.5000000000000002 23.500000000000004 13.500000000000002 37.500000000000007 17.500000000000004 36.500000000000007 43.500000000000007 1.5000000000000002 36.500000000000007 17.500000000000004 3.5000000000000004 10.500000000000002 9.5000000000000018 35.500000000000007 6.5000000000000009 10.500000000000002 2.5000000000000004 9.5000000000000018 21.500000000000004 13.500000000000002 29.500000000000004 2.5000000000000004 10.500000000000002
decision_type=2 2 2 2 2 2 2 2 2 2 2 2 2 2 2 2 2 2 2 2 2 2 2 2 2 2 2 2 2 2
left_child=9 2 3 4 5 7 29 8 -2 -1 11 12 18 14 -3 16 25 -15 -9 27 21 24 -23 -24 -21 26 -16 28 -20 -7
right_child=1 13 -4 -5 -6 6 -8 10 -10 -11 -12 -13 -14 17 15 -17 -18 -19 19 20 -22 22 23 -25 -26 -27 -28 -29 -30 -31
leaf_value=-0.00078841269016265885 0.036868746019899847 0.051156164705753328 -0.036455623060464862 0.0320408743890849 -0.020958706185869549 0.01061715664608138 -0.01772054433822632 -0.027913815321193802 -0.0092146581837109151 0.039342483442004139 -0.034505985728625593 -0.022713630724309097 0.033845256268978122 -0.03205623972415924 0.026194648715582764 0.042580370604991917 -0.024783640913665295 0.018617160618305206 -0.0045144967771881253 0.0082857811643231305 0.035580143874341795 -0.0042905840006741613 0.06230642750859261 0.015166025906801224 -0.026663349255135183 0.035725772274391991 -0.017950361995742872 0.019689959964968945 -0.0301149148832668 0.04295260452088856
leaf_weight=25 32 20 28 22 92 28 25 36 28 41 29 67 22 25 22 25 32 20 201 31 22 55 20 20 38 28 26 22 66 42
leaf_count=25 32 20 28 22 92 28 25 36 28 41 29 67 22 25 22 25 32 20 201 31 22 55 20 20 38 28 26 22 66 42
internal_value=0 -0.00141755 -0.00385391 -0.00283737 -0.00371331 -0.00168962 0.0174555 -0.00432937 0.0153632 0.0241414 -0.00620783 -0.00484009 -0.00259332 0.00997671 0.0157154 0.0103859 0.0029335 -0.00953473 -0.0041621 -0.00236197 0.00720367 0.00339707 0.013826 0.0387362 -0.0109616 0.0146039 0.00228277 -0.00851841 -0.0108427 0.0300184
internal_weight=0 1124 926 898 876 784 95 689 60 66 629 600 533 198 153 133 108 45 511 475 186 164 95 40 69 76 48 289 267 70
internal_count=1190 1124 926 898 876 784 95 689 60 66 629 600 533 198 153 133 108 45 511 475 186 164 95 40 69 76 48 289 267 70
shrinkage=0.1


Tree=12
num_leaves=31
num_cat=0
split_feature=10 9 0 2 3 14 8 8 3 7 3 2 2 15 12 14 1 7 6 2 9 3 7 4 1 14 4 14 1 8
split_gain=3.29863 2.80446 4.06803 3.19525 3.07812 5.10888 4.00968 3.91955 5.34259 4.13538 3.30623 3.20992 4.87873 3.04973 2.78307 4.25821 2.69686 2.58281 2.31447 2.26011 2.07485 2.07042 1.92122 1.66098 2.69121 1.57652 1.57329 1.54298 1.53414 1.85465
threshold=1.0000000180025095e-35 7.5000000000000009 12.500000000000002 30.500000000000004 3.5000000000000004 5.5000000000000009 10.500000000000002 14.500000000000002 7.5000000000000009 18.500000000000004 11.500000000000002 34.500000000000007 40.500000000000007 11.500000000000002 2.5000000000000004 7.5000000000000009 7.5000000000000009 35.500000000000007 3.5000000000000004 26.500000000000004 10.500000000000002 8.5000000000000018 17.500000000000004 2.5000000000000004 4.5000000000000009 9.5000000000000018 2.5000000000000004 15.500000000000002 9.5000000000000018 38.500000000000007
decision_type=2 2 2 2 2 2 2 2 2 2 2 2 2 2 2 2 2 2 2 2 2 2 2 2 2 2 2 2 2 2
left_child=20 3 22 14 5 -4 27 10 26 19 18 -12 -13 -8 15 -2 -11 -18 23 -10 -1 -16 -3 24 -6 -20 -9 -7 -21 -30
right_child=1 2 4 -5 7 6 13 8 9 16 11 12 -14 -15 21 -17 17 -19 25 28 -22 -23 -24 -25 -26 -27 -28 -29 29 -31
leaf_value=-0.0051623857021331791 -0.0051893967344905393 -0.029861045821949289 0.049822633894714148 -0.023598963789420554 -0.014686571641100777 0.01167812216281891 -0.030248624086380006 -0.0021327060731974514 0.0522836871445179 -0.029456344043666666 -0.03005217831759226 0.037189702960577879 -0.025738921974386486 0.016899565898853799 -0.030381826384394781 0.029077687025070194 -0.018666924238204957 0.024673680825666948 0.040833049623862555 0.0071864864448221728 0.033418392228043596 0.0020676719956099986 0.0024179151015622275 -0.020977084529705536 0.0239801824092865 0.0029363111725875311 -0.039951558004726065 0.048446910012336003 0.056562626361846925 0.015330401435494424
leaf_weight=20 132 54 37 101 36 25 34 22 32 22 84 22 28 23 51 50 20 44 23 41 46 32 28 39 36 21 22 21 20 24
leaf_count=20 132 54 37 101 36 25 34 22 32 22 84 22 28 23 51 50 20 44 23 41 46 32 28 39 36 21 22 21 20 24
internal_value=0 -0.0012758 0.00219515 -0.00846426 0.00474662 0.0179501 0.00650073 0.00129795 0.0105478 0.0173949 -0.00660766 -0.0181112 0.00194967 -0.0112239 -0.00269594 0.00422464 0.000747255 0.0111297 0.00333733 0.0296317 0.0217272 -0.0178712 -0.018839 -0.00435618 0.00464681 0.022746 -0.0210421 0.0284639 0.0211039 0.0340723
internal_weight=0 1124 758 366 676 140 103 536 247 203 289 134 50 57 265 182 86 64 155 117 66 83 82 111 72 44 44 46 85 44
internal_count=1190 1124 758 366 676 140 103 536 247 203 289 134 50 57 265 182 86 64 155 117 66 83 82 111 72 44 44 46 85 44
shrinkage=0.1


Tree=13
num_leaves=31
num_cat=0
split_feature=0 2 15 9 9 13 13 15 1 14 7 2 9 3 2 11 15 1 7 14 2 14 7 8 13 9 3 6 0 14
split_gain=2.84279 2.72724 2.24522 2.88532 2.33397 2.54066 3.28467 2.97428 3.8914 2.60407 3.05788 2.33926 2.40357 2.11674 2.09372 1.93565 2.61571 5.677 2.25522 3.15896 2.75367 2.46194 3.8132 2.31542 2.6321 2.55586 1.86142 2.36389 1.85291 2.05567
threshold=25.500000000000004 11.500000000000002 86.500000000000014 96.000000000000014 63.500000000000007 9.5000000000000018 4.5000000000000009 7.5000000000000009 7.5000000000000009 9.5000000000000018 13.500000000000002 28.500000000000004 17.500000000000004 10.500000000000002 30.500000000000004 4.5000000000000009 56.500000000000007 21.500000000000004 12.500000000000002 4.5000000000000009 22.500000000000004 13.500000000000002 15.500000000000002 7.5000000000000009 9.5000000000000018 12.500000000000002 9.5000000000000018 2.5000000000000004 18.500000000000004 7.5000000000000009
decision_type=2 2 2 2 2 2 2 2 2 2 2 2 2 2 2 2 2 2 2 2 2 2 2 2 2 2 2 2 2 2
left_child=15 -2 3 4 5 6 9 11 -9 -3 -11 -7 -13 -10 -15 16 17 18 20 -20 26 22 -21 -22 25 -25 27 28 -1 -30
right_child=1 2 -4 -5 -6 7 -8 8 13 10 -12 12 -14 14 -16 -17 -18 -19 19 21 23 -23 -24 24 -26 -27 -28 -29 29 -31
leaf_value=-0.023209227578980585 0.039301304583964143 0.020815388810250066 0.036044744508607049 -0.033603679282324654 0.030793458992435088 0.038131780301531158 0.025118137591264467 -0.032879516325498882 -0.021875090219757774 -0.037753010361359036 0.0094756684624231792 -0.025478250355947585 0.019630127924459954 0.034468600831248544 -0.002033036297017878 -0.027850512121662951 -0.036913366209376942 0.03853712705048648 0.031513646849103877 0.021571615487337114 -0.039220785388821053 0.012317172793241647 -0.030562052955018716 -0.016400512104684656 -0.027240312978869582 0.018759479125340782 -0.023449669405817986 0.024313615076243879 -0.0038439470923171855 0.026202384562327947
leaf_weight=35 23 31 21 21 31 24 88 57 33 29 26 21 27 22 55 33 22 33 37 20 38 65 47 44 61 39 32 40 106 29
leaf_count=35 23 31 21 21 31 24 88 57 33 29 26 21 27 22 55 33 22 33 37 20 38 65 47 44 61 39 32 40 106 29
internal_value=0 0.00565345 0.00406106 0.00261664 0.00432976 0.00234338 0.0115357 -0.00434889 -0.0116738 -0.00236271 -0.0154267 0.0126407 -0.000104788 -0.000685325 0.008396 -0.00422556 -0.00302244 -0.00183138 -0.00407786 0.00569016 -0.00797125 -0.00154824 -0.0149998 -0.017264 -0.0114699 0.000120448 -0.000982467 0.00244111 -0.00270537 0.00261045
internal_weight=0 509 486 465 444 413 174 239 167 86 55 72 48 110 77 681 648 626 593 169 424 132 67 182 144 83 242 210 170 135
internal_count=1190 509 486 465 444 413 174 239 167 86 55 72 48 110 77 681 648 626 593 169 424 132 67 182 144 83 242 210 170 135
shrinkage=0.1


Tree=14
num_leaves=31
num_cat=0
split_feature=10 0 14 7 2 1 15 15 9 9 7 14 14 2 5 8 3 8 1 7 15 3 1 9 2 9 6 2 14 14
split_gain=2.64325 2.18055 2.52015 2.20031 1.7571 2.65023 2.80521 1.99076 1.79056 1.68367 1.58018 2.19836 3.05609 1.95905 1.93656 1.49841 1.85124 2.70676 1.77575 3.50106 3.38024 2.87596 2.8122 2.47152 2.86023 1.96602 1.87943 1.87926 1.7478 2.46364
threshold=1.0000000180025095e-35 36.500000000000007 64.500000000000014 76.500000000000014 41.500000000000007 19.500000000000004 28.500000000000004 15.500000000000002 24.500000000000004 10.500000000000002 23.500000000000004 12.500000000000002 33.500000000000007 43.500000000000007 2.5000000000000004 49.500000000000007 21.500000000000004 12.500000000000002 1.5000000000000002 7.5000000000000009 1.5000000000000002 1.5000000000000002 12.500000000000002 12.500000000000002 18.500000000000004 6.5000000000000009 2.5000000000000004 27.500000000000004 6.5000000000000009 11.500000000000002
decision_type=2 2 2 2 2 2 2 2 2 2 2 2 2 2 2 2 2 2 2 2 2 2 2 2 2 2 2 2 2 2
left_child=9 2 3 4 5 15 8 -6 -7 -1 13 -12 -13 14 -3 16 18 -18 20 21 -2 -20 23 24 -21 -22 -23 -25 -26 -30
right_child=1 10 -4 -5 7 6 -8 -9 -10 -11 11 12 -14 -15 -16 -17 17 -19 19 22 25 26 -24 27 28 -27 -28 -29 29 -31
leaf_value=-0.0047731430828571323 0.019896879877362935 -4.254270877156939e-05 -0.032722595067960873 0.030539593547582629 -0.0035134780334263316 0.013308990272608671 -0.012561808420079097 -0.037095170251784791 0.047739330841147384 0.029980989966703498 0.015611621173652444 -0.041519091775019966 0.011409341599792242 -0.011073146083138207 0.031273103160644647 -0.022085483301253546 -0.041604021617344451 0.0065631638467311864 0.023468781621367844 0.039106994638076202 -0.033939242324767971 -0.0063107598269427261 -0.01609759744136564 0.019214758276939393 -0.015801898638407388 -0.0085514696474586222 -0.032314539636884416 0.059349420666694644 0.028951761931986422 -0.0089393802918493748
leaf_weight=20 35 28 28 20 41 44 28 31 23 46 37 24 20 22 67 42 28 20 27 26 39 135 31 28 36 140 35 20 37 32
leaf_count=20 35 28 28 20 41 44 28 31 23 46 37 24 20 22 67 42 28 20 27 26 39 135 31 28 36 140 35 20 37 32
internal_value=0 -0.00114205 -0.00317875 -0.00225756 -0.00300464 -0.00166759 0.0140197 -0.0179723 0.0251284 0.0194494 0.00838311 -0.0023536 -0.0174607 0.0158162 0.0220432 -0.00376364 -0.00261338 -0.0215344 -0.00115089 0.00272663 -0.00852545 -0.00684926 0.0117097 0.0165255 0.00941274 -0.0140829 -0.0116645 0.0359375 0.00205987 0.0113791
internal_weight=0 1124 926 898 878 806 95 72 67 66 198 81 44 117 95 711 669 48 621 407 214 197 210 179 131 179 170 48 105 69
internal_count=1190 1124 926 898 878 806 95 72 67 66 198 81 44 117 95 711 669 48 621 407 214 197 210 179 131 179 170 48 105 69
shrinkage=0.1


Tree=15
num_leaves=31
num_cat=0
split_feature=10 9 0 2 3 14 8 3 11 7 8 14 15 3 2 2 2 12 14 0 9 2 6 3 9 14 14 14 7 8
split_gain=2.14103 1.96116 2.89603 2.33658 2.22274 3.74281 2.87729 4.28981 3.42489 4.43676 2.81095 2.63615 2.52669 2.43781 2.54466 3.59322 2.18454 2.15614 3.03953 1.87317 2.66905 2.59926 2.85098 1.62675 1.55514 1.48903 1.46169 1.77103 1.44867 1.43038
threshold=1.0000000180025095e-35 7.5000000000000009 12.500000000000002 30.500000000000004 3.5000000000000004 5.5000000000000009 14.500000000000002 7.5000000000000009 1.5000000000000002 18.500000000000004 10.500000000000002 28.500000000000004 11.500000000000002 11.500000000000002 34.500000000000007 40.500000000000007 26.500000000000004 2.5000000000000004 7.5000000000000009 27.500000000000004 18.500000000000004 28.500000000000004 2.5000000000000004 8.5000000000000018 5.5000000000000009 25.500000000000004 10.500000000000002 17.500000000000004 17.500000000000004 31.500000000000004
decision_type=2 2 2 2 2 2 2 2 2 2 2 2 2 2 2 2 2 2 2 2 2 2 2 2 2 2 2 2 2 2
left_child=25 3 28 17 5 -4 13 -8 -9 16 -7 -11 -12 19 26 -16 -10 18 -2 21 -21 22 -6 -19 -20 -1 -15 -28 -3 -18
right_child=1 2 4 -5 6 10 7 8 9 11 12 -13 -14 14 15 -17 29 23 24 20 -22 -23 -24 -25 -26 -27 27 -29 -30 -31
leaf_value=0.029233410954475403 -0.0039686071601780981 -0.025443702191114428 0.042527942560814526 -0.019981441226336036 -0.0087208237051963813 0.02383694447900938 -0.0192847801880403 0.05241417112675581 0.046974872720652615 -0.022128509823232889 -0.026709540977197535 0.017917183458805084 0.016205575673476511 -0.043001975212246184 0.032550038803707472 -0.021455283303345955 0.031191556062549353 -0.026552985637795692 0.0093499977673803056 -0.003140935843641108 0.047334133740514518 -0.027453190810752637 0.030273073216279353 0.0022103648923803123 0.044878682629628616 -0.0017309374809265138 0.0075056715309619916 -0.030428001191467047 0.0025858193103756224 0.0037811969188933678
leaf_weight=41 132 54 37 101 50 46 44 22 29 48 34 25 23 32 22 28 32 51 28 22 20 33 30 32 22 25 20 32 28 47
leaf_count=41 132 54 37 101 50 46 44 22 29 48 34 25 23 32 22 28 32 51 28 22 20 33 30 32 22 25 20 32 28 47
internal_value=0 -0.00102784 0.0018747 -0.00703913 0.00402749 0.0152474 0.00109691 0.0090221 0.0151576 0.0106292 0.0054476 -0.00841423 -0.00939291 -0.00567652 -0.0155544 0.00230706 0.0235011 -0.0021064 0.00398503 0.00286308 0.0208948 -0.00383898 0.00590189 -0.0154635 0.0249826 0.0175045 -0.0261863 -0.0158381 -0.0158726 0.0148841
internal_weight=0 1124 758 366 676 140 536 247 203 181 103 73 57 289 134 50 108 265 182 155 42 113 80 83 50 66 84 52 82 79
internal_count=1190 1124 758 366 676 140 536 247 203 181 103 73 57 289 134 50 108 265 182 155 42 113 80 83 50 66 84 52 82 79
shrinkage=0.1


Tree=16
num_leaves=31
num_cat=0
split_feature=1 14 7 13 13 15 14 1 1 9 15 3 13 0 15 1 8 3 13 10 6 2 10 1 7 2 13 3 0 14
split_gain=1.89669 3.21586 2.75794 2.32003 3.18623 2.12321 3.11885 2.1103 3.74093 3.26473 2.637 2.03828 2.52207 3.69595 2.24622 2.22588 3.10904 2.93449 2.04863 1.86119 1.80638 3.07383 2.10035 1.91832 1.88078 1.74037 1.71853 1.54083 1.51665 1.4428
threshold=10.500000000000002 4.5000000000000009 13.500000000000002 58.500000000000007 42.500000000000007 44.500000000000007 43.500000000000007 12.500000000000002 18.500000000000004 27.500000000000004 10.500000000000002 37.500000000000007 9.5000000000000018 33.500000000000007 22.500000000000004 8.5000000000000018 15.500000000000002 8.5000000000000018 10.500000000000002 2.5000000000000004 2.5000000000000004 27.500000000000004 2.5000000000000004 1.5000000000000002 13.500000000000002 32.500000000000007 4.5000000000000009 11.500000000000002 25.500000000000004 12.500000000000002
decision_type=2 2 2 2 2 2 2 2 2 2 2 2 2 2 2 2 2 2 2 2 2 2 2 2 2 2 2 2 2 2
left_child=11 2 25 4 5 6 7 10 26 -10 -3 12 13 14 15 16 27 -18 -14 -7 -20 22 -22 -23 -25 -2 -9 28 29 -1
right_child=1 3 -4 -5 -6 19 -8 8 9 -11 -12 -13 18 -15 -16 -17 17 -19 20 -21 21 23 -24 24 -26 -27 -28 -29 -30 -31
leaf_value=0.00018978416919708253 0.023673132777214053 -0.0026732362508773803 0.040884225354308176 -0.023106100575791468 0.035879872952188765 0.00039108409122987227 0.035548954137734005 -0.00017650432884693147 -0.0052244749851524837 0.035715591162443161 0.046043250262737277 0.027754352986812593 -0.036354774750512221 0.026165798821431753 -0.030832693381951406 -0.029286376595497134 0.039828877594019922 -0.0035295342405637108 -0.018379788339700342 -0.041229563951492312 0.041076858341693882 -0.035437148295599845 0.0030443649471052132 -0.021637546133112025 0.01642681282758713 -0.014891392873092133 -0.035657814387665236 -0.024681966571972289 0.024740499935366894 -0.023605620963820097
leaf_weight=210 25 25 42 36 28 22 28 20 64 28 20 21 29 51 26 25 37 27 106 21 20 29 53 27 25 22 43 29 22 29
leaf_count=210 25 25 42 36 28 22 28 20 64 28 20 21 29 51 26 25 37 27 106 21 20 29 53 27 25 22 43 29 22 29
internal_value=0 0.00536607 0.0222624 0.00087719 0.00376481 0.000446649 0.00429061 -8.55593e-05 -0.0056203 0.00723555 0.0189785 -0.00297025 -0.00383632 0.000795664 -0.00239909 -0.000448503 0.00158807 0.021537 -0.0111449 -0.0199353 -0.00833304 -0.00141774 0.0134642 -0.0148299 -0.00333737 0.00562165 -0.0243939 -0.00281446 -0.000384741 -0.00269752
internal_weight=0 424 89 335 299 271 228 200 155 92 45 766 745 456 405 379 354 64 289 43 260 154 73 81 52 47 63 290 261 239
internal_count=1190 424 89 335 299 271 228 200 155 92 45 766 745 456 405 379 354 64 289 43 260 154 73 81 52 47 63 290 261 239
shrinkage=0.1


Tree=17
num_leaves=31
num_cat=0
split_feature=5 2 6 3 11 15 0 7 7 14 1 14 10 3 15 9 13 1 14 14 3 13 4 0 0 7 6 15 0 13
split_gain=1.63781 2.22084 3.20681 2.9726 3.24637 2.53676 1.64347 4.63716 2.74291 2.26849 2.44489 2.17886 2.09253 1.99631 2.93453 1.7349 2.84979 1.70999 1.39743 2.05778 1.97471 2.53224 1.91337 1.76987 1.71419 2.38028 2.33576 1.54763 1.52829 1.39102
threshold=2.5000000000000004 40.500000000000007 5.5000000000000009 23.500000000000004 3.5000000000000004 25.500000000000004 32.500000000000007 15.500000000000002 17.500000000000004 29.500000000000004 1.0000000180025095e-35 5.5000000000000009 2.5000000000000004 20.500000000000004 12.500000000000002 8.5000000000000018 7.5000000000000009 9.5000000000000018 18.500000000000004 6.5000000000000009 5.5000000000000009 4.5000000000000009 1.5000000000000002 22.500000000000004 25.500000000000004 9.5000000000000018 2.5000000000000004 17.500000000000004 19.500000000000004 30.500000000000004
decision_type=2 2 2 2 2 2 2 2 2 2 2 2 2 2 2 2 2 2 2 2 2 2 2 2 2 2 2 2 2 2
left_child=18 2 6 4 -3 -5 8 -8 9 10 -2 -10 15 14 -9 -12 -17 -14 19 20 21 -1 -21 -20 25 26 28 -22 -24 -13
right_child=1 3 -4 5 -6 -7 7 13 11 -11 12 29 17 -15 -16 16 -18 -19 23 22 27 -23 24 -25 -26 -27 -28 -29 -30 -31
leaf_value=0.029280133003538308 -0.016030737032231533 -0.032112532731939536 0.044280460193043665 0.027451618038343662 0.01347347568897974 -0.013879411308853715 0.030613105637686596 -0.015517329300443332 0.040981720139582956 -0.029949493562021562 -0.00032067619062758782 -0.00067309530511979138 -0.021098487117351631 -0.0220772600349258 0.033437091916799548 0.0091364493293146932 0.057553230151534088 0.0089118235014580393 -0.0018368047781479665 -0.020038576976016718 -0.030343148713571983 -0.0080945171777484486 -0.02041905611753464 -0.032161163891616627 0.026211498181025191 -0.016418763163477876 0.039680853486061096 0.0014134521995271957 0.011861181313341315 0.029656241685152053
leaf_weight=22 76 61 21 33 21 27 77 24 24 31 37 62 39 34 25 31 20 37 39 27 57 103 20 38 42 43 23 21 55 20
leaf_count=22 76 61 21 33 21 27 77 24 24 31 37 62 39 34 25 31 20 37 39 27 57 103 20 38 42 43 23 21 55 20
internal_value=0 0.0031039 0.00594533 -0.00806171 -0.0204381 0.00885265 0.00444619 0.0129381 0.000842201 -0.00449241 -0.00120421 0.0144807 0.00566662 -0.00345922 0.00945942 0.016164 0.0281234 -0.0064882 -0.00443414 -0.00212826 -0.00930763 -0.00151658 0.0048118 -0.0168021 0.00847825 0.003196 0.0118025 -0.0217933 0.00325312 0.0067243
internal_weight=0 700 558 142 82 60 537 160 377 271 240 106 164 83 49 88 51 76 490 413 203 125 210 77 183 141 98 78 75 82
internal_count=1190 700 558 142 82 60 537 160 377 271 240 106 164 83 49 88 51 76 490 413 203 125 210 77 183 141 98 78 75 82
shrinkage=0.1


Tree=18
num_leaves=31
num_cat=0
split_feature=12 2 3 6 15 7 13 13 7 10 3 0 0 4 8 13 7 9 12 13 3 7 13 13 1 12 6 1 1 2
split_gain=1.55592 2.03473 2.63619 1.85913 1.76826 1.75394 1.5502 2.59419 3.85325 2.38372 1.85265 2.07084 2.62826 2.36669 2.42988 1.83465 1.69817 1.59481 2.76473 1.50771 2.19264 2.28662 1.82491 1.66533 2.18021 1.82504 1.45232 1.43164 2.09195 1.40819
threshold=1.5000000000000002 35.500000000000007 10.500000000000002 5.5000000000000009 86.500000000000014 21.500000000000004 58.500000000000007 29.500000000000004 37.500000000000007 3.5000000000000004 32.500000000000007 41.500000000000007 38.500000000000007 3.5000000000000004 8.5000000000000018 36.500000000000007 23.500000000000004 11.500000000000002 2.5000000000000004 9.5000000000000018 12.500000000000002 12.500000000000002 4.5000000000000009 7.5000000000000009 11.500000000000002 3.5000000000000004 2.5000000000000004 2.5000000000000004 8.5000000000000018 28.500000000000004
decision_type=2 2 2 2 2 2 2 2 2 2 2 2 2 2 2 2 2 2 2 2 2 2 2 2 2 2 2 2 2 2
left_child=1 5 -3 4 6 27 7 9 15 10 11 12 13 16 -15 -9 19 -11 -19 20 21 23 -22 24 25 -2 -16 -1 -29 -21
right_child=3 2 -4 -5 -6 -7 -8 8 -10 17 -12 -13 -14 14 26 -17 -18 18 -20 29 22 -23 -24 -25 -26 -27 -28 28 -30 -31
leaf_value=0.0035190055993470277 -0.004079669408309154 -0.034786904454231264 0.014371036986509959 0.022798904392027086 0.023683191033510062 -0.0076276242733001711 -0.02026595138013363 0.021159835468078481 0.048527623076612757 -0.029283355949101628 -0.030649877304122566 0.025199394524097442 -0.036473917393457324 -0.0072589851450175049 0.0099857901724485255 -0.011874979957938195 0.01843005222933633 0.022026395214640577 -0.020140468034272396 -0.0045751135148431946 -0.037212693983955041 0.024651504531502725 -0.00042080321850684974 0.017981997951865197 0.025218805411587594 -0.034463182091712952 0.042276546756426496 0.059445048272609713 0.018686561812372767 -0.023802899019076274
leaf_weight=22 195 20 24 31 26 21 48 29 24 54 21 30 21 32 26 40 35 23 48 92 28 40 26 40 23 22 30 20 34 65
leaf_count=22 195 20 24 31 26 21 48 29 24 54 21 30 21 32 26 40 35 23 48 92 28 40 26 40 23 22 30 20 34 65
internal_value=0 0.00986276 -0.00797348 -0.00132569 -0.00206033 0.0179534 -0.00273506 -0.00184366 0.014014 -0.00357663 -0.00138054 -0.000508691 -0.00165127 -0.000533114 0.0147232 0.00200922 -0.00290512 -0.0163315 -0.00648078 -0.00431139 -0.000858955 0.0022864 -0.0194981 -0.000908618 -0.00405705 -0.00716003 0.0272844 0.0250219 0.0337823 -0.0125357
internal_weight=0 141 44 1049 1018 97 992 944 93 851 726 705 675 654 88 69 566 125 71 531 374 320 54 280 240 217 56 76 54 157
internal_count=1190 141 44 1049 1018 97 992 944 93 851 726 705 675 654 88 69 566 125 71 531 374 320 54 280 240 217 56 76 54 157
shrinkage=0.1


Tree=19
num_leaves=31
num_cat=0
split_feature=0 9 10 0 2 13 13 3 15 1 14 9 2 5 15 3 2 15 14 1 0 3 1 15 6 2 7 1 9 4
split_gain=1.50246 1.46701 2.27034 2.49884 3.0457 1.89582 2.73834 2.58391 3.4162 3.32388 2.48719 2.27131 1.72082 1.60077 3.66235 3.00196 4.4052 2.24549 1.76939 1.76078 2.44971 2.14951 4.31498 1.94101 4.69542 1.47735 1.94557 1.45841 1.43972 1.82113
threshold=9.5000000000000018 7.5000000000000009 2.5000000000000004 30.500000000000004 29.500000000000004 58.500000000000007 29.500000000000004 1.5000000000000002 2.5000000000000004 1.5000000000000002 12.500000000000002 33.500000000000007 19.500000000000004 3.5000000000000004 25.500000000000004 19.500000000000004 36.500000000000007 6.5000000000000009 32.500000000000007 2.5000000000000004 15.500000000000002 5.5000000000000009 6.5000000000000009 7.5000000000000009 2.5000000000000004 26.500000000000004 34.500000000000007 10.500000000000002 19.500000000000004 2.5000000000000004
decision_type=2 2 2 2 2 2 2 2 2 2 2 2 2 2 2 2 2 2 2 2 2 2 2 2 2 2 2 2 2 2
left_child=-1 2 3 12 -5 6 7 8 -3 -10 -11 -7 -2 18 15 16 17 -15 19 23 -21 22 -22 24 -9 -8 -27 -17 -23 -30
right_child=1 5 -4 4 -6 11 25 13 9 10 -12 -13 -14 14 -16 27 -18 -19 -20 20 21 28 -24 -25 -26 26 -28 -29 29 -31
leaf_value=-0.014547219310901058 0.015423785952421335 0.048360518336296086 -0.015408856742750339 0.050383652320929943 -0.0034741729497909549 0.007395356118679048 0.041023622949918112 -0.027034067213535309 -0.023738741416197556 0.032622316976388295 -0.0045498610536257433 -0.033735349466060771 -0.0080168818715233483 -0.004975058815696023 -0.01911613627886161 0.01657981869171966 -0.035303333969343278 0.037392233774579807 -0.030831786617636681 0.034805451369001754 0.049647858061573728 0.0010930213753295981 -0.012983689389445566 -0.029386560618877414 0.033021122087603029 -0.0013469948536819884 0.037553174346685411 0.051563267753674438 -0.038740583853079727 -0.0035828901564373692
leaf_weight=67 39 25 123 21 21 25 27 30 26 45 30 29 159 22 39 22 21 29 24 21 22 92 22 44 23 36 20 26 26 34
leaf_count=67 39 25 123 21 21 25 27 30 26 45 30 29 159 22 39 22 21 29 24 21 22 92 22 44 23 36 20 26 26 34
internal_value=0 0.000867911 -0.00436184 0.00129976 0.0234547 0.0033658 0.0047471 0.0024739 0.0152644 0.00707229 0.0177534 -0.0146934 -0.00339978 -0.000768756 0.00750582 0.016158 0.0032438 0.0191161 -0.00466123 -0.00266094 0.00234567 -0.00113216 0.0183321 -0.0138613 -0.000972381 0.0218098 0.0125459 0.0355292 -0.00676655 -0.0188179
internal_weight=0 1123 363 240 42 760 706 623 126 101 75 54 198 497 159 120 72 51 338 314 217 196 44 97 53 83 56 48 152 60
internal_count=1190 1123 363 240 42 760 706 623 126 101 75 54 198 497 159 120 72 51 338 314 217 196 44 97 53 83 56 48 152 60
shrinkage=0.1


Tree=20
num_leaves=31
num_cat=0
split_feature=0 15 13 13 14 13 12 11 3 9 3 10 14 8 7 14 2 1 8 14 3 14 6 12 0 13 7 9 1 7
split_gain=1.21699 1.5409 1.62758 1.89335 1.82448 1.8094 2.02502 1.90079 1.68129 2.85335 2.34546 1.63133 3.27425 2.07536 2.01013 2.02448 1.61998 1.91962 1.78597 1.75421 2.56167 2.30139 1.59723 1.68089 1.54826 1.8737 1.54658 1.32048 1.23603 1.2051
threshold=9.5000000000000018 86.500000000000014 58.500000000000007 29.500000000000004 37.500000000000007 15.500000000000002 1.5000000000000002 1.5000000000000002 12.500000000000002 10.500000000000002 16.500000000000004 1.5000000000000002 9.5000000000000018 4.5000000000000009 5.5000000000000009 4.5000000000000009 16.500000000000004 1.0000000180025095e-35 8.5000000000000018 25.500000000000004 3.5000000000000004 5.5000000000000009 1.5000000000000002 3.5000000000000004 23.500000000000004 6.5000000000000009 9.5000000000000018 33.500000000000007 10.500000000000002 27.500000000000004
decision_type=2 2 2 2 2 2 2 2 2 2 2 2 2 2 2 2 2 2 2 2 2 2 2 2 2 2 2 2 2 2
left_child=-1 2 3 5 -5 6 24 -7 9 11 -10 12 -8 -13 -15 -16 -11 18 -18 20 -19 -22 -12 -24 -2 -26 -23 -4 -17 -9
right_child=1 -3 27 4 -6 7 8 29 10 16 22 13 -14 14 15 28 17 19 -20 -21 21 26 23 -25 25 -27 -28 -29 -30 -31
leaf_value=-0.013092497374806831 0.031457901886991553 0.025329846143722537 -0.0025956197611747252 0.022501036607556875 -0.0088548731207847599 0.01783222881230441 0.036472009619077046 -0.008931178586750195 -0.027034653201699257 -0.014114713939753446 0.022522521796433825 0.020765387833118442 -0.016176365670703709 -0.037619749812976173 -0.032073903525317159 8.4627966086069746e-05 -0.025036735087633134 0.047917448668866547 0.012423371374607087 -0.0023750689167242787 -0.010552743336428768 0.044500993593381 0.0040237896706698077 -0.024463506875669255 -0.012086244970560074 0.023882405832409859 0.0089022946098576416 -0.033484988629817962 -0.026238911449909211 -0.030851073842495681
leaf_weight=67 37 25 31 72 25 22 27 116 50 22 23 25 21 23 27 165 20 37 35 26 23 26 53 34 30 28 23 25 20 32
leaf_count=67 37 25 31 72 25 22 27 116 50 22 23 25 21 23 27 165 20 37 35 26 23 26 53 34 30 28 23 25 20 32
internal_value=0 0.00078112 0.000222178 0.00111472 0.0144196 -0.000250966 0.00179842 -0.00959378 -0.000112181 0.00264602 -0.00907633 -0.00349964 0.0134383 -0.00662665 -0.0095407 -0.00649439 0.0115746 0.0145492 -0.00119849 0.0209649 0.0265322 0.0155426 -0.000913458 -0.00710918 0.0154743 0.00527793 0.0277914 -0.0163855 -0.00276116 -0.0136706
internal_weight=0 1123 1098 1042 97 945 775 170 680 520 160 308 48 260 235 212 212 190 55 135 109 72 110 87 95 58 49 56 185 148
internal_count=1190 1123 1098 1042 97 945 775 170 680 520 160 308 48 260 235 212 212 190 55 135 109 72 110 87 95 58 49 56 185 148
shrinkage=0.1


Tree=21
num_leaves=31
num_cat=0
split_feature=1 15 1 14 7 12 4 10 8 14 2 1 1 15 9 9 12 7 15 15 15 3 0 9 12 7 3 6 0 1
split_gain=1.19774 1.77376 1.63045 1.89455 2.42046 1.76595 2.09176 3.70606 1.64773 1.61553 2.48319 1.58642 1.42283 1.72448 1.39006 2.16696 1.73323 1.94801 1.35116 2.77222 2.50355 2.23163 2.91823 1.95073 1.45021 1.41997 2.01738 1.34869 1.14499 1.13446
threshold=46.500000000000007 86.500000000000014 10.500000000000002 4.5000000000000009 13.500000000000002 3.5000000000000004 2.5000000000000004 3.5000000000000004 9.5000000000000018 7.5000000000000009 21.500000000000004 17.500000000000004 8.5000000000000018 7.5000000000000009 63.500000000000007 44.500000000000007 1.5000000000000002 11.500000000000002 9.5000000000000018 7.5000000000000009 12.500000000000002 12.500000000000002 20.500000000000004 9.5000000000000018 2.5000000000000004 10.500000000000002 2.5000000000000004 2.5000000000000004 22.500000000000004 12.500000000000002
decision_type=2 2 2 2 2 2 2 2 2 2 2 2 2 2 2 2 2 2 2 2 2 2 2 2 2 2 2 2 2 2
left_child=1 2 5 4 11 12 9 8 -8 -7 -11 -4 14 -14 15 16 17 -1 19 21 -20 22 25 -22 -24 26 -18 -21 -25 -5
right_child=-2 -3 3 29 -6 6 7 -9 -10 10 -12 -13 13 -15 -16 -17 18 -19 20 27 23 -23 24 28 -26 -27 -28 -29 -30 -31
leaf_value=0.036088373846021198 -0.022598454356193544 0.027350181837876637 0.025096716210246086 0.01503975703739203 0.039109233284697814 -0.038970975524612837 -0.0054503994435071944 -0.03007805903370564 0.031859705314554017 0.015601796550410135 -0.027894845839057655 -0.012364865151735453 -0.038998302444815641 -0.0021887177654675077 0.027181493788957595 -0.030396441031586043 -0.036196157298982144 -0.0044792970269918447 0.027468072639571295 -0.010944177522774667 -0.029222817048430445 -0.023531486937666643 0.034950169034906338 0.025233363253729685 0.0050834722046194415 0.016888926106114543 -0.002164926694499122 -0.043318529562516646 -0.0077889183447474534 -0.0011776634296880881
leaf_weight=29 23 24 20 52 34 35 20 26 29 21 35 26 20 35 20 22 20 20 45 31 20 34 37 21 29 31 135 22 21 253
leaf_count=29 23 24 20 52 34 35 20 26 29 21 35 26 20 35 20 22 20 20 45 31 20 34 37 21 29 31 135 22 21 253
internal_value=0 0.000445385 -0.000119545 0.00517995 0.018877 -0.00281124 -0.0119263 0.000438586 0.0166311 -0.0221172 -0.0115836 0.00392278 -0.000255318 -0.015574 0.00131364 0.000312946 0.00167781 0.0195301 -0.000283547 -0.00337582 0.00951346 0.000517045 0.00376169 -0.00351811 0.0218269 -0.00264856 -0.00655605 -0.0243826 0.00872222 0.00158727
internal_weight=0 1167 1143 385 80 758 166 75 49 91 56 46 592 55 537 517 495 49 446 339 107 286 252 62 66 186 155 53 42 305
internal_count=1190 1167 1143 385 80 758 166 75 49 91 56 46 592 55 537 517 495 49 446 339 107 286 252 62 66 186 155 53 42 305
shrinkage=0.1


Tree=22
num_leaves=31
num_cat=0
split_feature=2 0 13 7 5 2 2 14 3 3 15 7 11 7 13 13 2 13 2 1 6 7 9 0 15 11 14 8 10 2
split_gain=1.07524 1.68593 1.52249 1.87328 3.8869 1.58405 1.84941 1.86179 1.51522 2.50991 2.15697 1.77075 1.46246 1.78157 3.41958 2.63635 2.2506 2.25634 2.03048 2.1155 2.54974 1.62477 1.83288 1.61232 1.89757 1.95545 1.60001 2.0195 1.86912 1.32839
threshold=40.500000000000007 32.500000000000007 9.5000000000000018 14.500000000000002 3.5000000000000004 34.500000000000007 21.500000000000004 10.500000000000002 1.5000000000000002 21.500000000000004 12.500000000000002 38.500000000000007 4.5000000000000009 11.500000000000002 35.500000000000007 16.500000000000004 22.500000000000004 14.500000000000002 23.500000000000004 8.5000000000000018 2.5000000000000004 15.500000000000002 11.500000000000002 14.500000000000002 1.5000000000000002 2.5000000000000004 9.5000000000000018 9.5000000000000018 1.5000000000000002 35.500000000000007
decision_type=2 2 2 2 2 2 2 2 2 2 2 2 2 2 2 2 2 2 2 2 2 2 2 2 2 2 2 2 2 2
left_child=1 12 5 4 -4 6 -3 -8 -2 -10 -11 -12 13 16 15 18 17 23 19 20 -15 -20 -23 -1 -25 -26 27 -18 -29 -5
right_child=8 2 3 29 -6 -7 7 -9 9 10 11 -13 -14 14 -16 -17 26 -19 21 -21 -22 22 -24 24 25 -27 -28 28 -30 -31
leaf_value=-0.025073602749034765 0.015888950407505036 0.036853024363517763 -0.005525857330979528 -0.00051793384811152582 0.046823645545088728 0.042744776606559759 0.025155809521675111 -0.012932890834230366 -0.022952619921646003 0.027112918160855773 -0.028472046017646791 0.0075633655488491066 -0.019276519283288863 -0.0198041279401098 0.039211724338860353 -0.015866074933294665 -0.019711612480191085 0.029047026767812928 0.041494043233493969 -0.02827841095302416 0.024271517438547954 -0.011705688743487649 0.023129216920245776 0.026046203025456134 0.0025846769535763665 -0.027475839138031005 -0.021902810537020666 0.031206492653914859 -0.003311999935296274 -0.031388231962919233
leaf_weight=24 25 21 37 46 23 21 21 33 81 24 25 30 41 21 29 57 52 29 24 23 35 23 44 29 161 25 83 21 62 20
leaf_count=24 25 21 37 46 23 21 21 33 81 24 25 30 41 21 29 57 52 29 24 23 35 23 44 29 161 25 83 21 62 20
internal_value=0 0.00128968 0.0089817 0.00175316 0.0145415 0.0184692 0.011672 0.00187938 -0.0070061 -0.0105835 0.00209886 -0.00881637 -0.0008912 0.000124701 0.00687617 0.00274519 -0.00343163 0.00270587 0.00898544 -0.00274414 0.00774315 0.0191683 0.011171 -0.000490333 0.00225385 -0.00145571 -0.0109768 -0.00425934 0.00542159 -0.00987257
internal_weight=0 1005 222 126 60 96 75 54 185 160 79 55 783 742 256 227 486 268 170 79 56 91 67 239 215 186 218 135 83 66
internal_count=1190 1005 222 126 60 96 75 54 185 160 79 55 783 742 256 227 486 268 170 79 56 91 67 239 215 186 218 135 83 66
shrinkage=0.1


Tree=23
num_leaves=31
num_cat=0
split_feature=5 2 6 3 11 15 13 4 14 3 8 13 9 12 9 1 10 8 2 1 1 1 11 8 1 13 3 0 14 7
split_gain=1.04168 1.37523 2.12338 1.61954 2.4797 1.4095 1.32106 1.49998 1.64686 1.65034 2.91353 1.45664 1.27373 1.22129 1.75344 1.29572 1.07341 2.53995 2.76145 2.61823 3.10418 2.05147 2.46151 3.15163 1.75884 1.51925 3.40328 2.60315 2.32529 1.4417
threshold=2.5000000000000004 40.500000000000007 5.5000000000000009 23.500000000000004 3.5000000000000004 25.500000000000004 1.0000000180025095e-35 4.5000000000000009 6.5000000000000009 5.5000000000000009 6.5000000000000009 6.5000000000000009 28.500000000000004 1.5000000000000002 9.5000000000000018 3.5000000000000004 2.5000000000000004 5.5000000000000009 24.500000000000004 27.500000000000004 9.5000000000000018 18.500000000000004 2.5000000000000004 16.500000000000004 12.500000000000002 6.5000000000000009 13.500000000000002 19.500000000000004 14.500000000000002 20.500000000000004
decision_type=2 2 2 2 2 2 2 2 2 2 2 2 2 2 2 2 2 2 2 2 2 2 2 2 2 2 2 2 2 2
left_child=6 2 16 4 -3 -5 -1 8 9 10 -8 -12 13 -10 -15 -16 25 -18 21 20 -20 22 23 -19 -22 26 29 -27 -29 -2
right_child=1 3 -4 5 -6 -7 7 -9 12 -11 11 -13 -14 14 15 -17 17 18 19 -21 24 -23 -24 -25 -26 27 -28 28 -30 -31
leaf_value=-0.025037883905073006 0.0020096310063616022 -0.02564951775015378 0.035905619888078603 0.020037620288856101 0.014191649712267378 -0.01077080802233131 0.031376138394293582 -0.023906390120585763 0.029897294803099203 -0.019851861337960606 0.0016978541487141661 -0.023782285604927993 -0.012754991153875987 -0.0024160449535159741 0.0010695533560855048 0.028976299977157172 0.028276131440092018 -0.038157369409288683 -0.0043776418731891016 -0.026697588649888832 0.048518132486126644 0.0098939207196235661 -0.049985218655180047 0.017309657484292983 0.013156332992590392 -0.0052034624763542701 -0.032039405505817672 0.01164822285825556 0.043814945142520101 0.030541361803593844
leaf_weight=27 77 61 21 33 21 27 23 30 22 71 57 37 36 118 28 41 27 21 76 24 22 20 27 20 39 42 26 55 38 23
leaf_count=27 77 61 21 33 21 27 23 30 22 71 57 37 36 118 28 41 27 21 76 24 22 20 27 20 39 42 26 55 38 23
internal_value=0 0.00247538 0.00471135 -0.00631103 -0.0154463 0.00617383 -0.00353626 -0.00228239 -0.000784191 -0.00782446 -0.000525775 -0.00833156 0.00461814 0.00761064 0.00498868 0.0176518 0.00349147 -0.000856252 -0.00401519 0.00377052 0.00910799 -0.0182595 -0.0265399 -0.0111003 0.0259098 0.00808905 0.000191812 0.0154598 0.0247916 0.00857193
internal_weight=0 700 558 142 82 60 490 463 433 188 117 94 245 209 187 69 537 276 249 161 137 88 68 41 61 261 126 135 93 100
internal_count=1190 700 558 142 82 60 490 463 433 188 117 94 245 209 187 69 537 276 249 161 137 88 68 41 61 261 126 135 93 100
shrinkage=0.1


Tree=24
num_leaves=31
num_cat=0
split_feature=2 0 1 15 9 9 7 9 15 7 15 15 0 7 2 14 3 10 8 8 13 13 2 0 14 13 15 7 13 15
split_gain=1.04876 1.73155 1.19728 1.59442 1.39184 2.00216 2.59841 1.90752 1.23338 2.42719 1.99578 1.72629 1.4321 1.11834 1.1692 1.08519 1.43654 1.14172 1.03019 1.31883 1.4704 1.66556 1.96725 1.64944 1.4993 2.996 1.99663 1.69442 1.62816 1.85911
threshold=12.500000000000002 26.500000000000004 46.500000000000007 86.500000000000014 96.000000000000014 54.500000000000007 17.500000000000004 46.500000000000007 57.500000000000007 40.500000000000007 14.500000000000002 28.500000000000004 44.500000000000007 1.0000000180025095e-35 14.500000000000002 31.500000000000004 9.5000000000000018 1.0000000180025095e-35 2.5000000000000004 9.5000000000000018 1.5000000000000002 14.500000000000002 23.500000000000004 20.500000000000004 9.5000000000000018 6.5000000000000009 7.5000000000000009 10.500000000000002 8.5000000000000018 8.5000000000000018
decision_type=2 2 2 2 2 2 2 2 2 2 2 2 2 2 2 2 2 2 2 2 2 2 2 2 2 2 2 2 2 2
left_child=1 -1 3 4 5 7 -7 8 9 12 -11 -12 13 -2 -15 17 -17 -16 -19 -20 -21 24 -23 -24 25 -22 27 -27 29 -26
right_child=2 -3 -4 -5 -6 6 -8 -9 -10 10 11 -13 -14 14 15 16 -18 18 19 20 21 22 23 -25 28 26 -28 -29 -30 -31
leaf_value=-0.0013210385134725861 -0.022817658312618734 0.034421920063702954 -0.023760750889778137 0.025852801359218098 -0.026889932900667192 -0.0023338533712155894 0.038329816808303198 -0.026621590863014091 -0.020224271930994527 -0.006418741600854057 0.050767072832042529 0.010683170386723111 0.023307420637296596 -0.023104605327049891 0.02130234718322754 -0.032633182344337305 -0.00026839126367121934 0.021396158393915923 -0.0054684505872856616 -0.018842064216732981 0.037961947201854654 0.022274182872338733 0.0088872185972487111 -0.019792584925889971 -0.025284964311867955 0.0018522234714549524 -0.011322272951538499 0.041650609597563747 0.021040494795198796 0.0088023616699501872
leaf_weight=33 25 23 22 23 20 33 30 29 31 21 22 21 23 24 25 24 32 21 348 28 45 22 29 65 32 23 37 20 27 32
leaf_count=33 25 23 22 23 20 33 30 29 31 21 22 21 23 24 25 24 32 21 348 28 45 22 29 65 32 23 37 20 27 32
internal_value=0 0.0133591 -0.000659709 -0.000202674 -0.000752973 -0.000263975 0.0170298 -0.00134698 -0.000596766 4.64187e-05 0.0188504 0.0311912 -0.00131805 -0.0019774 -0.00135269 -0.000708192 -0.014139 0.000289323 -0.000431288 -0.00107871 0.0031647 0.00502069 -0.00464445 -0.0109446 0.0102112 0.0173198 0.00570862 0.0203631 0.000446704 -0.0082413
internal_weight=0 56 1134 1112 1089 1069 63 1006 977 946 64 43 882 859 834 810 56 754 729 708 360 332 116 94 216 125 80 43 91 64
internal_count=1190 56 1134 1112 1089 1069 63 1006 977 946 64 43 882 859 834 810 56 754 729 708 360 332 116 94 216 125 80 43 91 64
shrinkage=0.1


end of trees

feature_importances:
Column_2=85
Column_14=72
Column_0=69
Column_13=68
Column_1=67
Column_7=58
Column_15=57
Column_9=55
Column_3=50
Column_10=38
Column_8=33
Column_6=29
Column_12=28
Column_11=17
Column_4=16
Column_5=8

parameters:
[boosting: gbdt]
[objective: regression]
[metric: l2]
[tree_learner: serial]
[device_type: cpu]
[data: ]
[valid: ]
[num_iterations: 10000]
[learning_rate: 0.1]
[num_leaves: 31]
[num_threads: 0]
[deterministic: 0]
[force_col_wise: 0]
[force_row_wise: 0]
[histogram_pool_size: -1]
[max_depth: -1]
[min_data_in_leaf: 20]
[min_sum_hessian_in_leaf: 0.001]
[bagging_fraction: 1]
[pos_bagging_fraction: 1]
[neg_bagging_fraction: 1]
[bagging_freq: 0]
[bagging_seed: 3]
[feature_fraction: 1]
[feature_fraction_bynode: 1]
[feature_fraction_seed: 2]
[extra_trees: 0]
[extra_seed: 6]
[early_stopping_round: 10]
[first_metric_only: 0]
[max_delta_step: 0]
[lambda_l1: 0]
[lambda_l2: 0]
[min_gain_to_split: 0]
[drop_rate: 0.1]
[max_drop: 50]
[skip_drop: 0.5]
[xgboost_dart_mode: 0]
[uniform_drop: 0]
[drop_seed: 4]
[top_rate: 0.2]
[other_rate: 0.1]
[min_data_per_group: 100]
[max_cat_threshold: 32]
[cat_l2: 10]
[cat_smooth: 10]
[max_cat_to_onehot: 4]
[top_k: 20]
[monotone_constraints: ]
[monotone_constraints_method: basic]
[monotone_penalty: 0]
[feature_contri: ]
[forcedsplits_filename: ]
[refit_decay_rate: 0.9]
[cegb_tradeoff: 1]
[cegb_penalty_split: 0]
[cegb_penalty_feature_lazy: ]
[cegb_penalty_feature_coupled: ]
[path_smooth: 0]
[interaction_constraints: ]
[verbosity: 1]
[saved_feature_importance_type: 0]
[max_bin: 255]
[max_bin_by_feature: ]
[min_data_in_bin: 3]
[bin_construct_sample_cnt: 200000]
[data_random_seed: 1]
[is_enable_sparse: 1]
[enable_bundle: 1]
[use_missing: 1]
[zero_as_missing: 0]
[feature_pre_filter: 1]
[pre_partition: 0]
[two_round: 0]
[header: 0]
[label_column: ]
[weight_column: ]
[group_column: ]
[ignore_column: ]
[categorical_feature: ]
[forcedbins_filename: ]
[objective_seed: 5]
[num_class: 1]
[is_unbalance: 0]
[scale_pos_weight: 1]
[sigmoid: 1]
[boost_from_average: 1]
[reg_sqrt: 0]
[alpha: 0.9]
[fair_c: 1]
[poisson_max_delta_step: 0.7]
[tweedie_variance_power: 1.5]
[lambdarank_truncation_level: 30]
[lambdarank_norm: 1]
[label_gain: ]
[eval_at: ]
[multi_error_top_k: 1]
[auc_mu_weights: ]
[num_machines: 1]
[local_listen_port: 12400]
[time_out: 120]
[machine_list_filename: ]
[machines: ]
[gpu_platform_id: -1]
[gpu_device_id: -1]
[gpu_use_dp: 0]
[num_gpu: 1]

end of parameters

pandas_categorical:null
