tree
version=v3
num_class=1
num_tree_per_iteration=1
label_index=0
max_feature_idx=15
objective=regression
feature_names=Column_0 Column_1 Column_2 Column_3 Column_4 Column_5 Column_6 Column_7 Column_8 Column_9 Column_10 Column_11 Column_12 Column_13 Column_14 Column_15
feature_infos=[1:49] [0:72] [1:49] [0:96] [0:8] [0:8] [0:8] [0:242] [0:224] [0:250] [0:9] [0:8] [0:8] [0:198] [0:192] [0:245]
tree_sizes=2738 2742 2787 2787 2766 2777 2769 2775 2793 2784 2763 2771 2778 2776 2770 2761 2787 2783 2765 2778 2753 2787

Tree=0
num_leaves=31
num_cat=0
split_feature=0 2 2 0 2 1 4 12 2 10 7 6 2 14 3 9 4 7 9 15 15 13 1 3 9 11 14 13 6 15
split_gain=142.13 63.0191 41.1979 31.6919 17.4809 16.5397 15.0948 13.9074 10.0608 10.0134 8.49968 7.36597 7.14887 6.9161 6.83912 11.6695 6.57003 7.95581 6.50079 6.38235 6.25353 9.14196 6.23772 6.64293 6.19511 5.64734 5.76 5.62646 5.54099 5.51173
threshold=31.500000000000004 28.500000000000004 22.500000000000004 19.500000000000004 42.500000000000007 5.5000000000000009 1.5000000000000002 4.5000000000000009 10.500000000000002 1.5000000000000002 13.500000000000002 1.0000000180025095e-35 37.500000000000007 48.500000000000007 6.5000000000000009 12.500000000000002 1.5000000000000002 39.500000000000007 6.5000000000000009 29.500000000000004 24.500000000000004 13.500000000000002 5.5000000000000009 22.500000000000004 6.5000000000000009 1.5000000000000002 9.5000000000000018 2.5000000000000004 2.5000000000000004 22.500000000000004
decision_type=2 2 2 2 2 2 2 2 2 2 2 2 2 2 2 2 2 2 2 2 2 2 2 2 2 2 2 2 2 2
left_child=1 3 6 10 5 16 8 11 -2 24 14 -5 28 29 15 -1 -4 -18 -6 -12 -9 -22 23 -13 -3 26 -16 -26 -11 -7
right_child=2 9 4 7 18 13 -8 20 -10 12 19 22 -14 -15 25 -17 17 -19 -20 -21 21 -23 -24 -25 27 -27 -28 -29 -30 -31
leaf_value=-0.19944178997739984 -0.11135495377630443 -0.21303799782608041 -0.19968256723092537 -0.19317313342704462 -0.23122191290690103 -0.16184960484507008 -0.11871205756866246 -0.22745884680449766 -0.17536063391443676 -0.21520053013645193 -0.17514738283160258 -0.16705681141720236 -0.22428941170023528 -0.1147115970440271 -0.14517313469861037 -0.14360791734877013 -0.15579608523687041 -0.21252797162399392 -0.18489727157731459 -0.22650646587734619 -0.21593175351380225 -0.13044586236147715 -0.15224661694410285 -0.21203027578464378 -0.1431731347515923 -0.21490965980625396 -0.21717313279126177 -0.18987643021767414 -0.19566275991710863 -0.13797313488934523
leaf_weight=201 33 74 106 93 41 272 334 56 96 365 233 533 430 52 25 46 122 31 116 27 29 22 313 35 36 334 20 91 241 150
leaf_count=201 33 74 106 93 41 272 334 56 96 365 233 533 430 52 25 46 122 31 116 27 29 22 313 35 36 334 20 91 241 150
internal_value=-0.181303 -0.19278 -0.154127 -0.181658 -0.166712 -0.160226 -0.129933 -0.170167 -0.158987 -0.210465 -0.195679 -0.166407 -0.214428 -0.149123 -0.201991 -0.189044 -0.180548 -0.167291 -0.196995 -0.180481 -0.204388 -0.179055 -0.163582 -0.169828 -0.190039 -0.210429 -0.177173 -0.176638 -0.207431 -0.153363
internal_weight=0 3204 1353 1967 890 733 463 1081 129 1237 886 974 1036 474 626 247 259 153 157 260 107 51 881 568 201 379 45 127 606 422
internal_count=4557 3204 1353 1967 890 733 463 1081 129 1237 886 974 1036 474 626 247 259 153 157 260 107 51 881 568 201 379 45 127 606 422
shrinkage=1


Tree=1
num_leaves=31
num_cat=0
split_feature=0 2 2 0 1 2 12 4 14 0 8 5 2 3 9 3 0 2 2 0 7 5 0 5 13 15 1 11 9 1
split_gain=115.125 51.0455 34.2077 25.6704 16.757 12.166 11.265 10.1335 8.52812 7.56976 7.20921 8.0366 7.17586 7.10079 8.61888 6.56202 8.65542 9.61472 6.40644 6.3161 6.2436 6.16944 5.92521 5.89691 5.63123 5.60875 5.59723 5.51409 5.46981 5.46456
threshold=31.500000000000004 28.500000000000004 25.500000000000004 19.500000000000004 5.5000000000000009 43.500000000000007 4.5000000000000009 1.5000000000000002 5.5000000000000009 27.500000000000004 31.500000000000004 2.5000000000000004 10.500000000000002 6.5000000000000009 12.500000000000002 6.5000000000000009 27.500000000000004 23.500000000000004 11.500000000000002 47.500000000000007 12.500000000000002 2.5000000000000004 37.500000000000007 1.5000000000000002 1.5000000000000002 15.500000000000002 1.5000000000000002 1.5000000000000002 15.500000000000002 8.5000000000000018
decision_type=2 2 2 2 2 2 2 2 2 2 2 2 2 2 2 2 2 2 2 2 2 2 2 2 2 2 2 2 2 2
left_child=1 3 7 13 10 19 15 12 9 24 11 -4 -2 14 20 16 17 18 -5 -6 -1 -16 -9 -17 -3 -26 -14 -15 -28 -8
right_child=2 8 4 6 5 -7 29 22 -10 -11 -12 -13 26 27 21 23 -18 -19 -20 -21 -22 -23 -24 -25 25 -27 28 -29 -30 -31
leaf_value=-0.018353692267803437 0.062953675154483676 0.02554716193675995 -0.029777045662586505 0.078873596787452704 0.024345507099246728 -0.011078167084566097 -0.032601389146986459 0.035986357851021264 -0.031953513480368116 0.01793000505816552 -0.054254951079686489 0.010329125875191724 -0.020946336862368464 0.0064516923796962685 -0.012166114151477815 -0.042633408308029176 0.05694603448913943 -0.016846432941300529 0.020414358417325994 0.06709956762037779 0.016816978264546048 0.055856527090072633 0.060187863193193462 0.0081132161772561693 -0.01450788233961378 -0.04328214353322983 0.04746944655974706 -0.023336837886567097 -0.0019459109575975511 0.022411707173223081
leaf_weight=188 33 25 78 20 381 97 84 166 840 62 33 139 39 71 20 24 62 70 299 38 69 40 259 499 210 100 48 498 42 23
leaf_count=188 33 25 78 20 381 97 84 166 840 62 33 139 39 71 20 24 62 70 299 38 69 40 259 499 210 100 48 498 42 23
internal_value=0 -0.0103288 0.0244592 -0.000319189 0.0105399 0.020835 0.0100231 0.0426231 -0.0262453 -0.0141676 -0.0107091 -0.00408692 0.0213418 -0.0129378 -0.000943798 0.0134066 0.0222456 0.0167149 0.0240795 0.028223 -0.00891098 0.0331823 0.050735 0.0057845 -0.020108 -0.0237899 0.0106969 -0.0196198 0.0244089 -0.0207761
internal_weight=0 3204 1353 1967 766 516 1081 587 1237 397 250 217 162 886 317 974 451 389 319 419 257 60 425 523 335 310 129 569 90 107
internal_count=4557 3204 1353 1967 766 516 1081 587 1237 397 250 217 162 886 317 974 451 389 319 419 257 60 425 523 335 310 129 569 90 107
shrinkage=0.1


Tree=2
num_leaves=31
num_cat=0
split_feature=0 2 0 2 9 1 3 5 2 10 2 9 11 15 9 7 1 5 9 7 1 0 0 1 15 2 12 0 4 7
split_gain=93.7986 49.0715 27.2441 19.3236 11.8178 12.4635 8.68779 9.13329 8.49392 8.05876 7.84919 7.35843 7.15218 6.89062 6.78288 7.10926 7.41732 6.60743 6.34888 6.50628 8.58693 6.95494 6.21474 6.19545 5.97317 5.84926 5.61212 6.13617 5.49334 6.67939
threshold=35.500000000000007 31.500000000000004 19.500000000000004 38.500000000000007 3.5000000000000004 4.5000000000000009 11.500000000000002 1.5000000000000002 21.500000000000004 1.0000000180025095e-35 19.500000000000004 6.5000000000000009 1.5000000000000002 11.500000000000002 16.500000000000004 14.500000000000002 1.0000000180025095e-35 1.5000000000000002 3.5000000000000004 13.500000000000002 11.500000000000002 9.5000000000000018 47.500000000000007 11.500000000000002 30.500000000000004 18.500000000000004 2.5000000000000004 20.500000000000004 1.0000000180025095e-35 36.500000000000007
decision_type=2 2 2 2 2 2 2 2 2 2 2 2 2 2 2 2 2 2 2 2 2 2 2 2 2 2 2 2 2 2
left_child=1 2 6 8 10 17 7 -1 -2 -3 -4 -11 -13 -5 -8 -16 -17 -6 -9 20 -20 -21 28 -14 25 -7 27 -19 -10 -30
right_child=3 9 4 13 5 24 14 18 22 11 -12 12 23 -15 15 16 -18 26 19 21 -22 -23 -24 -25 -26 -27 -28 -29 29 -31
leaf_value=-0.06807896778697059 0.047324479364213495 0.022032775027411328 0.01531521178343717 -0.022006639474775734 -0.047200221740282503 0.036118648122800023 -0.031106563049261689 -0.023916880351801714 -0.011938995690572829 -0.038476724120932566 -0.025817598177962111 0.022599208354949954 -0.028630049901433516 0.014849982987669178 -0.020452449800538237 -0.0075323174680982322 0.064646537601947787 -0.029513796091079715 -0.0073115146533952778 -0.012489992777506511 0.052703988322844876 0.045579706719427404 0.063620583564043043 -0.0062074828367291793 0.052738465034756168 0.013448340940817566 -0.0035017442119224616 0.023187467581347418 0.032728313176047727 -0.0011666042109330496
leaf_weight=21 315 35 68 82 26 152 305 96 42 355 146 36 505 133 122 35 24 25 287 30 26 66 40 163 58 453 347 190 302 72
leaf_count=21 315 35 68 82 26 152 305 96 42 355 146 36 505 133 122 35 24 25 287 30 26 66 40 163 58 453 347 190 302 72
internal_value=0 -0.0075388 0.000251699 0.0273033 0.00896825 0.012683 -0.0123666 -0.00346049 0.0346959 -0.0251778 -0.0127474 -0.0267381 -0.0208188 0.000793039 -0.0220058 -0.00667024 0.0218286 0.00208412 -0.000773387 0.00465883 -0.0023262 0.0274329 0.0259722 -0.0231587 0.0220829 0.019144 0.00436418 0.0170594 0.0223522 0.0262031
internal_weight=0 3571 2477 986 1465 1251 1012 526 771 1094 214 1059 704 215 486 181 59 588 505 409 313 96 456 668 663 605 562 215 416 374
internal_count=4557 3571 2477 986 1465 1251 1012 526 771 1094 214 1059 704 215 486 181 59 588 505 409 313 96 456 668 663 605 562 215 416 374
shrinkage=0.1


Tree=3
num_leaves=31
num_cat=0
split_feature=0 2 2 0 0 0 3 6 12 3 7 10 9 3 2 14 4 13 9 1 11 4 12 15 3 2 1 15 5 2
split_gain=77.9268 36.5372 23.8824 15.9239 10.882 9.61092 10.4521 9.0337 9.96291 8.04047 7.29992 7.01684 8.84185 7.46173 6.81802 6.23755 6.14585 5.76067 7.19608 6.15613 7.06972 5.64226 6.11985 5.42827 5.16801 5.10047 5.98305 4.96963 5.77442 4.62517
threshold=29.500000000000004 28.500000000000004 29.500000000000004 18.500000000000004 37.500000000000007 42.500000000000007 3.5000000000000004 1.5000000000000002 1.5000000000000002 12.500000000000002 13.500000000000002 2.5000000000000004 5.5000000000000009 14.500000000000002 40.500000000000007 2.5000000000000004 1.0000000180025095e-35 12.500000000000002 3.5000000000000004 4.5000000000000009 3.5000000000000004 4.5000000000000009 4.5000000000000009 11.500000000000002 26.500000000000004 14.500000000000002 1.0000000180025095e-35 29.500000000000004 2.5000000000000004 39.500000000000007
decision_type=2 2 2 2 2 2 2 2 2 2 2 2 2 2 2 2 2 2 2 2 2 2 2 2 2 2 2 2 2 2
left_child=1 3 4 10 15 6 -4 -5 -9 -8 17 12 -3 -14 -7 -2 -6 18 -1 -20 -21 22 24 -16 25 26 -10 28 -12 -13
right_child=2 11 5 7 16 14 9 8 21 -11 27 29 13 -15 23 -17 -18 -19 19 20 -22 -23 -24 -25 -26 -27 -28 -29 -30 -31
leaf_value=-0.043227808556314244 0.060692885421937515 -0.033838137132780895 0.044264553274427146 -0.0133224395605234 0.002747667729854584 0.039776882694827188 -0.031929677724838255 0.05493949761196059 0.0014399268125232898 -0.00027236452608397514 -0.0093160821396170313 -0.024570012898836736 0.0074601332086543142 -0.021525532868971312 -0.026227623067404095 0.014019027901689213 0.043812987703557425 -0.033434291609695986 -0.01651115466630896 0.022558311451049081 -0.041001405034746446 0.057457031633542932 -0.020415435670173333 0.022739963446344651 -0.027112433976597256 0.0083837138835564026 0.051833346389955098 -0.041181113668110059 0.023560062829438632 -0.042966831986810644
leaf_weight=59 31 168 42 182 40 108 106 49 38 330 103 414 191 166 38 375 410 168 191 105 21 23 73 56 36 634 62 23 111 204
leaf_count=59 31 168 42 182 40 108 106 49 38 330 103 414 191 166 38 375 410 168 191 105 21 23 73 56 36 634 62 23 111 204
internal_value=0 -0.00932447 0.0183393 -0.00074486 0.0294531 0.00434908 -0.00337932 0.00702475 0.0110719 -0.00796887 -0.0116581 -0.0234212 -0.0149203 -0.0060178 0.0226371 0.0175828 0.0401627 -0.0180394 -0.0111608 -0.00519255 0.011965 0.00858983 0.00725657 0.00294456 0.00988002 0.0116944 0.0326838 0.00298922 0.0077365 -0.0306427
internal_weight=0 3021 1536 1878 856 680 478 1097 915 436 781 1143 525 357 202 406 450 544 376 317 126 866 843 94 770 734 100 237 214 618
internal_count=4557 3021 1536 1878 856 680 478 1097 915 436 781 1143 525 357 202 406 450 544 376 317 126 866 843 94 770 734 100 237 214 618
shrinkage=0.1


Tree=4
num_leaves=31
num_cat=0
split_feature=0 2 2 0 2 0 4 5 3 12 15 4 7 10 3 1 5 4 7 3 9 13 4 5 0 9 11 14 2 6
split_gain=63.1207 29.5951 19.9275 12.8984 9.28976 8.70686 8.53145 7.93357 7.79301 7.50862 7.04134 6.98265 6.25283 6.06431 6.02319 6.44686 5.69859 5.84075 5.49708 5.55467 4.81948 5.67621 4.74375 6.41726 5.55 4.62961 6.7232 4.88605 4.45283 4.23562
threshold=29.500000000000004 28.500000000000004 22.500000000000004 18.500000000000004 42.500000000000007 41.500000000000007 1.5000000000000002 2.5000000000000004 4.5000000000000009 4.5000000000000009 30.500000000000004 2.5000000000000004 2.5000000000000004 1.5000000000000002 26.500000000000004 16.500000000000004 2.5000000000000004 4.5000000000000009 33.500000000000007 25.500000000000004 6.5000000000000009 6.5000000000000009 4.5000000000000009 1.5000000000000002 38.500000000000007 6.5000000000000009 2.5000000000000004 9.5000000000000018 37.500000000000007 1.0000000180025095e-35
decision_type=2 2 2 2 2 2 2 2 2 2 2 2 2 2 2 2 2 2 2 2 2 2 2 2 2 2 2 2 2 2
left_child=1 3 6 12 5 7 8 25 -2 14 18 -12 -1 -3 15 29 -14 -18 19 -9 -6 -22 23 -8 -25 -4 27 -27 -15 -5
right_child=2 13 4 9 20 -7 22 10 -10 -11 11 -13 16 28 -16 -17 17 -19 -20 -21 21 -23 -24 24 -26 26 -28 -29 -30 -31
leaf_value=-0.034829229436894898 0.057511400580406193 -0.0043958978737638297 -0.038647132317225136 -0.011425384387865173 -0.038628337502479557 0.028329679947125583 -0.0029932494163513183 0.018648478214939434 0.00033200703047472858 -0.018843046638453119 0.01247665373942791 0.073550793362988365 -0.016849038299219108 -0.018552491459863405 -0.024426897717457194 0.048230263997207992 -0.00167052945945152 0.053918737471103678 -0.025070530988953333 -0.022042047213285398 0.044204457781531592 -0.011568124829051651 0.014649269606728674 0.036700955188728325 0.06466036403635099 0.064035737243565649 -0.016054742009032005 -0.0026115664026953958 -0.032387086229793957 0.011337176639938829
leaf_weight=93 30 183 45 91 50 253 25 240 116 107 39 36 324 564 51 44 344 20 44 39 22 107 59 151 134 22 102 22 396 804
leaf_count=93 30 183 45 91 50 253 25 240 116 107 39 36 324 564 51 44 344 20 44 39 22 107 59 151 134 22 102 22 396 804
internal_value=0 -0.00839202 0.0165054 -0.000670373 0.0084159 0.0128139 0.032543 0.0061493 0.0120812 0.00632227 0.0141892 0.0417922 -0.0104923 -0.021079 0.00904216 0.01086 -0.00720258 0.00138383 0.00777985 0.0129606 -0.0122721 -0.00205652 0.040639 0.0455855 0.0498468 -0.010604 -0.00196063 0.0307121 -0.0242593 0.00902277
internal_weight=0 3021 1536 1878 1021 842 515 589 146 1097 398 75 781 1143 990 939 688 364 323 279 179 129 369 310 285 191 146 44 960 895
internal_count=4557 3021 1536 1878 1021 842 515 589 146 1097 398 75 781 1143 990 939 688 364 323 279 179 129 369 310 285 191 146 44 960 895
shrinkage=0.1


Tree=5
num_leaves=31
num_cat=0
split_feature=0 2 0 2 9 1 3 5 8 2 10 3 9 9 3 4 1 3 4 9 11 7 1 9 8 15 15 3 6 0
split_gain=51.3392 27.3778 15.0569 11.0865 7.9889 8.78574 6.49357 6.89425 6.02147 5.74866 5.52222 5.36963 6.42557 5.27776 5.19687 6.98565 7.62901 6.62522 5.14304 5.06686 5.87842 5.01339 5.83875 4.97792 5.8465 4.93048 4.82293 4.80556 4.64367 5.67036
threshold=35.500000000000007 31.500000000000004 19.500000000000004 38.500000000000007 3.5000000000000004 4.5000000000000009 11.500000000000002 1.5000000000000002 3.5000000000000004 19.500000000000004 1.0000000180025095e-35 5.5000000000000009 12.500000000000002 16.500000000000004 4.5000000000000009 1.5000000000000002 18.500000000000004 22.500000000000004 2.5000000000000004 6.5000000000000009 1.5000000000000002 14.500000000000002 1.0000000180025095e-35 18.500000000000004 10.500000000000002 5.5000000000000009 11.500000000000002 1.0000000180025095e-35 4.5000000000000009 39.500000000000007
decision_type=2 2 2 2 2 2 2 2 2 2 2 2 2 2 2 2 2 2 2 2 2 2 2 2 2 2 2 2 2 2
left_child=1 2 6 8 9 11 7 -1 -2 18 -3 12 25 -8 -10 16 -16 -17 -4 -12 -21 -15 -23 -9 -25 -6 -5 -7 29 -19
right_child=3 10 4 26 5 27 13 23 14 -11 19 -13 -14 21 15 17 -18 28 -20 20 -22 22 -24 24 -26 -27 -28 -29 -30 -31
leaf_value=-0.057581075884047012 -0.004900915945990611 0.020328085763113842 -0.0048689930389324825 -0.018955197276138678 0.027810532097913784 0.042447573116847451 -0.025500253605060891 -0.0026109258024092506 0.050248930246589031 -0.022318239571297006 -0.029785011788489114 -0.0046650952371683988 0.05101504863762274 -0.015518686957046635 -0.0031676964027675123 0.039914640619419517 0.061898199717203777 -0.021580658720599281 0.055488180518150333 0.024229993091689217 -0.017253660294645562 -0.0060627646105630064 0.05797649895151457 -0.0096948089806929896 0.055983366568883267 -0.015274309289866481 0.011879676266720422 0.01474294747346871 0.051648380633058225 0.021439597072700659
leaf_weight=21 59 35 48 82 49 70 305 449 94 146 355 440 41 122 127 300 21 45 20 36 668 35 24 23 33 58 133 593 29 96
leaf_count=21 59 35 48 82 49 70 305 449 94 146 355 440 41 122 127 300 21 45 20 36 668 35 24 23 33 58 133 593 29 96
internal_value=0 -0.00557736 0.000241668 0.0201995 0.00672168 0.00977592 -0.00913899 -0.00143924 0.0257991 -0.0111328 -0.0187526 0.000877179 0.0173542 -0.0174725 0.028343 0.0250111 0.00606463 0.0309772 0.0128831 -0.0200442 -0.0151323 -0.00394498 0.0199871 0.000895376 0.0290084 0.00445613 0.000119399 0.017668 0.0152051 0.00770973
internal_weight=0 3571 2477 986 1465 1251 1012 526 771 214 1094 588 148 486 712 618 148 470 68 1059 704 181 59 505 56 107 215 663 170 141
internal_count=4557 3571 2477 986 1465 1251 1012 526 771 214 1094 588 148 486 712 618 148 470 68 1059 704 181 59 505 56 107 215 663 170 141
shrinkage=0.1


Tree=6
num_leaves=31
num_cat=0
split_feature=0 2 2 12 2 1 14 4 0 4 0 8 8 0 10 14 14 13 15 8 14 5 11 13 9 12 0 2 13 3
split_gain=42.924 20.241 14.1389 10.3758 9.89328 9.13111 8.97749 6.65914 5.32746 5.5673 5.25129 5.22319 5.09001 5.16758 5.35134 4.97858 7.55693 5.71296 6.02287 5.37574 4.94303 4.75415 4.63428 5.01252 4.58144 5.29098 6.19158 4.46297 5.32084 4.3601
threshold=29.500000000000004 28.500000000000004 25.500000000000004 2.5000000000000004 23.500000000000004 5.5000000000000009 8.5000000000000018 4.5000000000000009 21.500000000000004 2.5000000000000004 38.500000000000007 31.500000000000004 6.5000000000000009 23.500000000000004 2.5000000000000004 47.500000000000007 27.500000000000004 26.500000000000004 22.500000000000004 16.500000000000004 4.5000000000000009 2.5000000000000004 1.5000000000000002 6.5000000000000009 16.500000000000004 4.5000000000000009 20.500000000000004 43.500000000000007 7.5000000000000009 6.5000000000000009
decision_type=2 2 2 2 2 2 2 2 2 2 2 2 2 2 2 2 2 2 2 2 2 2 2 2 2 2 2 2 2 2
left_child=1 3 10 4 8 11 -5 24 29 -10 15 21 -6 14 -14 16 17 19 -19 -2 22 -4 -3 -24 -8 26 -26 -7 -29 -1
right_child=2 20 5 6 12 27 7 -9 9 -11 -12 -13 13 -15 -16 -17 -18 18 -20 -21 -22 -23 23 -25 25 -27 -28 28 -30 -31
leaf_value=0.015367403498577207 0.037635920329453197 0.028982027642654652 -0.022210265177747476 0.0045671510407224178 0.022413355774349636 0.016841896089388502 -0.023163213212894281 0.035342429637908936 0.015843844366073608 0.053554640422787583 0.034241936849309255 -0.044008438812719812 -0.048736329932711021 0.009851677650990695 -0.0077976433957209351 0.051508311430613199 -0.018700728896591398 -0.034298449053483851 0.034859820147976277 -0.00094057420889536543 -0.021326716011169398 0.0059815191560321388 0.010182475224137308 -0.019751692747557035 -0.011304684908766495 -0.044403477289058552 0.031889990965525312 0.03583732520540555 -0.017552276949087779 -0.0034615697204202845
leaf_weight=303 146 33 92 371 36 473 407 25 125 57 308 37 67 46 61 36 63 34 20 48 844 171 80 186 95 27 51 24 84 207
leaf_count=303 146 33 92 371 36 473 407 25 125 57 308 37 67 46 61 36 63 34 20 48 844 171 80 186 95 27 51 24 84 207
internal_value=0 -0.0069204 0.013611 -0.000534591 0.00719727 0.00533837 -0.00768023 -0.0151906 0.0129666 0.0276544 0.024738 -0.00882939 -0.011814 -0.0188955 -0.0292265 0.0163023 0.012227 0.0200837 -0.00868428 0.0280912 -0.0174126 -0.00388025 -0.00636391 -0.0107489 -0.0173688 -0.0037367 0.00378387 0.0126539 -0.00568792 0.00772506
internal_weight=0 3021 1536 1878 902 881 976 605 692 182 655 300 210 174 128 347 311 248 54 194 1143 263 299 266 580 173 146 581 108 510
internal_count=4557 3021 1536 1878 902 881 976 605 692 182 655 300 210 174 128 347 311 248 54 194 1143 263 299 266 580 173 146 581 108 510
shrinkage=0.1


Tree=7
num_leaves=31
num_cat=0
split_feature=0 2 2 11 11 0 3 3 1 9 7 5 12 2 4 2 14 0 3 5 7 2 7 15 10 8 9 2 14 6
split_gain=34.7685 16.5983 11.8882 9.11207 7.1301 7.05305 7.82263 6.46433 7.34805 6.69096 6.45582 6.63719 6.41629 6.18998 6.18659 5.59469 5.51266 5.35402 5.28273 4.96898 4.83397 4.72926 4.53626 4.4482 4.37383 4.36912 4.3401 4.33763 5.04187 4.27857
threshold=29.500000000000004 30.500000000000004 22.500000000000004 2.5000000000000004 2.5000000000000004 44.500000000000007 3.5000000000000004 3.5000000000000004 4.5000000000000009 2.5000000000000004 5.5000000000000009 3.5000000000000004 2.5000000000000004 26.500000000000004 1.5000000000000002 25.500000000000004 2.5000000000000004 15.500000000000002 9.5000000000000018 2.5000000000000004 25.500000000000004 18.500000000000004 4.5000000000000009 51.500000000000007 1.5000000000000002 28.500000000000004 5.5000000000000009 43.500000000000007 36.500000000000007 2.5000000000000004
decision_type=2 2 2 2 2 2 2 2 2 2 2 2 2 2 2 2 2 2 2 2 2 2 2 2 2 2 2 2 2 2
left_child=1 3 14 7 16 6 -6 -1 15 -10 26 12 13 29 18 20 -4 -13 19 -2 -9 -11 -7 -18 -3 -23 -5 28 -8 -12
right_child=2 24 4 10 5 22 27 8 9 21 11 17 -14 -15 -16 -17 23 -19 -20 -21 -22 25 -24 -25 -26 -27 -28 -29 -30 -31
leaf_value=0.022169942887205828 -0.0065142279085905657 -0.0018182123332847783 0.045669977543717724 -0.041621189329722162 0.030168919371707098 -0.02359301050504049 -0.011170579585028284 -0.016896308896640618 -0.026940314871508903 0.035429412716037625 -2.1114469279904339e-05 -0.011822292937172784 -0.018836407596940427 -0.029610065340995792 0.031531282202630913 0.014524428690633468 0.0082162170667274322 0.029980715053776905 -0.0086757334512333542 0.052675247997850984 0.023908773250877858 0.013606325696837084 0.026579790603457477 0.054133950368217804 -0.019785226215630915 -0.02622183253688197 -0.013367083654717102 -0.032527014008466748 0.015942855795909618 0.028170398141764388
leaf_weight=190 23 162 59 73 56 21 324 313 41 91 169 45 268 50 369 93 255 96 86 37 32 247 127 23 828 31 213 69 87 79
leaf_count=190 23 162 59 73 56 21 324 313 41 91 169 45 268 50 369 93 255 96 86 37 32 247 127 23 828 31 213 69 87 79
internal_value=0 -0.00622836 0.0122499 -0.00105325 0.00600174 0.000136018 -0.0051999 0.00549808 0.00176264 0.0113839 -0.00790147 -0.00277316 -0.00760913 0.00248789 0.0246371 -0.00724359 0.0179073 0.0166393 0.00721263 0.0299859 -0.0131115 0.0156422 0.0194607 0.0120152 -0.0168452 0.00916506 -0.0205788 -0.00932626 -0.00543124 0.00895925
internal_weight=0 3021 1536 2031 1021 684 536 1038 848 410 993 707 566 298 515 438 337 141 146 60 345 369 148 278 990 278 286 480 411 248
internal_count=4557 3021 1536 2031 1021 684 536 1038 848 410 993 707 566 298 515 438 337 141 146 60 345 369 148 278 990 278 286 480 411 248
shrinkage=0.1


Tree=8
num_leaves=31
num_cat=0
split_feature=0 11 6 2 3 1 2 5 7 2 9 2 5 5 3 8 8 13 2 13 0 7 1 12 14 13 5 7 9 14
split_gain=29.1342 16.4703 10.6533 7.98155 7.10095 8.14872 6.88307 7.65685 7.36058 6.86974 5.40485 7.71947 5.54203 4.94833 5.49963 6.13432 4.93619 4.78944 6.05303 4.82725 9.23533 4.87654 4.75138 4.5632 4.19519 4.16162 6.57384 4.10373 5.62901 4.07711
threshold=35.500000000000007 2.5000000000000004 1.0000000180025095e-35 7.5000000000000009 26.500000000000004 5.5000000000000009 42.500000000000007 2.5000000000000004 1.5000000000000002 38.500000000000007 18.500000000000004 27.500000000000004 3.5000000000000004 2.5000000000000004 1.0000000180025095e-35 24.500000000000004 3.5000000000000004 8.5000000000000018 32.500000000000007 5.5000000000000009 21.500000000000004 11.500000000000002 1.0000000180025095e-35 1.0000000180025095e-35 4.5000000000000009 12.500000000000002 3.5000000000000004 13.500000000000002 24.500000000000004 15.500000000000002
decision_type=2 2 2 2 2 2 2 2 2 2 2 2 2 2 2 2 2 2 2 2 2 2 2 2 2 2 2 2 2 2
left_child=1 2 25 -3 5 29 7 8 -5 13 11 -7 27 16 -15 22 -2 18 19 20 21 -9 -16 -10 -6 -1 -27 28 -12 -4
right_child=9 3 4 6 24 10 -8 17 23 -11 12 -13 -14 14 15 -17 -18 -19 -20 -21 -22 -23 -24 -25 -26 26 -28 -29 -30 -31
leaf_value=-0.028549346192316579 -0.021185052775322122 0.034538477047895776 0.0057004092173759497 -0.053178817434952813 0.011523738988610201 0.023808024225071965 -0.028390798347007824 -0.0057664528259864225 0.032917660772800443 -0.00059000268925068003 0.047604660391807559 -0.0092706004286756613 0.073108838761554037 0.060774711668491369 0.001566279861662123 0.008435200592598965 0.014812658013618408 -0.0093422804914769682 -0.017388176764409565 0.027238834636696314 0.020811478456116132 -0.054508134126663214 0.036929967144473656 -0.015569993590473947 -0.025827904045581818 -0.024854343887921928 0.040041484545778348 0.061477948129177097 -0.022390507768701624 -0.015602916074030608
leaf_weight=132 47 39 703 52 43 234 207 65 20 215 20 101 34 40 45 194 201 588 97 118 117 30 244 657 100 37 27 20 27 103
leaf_count=132 47 39 703 52 43 234 207 65 20 215 20 101 34 40 45 194 201 588 97 118 117 30 244 657 100 37 27 20 27 103
internal_value=0 -0.00420151 0.00341782 -0.0102549 0.00650583 0.00893546 -0.0111503 -0.00910395 -0.0169224 0.0152166 0.0199485 0.0138351 0.0402258 0.0196245 0.0251411 0.0221901 0.00799051 -0.00348852 0.00457239 0.0110275 0.00200415 -0.0211586 0.0314235 -0.0141376 -0.0145963 -0.0184031 0.00252358 0.0235389 0.00739467 0.00297802
internal_weight=0 3571 1581 1990 1385 1242 1951 1744 729 986 436 335 101 771 523 483 248 1015 427 330 212 95 289 677 143 196 64 67 47 806
internal_count=4557 3571 1581 1990 1385 1242 1951 1744 729 986 436 335 101 771 523 483 248 1015 427 330 212 95 289 677 143 196 64 67 47 806
shrinkage=0.1


Tree=9
num_leaves=31
num_cat=0
split_feature=0 11 2 6 3 1 1 4 3 2 0 0 1 2 14 4 8 8 3 5 9 15 6 12 14 10 13 5 2 14
split_gain=23.8214 13.0202 9.16854 8.3826 7.03742 6.37232 6.19634 5.87335 5.75947 5.62901 5.25454 5.2405 6.64838 5.48292 6.89698 4.96079 4.70681 4.26931 4.25624 4.41562 4.22899 4.17634 4.14808 6.45742 4.70884 4.17731 5.38579 4.31185 3.96736 4.3459
threshold=31.500000000000004 2.5000000000000004 22.500000000000004 1.0000000180025095e-35 26.500000000000004 5.5000000000000009 5.5000000000000009 1.5000000000000002 15.500000000000002 11.500000000000002 16.500000000000004 23.500000000000004 13.500000000000002 18.500000000000004 11.500000000000002 1.0000000180025095e-35 31.500000000000004 28.500000000000004 33.500000000000007 1.5000000000000002 13.500000000000002 1.0000000180025095e-35 1.5000000000000002 1.5000000000000002 1.5000000000000002 1.5000000000000002 3.5000000000000004 3.5000000000000004 43.500000000000007 48.500000000000007
decision_type=2 2 2 2 2 2 2 2 2 2 2 2 2 2 2 2 2 2 2 2 2 2 2 2 2 2 2 2 2 2
left_child=1 3 7 -1 5 -5 16 9 10 -2 -3 13 20 14 -7 -12 -4 -15 19 -9 -13 -17 -23 -24 -25 26 -26 -27 29 -8
right_child=2 8 6 4 -6 11 28 18 -10 -11 15 12 -14 17 -16 21 -18 -19 -20 -21 -22 22 23 24 25 27 -28 -29 -30 -31
leaf_value=-0.017904358719314277 0.036742025456930463 -0.016440655522464966 -0.0017919247753398365 0.0023406919864925198 -0.016913180203400841 0.060505802166171185 0.011458482318096333 -0.0061938815646701388 -0.017457530970972759 -0.0090825333372577203 -0.025487474362055465 3.7891490786683328e-05 0.06467994667114095 0.006553073931325433 -0.00040982190300436583 0.032167207627069386 -0.039489001898389116 -0.039470210671424866 -0.014042680746033079 0.03611223452262112 0.048406960921628134 -0.015556750403983252 0.04536743828228542 0.030668341289175317 -0.018368996555606525 -0.012324876933217906 0.040521770918911154 0.019847654870578223 -0.0074202772575555397 0.041754717534443125
leaf_weight=179 38 322 258 747 129 41 444 27 706 91 75 51 47 163 34 42 38 23 21 286 28 140 35 47 24 278 44 49 97 53
leaf_count=179 38 322 258 747 129 41 444 27 706 91 75 51 47 163 34 42 38 23 21 286 28 140 35 47 24 278 44 49 97 53
internal_value=0 -0.00469836 0.0111261 0.0023483 0.00521862 0.00773626 0.00518865 0.0225392 -0.0104653 0.00441617 -0.00579051 0.018151 0.0348991 0.0100657 0.0328907 -0.00111838 -0.00663141 0.000862023 0.0295388 0.0324628 0.0171814 0.00165504 -0.000421963 0.00402011 0.000746003 -0.00281438 0.0197368 -0.00750392 0.0110788 0.0146893
internal_weight=0 3204 1353 1442 1263 1134 890 463 1762 129 1056 387 126 261 75 734 296 186 334 313 79 659 617 477 442 395 68 327 594 497
internal_count=4557 3204 1353 1442 1263 1134 890 463 1762 129 1056 387 126 261 75 734 296 186 334 313 79 659 617 477 442 395 68 327 594 497
shrinkage=0.1


Tree=10
num_leaves=31
num_cat=0
split_feature=0 2 5 0 2 3 9 9 12 15 13 9 5 13 9 4 6 0 9 14 3 12 9 1 15 9 9 2 12 14
split_gain=20.0842 12.4757 9.94398 7.14664 5.62012 5.57269 6.92795 4.98654 4.66078 9.05397 5.86893 4.58553 4.49695 4.83996 4.2144 4.90477 4.92881 4.14328 4.63272 5.46369 5.62065 7.6806 7.45152 5.32232 4.59841 3.84916 5.91083 5.68093 5.59441 4.00845
threshold=36.500000000000007 32.500000000000007 1.5000000000000002 21.500000000000004 17.500000000000004 11.500000000000002 16.500000000000004 3.5000000000000004 4.5000000000000009 28.500000000000004 13.500000000000002 12.500000000000002 3.5000000000000004 18.500000000000004 71.500000000000014 1.0000000180025095e-35 2.5000000000000004 12.500000000000002 6.5000000000000009 8.5000000000000018 14.500000000000002 3.5000000000000004 21.500000000000004 14.500000000000002 19.500000000000004 24.500000000000004 15.500000000000002 20.500000000000004 2.5000000000000004 9.5000000000000018
decision_type=2 2 2 2 2 2 2 2 2 2 2 2 2 2 2 2 2 2 2 2 2 2 2 2 2 2 2 2 2 2
left_child=1 2 -1 5 -2 7 11 -4 25 -10 -11 -7 13 -8 15 16 -6 -3 -19 20 21 -20 -22 -21 -25 26 -5 -27 -29 -28
right_child=4 17 3 8 14 6 12 -9 9 10 -12 -13 -14 -15 -16 -17 -18 18 19 23 22 -23 -24 24 -26 27 29 28 -30 -31
leaf_value=-0.023799443244934083 0.028393837702579989 -0.02674530317837542 -0.014216982824912926 0.0086690005051757099 -0.050743421273572113 -0.01366915553266352 0.0066149975094839794 0.005869296109973947 -0.03438292351407065 -0.009277997838287819 0.047866432741284375 -0.042501694223155147 0.028176771077242764 -0.03188320645626555 0.039557714864265091 0.0097847711398539108 0.010345152378082277 -0.020322504949398794 0.0409491126537323 -0.020289823499818643 -0.025542909651994707 -0.02404571572939555 0.022803606795814804 -0.015605703507150924 0.034633101287641022 0.016930230690591169 0.01104396635835821 -0.057102931507172133 0.0012327637204102109 0.043126424880404225
leaf_weight=161 195 176 151 681 28 275 107 681 71 41 32 69 55 47 43 611 25 279 75 240 80 24 53 35 38 57 66 31 35 95
leaf_count=161 195 176 151 681 28 275 107 681 71 41 32 69 55 47 43 611 25 279 75 240 80 24 53 35 38 57 66 31 35 95
internal_value=0 -0.00329797 0.000287578 0.00184251 0.0133637 -0.00294758 -0.0107281 0.00222383 0.00782473 -0.00895736 0.0157716 -0.0194524 0.00363166 -0.00513445 0.00921823 0.00725348 -0.0219281 -0.0128176 -0.00984276 -0.0044779 0.00715192 0.0251928 -0.006277 -0.0130981 0.010546 0.010329 0.0127429 -0.00619529 -0.0261673 0.0299746
internal_weight=0 3655 2655 2494 902 1385 553 832 1109 144 73 344 209 154 707 664 53 1000 824 545 232 99 133 313 73 965 842 123 66 161
internal_count=4557 3655 2655 2494 902 1385 553 832 1109 144 73 344 209 154 707 664 53 1000 824 545 232 99 133 313 73 965 842 123 66 161
shrinkage=0.1


Tree=11
num_leaves=31
num_cat=0
split_feature=0 11 6 3 5 2 9 4 0 3 7 7 2 13 1 15 5 8 3 10 7 9 7 3 12 4 4 13 5 6
split_gain=16.2682 10.5826 6.21733 5.80099 5.73764 7.13038 5.47675 6.08485 5.83781 6.05758 4.91584 4.87982 4.87541 4.5337 4.94445 6.54664 5.00439 4.27723 4.15763 4.06556 4.01201 3.97709 5.96581 5.42718 3.88595 5.29283 4.70956 3.75227 5.62781 3.72609
threshold=36.500000000000007 2.5000000000000004 1.0000000180025095e-35 26.500000000000004 2.5000000000000004 22.500000000000004 18.500000000000004 3.5000000000000004 7.5000000000000009 1.0000000180025095e-35 8.5000000000000018 1.0000000180025095e-35 39.500000000000007 19.500000000000004 6.5000000000000009 3.5000000000000004 3.5000000000000004 3.5000000000000004 17.500000000000004 1.5000000000000002 4.5000000000000009 25.500000000000004 36.500000000000007 26.500000000000004 1.5000000000000002 3.5000000000000004 1.0000000180025095e-35 12.500000000000002 3.5000000000000004 2.5000000000000004
decision_type=2 2 2 2 2 2 2 2 2 2 2 2 2 2 2 2 2 2 2 2 2 2 2 2 2 2 2 2 2 2
left_child=1 2 27 6 11 10 8 13 -4 20 -6 -3 17 14 15 -8 -16 -2 19 -7 -10 22 -14 -23 25 -19 29 -1 -29 -26
right_child=12 4 3 -5 5 18 7 -9 9 -11 -12 -13 21 -15 16 -17 -18 24 -20 -21 -22 23 -24 -25 26 -27 -28 28 -30 -31
leaf_value=-0.023235357891429553 -0.010663052713661865 -0.048272560164332394 -0.026168976900941235 -0.01325125254240612 -0.0045205350255682359 0.015857264125833707 0.051761461973190308 0.052908100684483851 0.068831967413425441 0.003376887331031404 0.018578860932486316 -0.012462540500609161 -0.028760029243517529 -0.013904236986282023 0.023150519503129498 -0.0077424592115509679 0.085237036049366 0.05124495829854693 -0.016419103487923341 -0.0069743346403406559 0.01931644919845793 0.042504730323950454 0.029110486222350081 -0.012032924149487471 -0.045298518917777322 0.0021518856287002564 0.01753502378254667 -0.019480582346787324 0.039941324293613439 0.0088836763302485144
leaf_weight=132 57 40 59 149 168 98 25 48 20 848 204 782 79 47 37 71 20 70 370 382 90 36 23 37 22 32 516 37 28 30
leaf_count=132 57 40 59 149 168 98 25 48 20 848 204 782 79 47 37 71 20 70 370 382 90 36 23 37 22 32 516 37 28 30
internal_value=0 -0.00296818 0.00309283 0.00541162 -0.00774522 -0.00339985 0.00760986 0.0209344 0.00436062 0.00624084 0.00814688 -0.0142051 0.0120274 0.0132607 0.0216054 0.00775335 0.0449353 0.0156344 -0.00845324 -0.00231288 0.0283193 -0.00295742 -0.0157108 0.0148624 0.0178717 0.0358432 0.0146444 -0.0135507 0.00611655 -0.0140396
internal_weight=0 3655 1611 1414 2044 1222 1265 248 1017 958 372 822 902 200 153 96 57 727 850 480 110 175 102 73 670 102 568 197 65 52
internal_count=4557 3655 1611 1414 2044 1222 1265 248 1017 958 372 822 902 200 153 96 57 727 850 480 110 175 102 73 670 102 568 197 65 52
shrinkage=0.1


Tree=12
num_leaves=31
num_cat=0
split_feature=0 2 1 15 12 7 2 14 7 8 7 15 13 12 3 10 15 14 5 3 7 0 4 14 3 8 10 15 3 8
split_gain=13.9246 10.0545 9.56381 8.91911 5.83963 6.27464 5.60272 5.41369 4.92433 5.54252 4.82947 4.63162 5.11233 4.51452 4.43085 4.40569 6.67113 5.31535 4.18945 5.52334 4.63861 4.14733 4.12328 4.76798 4.58224 5.53994 3.77554 3.73604 3.70457 3.65922
threshold=25.500000000000004 20.500000000000004 3.5000000000000004 3.5000000000000004 2.5000000000000004 26.500000000000004 30.500000000000004 11.500000000000002 12.500000000000002 6.5000000000000009 23.500000000000004 7.5000000000000009 3.5000000000000004 4.5000000000000009 19.500000000000004 1.5000000000000002 10.500000000000002 18.500000000000004 2.5000000000000004 1.0000000180025095e-35 24.500000000000004 6.5000000000000009 1.5000000000000002 9.5000000000000018 15.500000000000002 14.500000000000002 1.0000000180025095e-35 19.500000000000004 4.5000000000000009 8.5000000000000018
decision_type=2 2 2 2 2 2 2 2 2 2 2 2 2 2 2 2 2 2 2 2 2 2 2 2 2 2 2 2 2 2
left_child=1 4 3 -2 8 7 18 -6 -1 -10 -11 28 -13 -14 21 16 -5 22 20 -20 -4 -3 23 29 -24 -26 -23 -19 -8 -17
right_child=2 14 6 15 5 -7 11 -9 9 10 -12 12 13 -15 -16 17 -18 27 19 -21 -22 26 24 -25 25 -27 -28 -29 -30 -31
leaf_value=0.006320362757234012 0.016837731909148303 -0.026808054440400821 0.013377380052750763 0.051536760286048616 0.0027147188703849833 0.032153044822739389 0.02762502133846283 -0.021552127399924084 -0.010367689961972446 0.064416492873049805 0.007647132602604953 0.040861532024361873 0.0091661756207425914 -0.022522252511519653 -0.017022465242529816 -0.034557372083266577 -0.010368380741197237 -0.042462194595072007 0.052968767694398469 0.018298247960749373 -0.017590495367203991 0.032019916389669688 -0.010618776455521584 -0.050603751717387027 0.045995124535901211 -0.011429446190595627 -0.0051999015134567162 -0.010406290019144778 -0.018807078433818507 0.01644178181886673
leaf_weight=374 158 88 220 27 189 41 20 179 23 47 22 44 332 52 530 24 49 90 51 464 62 28 96 37 42 28 1023 61 122 34
leaf_count=374 158 88 220 27 189 41 20 179 23 47 22 44 332 52 530 24 49 90 51 464 62 28 96 37 42 28 1023 61 122 34
internal_value=0 -0.00491716 0.00621424 -0.00381255 0.00376537 -0.0049547 0.0109526 -0.00908899 0.0114188 0.0321452 0.0463161 0.00338238 0.00857458 0.00487503 -0.00946912 -0.0104985 0.0116242 -0.0145794 0.0163666 0.0217316 0.00656884 -0.00595439 -0.00593995 -0.0225547 0.00356848 0.0230253 -0.00420832 -0.0295125 -0.0122673 -0.00466132
internal_weight=0 2544 2013 646 875 409 1367 368 466 92 69 570 428 384 1669 488 76 412 797 515 282 1139 261 95 166 70 1051 151 142 58
internal_count=4557 2544 2013 646 875 409 1367 368 466 92 69 570 428 384 1669 488 76 412 797 515 282 1139 261 95 166 70 1051 151 142 58
shrinkage=0.1


Tree=13
num_leaves=31
num_cat=0
split_feature=0 2 5 1 11 6 14 10 7 8 0 1 14 5 14 3 15 9 2 0 12 8 8 9 15 13 2 3 14 9
split_gain=11.8236 9.65413 7.52997 9.66068 7.56749 6.26733 8.73627 5.11973 4.90962 5.27051 5.23473 5.59662 5.56082 4.46173 6.00111 4.35335 5.42253 5.25998 3.87758 5.37725 4.43182 4.77857 7.74636 7.67521 4.27741 4.10299 3.84818 3.81155 3.59342 5.0647
threshold=39.500000000000007 37.500000000000007 1.5000000000000002 14.500000000000002 1.5000000000000002 1.5000000000000002 7.5000000000000009 2.5000000000000004 12.500000000000002 34.500000000000007 18.500000000000004 5.5000000000000009 2.5000000000000004 3.5000000000000004 37.500000000000007 14.500000000000002 8.5000000000000018 15.500000000000002 31.500000000000004 14.500000000000002 2.5000000000000004 18.500000000000004 10.500000000000002 8.5000000000000018 38.500000000000007 11.500000000000002 18.500000000000004 2.5000000000000004 4.5000000000000009 12.500000000000002
decision_type=2 2 2 2 2 2 2 2 2 2 2 2 2 2 2 2 2 2 2 2 2 2 2 2 2 2 2 2 2 2
left_child=1 2 -1 5 -5 6 -4 8 10 -10 11 12 -7 14 -6 -15 -17 -18 19 -9 21 22 25 -24 -22 26 -21 -12 29 -3
right_child=-2 28 3 4 13 7 -8 18 9 -11 27 -13 -14 15 -16 16 17 -19 -20 20 24 -23 23 -25 -26 -27 -28 -29 -30 -31
leaf_value=-0.018101535231437326 0.012399364591188344 -0.018076226887879548 0.0075735731791424501 0.059064643930744481 -0.0020459462205568951 0.030084526255017237 -0.018922454158359386 -0.016602403618568597 0.021526752859920603 -0.027426771447062494 0.022920086312294006 0.014804255746412968 -0.024477849574484067 0.050575077099104727 0.048884276931102463 -0.024806830745476946 -0.0045674114000229613 0.063320302724838268 -0.018939281095718519 0.065529516670438978 -0.0086424133541997163 0.039813128057515849 0.025567940596876473 -0.037261251170756453 0.029972486570477488 -0.004203446463840764 0.0201852698795131 0.0034757444652909284 -0.017610074684827653 0.017286776797271069
leaf_weight=212 658 81 186 37 210 21 376 172 263 24 125 69 169 48 26 26 21 25 145 27 277 53 29 59 32 41 61 521 482 81
leaf_count=212 658 81 186 37 210 21 376 172 263 24 125 69 169 48 26 26 21 25 145 27 277 53 29 59 32 41 61 521 482 81
internal_value=0 -0.00209253 0.000120805 0.00139032 0.0160215 -0.000779512 -0.0101533 0.00174351 0.00603664 0.0174331 0.00242253 -0.00958876 -0.0184473 0.0115479 0.00356501 0.0272477 0.011696 0.0323281 -0.00396789 -0.00107727 0.00353468 0.0128941 0.00631942 -0.0165562 -0.00464346 0.0219245 0.0340977 0.00723819 -0.0132795 -0.000394725
internal_weight=0 3899 3255 3043 393 2650 562 2088 1192 287 905 259 190 356 236 120 72 46 896 751 579 270 217 88 309 129 88 646 644 162
internal_count=4557 3899 3255 3043 393 2650 562 2088 1192 287 905 259 190 356 236 120 72 46 896 751 579 270 217 88 309 129 88 646 644 162
shrinkage=0.1


Tree=14
num_leaves=31
num_cat=0
split_feature=0 2 14 1 2 5 15 0 1 15 9 4 9 10 13 14 9 7 9 8 3 12 2 3 14 3 5 0 15 4
split_gain=10.045 6.93802 6.56154 5.83316 5.67394 5.63676 5.4697 5.27778 4.83289 4.30999 5.13941 4.19245 4.10138 4.07621 4.00909 3.86458 4.32881 4.14162 3.69211 4.86346 3.96242 4.0481 5.02957 3.75588 3.56744 3.42369 3.40064 3.368 4.53848 4.10534
threshold=24.500000000000004 30.500000000000004 2.5000000000000004 3.5000000000000004 20.500000000000004 1.5000000000000002 5.5000000000000009 42.500000000000007 11.500000000000002 2.5000000000000004 10.500000000000002 1.5000000000000002 11.500000000000002 1.5000000000000002 4.5000000000000009 5.5000000000000009 18.500000000000004 10.500000000000002 3.5000000000000004 9.5000000000000018 11.500000000000002 2.5000000000000004 15.500000000000002 5.5000000000000009 2.5000000000000004 28.500000000000004 3.5000000000000004 37.500000000000007 18.500000000000004 1.5000000000000002
decision_type=2 2 2 2 2 2 2 2 2 2 2 2 2 2 2 2 2 2 2 2 2 2 2 2 2 2 2 2 2 2
left_child=4 2 -2 5 6 -4 8 15 11 10 -7 -1 -9 14 -11 16 26 -18 19 -8 21 -20 -23 -24 -6 27 -3 29 -29 -5
right_child=1 7 3 25 24 9 18 12 -10 13 -12 -13 -14 -15 -16 -17 17 -19 20 -21 -22 22 23 -25 -26 -27 -28 28 -30 -31
leaf_value=-0.012942542425460286 0.03405285902542643 -0.0171551918768021 -0.049150079612930615 -0.0096385433348596741 0.0035093090810109431 -0.0060167927008408775 -0.065556010062044312 -0.0094673823693702964 0.056847638433629825 0.052171140650044315 0.043329557128574538 0.014226161491915197 0.022399654872435379 -0.0096370886462603441 -0.007539833675731313 -0.010922256956085626 0.051583440195430409 0.0018525725778411415 0.017973731195225436 -0.0061833711089314645 -0.013716895639160535 0.01410739642602426 -0.055539210416652544 -0.0041288532813390094 -0.010002381012246417 -0.0067447557681944315 0.016284016830225786 0.035055967474615334 0.010735397976942552 0.014418415281684901
leaf_weight=72 101 83 24 93 229 39 22 58 22 23 46 269 133 258 22 482 33 34 136 37 162 54 27 30 1332 82 48 151 156 299
leaf_count=72 101 83 24 93 229 39 22 58 22 23 46 269 133 258 22 482 33 34 136 37 162 54 27 30 1332 82 48 151 156 299
internal_value=0 0.004935 0.00957941 0.00750748 -0.00446667 -0.00211992 0.00220851 -0.00196497 0.0114204 0.000789164 0.0206883 0.00848966 0.0127228 -0.0047931 0.0229791 -0.00609049 0.00567168 0.0263469 -0.00493665 -0.0283223 -0.00156317 0.00640811 -0.00776239 -0.0284811 -0.0080202 0.0125862 -0.00490266 0.0148539 0.0226976 0.00871102
internal_weight=0 2165 1294 1193 2392 412 831 871 363 388 85 341 191 303 45 680 198 67 468 59 409 247 111 57 1561 781 131 699 307 392
internal_count=4557 2165 1294 1193 2392 412 831 871 363 388 85 341 191 303 45 680 198 67 468 59 409 247 111 57 1561 781 131 699 307 392
shrinkage=0.1


Tree=15
num_leaves=31
num_cat=0
split_feature=0 1 15 9 3 9 13 15 11 2 8 1 15 9 3 14 4 0 7 3 3 15 15 9 9 3 15 13 9 12
split_gain=8.13644 5.66563 7.90828 5.09986 5.05176 5.73242 5.31612 5.59624 4.55775 4.224 4.20976 4.12363 4.51574 4.07348 3.98836 3.78109 4.97343 5.23369 4.84917 4.91638 4.45808 4.0919 4.08202 3.57458 3.47793 3.40486 3.41671 4.64821 3.92349 3.17179
threshold=24.500000000000004 3.5000000000000004 2.5000000000000004 10.500000000000002 17.500000000000004 3.5000000000000004 7.5000000000000009 23.500000000000004 1.5000000000000002 30.500000000000004 4.5000000000000009 9.5000000000000018 8.5000000000000018 19.500000000000004 8.5000000000000018 6.5000000000000009 1.5000000000000002 37.500000000000007 26.500000000000004 1.5000000000000002 6.5000000000000009 19.500000000000004 32.500000000000007 28.500000000000004 4.5000000000000009 4.5000000000000009 7.5000000000000009 3.5000000000000004 44.500000000000007 2.5000000000000004
decision_type=2 2 2 2 2 2 2 2 2 2 2 2 2 2 2 2 2 2 2 2 2 2 2 2 2 2 2 2 2 2
left_child=4 2 3 -2 5 -1 7 11 -8 -3 -11 13 -13 -7 -5 29 17 20 19 -18 -17 -22 -23 -15 -10 -12 -27 -28 -29 -4
right_child=1 9 15 14 -6 6 8 -9 24 10 25 12 -14 23 -16 16 18 -19 -20 -21 21 22 -24 -25 -26 26 27 28 -30 -31
leaf_value=-0.012950900772650296 -0.0010170946815120641 0.012609551864594715 0.027318821350733442 0.0080754156623567865 -0.010906622573996173 0.0047646334497478066 0.027987278307356485 -0.033176311754411263 0.017851389944553375 -0.024231831128137156 0.027015180254386647 0.058584729518209193 0.0093999219685792917 0.060320965716472046 0.056572204412415977 0.025803961808031257 -0.039382276364735201 -0.055387044784634611 -0.02329693343265947 0.012176617499320738 -0.036613718618320516 0.03476210281252861 -0.027010042641473855 0.0048500997679574156 -0.008685991312393268 -0.013641945978181552 0.039856605272035342 -0.002171404113014825 0.028256070852279665 -0.0043330825785154936
leaf_weight=321 67 846 48 28 737 508 41 31 54 57 59 35 40 26 43 22 21 43 83 155 79 20 23 21 578 113 37 278 50 93
leaf_count=321 67 846 48 28 737 508 41 31 54 57 59 35 40 26 43 22 21 43 83 155 79 20 23 21 578 113 37 278 50 93
internal_value=0 0.0044415 -0.00276804 0.0187723 -0.00402 -0.000953269 0.00193372 0.00830352 -0.00432251 0.0080713 0.00160773 0.0103446 0.0323528 0.00737051 0.0374467 -0.00783203 -0.0123447 -0.0247723 -0.00337181 0.0060247 -0.0156305 -0.0231022 0.00172119 0.0355361 -0.00641856 0.00435047 0.00155294 0.00625712 0.00246693 0.00644203
internal_weight=0 2165 725 138 2392 1655 1334 661 673 1440 594 630 75 555 71 587 446 187 259 176 144 122 43 47 632 537 478 365 328 141
internal_count=4557 2165 725 138 2392 1655 1334 661 673 1440 594 630 75 555 71 587 446 187 259 176 144 122 43 47 632 537 478 365 328 141
shrinkage=0.1


Tree=16
num_leaves=31
num_cat=0
split_feature=0 11 2 5 5 14 13 14 13 1 2 10 10 8 12 14 0 7 14 7 3 0 9 9 2 15 8 6 15 0
split_gain=7.34503 8.13834 5.90092 6.66562 5.70267 4.83047 4.88184 4.74702 4.63675 4.63574 5.62185 4.66572 4.69515 4.47433 4.32528 4.20621 4.15856 4.76906 4.12825 4.48538 6.66824 4.86706 6.49544 5.56521 4.86568 4.43181 4.32926 3.89311 5.41505 4.20216
threshold=43.500000000000007 2.5000000000000004 41.500000000000007 2.5000000000000004 1.5000000000000002 15.500000000000002 11.500000000000002 87.500000000000014 8.5000000000000018 13.500000000000002 25.500000000000004 3.5000000000000004 4.5000000000000009 28.500000000000004 4.5000000000000009 18.500000000000004 23.500000000000004 11.500000000000002 2.5000000000000004 12.500000000000002 5.5000000000000009 19.500000000000004 7.5000000000000009 10.500000000000002 20.500000000000004 5.5000000000000009 12.500000000000002 2.5000000000000004 4.5000000000000009 19.500000000000004
decision_type=2 2 2 2 2 2 2 2 2 2 2 2 2 2 2 2 2 2 2 2 2 2 2 2 2 2 2 2 2 2
left_child=1 4 3 14 5 6 -1 8 -5 11 -11 18 -13 -14 -3 -4 -12 -18 27 21 -21 -20 24 -24 25 -23 -26 28 -6 -30
right_child=-2 2 15 7 9 -7 -8 -9 -10 10 16 12 13 -15 -16 -17 17 -19 19 20 -22 22 23 -25 26 -27 -28 -29 29 -31
leaf_value=-0.028606709420680998 0.013728759448176307 -0.0078939100967932354 -0.028487235728432155 0.0081463486729790608 0.049541500583291057 -0.056152981519699101 0.016282685703419626 0.049755468219518664 -0.0043191495661105269 0.034594370105436874 -0.019274800767501196 -0.016863565498860041 0.020296308146901879 -0.027242862719755907 -0.034001435101896092 -0.0031785848263268159 0.04844478871673346 0.0021454713932455402 -0.010911936366333152 0.044894768626002945 0.0058760573408182934 0.019389974783702069 0.039529247849415514 0.0068495748339185286 -0.053572629742762626 -0.015184811513815353 -0.0038143831822607249 0.041298984984556836 0.03046594546599822 -0.022488246763006172
leaf_weight=50 359 790 170 496 24 25 47 20 749 112 48 199 83 26 69 107 32 73 265 59 170 83 78 157 34 67 36 60 22 47
leaf_count=50 359 790 170 496 24 25 47 20 749 112 48 199 83 26 69 107 32 73 265 59 170 83 78 157 34 67 36 60 22 47
internal_value=0 -0.00117404 -0.00498316 -0.00319286 0.00391538 -0.016958 -0.00685618 0.00142344 0.000647025 0.00543571 0.0175707 0.00315503 -0.00772588 0.00895669 -0.00999102 -0.018711 0.0051089 0.0162557 0.00619615 0.00373859 0.0159289 -0.000138611 0.00613596 0.0176964 -0.00621273 0.00394657 -0.0279827 0.0214395 0.00862687 -0.0056043
internal_weight=0 4198 2401 2124 1797 122 97 1265 1245 1675 265 1410 308 109 859 277 153 105 1102 949 229 720 455 235 220 150 70 153 93 69
internal_count=4557 4198 2401 2124 1797 122 97 1265 1245 1675 265 1410 308 109 859 277 153 105 1102 949 229 720 455 235 220 150 70 153 93 69
shrinkage=0.1


Tree=17
num_leaves=31
num_cat=0
split_feature=0 2 5 1 11 13 12 5 6 14 0 2 3 15 2 8 13 14 8 9 14 9 8 8 3 15 6 13 12 15
split_gain=6.04338 6.21213 5.90201 4.67888 6.32198 5.47403 5.83317 3.76977 3.33309 5.26636 3.65415 4.06707 3.70848 3.70082 3.8104 3.64275 4.35284 3.36897 3.18103 4.65662 5.1859 4.47774 5.67986 6.1441 4.19593 4.49304 4.76475 4.54631 3.94915 6.61381
threshold=41.500000000000007 32.500000000000007 1.5000000000000002 14.500000000000002 1.5000000000000002 8.5000000000000018 3.5000000000000004 3.5000000000000004 1.5000000000000002 7.5000000000000009 16.500000000000004 11.500000000000002 16.500000000000004 30.500000000000004 23.500000000000004 26.500000000000004 3.5000000000000004 3.5000000000000004 10.500000000000002 8.5000000000000018 8.5000000000000018 33.500000000000007 18.500000000000004 15.500000000000002 21.500000000000004 10.500000000000002 3.5000000000000004 17.500000000000004 2.5000000000000004 12.500000000000002
decision_type=2 2 2 2 2 2 2 2 2 2 2 2 2 2 2 2 2 2 2 2 2 2 2 2 2 2 2 2 2 2
left_child=1 2 -1 8 -5 -6 -7 -8 9 15 12 17 -10 18 -15 16 -4 -12 24 -20 -21 22 23 -22 25 26 27 -13 -24 -30
right_child=-2 -3 3 4 5 6 7 -9 10 -11 11 13 -14 14 -16 -17 -18 -19 19 20 21 -23 28 -25 -26 -27 -28 -29 29 -31
leaf_value=-0.016193555927147035 0.010292570348792293 -0.0075958017130921991 -0.021185342648199629 0.052054693811648602 0.026846540029402136 -0.01018639950115988 0.0069004565477371223 0.060788180998393476 0.00050229603158576152 -0.01447938972885169 0.05955562165805272 0.008410164602188094 -0.019173154524013178 0.0025448367744684221 0.046193451620638371 -0.029853395711291919 0.023017905556827513 0.015026885254329513 0.0092153291265989097 -0.025633592948095127 0.0064336495267020332 -0.038631806096860344 0.060351434598366421 -0.038477393849329522 0.0400143595929775 -0.010703147416348225 0.038048972991796645 -0.037231131221937101 -0.028847187215631662 0.048693476075475868
leaf_weight=184 507 1127 28 37 108 163 34 21 336 309 21 427 134 40 40 22 109 89 194 134 99 28 24 44 36 143 52 23 22 22
leaf_count=184 507 1127 28 37 108 163 34 21 336 309 21 427 134 40 40 22 109 89 194 134 99 28 24 44 36 143 52 23 22 22
internal_value=0 -0.00128848 0.00114339 0.00230805 0.0128822 0.00843623 -0.000684476 0.0274758 0.000692557 -0.00686997 0.00254752 0.00504944 -0.0051073 0.00351885 0.0243691 0.00791816 0.0139837 0.0235278 0.00218229 -0.00335069 -0.00988636 -0.00105737 0.00392881 -0.00738513 0.00678904 0.00493461 0.00938918 0.00607739 0.0277214 0.00992314
internal_weight=0 4050 2923 2739 363 326 218 55 2376 468 1908 1438 470 1328 80 159 137 110 1248 567 373 239 211 143 681 645 502 450 68 44
internal_count=4557 4050 2923 2739 363 326 218 55 2376 468 1908 1438 470 1328 80 159 137 110 1248 567 373 239 211 143 681 645 502 450 68 44
shrinkage=0.1


Tree=18
num_leaves=31
num_cat=0
split_feature=4 6 0 2 1 8 12 14 10 0 5 11 9 14 8 7 8 5 15 7 7 6 9 9 0 1 0 11 1 15
split_gain=5.74162 5.89474 5.8874 5.13717 4.99163 4.86519 4.84489 4.79194 4.77798 4.47413 4.34183 4.14536 4.0744 5.77962 4.90997 7.64674 4.78284 4.3384 4.17534 4.01295 4.00017 3.67731 6.3838 6.93606 5.66016 4.66322 3.80533 3.62284 5.75253 3.88643
threshold=1.0000000180025095e-35 2.5000000000000004 2.5000000000000004 20.500000000000004 19.500000000000004 11.500000000000002 2.5000000000000004 11.500000000000002 1.0000000180025095e-35 25.500000000000004 1.5000000000000002 2.5000000000000004 14.500000000000002 8.5000000000000018 17.500000000000004 12.500000000000002 20.500000000000004 3.5000000000000004 27.500000000000004 2.5000000000000004 18.500000000000004 2.5000000000000004 8.5000000000000018 13.500000000000002 21.500000000000004 7.5000000000000009 33.500000000000007 2.5000000000000004 4.5000000000000009 8.5000000000000018
decision_type=2 2 2 2 2 2 2 2 2 2 2 2 2 2 2 2 2 2 2 2 2 2 2 2 2 2 2 2 2 2
left_child=1 19 -2 4 6 -6 10 27 -5 -10 -4 12 14 16 18 -16 17 -14 -11 -1 -9 24 -23 -24 -12 -25 -27 28 -8 -29
right_child=2 -3 3 8 5 -7 7 20 9 11 21 -13 13 -15 15 -17 -18 -19 -20 -21 -22 22 23 25 -26 26 -28 29 -30 -31
leaf_value=-0.012741725845525496 -0.036997993290424351 0.0020318646758499715 -0.027569963144404547 0.025465603150538547 0.0021723816471715131 0.038576832413673406 -0.00088227872931680011 -0.017372689320652498 -0.0054030136256887204 -0.014440349957772665 -0.00088978929050040974 -0.0014378293809168233 0.035688457003346198 0.0014645449203603408 0.063161299968587936 -0.0016257897931702282 0.007511912859403171 0.089254409926278255 0.032422422549941321 -0.040472779966689444 0.0073461364144864292 0.053363201739611454 -0.022089163064956667 0.053178714886307724 0.02537890136742792 0.036189990668069751 -0.023322654989632693 0.016388043090701104 0.03649507932647874 -0.024423857405781749
leaf_weight=177 40 202 28 67 62 90 86 227 1425 140 264 813 54 85 29 49 39 21 22 74 92 54 40 40 119 21 22 40 79 56
leaf_count=177 40 202 28 67 62 90 86 227 1425 140 264 813 54 85 29 49 39 21 22 74 92 54 40 40 119 21 22 40 79 56
internal_value=0 -0.010684 0.0011793 0.00155506 0.0066812 0.0237276 0.00446282 -0.00202196 -0.000910869 -0.00157102 0.0108594 0.00279047 0.010621 0.0212009 0.00184858 0.0224617 0.0359165 0.0506869 -0.00807627 -0.0209174 -0.0102437 0.0127808 0.0247011 0.0121177 0.00727202 0.0286029 0.00574166 0.0080269 0.0170135 -0.0074189
internal_weight=0 453 4104 4064 1320 152 1168 580 2744 2677 588 1252 439 199 240 78 114 75 162 251 319 560 177 123 383 83 43 261 165 96
internal_count=4557 453 4104 4064 1320 152 1168 580 2744 2677 588 1252 439 199 240 78 114 75 162 251 319 560 177 123 383 83 43 261 165 96
shrinkage=0.1


Tree=19
num_leaves=31
num_cat=0
split_feature=4 6 0 5 8 9 7 1 2 12 10 2 12 0 2 0 9 13 2 2 13 8 15 14 14 2 12 2 14 14
split_gain=4.65071 4.77474 4.7688 4.2892 6.21746 4.95064 8.71288 4.92354 5.40253 6.11686 4.28547 5.2727 4.97771 4.24082 3.97571 3.79567 4.19242 4.74202 5.18678 3.59188 5.87145 3.88269 4.26843 3.58388 3.50908 3.50774 8.37459 3.46536 4.39075 4.03617
threshold=1.0000000180025095e-35 2.5000000000000004 2.5000000000000004 2.5000000000000004 16.500000000000004 55.500000000000007 18.500000000000004 14.500000000000002 24.500000000000004 2.5000000000000004 1.5000000000000002 45.500000000000007 2.5000000000000004 44.500000000000007 22.500000000000004 39.500000000000007 42.500000000000007 38.500000000000007 30.500000000000004 11.500000000000002 26.500000000000004 20.500000000000004 12.500000000000002 3.5000000000000004 38.500000000000007 12.500000000000002 3.5000000000000004 20.500000000000004 27.500000000000004 22.500000000000004
decision_type=2 2 2 2 2 2 2 2 2 2 2 2 2 2 2 2 2 2 2 2 2 2 2 2 2 2 2 2 2 2
left_child=1 24 -2 5 10 27 -7 25 -9 13 12 15 -5 -10 -14 16 17 18 23 -3 21 22 -21 -12 -1 26 -6 28 29 -4
right_child=2 19 3 4 7 6 -8 8 9 -11 11 -13 14 -15 -16 -17 -18 -19 -20 20 -22 -23 -24 -25 -26 -27 -28 -29 -30 -31
leaf_value=-0.023585234258185934 -0.033298194259405133 0.040977166805948533 0.0037194823945334203 0.006324356643459466 0.045294337850064037 -0.011493887121860799 0.072061337158083924 0.025297897911071777 -0.028393780907919244 0.013386412414928411 0.029904482070403766 -0.030707790454228719 0.010524278481690479 0.016413537306444986 0.056674518915159372 0.022900785386562348 -0.029873274266719818 0.043033703480448049 -0.0089337597238390073 0.038443518877029424 -0.038244934017593796 -0.015757640904071286 -0.0045256105619807582 0.0069749080798995333 0.010547615800585067 -0.0076930443396662721 -0.026784433038146413 -0.0068576666978750938 -0.022494067842998205 0.049459414780139925
leaf_weight=216 40 21 545 79 40 26 24 125 86 149 79 36 28 28 56 150 32 35 190 50 37 51 43 497 35 707 27 1042 63 20
leaf_count=216 40 21 545 79 40 26 24 125 86 149 79 36 28 28 56 150 32 35 190 50 37 51 43 497 35 707 27 1042 63 20
internal_value=0 -0.00961557 0.00106137 0.00139955 0.00418245 -0.00239295 0.0286126 -0.00101193 0.00818177 4.67275e-05 0.00928893 0.00688071 0.024344 -0.0173885 0.0412911 0.0082573 0.00562041 0.00703839 0.00539369 0.00182868 -0.00271341 0.00641622 0.0185761 0.0101198 -0.0188257 -0.00562066 0.0162477 -0.00332126 0.00254646 0.0053386
internal_weight=0 453 4104 4064 2344 1720 50 1162 388 263 1182 1019 163 114 84 983 833 801 766 202 181 144 93 576 251 774 67 1670 628 565
internal_count=4557 453 4104 4064 2344 1720 50 1162 388 263 1182 1019 163 114 84 983 833 801 766 202 181 144 93 576 251 774 67 1670 628 565
shrinkage=0.1


Tree=20
num_leaves=31
num_cat=0
split_feature=11 0 15 2 2 5 14 1 2 0 14 5 10 4 3 10 8 8 14 0 7 3 10 9 1 14 0 4 0 2
split_gain=4.42297 5.04714 5.92849 4.17148 4.13183 3.98792 4.32084 4.28444 4.1292 5.76351 5.58459 4.18945 3.87432 3.41172 3.659 3.3866 3.47469 3.36312 3.35479 3.89103 3.69198 5.06914 4.13039 3.79192 3.62794 5.01126 3.54625 3.43678 3.29969 6.07366
threshold=2.5000000000000004 45.500000000000007 16.500000000000004 38.500000000000007 7.5000000000000009 1.5000000000000002 15.500000000000002 14.500000000000002 25.500000000000004 41.500000000000007 2.5000000000000004 3.5000000000000004 3.5000000000000004 3.5000000000000004 22.500000000000004 4.5000000000000009 23.500000000000004 32.500000000000007 2.5000000000000004 32.500000000000007 12.500000000000002 5.5000000000000009 1.5000000000000002 1.5000000000000002 7.5000000000000009 12.500000000000002 19.500000000000004 2.5000000000000004 19.500000000000004 22.500000000000004
decision_type=2 2 2 2 2 2 2 2 2 2 2 2 2 2 2 2 2 2 2 2 2 2 2 2 2 2 2 2 2 2
left_child=5 4 3 -3 -2 6 -1 12 -9 10 -10 -12 18 14 -4 -14 -17 -13 19 28 23 27 -23 -20 26 -26 -25 -22 -7 -30
right_child=1 2 13 -5 -6 7 -8 8 9 -11 11 17 15 -15 -16 16 -18 -19 20 -21 21 22 -24 24 25 -27 -28 -29 29 -31
leaf_value=-0.0040359986249846646 0.022628649349870356 0.044628282071966119 0.0018997339471693961 -0.0056526460430838844 -0.0043772573404769859 0.032493606553627895 -0.049843311309814453 0.030402002420465826 0.035826980626141584 0.035892347494761154 -0.032683142261990046 0.03702062283243452 -0.014746244258996916 0.023990799142764169 -0.051424759626388553 0.016490750260405487 -0.019853973751132556 -0.018330160431239917 -0.026484112003270319 0.058025719360871753 0.060986446431188869 0.036039660374323532 -0.0018571489549183346 -0.012040516820091468 0.0028289479513963064 0.044804996598598573 0.0043944081563628123 0.012372804261170902 0.040602656511160046 -0.017562664634194865
leaf_weight=99 58 66 31 22 2440 52 26 118 27 48 59 21 205 26 22 91 37 23 51 22 33 36 143 208 84 43 356 26 26 58
leaf_count=99 58 66 31 22 2440 52 26 118 27 48 59 21 205 26 22 91 37 23 51 22 33 36 143 208 84 43 356 26 26 58
internal_value=0 -0.002625 0.0142061 0.0320581 -0.00375022 0.00369748 -0.0135639 0.00491857 0.0158957 0.00627919 -0.0046549 -0.0152667 0.00270971 -0.00567965 -0.020235 -0.00677753 0.00598485 0.00808726 0.00548586 0.019008 0.00330575 0.0141433 0.00576456 -0.000170433 0.00177168 0.0170413 -0.0016667 0.0395635 0.0126963 0.000440887
internal_weight=0 2665 167 88 2498 1892 125 1767 296 178 130 103 1471 79 53 333 128 44 1138 158 980 238 179 742 691 127 564 59 136 84
internal_count=4557 2665 167 88 2498 1892 125 1767 296 178 130 103 1471 79 53 333 128 44 1138 158 980 238 179 742 691 127 564 59 136 84
shrinkage=0.1


Tree=21
num_leaves=31
num_cat=0
split_feature=2 5 14 8 0 3 8 3 13 6 6 14 13 9 9 10 8 13 8 2 13 1 12 15 2 13 6 13 0 14
split_gain=3.84027 4.91956 4.87856 4.43074 6.3347 5.79737 4.25034 4.61747 6.62668 4.02497 3.66334 6.96592 4.00816 3.60353 5.1172 3.89895 3.54995 3.52377 3.76636 3.48428 3.39934 4.08735 3.58567 3.32405 3.31076 3.20655 4.73739 3.83499 3.53198 3.11631
threshold=42.500000000000007 2.5000000000000004 1.5000000000000002 16.500000000000004 14.500000000000002 28.500000000000004 17.500000000000004 26.500000000000004 32.500000000000007 5.5000000000000009 2.5000000000000004 9.5000000000000018 12.500000000000002 20.500000000000004 6.5000000000000009 4.5000000000000009 17.500000000000004 62.500000000000007 2.5000000000000004 19.500000000000004 26.500000000000004 10.500000000000002 2.5000000000000004 14.500000000000002 14.500000000000002 7.5000000000000009 1.5000000000000002 12.500000000000002 22.500000000000004 1.5000000000000002
decision_type=2 2 2 2 2 2 2 2 2 2 2 2 2 2 2 2 2 2 2 2 2 2 2 2 2 2 2 2 2 2
left_child=1 10 -3 -4 5 -5 -6 9 19 -8 13 12 16 14 15 -1 24 18 -13 -9 22 -22 23 -20 -12 -16 27 -27 -28 -14
right_child=-2 2 3 4 6 -7 7 8 -10 -11 11 17 29 -15 25 -17 -18 -19 20 -21 21 -23 -24 -25 -26 26 28 -29 -30 -31
leaf_value=-0.016276666158952083 -0.0093970778719604173 0.021029257524398066 0.0070171644615395646 -0.023886568657036037 -0.026156780591198043 0.025751817116030942 0.0062833545738723772 -0.062889479313577926 0.011375173235811838 0.051877127289772035 0.051028087019920357 -0.038960245417224038 -0.035360478219531831 -0.030391696864558806 0.0079536660498863952 0.022342527444873538 0.059311342498530518 0.034933634847402577 0.0037316137238552699 -0.017505841762170026 -0.00088428872823715211 -0.058067132830619816 -0.010123821808465163 0.044677971055110295 0.011604512441489433 -0.015022867344892943 -0.02877022357601108 0.034310128428041937 0.0010947235605933449 0.0064762308047367975
leaf_weight=394 397 155 1143 183 51 27 607 21 82 20 25 36 21 62 296 28 23 20 114 87 25 25 199 24 144 26 99 40 66 117
leaf_count=394 397 155 1143 183 51 27 607 21 82 20 25 36 21 62 296 28 23 20 114 87 25 25 199 24 144 26 99 40 66 117
internal_value=0 0.000896788 0.00387661 0.00267956 -0.00191959 -0.0175045 0.00185094 0.00359928 -0.0100575 0.0077377 -0.00307186 0.0021105 0.0131093 -0.00703423 -0.00550824 -0.0137143 0.0224527 -0.00608272 -0.00802203 -0.0263304 -0.00514406 -0.0294757 -0.00153402 0.0108527 0.0174364 0.0010628 -0.00776706 0.0148759 -0.0168242 0.000109775
internal_weight=0 4160 2376 2221 1078 210 868 817 190 627 1784 773 330 1011 949 422 192 443 423 108 387 50 337 138 169 527 231 66 165 138
internal_count=4557 4160 2376 2221 1078 210 868 817 190 627 1784 773 330 1011 949 422 192 443 423 108 387 50 337 138 169 527 231 66 165 138
shrinkage=0.1


end of trees

feature_importances:
Column_2=82
Column_0=72
Column_9=59
Column_3=53
Column_14=49
Column_15=42
Column_1=40
Column_5=39
Column_8=37
Column_7=34
Column_13=34
Column_4=29
Column_12=28
Column_6=22
Column_10=21
Column_11=19

parameters:
[boosting: gbdt]
[objective: regression]
[metric: l2]
[tree_learner: serial]
[device_type: cpu]
[data: ]
[valid: ]
[num_iterations: 10000]
[learning_rate: 0.1]
[num_leaves: 31]
[num_threads: 0]
[deterministic: 0]
[force_col_wise: 0]
[force_row_wise: 0]
[histogram_pool_size: -1]
[max_depth: -1]
[min_data_in_leaf: 20]
[min_sum_hessian_in_leaf: 0.001]
[bagging_fraction: 1]
[pos_bagging_fraction: 1]
[neg_bagging_fraction: 1]
[bagging_freq: 0]
[bagging_seed: 3]
[feature_fraction: 1]
[feature_fraction_bynode: 1]
[feature_fraction_seed: 2]
[extra_trees: 0]
[extra_seed: 6]
[early_stopping_round: 10]
[first_metric_only: 0]
[max_delta_step: 0]
[lambda_l1: 0]
[lambda_l2: 0]
[min_gain_to_split: 0]
[drop_rate: 0.1]
[max_drop: 50]
[skip_drop: 0.5]
[xgboost_dart_mode: 0]
[uniform_drop: 0]
[drop_seed: 4]
[top_rate: 0.2]
[other_rate: 0.1]
[min_data_per_group: 100]
[max_cat_threshold: 32]
[cat_l2: 10]
[cat_smooth: 10]
[max_cat_to_onehot: 4]
[top_k: 20]
[monotone_constraints: ]
[monotone_constraints_method: basic]
[monotone_penalty: 0]
[feature_contri: ]
[forcedsplits_filename: ]
[refit_decay_rate: 0.9]
[cegb_tradeoff: 1]
[cegb_penalty_split: 0]
[cegb_penalty_feature_lazy: ]
[cegb_penalty_feature_coupled: ]
[path_smooth: 0]
[interaction_constraints: ]
[verbosity: 1]
[saved_feature_importance_type: 0]
[max_bin: 255]
[max_bin_by_feature: ]
[min_data_in_bin: 3]
[bin_construct_sample_cnt: 200000]
[data_random_seed: 1]
[is_enable_sparse: 1]
[enable_bundle: 1]
[use_missing: 1]
[zero_as_missing: 0]
[feature_pre_filter: 1]
[pre_partition: 0]
[two_round: 0]
[header: 0]
[label_column: ]
[weight_column: ]
[group_column: ]
[ignore_column: ]
[categorical_feature: ]
[forcedbins_filename: ]
[objective_seed: 5]
[num_class: 1]
[is_unbalance: 0]
[scale_pos_weight: 1]
[sigmoid: 1]
[boost_from_average: 1]
[reg_sqrt: 0]
[alpha: 0.9]
[fair_c: 1]
[poisson_max_delta_step: 0.7]
[tweedie_variance_power: 1.5]
[lambdarank_truncation_level: 30]
[lambdarank_norm: 1]
[label_gain: ]
[eval_at: ]
[multi_error_top_k: 1]
[auc_mu_weights: ]
[num_machines: 1]
[local_listen_port: 12400]
[time_out: 120]
[machine_list_filename: ]
[machines: ]
[gpu_platform_id: -1]
[gpu_device_id: -1]
[gpu_use_dp: 0]
[num_gpu: 1]

end of parameters

pandas_categorical:null
